-1.215412644860037507e-02,4.366366859246918752e-02,2.247478379685821648e-02,9.557698294797214306e-03,-3.332374382642403626e-02,-3.332608050025496343e-02,-4.281135617274983013e-02,3.547389920444000977e-02,9.795678325914271636e-03,2.015736343590670068e-02,-4.644414313336861500e-02,4.552326775817226723e-02,3.220591201006423737e-02,-2.786760828251882982e-02,-3.082371468730800770e-02,-3.067069396962428945e-02,-1.896434549837886646e-02,2.398318870621880122e-03,-6.592935058455356295e-03,-2.022501062095638513e-02,1.083592789669405622e-02,-3.492460827219360381e-02,-2.013631928797759638e-02,-1.294640996025044413e-02,-4.255790471103366134e-03,2.762687691896478434e-02,-2.909458221976372883e-02,1.378983965347179872e-03,8.952809020085206876e-03,-4.393834095701892872e-02,1.041857936495106662e-02,-3.191850195997009837e-02,-4.213632189753657026e-02,4.348650365838666043e-02,4.510884719890467798e-02,2.987648586132665707e-02,-1.892835330278287709e-02,-3.897615680199204707e-02,1.784786881403821815e-02,-5.797822794342703812e-03,-3.661564991316894335e-02,-4.672445393860132448e-04,-4.510685597892812732e-02,3.965356797050399729e-02,-2.336857470795929148e-02,1.574460597767078987e-02,-1.824079035509339544e-02,1.944121616627047210e-03,4.525132945861489245e-03
-3.053022816589232719e-02,4.549176112502158198e-02,2.665393187502726816e-02,4.257716220293808473e-02,3.824953043455527057e-02,9.484216873580319368e-03,4.086974059571489570e-02,-3.986544637742137770e-02,-2.945214596691466888e-02,-4.405683303038842452e-02,-1.692140329748636693e-02,-1.078456543465727661e-02,-2.215092788932195023e-02,3.184697146149396974e-02,-1.387725035853712430e-02,-2.122231940061295591e-02,4.136251276485441823e-03,-3.478603944296950606e-02,2.927581536603932055e-02,-4.121608618376245564e-02,4.716794993942934749e-02,2.637414702295092298e-02,-2.918739974860139891e-02,-4.790333498884872393e-02,3.056082993121463087e-02,2.003963570543116496e-02,2.218543531553090337e-02,2.627974827558915774e-02,-4.126510496198281669e-02,-1.371135869314728424e-02,-3.721329862947352768e-02,3.517622455454701147e-02,1.194470304427034703e-02,-1.638202403642060115e-02,-4.228098216995564151e-02,-1.831138959946647729e-02,-1.693564500372954709e-02,2.224346539516908888e-02,1.332609982921091445e-02,3.751185313220808254e-02,-2.691723520402788169e-03,-3.685241524353108367e-02,2.065842948838690282e-02,2.526396827156195471e-02,5.936326424296693716e-03,2.625037851408128231e-02,-6.010615157016309862e-04,2.202279169283312757e-03,-7.019579622712617331e-03
-4.597578039008204387e-02,-3.798614452779146972e-02,-4.539354632703916648e-02,1.321497655006118391e-02,-1.798456095841162103e-02,8.302994009771511681e-04,3.948365337825592014e-02,-2.428771588635640979e-02,-8.681797522617927879e-03,2.475692487032704267e-02,-2.627311104891731294e-02,-4.098074714405303132e-02,-2.036816393769437517e-02,-3.281972910367556007e-02,4.162764664892688871e-02,2.984965409030230013e-02,1.292370206674546898e-02,3.598583820050375859e-02,2.941871766202722865e-02,-3.036402634912271567e-02,3.802978021618196036e-02,3.811342547284026806e-03,2.978375626464381185e-02,3.837197756152526534e-02,-1.763120415925347600e-02,-3.777684287706933181e-02,-2.635671583858847575e-02,-7.061549445250389807e-03,3.080818857816026296e-02,3.494635163443873815e-02,-4.776480015508878518e-02,1.041162109425101782e-03,-8.000941032070281456e-03,-2.692124988152964221e-02,-3.682614992515115260e-02,-1.573128973152317089e-02,4.290758525520682598e-02,-1.712749844986094505e-02,1.820371505364605080e-03,1.966778603012664731e-02,-1.321110016445387232e-02,4.570464308505405721e-02,4.480032060369484176e-02,-2.404648669840049949e-02,-2.665553880593887390e-04,-1.929023189653429268e-02,-2.084392089271181261e-02,-4.486481694496646799e-02,1.061421991806465147e-02
2.595346558849793701e-04,-4.345121262756089509e-02,-2.144397745953429205e-02,3.955141003721773102e-02,-2.523035797409155581e-02,-3.440137665919469623e-02,-1.021780700670661159e-03,4.704816372254586043e-02,-2.498880772081145396e-02,1.667590619605898924e-02,2.534481825525446153e-02,-2.541678213294474090e-02,2.210882341974938076e-02,-1.280872027618867870e-02,1.281733873926644597e-02,1.293590408601172012e-02,3.465729681142805212e-03,-3.969133316797479605e-02,3.248296501225558103e-02,-1.736221756653300724e-02,-3.036902019108661185e-02,-4.448814191919604755e-02,8.805399101656305114e-03,1.720183126883794225e-02,-4.683132647682852062e-02,1.171534345237718955e-03,-2.649615878741649194e-02,1.406384603047680995e-02,-3.154627249301692610e-02,1.849739846225197798e-02,-1.097269430333156284e-02,4.230891547349834719e-02,-3.511573771107671937e-02,-1.539695118890211691e-02,-3.744537022842034379e-02,4.114287285344488815e-02,3.655535277803927119e-02,-2.344979158009137185e-02,1.549871008479938687e-02,3.073140750753649425e-02,5.347666824496485026e-03,2.872447154438103559e-03,-2.500847179183268362e-02,-3.941881951614331636e-02,3.848091122984360901e-02,3.879113908250102910e-02,1.289441634512714964e-02,-1.559424619310334839e-02,-1.460806339491284300e-02
2.188981742639323907e-02,3.847069094245448434e-02,3.749961584397613207e-02,2.711339069487953002e-02,1.375954266178409935e-02,-4.028710535936369519e-02,-3.278025897749797107e-02,3.861057383024309175e-02,1.031048520869011845e-02,-4.754731983796367523e-02,-3.860808106042137172e-02,1.583949512825914147e-02,-4.794794988594319740e-02,-3.285976198561232214e-02,4.721163712568142955e-03,1.859015388990051601e-02,1.472148982060751850e-02,-2.671185121320994449e-02,2.055520109162246173e-02,-2.545441447663836579e-02,-1.691468322016213138e-02,2.387924871898115461e-02,1.449592618119795173e-02,3.383157588674698402e-02,1.526900077816416464e-02,6.617505092775657037e-03,-3.936340610004195051e-02,-1.281524294456419175e-02,-2.274639579449572180e-02,-2.480141235536695993e-02,4.582365327597773264e-02,-1.035632873318700735e-02,3.798013645145754263e-02,1.270426392901885873e-02,2.856031608512785841e-02,2.554726081578416008e-04,7.450186701517476189e-03,-7.248603666540338712e-04,-2.952382250301809063e-02,2.155040410374341880e-02,-2.123802767420169754e-02,-4.608265080801753760e-02,1.409286110412323080e-02,-3.128041885050749510e-02,4.267012913142945174e-02,4.397505619195060667e-02,4.019065068000677449e-02,-1.257858337539781955e-02,-4.694091448545102685e-02
4.149404512539287687e-02,-6.957275380353265988e-03,4.520793122388710311e-02,4.491392606043072971e-02,3.419835504293125550e-02,-1.991309201382611069e-02,-1.113134113449811349e-02,3.401692610536011241e-02,-1.773597327562931314e-02,-3.201841825491302113e-02,5.502713058678931728e-03,4.225319064236518485e-02,1.899069977264166223e-02,6.787287797340135244e-03,-3.902417080422775075e-02,1.114150884699106371e-02,4.747474974525316832e-02,-3.486743610386282971e-02,1.775714360168271144e-03,3.655861931615349281e-02,2.332484454914383193e-02,1.908621470402889486e-02,1.961596916877525118e-02,-1.361201923302206469e-02,-1.999611988935003429e-02,2.996985623951333930e-02,3.004273061401859651e-02,3.556071737686090917e-02,4.003333881171346198e-02,1.098813012731765428e-03,1.468934705839828507e-04,2.889782208353260454e-02,1.452799540902317832e-02,1.956586394046231497e-02,2.865538747419612772e-02,3.778239064576589812e-02,-1.569447803410986900e-02,-1.205310025868641492e-02,-3.933364832049954241e-02,7.583513736349199556e-03,-4.495633370529297096e-02,-3.332746961491493340e-03,4.131267125621394462e-03,-2.067915726810168331e-02,8.799617252556388158e-03,-4.548353846186551502e-02,-4.482013344787731668e-02,3.125244477058420484e-02,-1.354425500306239219e-02
-3.612910872592438316e-02,2.154851358469588377e-03,2.615605685673351097e-02,-2.753029202725405106e-02,1.190521120146458695e-02,-4.017012686762367474e-02,-4.343154959238594570e-02,3.037530032129607659e-03,3.936592333469665986e-03,1.331374129548010786e-02,2.190295920697327495e-02,4.609893052250426532e-02,1.579122286652916759e-03,-1.715137456698492824e-02,2.859663427175643605e-02,-2.220099182712539573e-02,-5.912241131646726877e-03,-4.083771160705396835e-02,-4.598240513430786741e-02,4.481980439945435629e-02,3.254861100938875873e-02,1.898531434625706435e-02,-8.820328986406403282e-03,-3.165013475904623202e-02,-3.328321044199339385e-02,-2.419561830646332554e-02,4.768911798610159583e-03,2.078932289659511656e-02,1.551937683563191402e-02,-2.131925535873586616e-02,4.406580085575297068e-02,2.304664392065490508e-02,5.265635684874396191e-03,1.082312580076730951e-02,-7.788872416699833996e-03,-2.443896347180438827e-02,-1.395287688497038117e-02,2.497925394215025352e-02,-4.704390669936135694e-02,-3.719357639657779047e-02,-4.398171945886707179e-02,-4.449263110670519106e-02,3.443581203705207983e-02,1.972968053544218309e-02,-2.501951572661884581e-03,-3.896045827437382564e-02,-8.122254943546478988e-04,-2.569964592889952947e-03,-3.165909101609514636e-02
-6.408227173034787734e-03,-9.832516026121470784e-03,1.122316335607169251e-02,1.308741328274322553e-02,-4.404940057434408862e-02,-1.214710330416422443e-02,1.219288043593731372e-02,3.038300611134641662e-04,3.453552297066915522e-02,1.537369912647741990e-02,-3.265376594560968904e-02,-4.160183874816542754e-02,1.379709513618940404e-02,-4.586997333958674206e-02,8.309646489553960264e-03,4.264800804543342205e-02,7.311681575654873158e-03,-1.083371708274306552e-02,1.388127510996307705e-02,-4.044317937878160081e-03,4.419199352265448105e-03,4.276760873022930620e-02,-1.103398895019855504e-02,4.467857276859308474e-02,3.926899111566520967e-02,-2.947071988740194645e-02,-4.171881205957907179e-02,-3.867526900028244591e-02,-4.667303043339286056e-02,-3.928898618272607529e-02,1.772907358605447029e-02,-4.154178484250889425e-02,-1.753702505911830523e-02,3.341034679782180217e-02,-4.618379294982655897e-02,3.046463671390988240e-02,-2.113316724998959284e-02,-3.699089242690508511e-02,1.905922724465150889e-02,1.249154430888178152e-02,3.656820444165663486e-02,2.277288296902584691e-02,2.940020003804055815e-02,-2.111574905103340630e-02,-3.124855958893960756e-02,2.427870450173414199e-02,2.972510563229760830e-02,4.751846936879977612e-02,-8.465302170172248758e-03
-1.239845243051019077e-02,2.677794722922558629e-02,-1.542241140480838171e-02,4.173030418924946611e-02,3.472180801280165541e-02,-6.878817052599612777e-03,2.430353553837361416e-02,2.465924763990065202e-02,-3.844800934197262904e-02,3.899795604048539310e-02,5.088319732164705818e-04,3.162608864849661416e-02,-1.743298242797714989e-02,3.831694473433205905e-02,-1.073376440807603284e-02,-4.738838410479231239e-02,3.927202669185443640e-02,-3.959475623546433037e-02,-1.750428006218116353e-02,4.360047217473633080e-02,4.365328734736307476e-02,7.114412752253932402e-03,1.277194058069622447e-02,-4.994422432974842709e-03,-2.003303690310707583e-02,-1.659839593000200786e-02,1.671300108539560889e-02,2.444918578760423011e-02,2.824718575091236458e-02,2.805722034003223231e-02,-3.960256194502122934e-02,-5.405418972697632234e-04,-4.286220206354945939e-02,4.798189613205084379e-03,-5.664326103016573480e-03,3.755946218506824724e-02,-1.444284636955390708e-02,-3.709724464043017561e-02,-3.458575123511297561e-02,2.533426029377919622e-02,1.145256377460131259e-02,-3.864187808359816068e-02,-4.029031767885049575e-02,1.946920572200929248e-02,-4.138926640502640919e-02,3.118070751724734760e-02,1.998004529313488278e-02,-4.055750580337699057e-02,-4.021950980138068454e-02
4.714398672832260939e-02,-1.218021755339349088e-02,-1.253174869307937395e-02,3.030295787455589834e-02,4.332792055546890592e-02,4.708212959863221359e-02,2.454641654894734043e-02,-1.198755036623794928e-02,-4.034903355947734582e-02,2.684905031054119970e-02,5.658005012462795358e-03,-7.341113933565669887e-03,3.936623033602199007e-02,-3.766586513688784110e-02,-7.144548055572092632e-04,-4.733839643063961905e-02,-3.036050381379930014e-03,-4.298382911451817390e-02,-3.692762342076738591e-02,-3.705275596655636938e-02,1.445498642826010226e-02,2.383599081354382046e-02,8.076482326822590971e-03,4.477370410065447531e-02,-1.212211254256407786e-02,-2.075948403432931536e-02,3.570862949732977326e-02,-2.677709478671305710e-02,4.487542365318592658e-02,-4.726081475232767060e-02,4.552026211770859865e-02,-4.425711347667491552e-02,3.789261411464112106e-02,2.683589204040014164e-03,4.775675229161908952e-02,-4.128913878637869433e-02,5.217219850672392273e-03,4.546443299769854091e-02,2.237640560112661488e-03,1.253569982470528234e-02,1.896346701597977774e-02,-4.403906985684272017e-03,1.235739282262031218e-02,8.168083686396439280e-03,3.886282324342800465e-02,-4.403560819795004216e-02,-2.121954098900541430e-02,4.363433219507049932e-02,3.780742763456483579e-02
-4.295822926281012318e-03,1.163803736193825926e-02,-2.156655360284677470e-02,-3.021376097709268030e-02,-3.516775024747168486e-03,-1.420673722628819705e-02,8.104319502716030715e-03,-4.090763174681855130e-02,4.595775498877736898e-02,4.710244274728445091e-02,1.919723267183037069e-02,3.496893164976659120e-03,-1.845231651228640760e-02,3.039939392114689512e-02,1.789612750777631878e-02,-3.268452307737416962e-02,3.980922758430733427e-02,3.124631076369164748e-02,4.357508529813077652e-02,2.186693803360394844e-02,1.098727832301472050e-02,-7.920336492017792870e-03,4.192126324587365505e-02,3.546302419848023496e-02,-4.405766799083097457e-02,-4.588395612450766464e-02,-1.196780872262904506e-02,3.008535012690043489e-02,4.720565360549823508e-02,-3.386642224420145092e-02,9.119063453401073799e-03,-1.153888857849122429e-02,4.552370812553187263e-02,3.314331732222416255e-02,3.277613385626820114e-02,-3.032900167465669202e-03,-8.251996813891141272e-03,-2.195155196075927739e-02,-4.297683259274170248e-02,3.533306295934370705e-02,3.031278521804715506e-02,4.841094805701812165e-02,4.811248712634613733e-02,5.370035049979483659e-03,2.605858563829320865e-02,4.308739073663171021e-02,3.387264964444050563e-02,-2.447605633514133433e-02,-4.791115913259073704e-03
-3.592577419261241967e-02,4.398691875616678876e-02,1.028583736007140925e-02,-2.628816179600712566e-02,1.663377814810035327e-02,1.144386204167668550e-02,-1.374071332059763513e-02,-3.743722571993333970e-02,1.662142746563164547e-02,1.967340973045956457e-03,2.638127931436248449e-02,1.953371387810451908e-03,3.411814556496846340e-02,5.028557943910879485e-03,5.903463360221146601e-03,3.648891958107970679e-02,-9.350251552397111088e-03,-3.545535952055633988e-02,-4.564993115122466250e-02,2.471682930604193404e-02,1.165518002002068065e-02,1.977055361674762146e-02,-2.780705548458422410e-02,-3.522709431439197125e-02,-4.702926118223964280e-02,-1.447456897435863039e-02,8.710919586056750999e-03,-1.043903030526662987e-02,-6.057216832587597639e-03,3.915351930073941722e-02,-1.470049409212153060e-02,1.355254115001129677e-03,2.747933883492148510e-02,-1.002258326833447601e-02,1.182734415678782756e-02,3.510456327575717933e-02,4.354802866855597698e-02,-3.419032044701301315e-02,4.132635779650539742e-02,-7.637467046411616518e-04,-2.342046116477945403e-02,-3.958788908004316244e-03,4.650392273501936791e-02,-7.151339393761207931e-04,-1.658996137699644824e-02,1.292342091209383072e-02,-2.517380838062632104e-02,-4.108891778228385833e-02,-3.595286992221798789e-02
-3.603365366567033712e-02,-3.372248276181179227e-02,-3.498919473769401822e-02,1.364746599488216895e-02,-3.081837512126153755e-02,-1.495122852344857659e-02,3.843951120493597357e-02,-2.522507704069677347e-03,1.623242364583787206e-02,-3.174453605024255692e-02,-2.980999296876572086e-02,-4.447908640714317435e-02,-3.207244474608868939e-02,-2.144941467841284324e-02,-3.129012541384899870e-02,-3.984509922039407986e-02,-3.675150614160690304e-02,-3.799619515183294202e-03,-2.844939025443391639e-02,-1.314907408289944270e-02,3.310535742379352411e-04,1.844480323957533446e-02,-4.462987254781644597e-02,2.900586079735721981e-02,1.239055459335616782e-02,-4.051776205250752494e-02,3.619102612064338531e-02,4.077268627862160738e-02,-4.252127395618440775e-02,-2.161533434444019158e-02,2.966373823358186765e-02,2.405055417948583421e-02,-3.056253032754870438e-02,-2.815724870836624344e-02,-1.254822200396894620e-02,-1.499360539058129009e-03,1.145611994148895349e-02,-1.269920061870149879e-02,-3.629509237271067324e-03,2.397414254499479272e-02,-4.488455501545654536e-02,-2.398306657714706705e-02,2.066858202617436954e-02,3.828629386917543898e-02,1.131270863371400823e-03,3.111045196552109440e-03,-3.805583906872164052e-02,-5.094510989395334769e-03,3.159849804255204266e-03
-2.494858144540864839e-02,-2.235493070888132372e-02,-1.188829277669756559e-02,-4.649386955371116736e-02,-1.723636511907439967e-02,-2.795393537550723562e-02,-1.671146963543833006e-02,-3.683615103056317452e-02,3.783295431282939630e-02,9.066918481667563673e-03,1.735082333986368019e-02,2.801392578282458495e-02,-1.509144678287054205e-04,-4.001775711734220642e-02,3.594755528137419907e-03,8.412872064492663005e-03,2.377734122898634075e-02,-6.620590654542820967e-03,-3.607875322522592632e-02,-2.094705461229534951e-02,-1.326412130582503568e-02,1.413596590305660899e-02,6.856761355583609711e-03,-1.394085960975268400e-02,4.713194208918501660e-02,1.024710463400946812e-02,-2.545657441409095514e-02,-3.857795924365774870e-02,-3.362982555910792870e-02,-2.461075097582665627e-02,-3.287203413457157053e-02,-3.036432035358630280e-02,-2.081924891138958386e-02,-3.164245484506274242e-02,3.843728446924974534e-02,-4.066552659871135872e-02,2.374580029334873339e-03,-8.680450554855124665e-03,4.673119926580535793e-02,-3.758435124333116967e-02,-9.895402050510341760e-03,4.548069835141942824e-02,3.540908683450112726e-02,3.071686349637612126e-02,-2.345355045701489824e-02,-3.188329083301533196e-02,1.633758139119332112e-02,4.159648501101602391e-02,5.498995957443355079e-03
6.937593716373589500e-03,-2.131487685481796637e-02,2.610755850337544495e-02,-3.031813690532792274e-02,-1.708135570166323045e-02,-7.223464147965155506e-03,7.372675950494852722e-04,-2.495446875441347662e-02,-3.731329802368248127e-02,1.071649336212429464e-02,-2.047675288455849674e-02,7.870082504131783660e-03,-3.348416422296221495e-02,-1.827082767481587452e-03,3.157153350386229795e-03,-4.341781097432673847e-02,-1.582922162643599084e-02,-3.541666231000342724e-02,-4.229874738237220100e-02,4.746568037959462277e-02,-1.720975511413109019e-02,3.001958206484420591e-02,-2.376957860910835010e-02,1.758336622358939311e-02,2.520998972332774701e-02,9.265155809596380132e-03,-2.753602150254289872e-03,-8.540552304074846765e-03,-1.464112815950955465e-02,4.161132215800313755e-02,3.202928339876682379e-02,4.505022499875024206e-02,-3.639680677914415574e-02,2.236565554434382166e-02,4.246493214239861758e-02,-3.088105604644713828e-02,-4.199636675850357270e-02,2.335894816666174087e-02,7.214701833714813779e-03,3.311520892830915885e-02,-3.489762659217078566e-02,2.860449261957540013e-02,-2.890533011533340593e-02,-3.258386795115783552e-02,-3.252478726727119074e-02,3.047492865527018716e-02,1.600374470988209785e-02,2.234499878837657195e-03,-1.367602241359670151e-02
3.654190508872951632e-02,-1.041955207147458526e-02,3.067107656679502262e-02,-5.896402983541615579e-03,-1.192120501975223353e-02,-3.615455394132065584e-03,-1.924183580217015202e-02,2.398755433906651566e-02,2.635421368946210918e-04,-2.594232303277657289e-02,3.870942523304426314e-02,-1.124822345005760220e-02,4.219253009922202015e-03,3.937763521776433545e-02,1.203575436375751984e-02,-3.711361443322400838e-02,4.260943974632662445e-02,1.237192169539966941e-02,-1.599378237072041076e-02,-3.494609433797114806e-02,2.848416000902379355e-02,1.163224008487276882e-02,3.241596749909797688e-03,3.815897335135104429e-02,2.795831596292435925e-02,-3.374455258570977639e-02,-1.823972551599861019e-02,-2.436551644881714343e-02,2.363268687452639918e-02,-4.518979071480570125e-02,6.770674892839685828e-03,2.542610454209536311e-02,3.649977306385701614e-02,-1.529858291762265995e-02,3.112231470050372262e-02,-3.772067262171812513e-02,3.356311932916411500e-02,-3.608763104156006291e-02,-9.950457843083976989e-03,2.880096358350195049e-02,-3.391480859349499388e-02,-2.622920369357788217e-02,2.153107268202399463e-02,2.131639105603316126e-02,1.367390246385916455e-02,1.878906545188389898e-02,4.138998715142895059e-03,-2.404486274808726592e-02,-1.494844717888201349e-02
-3.084572993346234443e-02,3.956930075847085032e-02,8.078713362800370862e-03,-9.605177422320285846e-03,-3.680748479749814707e-03,4.333128820184588281e-02,-3.358213670417211499e-02,8.353652756124022374e-03,5.704751759642320928e-04,1.079730714121044169e-02,-4.668384591412604034e-02,3.605009826489530972e-02,4.186214906156420640e-02,6.309881231116612650e-03,1.905086277511544926e-02,4.093030262827015986e-02,2.007657382853616015e-02,-3.366083539672630465e-02,7.390556786003480566e-03,1.033819062946097524e-02,-7.349962442889178271e-03,2.290591312077875502e-02,4.207999859477538213e-02,4.122762966847463850e-02,-4.762514444915817539e-03,-3.746818228402586104e-02,4.696976583701589075e-02,3.283129362159444009e-02,-3.636140247880524645e-02,4.076972980689810844e-02,3.583430110148690118e-02,1.824966883857314292e-03,8.842453679238533593e-03,-9.784274437784033773e-03,-4.313317764856555714e-02,-1.596553054021239773e-02,2.933941173733960531e-02,-4.798956427883437070e-02,-1.613003378028460277e-02,-9.865070516176122767e-03,3.622758785943671050e-03,4.067418369245336812e-02,-1.488547730678924617e-02,-1.482665310708813217e-02,2.300831289417818587e-02,-4.628963323289202528e-03,-2.667934780880175730e-02,-4.607497867597894897e-03,-3.479254999548717781e-02
-3.135052775660383817e-02,-1.581246238634648139e-04,-7.854226621546941262e-03,4.018885951383073529e-02,-1.333081089245190080e-02,7.807125198626477074e-03,1.281331422634034677e-02,-4.716975250398969255e-02,1.584294421692200930e-02,-3.119078014911809762e-02,4.466692371087318397e-02,-3.403635962160505429e-02,-8.270924428976310014e-03,-4.016991344025620109e-02,4.813548706173308156e-02,2.126451330640825605e-04,9.240575960687310089e-03,-4.194015798558676372e-02,2.421531996102460615e-02,-2.810335918665787455e-02,3.856214530750414621e-02,-2.856506846121869767e-02,-2.996512128514449910e-02,-4.489749143606359266e-02,-2.706059324380501001e-03,6.281588389084968513e-03,-4.207266947352386599e-02,2.669217811005596824e-02,-4.525218769681618909e-03,2.362846312297777959e-03,-5.738703540652756452e-03,-9.613737040177242413e-03,5.777752389822514260e-03,-3.339915203847933223e-02,-3.081372057893043068e-02,3.504856010292228125e-02,4.321814820509238542e-02,-1.227336241393489104e-02,-2.220947609729087557e-02,1.395018583620666157e-02,-8.841523000970446383e-03,-4.597895514118255367e-02,-3.331076653539672555e-02,2.092265475370365738e-02,1.539601080393174747e-02,-4.581333134031657928e-02,-2.693439105036870770e-02,-2.605255877380881213e-02,1.665238418928525338e-02
-4.652880906974311837e-02,-3.835261368230654527e-02,2.905484998156589171e-02,-3.114149949030985132e-02,1.479752325848753686e-02,-2.536396142211775825e-02,-3.880475509581514382e-02,-2.488060436078292845e-02,2.153246416541286512e-02,3.445866368568182431e-02,3.199057701086090166e-02,-9.960509850122749309e-03,1.628351617458031336e-02,-2.858011776271848423e-02,-2.003914414305010133e-02,3.839566569136632079e-02,-4.717871679373288746e-02,-4.015452335501457776e-02,-2.829898577705397544e-02,-4.586794926464635158e-02,-3.086145123357282929e-02,8.044783904161845883e-03,-7.612122210545425524e-03,3.804069942814139460e-02,3.075285226015041229e-02,-1.532419680120252620e-02,-2.330623928368615733e-02,-1.165499018831885406e-02,8.747466830921700118e-03,-2.246920538715569543e-02,1.202712381512796233e-02,-8.775890937581269299e-03,5.042153806909144276e-03,-6.187844548137709337e-03,-1.991145795049281339e-02,4.344463065830399956e-02,2.553723250306219952e-02,-3.486461113093280995e-02,3.569592390952874145e-02,-1.217622752224243200e-03,3.822287740264481565e-02,2.904895703374003879e-02,-7.245061249681524276e-03,-4.626154876317509212e-02,-2.240975042084519114e-02,4.033381069130002883e-03,1.293091581943496896e-02,-2.345501732484549934e-02,-3.493795656721306736e-02
3.244690184717881343e-02,4.692723524172547761e-02,2.488777458784281141e-03,-3.180659377988425546e-02,-2.205809155467455818e-02,-4.665667273305806190e-02,4.013585885924994545e-02,-3.703097460885900610e-02,7.412655824773361352e-03,-2.188876151435021830e-02,5.248580560254254533e-03,1.466909206366678702e-02,3.194426410121495308e-02,-2.844090838329238480e-02,-4.737306043791773141e-02,-3.517728477741977750e-02,3.875244508564597290e-02,3.622119867181364944e-02,9.437049921065259958e-03,9.737731462064721025e-03,1.598819154508283186e-02,-3.144892608066292977e-02,4.014681941595808767e-02,-7.869235190921626197e-03,-1.132114179908330805e-02,1.832682926307148364e-03,-4.388839583417418477e-02,-3.232933186988185686e-02,2.305988692547812982e-02,-4.041704565615976408e-02,9.993025422756773163e-03,-2.466971188515926228e-02,-1.072466427504016780e-02,-2.047063187909100093e-02,-1.398193620105409908e-02,2.122042206000829614e-02,-1.965415796138906754e-02,6.433055631229132355e-03,-2.320155554038198092e-03,1.585590566108700111e-02,4.231857897109631700e-02,2.253079352490790568e-02,-2.761560629714701967e-02,-4.541738287452348061e-02,-2.303105056702054940e-02,9.210826453727014376e-03,-4.345634105820173065e-02,-3.520256084524476647e-04,9.381805725979908139e-03
-1.605788792504619228e-02,2.624505260601776163e-02,-3.811142281168895113e-02,-4.115920624644457682e-02,2.210615036111193699e-02,-4.367859465764137956e-04,1.825178318650033313e-02,-6.313705706752394640e-03,-2.456770823311953469e-02,3.091354689181558327e-02,2.900639168691971151e-02,1.886153170336550208e-02,-2.207380390123460032e-02,8.741240025041788902e-03,-1.346837587221434186e-02,-3.956613922361370411e-02,4.042791941365556085e-02,-3.518377542711348394e-02,4.361746304831581184e-02,-5.230777017595218507e-03,-3.050325061873707111e-02,4.059221227327051290e-03,3.612972374974656592e-02,2.249715692381180562e-02,2.969860102771033211e-02,1.538239235687312821e-02,1.862709941044223688e-02,3.382888669616011118e-02,-2.425131162649279970e-02,-1.024473544044281334e-03,-2.700828078003643037e-02,4.724361747893861263e-02,4.301895805772984471e-02,-4.461876356037477315e-02,1.991542330897535032e-02,4.119661021865948791e-02,-3.094477382295292636e-02,6.582302773834591836e-03,4.025109270313221438e-02,-4.514972799356764543e-02,1.912540383100887545e-02,-1.963213870999765825e-02,4.111405953458311530e-02,4.563452016529600391e-02,4.303902598943998986e-02,-2.498038962272761208e-03,3.507346029251441621e-02,3.337877350999238907e-02,-1.752493069890984773e-02
3.186421210510319985e-02,-4.485312516403716643e-02,9.326298299603217462e-03,-2.615582528423995509e-02,-3.675818920502964965e-02,-4.098333454356253847e-02,1.901578879674983152e-02,-1.551236873548342797e-02,2.177464012803113219e-02,-4.210679896615672491e-02,-1.789404365490922938e-02,3.825782048721523571e-03,2.816427111620749268e-02,-1.755864087879886390e-02,1.219592824372440001e-02,3.739221108221205125e-02,1.122443148333961138e-02,-2.586997756514903060e-02,-4.607443420725595984e-02,3.585391975944767634e-02,-4.637779074777186039e-02,3.629982324600733445e-02,2.803331095132615379e-03,4.253538484329657393e-02,2.894510336652558746e-02,4.823816256553428716e-02,-1.446253141332390357e-02,2.588429240820955615e-02,-9.500599440564088879e-03,-1.949581438136057526e-03,1.235229547968414408e-02,3.620056750447003813e-02,4.689635955550790214e-02,2.598941561996297167e-02,-7.966474371178002695e-03,-7.618666061532341355e-03,2.301616507947880710e-02,-2.530638139002900841e-02,-3.773594268150400749e-02,-1.408371076574663205e-02,-2.061156263667995175e-02,-1.973297629318634602e-02,-2.580717476312035033e-02,-4.436045390529153726e-02,-4.670673292195332699e-02,4.724888579683356182e-02,-6.997093074657537333e-03,-1.120604088126254602e-02,1.740361755438444777e-02
-2.729460479181683788e-02,4.359070865083472524e-02,2.774013079845605995e-02,-3.977646519710555106e-02,-7.984494036677697304e-03,3.672769180678478462e-02,4.308412525989330222e-02,-3.158030684090368159e-03,1.098690954043993716e-02,-3.225661849117198582e-02,4.758274545463042626e-02,-2.599473266801248517e-02,4.289034802372259508e-02,1.449725822910462314e-02,1.043717414757846552e-02,1.229219778643654039e-03,-2.609179233021209285e-02,-3.133686374849570938e-02,-2.707834510823078217e-02,-3.037679436906986705e-02,2.708519260162117054e-02,-1.451935499064098585e-02,-4.283469719443615265e-02,4.544506683507704148e-02,3.717987082546675426e-02,4.143918590443236571e-02,4.794498609103622216e-02,-3.159191878759674138e-02,-1.005172020507737879e-02,2.501726495167621439e-02,1.898981057904901987e-02,-3.352938708435238002e-02,3.059683862702173435e-02,-2.669525989687922263e-02,-2.675560985298545968e-02,3.581956296163171100e-03,9.003704688803560591e-03,7.758479347397216445e-03,-3.957536535639347153e-02,3.656712418072438631e-02,-2.270787040247022187e-02,-3.589133396810808424e-02,3.766059138562173614e-02,4.414196693874524596e-02,3.508169153627577197e-02,2.998486428903750917e-02,1.503931492269052796e-02,4.926889038534823170e-03,-4.001131755318370481e-02
-8.868741258794127919e-03,-1.233350333489170204e-02,-2.327423606772162368e-02,2.164418049805115832e-02,-3.995447540649345666e-04,-4.058681724545073338e-02,-2.710769940716599435e-02,1.775348554350256527e-02,-4.106300025222164168e-02,3.402373096287378967e-02,-4.701879504831809882e-04,-1.880706340578940918e-03,8.952151789625694897e-03,3.145398735478566882e-02,-1.474372615751923764e-02,1.724559921640502966e-02,6.367889039745805446e-03,-2.256950857354203532e-02,3.668038490960805198e-02,2.881362107554296184e-02,1.535027465957978371e-02,3.396316517147281860e-02,3.558221258692167294e-02,2.018549629518813851e-02,3.264870467087668121e-02,1.913036337248243124e-02,1.745142509627765903e-02,1.149066678387975805e-02,2.448232825210485894e-02,-3.307317591132089701e-02,3.689746335919339565e-02,3.602293588825212362e-02,-4.560492163274990768e-02,3.156401830652429824e-02,-3.595382458656771335e-02,-1.597312444355338326e-02,2.359025140989597785e-02,-3.286442711394611804e-02,3.080356351467022219e-02,3.217602917931243478e-02,7.234486401534196559e-04,-4.781965738250762432e-02,-2.063102112278454581e-02,1.132748204547513390e-02,4.661567984389156788e-02,1.276964604364212892e-02,-2.326941187434576272e-02,1.298201660437357623e-02,3.873647549295412135e-03
2.711046979701393911e-02,-3.807437858667911401e-02,2.528749512972006119e-02,3.997765745691653737e-03,4.485309015036312297e-02,-1.531888657435325797e-02,1.284795780287477721e-02,4.185341302316089585e-02,-3.850750521764127049e-02,4.235720831216780585e-02,1.820172955490396288e-02,-4.186647541650670434e-02,-1.928197247583572985e-02,2.016700370842658060e-02,-4.191360177730328596e-02,7.960394622939679851e-03,-1.493032510836335425e-02,1.171388398460161163e-02,-4.400696629554143313e-02,3.599322174385923001e-02,4.587000043781361974e-02,4.542329141183821389e-02,2.418542009805197887e-02,-3.583598654186176402e-02,2.501965976296482638e-02,-4.605640209118965628e-02,-4.629504450477096161e-02,-1.708804185848947568e-02,-1.100209075652139063e-03,2.619615066171564546e-02,1.775703248123519304e-02,-5.240761757331227275e-03,-2.193027840713845933e-02,4.815973026678621594e-02,-7.151304294664852235e-03,-4.709459692704615064e-03,-3.258697978965456599e-02,2.856014608687624037e-02,1.876327509134653737e-02,-2.705088992016555990e-02,-4.045750348465568247e-02,1.748615829335224345e-02,1.496852076413931858e-02,-2.196584561184472539e-02,4.367812799050059536e-02,-3.380432427937921092e-02,-6.555174265607290919e-03,4.297600108332205737e-02,-7.776544433844474920e-03
1.341992251908090059e-02,-9.920706322772414321e-03,-2.187326303527446433e-02,4.688610795385156349e-02,-8.783413005901798479e-03,3.817899005484763630e-02,-2.616107903743906254e-02,-2.779344020376877528e-02,-4.542213488252479919e-02,1.469296604413008502e-02,-1.273672052261175074e-02,3.529778763104286093e-02,-2.595333094923562949e-03,4.535698641668578501e-02,-3.046521813895649786e-02,3.571095838808675121e-02,2.679576206537047714e-02,2.624598658343819252e-02,3.340142612434783553e-02,2.528711619118916010e-02,1.222779533502675250e-02,-3.572374167774459292e-02,-4.528727329943110086e-02,4.077030769501611973e-02,1.130068560505924705e-02,2.872752387565991744e-02,-1.790051721123718000e-03,-3.707388066577294028e-02,-3.631072526491396779e-02,1.797693369968852289e-02,-6.751727790044754346e-03,-2.901214560760599984e-02,-8.142917147999271209e-04,-4.221795553524189393e-02,7.941110535761899611e-03,-2.237913305162958152e-02,2.882651331923535148e-02,-1.837148823617629906e-02,-4.338119607710309682e-03,-4.731254053743648436e-02,-4.141989089655941092e-02,-1.041485849873218308e-02,-1.943457440850818955e-03,9.689650413595814887e-03,-2.018302057262249746e-02,1.888918176389310991e-02,3.488743263741458239e-02,2.711101169972794309e-02,-4.460016189927346747e-02
-1.888420630730069764e-03,-3.827302021504064289e-02,-2.498980125319235843e-02,4.714621632054943889e-02,-3.463381550813695448e-02,-1.077119109272662477e-04,1.144652555331597370e-02,1.961411752344432297e-02,5.778561520478963515e-03,-4.749173245277053118e-02,-1.681183804694577275e-02,1.715843752859903641e-03,-3.992609140928347206e-02,-1.447075470994842877e-02,-4.522169469187330842e-02,-4.082588144257461721e-02,-9.985722315718290748e-03,-3.558124818011307311e-02,6.543127593258133735e-03,1.835472161553282702e-02,2.911981675874864353e-02,-2.904842419383960039e-02,-3.221315614565586904e-02,-3.830812229585628392e-02,1.321689841512020507e-02,2.000266591385707962e-02,-4.537834065966548508e-02,4.225875834222685146e-02,-4.340349776419055033e-02,4.000648466280315452e-03,2.025307186227235517e-02,3.593822660369718619e-02,2.074001362208171065e-02,2.923039015366508953e-02,-1.555351912663720942e-02,3.049918592713144611e-02,-4.067704515614683353e-02,3.824849440065276190e-02,4.610587483803805370e-03,3.073872844890694275e-02,-4.619242373948183149e-03,1.390931863305436625e-02,2.557799964808074936e-03,2.243560495773685645e-02,-4.053026396953928606e-02,-4.259159434035530295e-02,-2.449977828803451274e-02,-3.298215309935360884e-02,3.601712705574535572e-02
-2.720159361937103670e-02,4.610020700310298036e-02,-1.580098078286070601e-02,-3.079533483507505484e-02,2.806500576464501448e-02,1.537506933763883171e-02,-1.747928515171957875e-04,5.363432457909289054e-03,2.123552251446675365e-02,-2.630638081317765789e-02,4.808314116879606331e-02,4.599634621558468944e-02,1.456304105780590989e-02,-2.910730514243717315e-02,1.745989895729203531e-02,-4.144396267882333174e-02,-4.546878878025219922e-02,-2.347485735389116118e-02,-3.620960787556156465e-03,3.567698739352921644e-02,2.200736660822656676e-02,2.351258204186863071e-02,-7.217952273364101022e-03,-1.492529376471042786e-02,-1.249332589233136462e-02,4.724183066172348011e-02,-4.455265690329606593e-02,3.555676263604874709e-02,7.621805914360734423e-03,-5.946729347338944489e-03,2.182219577324935253e-02,-1.291467600074748491e-03,3.617597285118176464e-02,3.881863332436548408e-02,-7.583410284772592290e-03,-2.162016373120756799e-02,8.946585641412610479e-03,3.994835798780602826e-02,-2.803006274896694197e-02,1.191258426081758318e-02,1.274510653062718366e-02,2.258319651844477652e-02,-3.569246919073534863e-02,2.090838830238815615e-02,3.962567899862412535e-02,-3.103121063598898374e-02,-2.542590975575264797e-02,4.566715293840771517e-02,-3.090586744673609262e-02
3.433162216272644257e-02,-7.480949951693470316e-04,-2.448739354569411455e-02,3.591698907629227444e-02,-5.298640813813502125e-03,1.435454837359649788e-03,-1.363699225872173557e-02,9.004762251214881719e-03,-3.259666247062303207e-02,-1.055165016863971079e-02,4.547506876124839809e-02,-2.343121016560606104e-02,1.518411481395441978e-02,-1.693499184253055220e-02,2.649314601091547206e-02,-3.575970391427254341e-02,4.551466443006561141e-02,-4.476712014319136033e-03,-2.557053310638429666e-02,-4.131818407657884828e-02,-3.199273061109810662e-02,1.915632861516583345e-03,-1.579057772232477647e-02,3.186110156533097926e-02,-6.695381574356392557e-03,-2.434370635169587696e-02,1.134860775352365507e-02,2.003187327794259467e-02,-3.225584717821574493e-02,-3.219991950575629147e-02,-4.488569583011206565e-02,2.290182293665692786e-02,1.586882534303132170e-02,-2.457674446956337362e-03,3.334206216530633676e-02,2.961228447202192068e-02,8.268840431595054358e-03,3.567686872985712659e-02,-2.849710278962141671e-02,-3.759590695229839824e-02,-2.230587428229072189e-02,-4.290791851052564582e-02,3.019597828303609028e-03,4.229687405709860876e-02,-4.462683054248825498e-02,-3.660870587950534882e-02,-4.630795512250363705e-03,4.203233557592127301e-02,-1.781017107928938026e-02
7.008836515887749245e-04,-4.441086176220044451e-02,-3.406731429003087563e-02,4.714307070755130447e-02,4.505911689183061258e-02,-4.795973036232390602e-02,4.376998862545553037e-02,1.347746626408680842e-02,3.564267264775529409e-02,-4.384648802900765509e-03,1.510890188215420005e-03,-1.080505358735214761e-03,1.616524156833648931e-02,-3.490936046685536032e-02,-4.553455949730169511e-02,-1.860709380116967390e-02,1.982877593252747178e-02,-2.888342320923034667e-02,1.680154409165231580e-02,4.552348030012641489e-02,-3.934151703026499136e-02,1.672110598966842707e-02,-5.449287381728960648e-03,3.566436911679586597e-02,-3.127663000285916400e-02,1.866094690294260727e-02,3.275545893103917056e-02,4.307271292373158339e-02,1.775244553738549239e-02,-2.736992508938743303e-04,1.141663969282361371e-02,3.573825981405403390e-02,6.840432027094500711e-03,-4.549450394743716208e-02,4.174884345441670641e-02,1.836070683525885955e-02,1.710001628327010095e-02,-2.754442391056360559e-02,1.539228379870379894e-02,-1.028205528751685582e-02,1.465093629352549540e-02,-3.811192878128161210e-02,1.529151609133985908e-02,4.838150265580501430e-02,-4.376768060989603970e-02,4.622701153349288022e-02,-9.018440049020540195e-03,3.591733289761046832e-02,2.735654496848953857e-02
6.492307362808633076e-03,2.310014814443705350e-02,3.666929979968990005e-02,-9.286559506285738813e-03,-1.675643884292674773e-02,1.623587701004308714e-02,2.982306750705771697e-02,2.540929151514792483e-02,2.885117308490945526e-02,-6.240469303575741158e-03,3.079069753288849257e-02,-3.679285459742336756e-02,4.309952450397063969e-03,-4.788041947148913985e-02,-1.699352800816509787e-02,-1.293675217937125498e-02,-1.005843639739816171e-02,1.893619796891817322e-02,-1.079611200320239328e-02,-4.970387286647471106e-03,-2.542583167801506019e-02,-1.227893520635750524e-02,-2.642119063212489821e-02,-4.134732683976686390e-02,1.002174777574845951e-02,1.629588363329666223e-02,1.157581819339492148e-02,-3.536572836659208473e-03,-1.164594462546855377e-02,3.519852784297480830e-02,1.848578424272975069e-03,-2.016788868170920398e-03,-4.595418281220196854e-02,-1.537937035564564299e-02,-1.160624085560442095e-02,-9.801704763299664419e-03,7.766826369677212565e-03,3.255300404888814350e-03,1.045347827696321667e-02,2.566098919688822658e-02,3.032099353207482612e-02,2.113102153021430632e-02,4.412958588916753022e-02,-4.667198832942645592e-02,-2.947199372803137318e-02,-4.770563331093246456e-02,1.428684857134155523e-02,3.855984540953202172e-02,-2.485056238753406699e-02
4.136965385022365466e-02,-4.259979917796500454e-02,4.208668424607987790e-02,-1.437428925346225655e-02,-3.861299410058274123e-02,-1.368695903168922531e-03,-2.356265862862559970e-02,-2.084078135618632269e-02,-1.866909256314791543e-02,2.935611803248884544e-02,3.793811250471292810e-03,-1.827986814003977264e-02,1.068876155144663116e-02,2.093994193460696485e-02,-2.202741323418987845e-02,-8.375068922452121034e-03,-3.663038886483439144e-02,-3.088916622883717059e-02,1.754608149605488276e-02,-3.086116907022927111e-02,2.437742999230197403e-03,2.025169062204424872e-02,-3.808442621395616984e-02,6.520978829162989328e-03,-2.358336929706794649e-02,4.484678071109993863e-02,-1.594041765053695993e-03,2.964351717958510837e-02,4.865776524213846418e-03,-4.423264042293437864e-02,1.289925226221057611e-02,4.373042003623161394e-02,9.843807433775695476e-03,3.092193076237567673e-02,3.722061502851921333e-02,-2.634270657122686488e-02,-2.789611623355823383e-02,1.075146062225729171e-02,-8.619259147704396232e-03,3.292460675140173459e-02,3.875287924295382075e-02,-1.420003808587015810e-02,-2.549108503205725629e-02,2.717635751770350674e-02,-2.181602512503282368e-02,3.125377758467493688e-02,-7.387978530095546358e-03,1.623166420794891138e-02,-3.918316273284277312e-02
1.199906998258518272e-02,-4.672583188756749932e-03,8.390333254604169164e-03,-3.216165407727933356e-02,2.294752252237869383e-02,3.514654657036055813e-02,-2.744128446418631767e-02,-3.916579840816516306e-02,-4.614827311515572877e-02,1.375371594992702388e-02,1.037490586277866472e-02,4.523886470598287302e-03,-2.596805336326804201e-02,-1.056865595891429664e-02,9.152545927060764738e-03,-3.132157139860427490e-04,4.725500166284366671e-02,-3.522047987383265799e-02,1.890494047865852803e-02,-9.269272221001470871e-03,-6.955777027961350910e-03,2.108013122955829446e-02,1.864255963731411073e-02,4.759120932710770441e-02,-3.599989696707601300e-02,-3.835251027626550985e-02,2.173318136173632217e-02,7.593857832949258042e-03,-2.187854627695889551e-02,-4.074442064009980990e-02,-4.014001911266380090e-02,3.818787082799141031e-02,-2.985084525751749429e-02,-1.711116213999049063e-02,-2.648059778732465841e-02,-1.404746456190756818e-02,-4.171275321590246082e-02,1.846447698297790227e-03,-4.188822377802717267e-02,2.909751661004395321e-02,-2.579706754430554846e-02,3.876218159031774579e-03,3.682076890436702249e-02,1.461648620088136681e-02,3.192838232674262162e-03,-1.701794834947435719e-02,-1.617820650487959699e-02,1.641931959397335480e-02,4.787054016260262890e-02
1.567843010607728599e-02,5.597860885051297516e-03,2.234463671674742635e-02,-3.370761905081135369e-03,-4.261191337261847206e-02,6.035103577087788142e-03,4.433318063794598057e-02,-3.145554626560018163e-02,1.840702739130828033e-02,-2.897252676440862859e-02,3.470864179415266218e-03,-3.907261337772402476e-02,-4.807894848153098158e-03,2.481623178886435688e-02,-1.476675214216781329e-02,1.597608680846624232e-02,2.862218702649313093e-02,4.138353381408015758e-02,-2.570697231366190355e-02,-9.753931530720795842e-03,-3.367275408423995448e-02,4.771012617013476592e-02,4.136640103709785660e-02,3.870910840113692998e-03,3.313502189934910275e-02,2.030337535242742603e-03,1.197256099258817152e-02,-3.980422714275333451e-02,2.472972986106138776e-02,-3.606585111858417320e-02,3.158832267713644615e-02,2.732192162235888219e-02,2.022247612969035532e-02,-4.493520426752137947e-02,-1.907225508266804925e-02,-2.294884829266450460e-02,-1.354950900263098695e-02,-3.994776777870771844e-02,4.233098728479892103e-02,5.212178035149598113e-03,-1.884014314157841236e-02,-9.980080138118442579e-03,-5.114838249275621869e-03,9.745236775651915095e-03,1.518969610955306750e-03,4.062926751679685894e-02,-2.941674452965139814e-04,4.767859406448136245e-02,3.404485429434940535e-02
-2.823850966850644656e-02,4.171459943100986473e-02,-3.716511818115925819e-02,3.075344773664452289e-02,-1.156480918659471072e-02,3.661686622693405280e-02,3.565607994141823528e-02,2.963701194921834758e-02,2.809716193282600291e-02,-1.892202048688127955e-02,-4.059911406872955542e-02,-9.398950202050638039e-03,-3.162783425878203103e-02,1.888619823360195016e-02,-1.490933489613470615e-02,4.607549814639772673e-02,1.365689524041938975e-02,3.124081986702523586e-02,-3.559975948648094052e-02,3.507073140307653131e-02,4.095527831963687027e-02,-1.253397287102436287e-03,1.029342311738269330e-02,2.565387258009556998e-02,-3.150052753253657772e-02,2.485927575167387431e-04,-9.817181102500335821e-03,-3.425808453895076711e-02,-1.283281449626799166e-02,-4.183399750993192084e-02,-4.593772918009379758e-02,-3.534384867565427968e-02,4.486501640842786853e-02,4.798252928967260134e-03,4.512726616031480925e-02,-6.539375892810143573e-03,-1.823061279075869831e-02,5.950027762218810081e-04,-5.859901812942744197e-03,-3.820186378783892167e-02,1.364277425030202377e-02,-2.750925478841928506e-02,1.158527421040190554e-02,1.455097081993917026e-02,-3.371064835378879965e-02,-4.249495575670377695e-02,2.719922725603248978e-02,-3.894398178915866801e-03,-4.280358828383288433e-02
4.794096518166583720e-02,-4.284071473924146861e-02,1.889434942628856820e-02,4.685716871533218003e-02,-2.526734414656162109e-02,-3.465766402849027733e-02,-3.667893895105566598e-02,-1.905803440971478094e-02,-3.864932451415345471e-02,1.861593701528931402e-02,-4.240368143378300120e-02,9.127837193479898309e-04,4.811830134771451217e-02,3.041637152544893544e-02,1.116206717821338103e-02,-1.876949005756727018e-02,1.200260710363352905e-02,2.619685023753652760e-03,-7.160790290850597289e-03,-3.577552231055378812e-02,3.745290107423130538e-02,-4.864692380379234508e-03,-2.958393210472413937e-02,-1.281102418012793585e-02,-8.318817428706663103e-03,3.173075697867871331e-02,2.263176638992885417e-02,2.608934187145854969e-02,-4.736962754106294887e-02,-8.122715396907835561e-03,-1.807315118960834332e-03,-4.657901642554968663e-02,-2.326847917737778076e-02,2.521599251047710114e-02,-3.515557708980678736e-02,3.420725403600288501e-03,-2.759027370363803869e-02,-4.726407949812297393e-02,-2.507152230777091179e-02,4.610103036611609001e-02,2.921188951480660490e-02,4.452222173800338828e-02,-1.176658901649478518e-03,-3.780742932327701283e-02,4.646152124816238689e-03,-4.419768611177012779e-03,3.336014261002228504e-02,-3.893639217703596944e-02,-1.139158639527126926e-03
-3.390209476598445709e-02,-1.698479971832071375e-02,2.299434612513096693e-02,-2.323282036042799252e-03,-1.202352068431909900e-02,-1.022277912113030325e-02,-3.928659107315377215e-03,2.761143308851138692e-02,3.798383072069067695e-02,4.411127529659875784e-02,2.779422396260721947e-02,-1.788275192042264317e-02,1.822585025697697966e-02,-6.044797055926864893e-03,-2.376667548075453093e-02,3.302247890731157404e-02,-4.471568495452944714e-02,3.892133493028477470e-02,-3.731932166443146463e-03,1.329161228866264886e-02,1.543766583210088791e-02,3.827766245681304275e-02,1.324009383309814047e-02,1.103749806865656977e-02,-4.198127598144623523e-02,1.783306538593174310e-03,-3.389043701178816315e-02,2.300177572062051326e-02,1.184018107121436944e-03,1.745985408182976900e-02,-4.440117007700310203e-02,-4.022393687196357259e-02,2.095667386377255206e-02,-4.145501368107726292e-02,-4.153518955105587468e-02,-4.726527102302261613e-02,4.422430236598485359e-02,2.300900181750024573e-02,-1.421650427876575487e-02,-1.971094066167798989e-02,-1.456023976511459754e-02,2.660749967927506301e-02,1.563303578816195930e-02,-3.049718236273168265e-02,-3.157117885317470285e-02,-3.890606312429742419e-02,1.552958210548764650e-02,2.561152407188091451e-02,-2.276150266884067325e-02
-4.640922234244489880e-02,-4.047778732645950645e-02,4.532468843035831335e-02,-1.981661402369944147e-02,2.608142261615811058e-02,1.207698242233404273e-02,-1.143728604748373706e-02,-2.851201673271942447e-02,-3.667879569604821227e-02,1.114206504844780961e-02,2.660558631382602818e-02,1.394095449446853922e-02,2.935567575777711571e-03,-4.437420710821035619e-02,4.538559888881780330e-02,2.893841460716879699e-02,-2.007069622707852857e-02,4.649789256141983324e-02,9.869941784160857906e-03,7.984826710156526022e-03,2.403248563279446887e-02,3.020319637231868790e-02,1.515911510942784431e-02,-3.602881880573600287e-02,-1.566809377572125905e-02,4.147128665593025065e-02,-2.667830261650066051e-02,-1.238402381945120749e-02,-6.580160493496302679e-03,-5.870238443091241494e-03,1.094120251094896773e-02,4.292367973565155287e-02,-2.512080786683524095e-02,-3.666765894240719276e-02,-2.930802968163142772e-02,3.748396794297998574e-02,1.412565545497726678e-02,-2.074062187424122877e-02,3.060786453799435244e-02,3.500829580085350334e-02,3.356913022714303613e-02,4.058417731429472819e-02,-2.400204704423065938e-02,2.470759435764081219e-02,-3.822799252232189984e-03,3.313165626234746558e-02,2.213539943633359777e-02,2.678128809210739841e-02,1.512842754340237503e-02
-3.124960336743777892e-02,4.362054712920132409e-03,4.695315543001565145e-02,4.237266780802346339e-02,-4.425577426946349785e-02,-3.247160029081690852e-02,-3.567686350163828263e-02,2.189216485438118948e-02,3.078596159271343446e-02,-2.775404414508043927e-02,5.669889812410872304e-04,3.300615021969599550e-02,2.255302162351065579e-02,4.091796769350359436e-03,8.752576872274889230e-03,8.099413411391263905e-04,-1.961281725902782810e-02,6.299109451466736176e-03,1.829856544026078197e-02,3.616625397574008832e-02,1.320344268539035484e-02,2.529656612550289577e-02,-3.293110350711703910e-02,-3.724181089706106278e-03,-4.753428332755962882e-02,-2.454088976030002756e-02,2.193884049596448588e-02,4.764487485930077315e-02,-3.883026204255948799e-02,-9.542895545000453644e-03,2.906985455124446935e-02,-2.867202079223795524e-02,5.336442479330796677e-03,2.257915420816804589e-02,1.123627581748613477e-02,-3.022310231353330170e-02,-1.400985097757247687e-02,2.749278256937796872e-02,5.253280200588566519e-03,-4.793167174059524693e-02,2.528389689321081102e-02,-4.501745497760961667e-02,2.380585283971870317e-02,-2.882267111562966666e-02,4.437660030418683066e-02,-1.279345072413124069e-02,-1.676627619886477544e-02,-3.401453113670803441e-02,-1.883240223328657217e-02
3.648864437112033648e-02,4.808318200911236573e-02,-1.275772464942803545e-02,-4.978427237089320077e-03,2.151347696712403376e-02,3.741333330276112867e-02,9.013818542169337034e-03,-1.050862131111294888e-02,-8.464898782103052674e-03,1.895082050389014158e-02,-4.812652447966966895e-02,1.158540814830581051e-02,-1.399934550922689834e-02,2.850083654098284347e-02,-3.942968209363387905e-02,8.544735541712306440e-03,-1.843281694122929706e-03,1.378801273222245681e-02,-4.215550331881334767e-02,7.748557206560399528e-03,5.956417699702509783e-03,5.876543570300357851e-03,1.002553305589088360e-02,1.709561338228471686e-02,2.954629666070177421e-02,-2.229898552195977782e-02,3.148968098068687105e-02,-1.689835678285698541e-04,-4.097315499235921338e-02,-4.276608408434647013e-02,-1.605842773316161140e-02,2.759984987092416533e-02,2.011942238916705414e-02,2.796003585655407880e-02,1.672967435573922447e-03,-5.793317624123202857e-03,-3.415359978169649202e-02,-1.664410151064748405e-02,-6.391979326888277621e-03,-3.985499071603955390e-02,-2.706616349209009509e-02,9.515732308475405646e-03,2.283024073846617180e-02,4.827821143434816303e-02,4.195854600977745597e-02,1.381123149807984667e-02,-7.629220668340833990e-03,1.319239979262674077e-02,2.767295692055143572e-02
-3.697429133324268286e-02,-8.728107766176461391e-03,3.291888936283988293e-02,-1.125386839517772582e-02,6.962741113874897948e-03,8.502797072907698414e-03,-3.056686712690468224e-02,-1.334616171249633498e-02,-1.603198332381162647e-02,-4.590045091193904053e-02,-4.609468312754252950e-02,3.213368109728612781e-02,-2.198412787521533338e-02,1.751409365946389289e-03,-1.949878165830013638e-02,4.269150599536502416e-02,-2.331851108462356520e-02,-6.814608661460417466e-03,3.610883857044929618e-02,3.312536063024331540e-02,-3.040942669865197290e-02,2.931905420510333080e-02,-4.050712156972406143e-03,-1.649917729357968862e-03,-3.550721330415883281e-02,-4.062989847683536049e-02,2.208198456839713039e-02,-3.428315200114807459e-04,-6.117689085179252480e-03,2.223397636286438689e-02,2.572198633080376509e-02,-3.304381625938054845e-02,1.067823747527091999e-02,-3.532565591681788991e-02,2.435236311046504870e-02,1.520528154900568571e-02,4.423527100409200413e-02,-4.175788089170730938e-02,-4.291103163399601073e-02,-2.110097516430446685e-02,-2.308514263880825229e-02,-2.451183312149173357e-02,3.935656160847542107e-02,-2.426311206893404931e-02,-2.209273466390729995e-02,2.512962114270960237e-02,-4.869033069141174598e-03,2.680677733788212891e-02,-4.210584795131904617e-02
-1.204060471849695670e-03,-4.518192768239128604e-02,-4.236866971543576388e-02,3.937427770543712457e-02,-3.494868109288394586e-02,3.140805397730935845e-03,-8.612755551019543945e-03,-1.478885918611244285e-02,3.873449422399594111e-02,-4.632412247610941114e-02,1.586738755421523289e-02,4.489207623397080404e-02,5.828888910616021775e-03,4.231787397183837257e-02,-4.337573335416599479e-02,-7.867026968110890986e-03,-2.323509722452491918e-02,2.236114979218415538e-02,4.662642466662352686e-02,-2.358653922113363929e-02,1.493591086060962018e-02,-2.924727421115340398e-02,6.328972797420084374e-03,-3.494097981355559577e-03,4.572627048622387308e-02,1.051375294919813103e-02,-1.457931066537573005e-02,-3.738508744332039169e-02,-3.378602071007044683e-02,-2.661036130426987917e-02,-2.412550259237597819e-02,3.396649082367941830e-02,5.931055437685260612e-03,2.266031913789022696e-03,-3.731988106653863491e-02,3.488910823057300020e-02,2.158549163981703101e-02,-4.188281822780484664e-02,2.013435712659813331e-02,4.217834371175327619e-03,-4.052102545715973586e-02,-4.039691979857817049e-03,-1.482571636810224146e-03,-3.237862545282471638e-02,4.317772013475582038e-02,3.390442330880871769e-02,1.637430899553169589e-02,-3.652677772862097678e-03,-8.547854141523789778e-03
1.462579585823030499e-02,4.401284940610032670e-03,-4.240549227519194858e-02,1.211214076571399565e-03,2.968333999635858894e-02,-3.948701985013684974e-03,-4.340492244085484425e-02,2.773365798551946301e-02,-2.893086077162151243e-02,-2.338399229996950685e-02,-3.248210774915537280e-02,-1.644818687583977923e-02,2.487321235552282517e-02,1.878036114500993567e-03,-2.859009811238499843e-02,3.660289252432410295e-02,3.677259870079339910e-02,3.590037704286201670e-02,-2.530453437828331792e-02,-4.723766443074566522e-03,4.698414786339441540e-02,2.635164326870585716e-02,-4.580641156873540426e-02,-4.212149994516210111e-02,-3.494205502366770806e-03,3.964386130186540319e-02,3.749298515062262672e-03,-2.119167793901188313e-04,-3.822036569755475621e-02,1.518832315109218921e-02,3.120425834507235471e-02,-1.158450283965709558e-02,2.670033843570880985e-02,4.499691799536330999e-02,-2.869809759901086055e-02,2.260095298473320437e-03,-2.062135042515902267e-02,2.837073977169040154e-02,7.516981299740983606e-03,1.303788673826859236e-02,2.886091022511677942e-02,-1.007802668097834350e-02,4.021251361492559490e-02,3.199724288557410316e-03,-3.313617306344547597e-02,1.897804008355604560e-02,2.841016190169505171e-02,-1.775150531540202123e-02,3.460231122886497229e-02
3.934577674805542213e-02,-2.161273425109113203e-02,4.684191524814575180e-02,-3.480664479752694496e-02,-2.886770824795781634e-02,-3.059122324975562315e-02,3.816838268049307925e-02,1.494733753775321847e-02,-3.370295343655414083e-02,-5.781264197826483861e-03,1.116968040378866350e-02,-4.035258231484514790e-02,3.704719672085890481e-02,2.941207759880752615e-02,5.044145097084841997e-04,4.525363723610779237e-02,-7.967036535635137195e-03,4.689896067638803928e-02,1.626751818954039544e-02,1.304649477653365384e-02,-3.236115326118837315e-02,3.699986183645079252e-02,-7.024552340904169356e-03,-3.272167850404929246e-02,-4.721692526636848269e-02,5.788927331119140055e-03,2.654382172717970403e-03,2.125023265397251934e-02,3.780687244707500727e-02,-4.074565914404144895e-02,2.242659239076450275e-02,-3.028246737407560771e-02,3.469897432600676374e-02,3.090978771047402790e-02,3.951960195182323450e-03,2.036760704616396439e-02,-1.798512941988096234e-02,-2.793155859306581043e-03,3.115908838262465216e-02,-3.946249110607849032e-03,-1.377602025895563811e-02,-5.606784200777247765e-04,3.179967081211143576e-02,-1.596448371834018401e-02,-3.160486693426736715e-02,2.053919697916330861e-02,3.157966020964531051e-02,-3.868888237628317212e-02,-2.520011096034858317e-02
-3.468453555516690795e-02,-1.473091871478450152e-02,-4.809828248591132421e-03,2.410544897228681857e-02,1.464266379160208097e-02,1.171514819620133804e-02,-1.430141292501871386e-02,3.307827727581198057e-02,-2.781601536156617666e-03,4.641405639226221791e-02,1.299523398199671671e-02,-3.620620032151113804e-02,1.706748282557217500e-02,-1.694332795684225929e-02,1.805074489573954208e-02,-4.169170140648290057e-02,-3.149638025356556875e-02,3.446261535955967570e-02,-2.642991633050545755e-02,3.265139753797009770e-02,-2.138298160741069695e-02,1.384191333609094930e-02,1.880864702586369785e-02,1.225949430907484873e-03,-1.886083927292658835e-02,-2.783803518076816141e-02,-4.522302715477864721e-02,-1.899300563758991173e-02,1.483789005883791139e-02,4.246147961811373717e-02,3.596102733608816382e-02,2.577545034969680113e-02,2.794379726374964998e-02,1.598317613993067293e-02,-2.322259369104226132e-02,3.944766922279461380e-02,1.653996551487855321e-02,5.855282699301496765e-03,-3.768601673760714477e-02,-5.129078789307944981e-03,-3.840355817544004007e-03,3.531768217846388558e-02,4.519120866014103913e-03,-1.158638791653494524e-02,4.619079366416985882e-02,-3.771206451879077076e-02,-7.503244760723034971e-03,-4.436709135355778461e-02,2.324109502219361828e-02
4.050183400414075763e-02,-2.130923515990403375e-02,3.471492250435980614e-02,-2.012919092126005255e-02,3.979401574482684112e-02,2.460296519560093570e-02,2.953833119176451499e-02,-4.669388506355487412e-02,4.483549282783095419e-02,2.195911453559100043e-02,-1.891504960649932968e-02,3.191063447061621289e-02,-2.116548299271036812e-02,3.611112380041317516e-02,-3.753189370450568663e-02,1.973240451944452759e-02,3.942729953696041262e-03,-3.908636786392384599e-02,-2.500444779386981273e-02,-4.723663807478499510e-02,-3.025653248703638089e-03,-1.925274540563199840e-02,9.528538448611904160e-03,-1.964291135511794448e-02,-1.938315576541813426e-02,2.355972970536620789e-02,-4.377438474968296106e-02,3.903109641172099881e-02,3.412612568487428943e-02,1.625634680874395860e-02,9.030988555168054099e-03,3.800493133490353420e-02,-3.048414164296361917e-02,-4.078803514301947153e-02,-2.523536850510831389e-02,2.853774143128053400e-02,-4.507956142265889116e-02,8.022044458886948282e-03,4.799630099954933782e-02,3.445862742779901011e-02,2.077585392385573968e-03,-4.227298413485652828e-02,3.210233868037059429e-02,9.588701129216340574e-03,-3.730398117648150991e-02,-3.934572447449700972e-02,3.968325264164075661e-02,1.639154582319325010e-02,3.190018482387670801e-02
3.671418650379739551e-02,6.953061283769848729e-03,1.690143202348115764e-03,-6.739955789424864618e-03,-1.773359179360048041e-02,-6.336120795501915849e-03,2.653252925844557311e-02,9.873995234587894243e-03,3.802632089478536620e-02,-5.485151575395225132e-03,1.037447404793526151e-02,1.272062901123501705e-02,8.883309113715692068e-03,1.963047053935922798e-02,-2.543655228447460476e-02,1.197760704803174777e-03,-3.834135460430383724e-02,-1.118814966417986181e-02,-1.194772433083183226e-03,1.474696836998669325e-02,4.364591558549094086e-02,9.750732893863345990e-03,2.359854984811952938e-02,6.070345256145358390e-04,1.299154231329142060e-02,-4.156662713386621855e-02,-2.379370804326860767e-02,-1.338320232923683427e-02,-2.664750184330667935e-03,-4.401600374964283885e-02,-3.487324072516093804e-02,-2.162147054262410564e-02,4.568048285401777459e-02,-1.633852816352145132e-02,-1.739801190495756343e-03,-2.944101965872774479e-02,1.073199639175266909e-02,-2.124666392499006962e-02,-2.838556213603466924e-02,1.605499860732703676e-03,-4.790491581760505935e-02,-4.769583349991483173e-02,-2.721565799490740026e-02,-4.488085824224408854e-02,-3.797313137172692032e-02,-1.561063206651217526e-02,2.931347118585571343e-02,6.979827446952638174e-03,1.227206192736500804e-03
-2.000610021879484571e-02,4.182683143351328264e-02,-9.976832431271226778e-03,-4.000104796688159353e-02,1.134100579978876075e-02,-3.741002264755756423e-02,-1.499425534618920725e-02,7.180434062098754386e-04,3.625340501801107423e-02,-6.251853409350403975e-04,1.959414113182464043e-02,4.774241870918839725e-02,-3.570008032285453686e-02,-2.182324340310844851e-02,-1.021311112462308657e-02,-7.573020108320755762e-03,-8.619975505694292203e-03,3.948796716048052352e-02,2.073475441773772396e-02,1.045349002782900404e-02,-1.846732254456673675e-02,3.136771082923812265e-02,4.408471415355748324e-02,3.111659683814911939e-02,-4.828667684235494334e-02,1.321410068095402179e-02,-4.348447712634224277e-02,-2.348218782948958624e-02,-4.267174845275849282e-02,1.005535035061754824e-02,1.807619600614352937e-02,-3.734712604059468866e-02,-1.125329380923214412e-02,-4.239658120984520460e-03,-1.268569774622716438e-02,-3.671380861071696367e-02,-7.852062332192015146e-03,2.433327471801072228e-02,-4.155931794961365694e-02,-4.067073193135178205e-02,-1.406926315229672583e-02,4.279288410996181374e-02,1.633074449953330481e-02,1.730893753455983036e-02,-1.337672151417629643e-02,9.073538801137329135e-03,-4.745682426806432930e-02,1.318452195250933122e-02,4.003783340338398777e-02
1.090573461771273192e-02,3.620264834404060550e-02,2.169774761624713652e-02,-3.675900968912854810e-02,3.898830719007668338e-02,-4.200144532145683174e-02,3.290653176871782565e-03,-3.466853793191800037e-02,-4.730420228895197005e-02,-7.553055625124337202e-03,-1.985575893345779830e-02,-1.356224532007068015e-03,7.478862378705765715e-03,-4.420100639156539918e-02,-3.652215815665425108e-02,5.681075855956520780e-03,-1.519341325127760572e-02,2.220154778366118312e-02,1.475349679153857042e-02,3.348097487719487592e-02,1.864805015190383261e-02,-6.788038835149413745e-03,1.675641791348093934e-02,-2.176030764379839610e-02,-1.876368928145684400e-02,2.799589911274584161e-02,-5.190694960407573819e-03,2.890607224491423960e-02,3.123518262108406982e-02,3.463942278014046222e-02,4.036220417900512891e-02,-6.685917035766573285e-03,-1.754756639282773270e-02,7.963134914864507252e-03,-1.248037732237962730e-02,9.791721406800738686e-03,1.991645893221940730e-02,1.825203720317874340e-02,-1.215288951146315660e-02,-3.227345025688684726e-02,-6.730081337881911423e-03,-3.462426336123949205e-02,3.779127358712981721e-02,-1.493086725064282985e-02,-3.347476409785176549e-02,-4.597300650679609496e-02,1.412677666899989255e-02,1.326263074828681367e-02,-1.544172604781950814e-02
