-1.513384887192402266e-02,5.436831387814790306e-02,2.798473282709570270e-02,1.190087680662263794e-02,-4.149343887843850998e-02,-4.149634841445244693e-02,-5.330704736868337179e-02,4.417072931799910507e-02,1.219720035078619702e-02,2.509917049041304055e-02,-5.783045339694892900e-02,5.668381494316662023e-02,4.010155787040722147e-02,-3.469966961041322934e-02,-3.838049914337879343e-02,-3.818996365524707226e-02,-2.361367062792642940e-02,2.986294036693581348e-03,-8.209268121327044365e-03,-2.518340215276100927e-02,1.349247894278060578e-02,-4.348677346230759438e-02,-2.507296713011854944e-02,-1.612036970332529282e-02,-5.299145939663109373e-03,3.439992021335321754e-02,-3.622745017239613341e-02,1.717057578479773763e-03,1.114769204205295211e-02,-5.471032529887558810e-02,1.297281266869431543e-02,-3.974368597555807264e-02,-5.246652075842889867e-02,5.414771494418517406e-02,5.616779446733093095e-02,3.720104639042651901e-02,-2.356885453595783039e-02,-4.853160522430529505e-02,2.222347697795136814e-02,-7.219225036603343741e-03,-4.559239320708145110e-02,-5.817948558626334296e-04,-5.616531507711532145e-02,4.937509145030172936e-02,-2.909764675216520990e-02,1.960457532030204786e-02,-2.271272770658248896e-02,2.420745156725145203e-03,5.634520787458020298e-03,-3.801506106110813521e-02,5.664458410032637004e-02,3.318844661894006925e-02,5.301543808184275980e-02,4.762683813325617466e-02,1.180938057871242647e-02,5.088942263567723667e-02,-4.963891426003404911e-02,-3.667267474154518175e-02,-5.485786705257367918e-02,-2.106987789603961478e-02,-1.342852438862636097e-02,-2.758147995806717323e-02,3.965461896130171443e-02,-1.727941621901909683e-02,-2.642521252998508013e-02,5.150300351025391063e-03,-4.331423290756632877e-02,3.645311468707081171e-02,-5.132067878634637842e-02,5.873170967906162637e-02,3.284006932618410701e-02,-3.634302297477194632e-02,-5.964738274266274259e-02,3.805316519747370396e-02,2.495258046696824383e-02,2.762444727253554611e-02,3.272252765156738463e-02,-5.138171507592346338e-02,-1.707285432386860397e-02,-4.633656230794633291e-02,4.380007633989039389e-02,1.487308293660339308e-02,-2.039826367052204742e-02,-5.264664614299026379e-02,-2.280063515919396669e-02,-2.108761111865121995e-02,2.769670408662942146e-02,1.659314486485984411e-02,4.670831084483418466e-02,-3.351630175566432460e-03,-4.588720425277568321e-02,2.572307858822291127e-02,3.145771761909974679e-02,7.391684407731406725e-03,3.268595755877262005e-02,-7.484185868747134747e-04,2.742192971470860420e-03,-8.740509456095351196e-03,-5.724726619677339423e-02,-4.729888017389028559e-02
-5.652229082684939038e-02,1.645477844914772919e-02,-2.239368075719249188e-02,1.033856748650517979e-03,4.916352036198932268e-02,-3.024212585106630588e-02,-1.081023899163681933e-02,3.082636675746055349e-02,-3.271426323323956692e-02,-5.102764370269079891e-02,-2.536165113430561419e-02,-4.086585921028567520e-02,5.183313798345918350e-02,3.716763650536682867e-02,1.609209471129214447e-02,4.480817598525552170e-02,3.663105110727162689e-02,-3.780811297743733035e-02,4.735321364790149451e-02,4.745736549118481119e-03,3.708558307777402863e-02,4.777930456695685807e-02,-2.195369451721537052e-02,-4.703826584146018203e-02,-3.281836468859328226e-02,-8.792768658281064492e-03,3.836116663187295189e-02,4.351384745726534498e-02,-5.947488451776057616e-02,1.296414849874102373e-03,-9.962462783696902566e-03,-3.352130067704613831e-02,-4.585449969267291898e-02,-1.958799444486096844e-02,5.342686810587471413e-02,-2.132649962055953655e-02,2.266656297303639746e-03,2.448956761179257174e-02,-1.644995172349216980e-02,5.690965649564125317e-02,5.578362906600645849e-02,-2.994175658228663897e-02,-3.319044750725291121e-04,-2.401945178545814019e-02,-2.595404532137035591e-02,-5.586393741936485774e-02,1.321641672996204907e-02,3.231625305035715667e-04,-5.410377191551008630e-02,-2.670121258471100725e-02,4.924788833702487684e-02,-3.141586737469027890e-02,-4.283526566455463785e-02,-1.272281868186351042e-03,5.858255650783861929e-02,-3.111509832776819529e-02,2.076419438622841007e-02,3.155838889643706319e-02,-3.164799553775415192e-02,2.752905309859367960e-02,-1.594892382618834023e-02,1.595965520357517028e-02,1.610728819445102905e-02,4.315392755470021970e-03,-4.942211521573303817e-02,4.044653356918807147e-02,-2.161876279998989001e-02,-3.781433111659290858e-02,-5.539491622413991734e-02,1.096414290446910515e-02,2.141905597608037906e-02,-5.831255914353866698e-02,1.458749323044750959e-03,-3.299199366330760053e-02,1.751175794355459489e-02,-3.928020021848872834e-02,2.303224621163273839e-02,-1.366277519052504913e-02,5.268142761380156802e-02,-4.372476045835087949e-02,-1.917168900345517582e-02,-4.662552890055005755e-02,5.122951637487056786e-02,4.551731354304130311e-02,-2.919877486481857118e-02,1.929839525078572843e-02,3.826556180795091799e-02,6.658708207585856652e-03,3.576660265276443776e-03,-3.113958326959438000e-02,-4.908279174071450424e-02,4.791494456382261458e-02,4.830122830521972610e-02,1.605562926172230537e-02,-1.941735312332377311e-02,-1.818939638854544585e-02,2.725635529348905545e-02,4.790221865666435125e-02,4.669307344612127347e-02,3.376054699751704358e-02
1.713285114079188612e-02,-5.016394774024267311e-02,-4.081671253347154971e-02,4.807639542638233315e-02,1.283821799982120225e-02,-5.920408642577852654e-02,-4.807329152566894304e-02,1.972272762607757066e-02,-5.970293548953595902e-02,-4.091570660883799004e-02,5.878610727622130341e-03,2.314774168800614110e-02,1.833063059338979270e-02,-3.326056554205028548e-02,2.559454257516341827e-02,-3.169485387879282523e-02,-2.106151031527906184e-02,2.973351830890009345e-02,1.804976746067006935e-02,4.212577174791678342e-02,1.901237009333870895e-02,8.239861779189163946e-03,-4.901379309500338011e-02,-1.595704560094970623e-02,-2.832293359713300429e-02,-3.088176085576398514e-02,5.705784338930855459e-02,-1.289530058608737845e-02,4.729139914926600019e-02,1.581885881670645061e-02,3.556220261444453801e-02,3.181046255465168641e-04,9.276684760949437461e-03,-9.025681350758730896e-04,-3.676192359621520411e-02,2.683373093197507012e-02,-2.644477186561781587e-02,-5.738033711394337905e-02,1.754788639272201675e-02,-3.894916952987419190e-02,5.313119691089768226e-02,5.475604169150182637e-02,5.004384609850390936e-02,-1.566236624501203892e-02,-5.844901389968110150e-02,5.166678252593016191e-02,-8.662930619645552860e-03,5.629117006869951978e-02,5.592508619338930342e-02,4.258247098850299894e-02,-2.479501314918977628e-02,-1.386031609788994715e-02,4.235656268206838826e-02,-2.208414897483371511e-02,-3.986809788733993581e-02,6.851765790638095904e-03,5.261204120611943924e-02,2.364648595245913767e-02,8.451268646051342259e-03,-4.859139040562987510e-02,1.387297654081788741e-02,5.911372494892974672e-02,-4.341558488624190637e-02,2.211050944725568602e-03,4.552138091015024701e-02,2.904319564722919120e-02,2.376541745631830654e-02,2.442504725716027406e-02,-1.694916066452489128e-02,-2.489839625332727555e-02,3.731730757946115362e-02,3.740804793624966096e-02,4.427883195345472256e-02,4.984796743535364200e-02,1.368199528243433001e-03,1.829060766721258831e-04,3.598245204946777520e-02,1.808969882467214088e-02,2.436265816188567732e-02,3.568058183653735616e-02,4.704517370879110483e-02,-1.954215794087790434e-02,-1.500805496178741691e-02,-4.897673985713693612e-02,9.442698435746891064e-03,-5.597789055502512545e-02,-4.149807808638063776e-03,5.144094278853083950e-03,-2.574888801903479560e-02,1.095694356925991028e-02,-5.663434555771659079e-02,-5.580829925442754025e-02,3.891433728588853530e-02,-1.686478326237517839e-02,-4.498657091052524204e-02,2.683137693066728943e-03,3.256851187366417016e-02,-3.427965643622016972e-02,1.482390921908254347e-02,-5.001829063993638858e-02
-5.407928826347968565e-02,3.782215089219652729e-03,4.901692745838200256e-03,1.657775649593415043e-02,2.727271893114309106e-02,5.740060798571372525e-02,1.966262087000448817e-03,-2.135622923952728083e-02,3.560742461785741664e-02,-2.764381763999395475e-02,-7.361694331476881757e-03,-5.084954137592854334e-02,-5.725551507244148325e-02,5.580788953603882385e-02,4.052827342962654622e-02,2.363978022750555519e-02,-1.098273302038066390e-02,-3.940952550107734709e-02,-4.144296827350979484e-02,-3.012744950131248170e-02,5.938064800371777377e-03,2.588606200513333261e-02,1.932412869079030981e-02,-2.654591344145668802e-02,5.486903344238794333e-02,2.869679096850293390e-02,6.556566200500241193e-03,1.347653826733851735e-02,-9.698403133744511531e-03,-3.043045350341492053e-02,-1.737358344910261074e-02,3.110320233153795327e-02,-5.857725582697183297e-02,-4.631200494520017197e-02,-5.476433853413659875e-02,-5.540050598705775764e-02,4.287814326719808361e-02,2.456663625949910210e-02,-3.115333475068288172e-03,-4.851205802397867001e-02,-1.011351818122851109e-03,-3.200020661252139884e-03,-3.942067748647173214e-02,-7.979276995660464222e-03,-1.224306923244401595e-02,1.397464958209842373e-02,1.629594159506668818e-02,-5.484861244534230962e-02,-1.512510392369990388e-02,1.518210384031043643e-02,3.783174584437624748e-04,4.300229947098787447e-02,1.914273643329852947e-02,-4.065920829521597890e-02,-5.180100298210986443e-02,1.717961003167722128e-02,-5.711551934367362082e-02,1.034685089741725801e-02,5.310365258891266982e-02,9.104223527173740255e-03,-1.348972612262855884e-02,1.728442768406226668e-02,-5.035828508177792387e-03,5.502616367776182876e-03,5.325257474274528585e-02,-1.373909691765747010e-02,5.563203336353406137e-02,4.889623120268267453e-02,-3.669580227002715994e-02,-5.194665363207381231e-02,-4.815695135364370799e-02,-5.811545502350915632e-02,-4.892112828799463631e-02,2.207555774783517485e-02,-5.172622617801635875e-02,-2.183642633884261275e-02,4.160127355389099668e-02,-5.750627540290174922e-02,3.793338911818485565e-02,-2.631420371500797772e-02,-4.605963069364369528e-02,2.373181371413397162e-02,1.555398856075989288e-02,4.553331593825749035e-02,2.835591440394609475e-02,3.660799367701807888e-02,-2.629251524634354520e-02,-3.890949960774704730e-02,3.023090522294655247e-02,3.701255357541333169e-02,5.916816293575586500e-02,-1.054066733963511179e-02,-1.543807414893958244e-02,3.334286574862187214e-02,-1.920339108105009393e-02,5.196096318812325893e-02,4.323425441128371516e-02,-8.565237339919604467e-03,3.026182387081682509e-02,3.070474284234394474e-02
-4.787397640368818569e-02,4.855874879420944007e-02,6.335779223975186855e-04,3.937958421286099492e-02,-2.170687647258226494e-02,4.771077981585616912e-02,-1.336526891221919561e-02,-5.900618578879438664e-02,4.890001098492217230e-02,-4.930186134908878109e-02,-2.179565353324000587e-02,5.428962413937805237e-02,5.435538755265649502e-02,8.858592006626586635e-03,1.590312716976123239e-02,-6.218861933256620428e-03,-2.494436389315433586e-02,-2.066768159631383189e-02,2.081038350985775845e-02,3.044318193627186878e-02,3.517230481510264656e-02,3.493576722177491739e-02,-4.931158071717926805e-02,-6.730618952187808045e-04,-5.337035870828265444e-02,5.974520404421448244e-03,-7.053000112091044153e-03,4.676759179883512724e-02,-1.798367452910741918e-02,-4.619205636269443915e-02,-4.306484176610109182e-02,3.154524253054742655e-02,1.426029012400533737e-02,-4.811537427371681552e-02,-5.016794759641063361e-02,2.424230308112494334e-02,-5.153631610979358263e-02,3.882501282846428925e-02,2.487838078690720461e-02,-5.050063993049627026e-02,-5.007978036192433507e-02,5.870187161403005865e-02,-1.516633650799646162e-02,-1.560404950730411890e-02,3.773207287131850884e-02,5.395025338877455084e-02,5.862484950500852776e-02,3.056424992532823237e-02,-1.492643476719085829e-02,-5.024105834341055510e-02,3.343140055953644496e-02,7.045129334248540973e-03,-9.140871562592006033e-03,4.901730972457617880e-02,-4.690008064525073156e-02,-8.896115322518955565e-04,-5.894394306742028328e-02,-3.780372685248988788e-03,-5.352180401501716034e-02,-4.598085057059543568e-02,-4.613666078410096072e-02,1.799879086136978515e-02,2.967965523563249539e-02,1.005652388658287780e-02,5.575048722432696807e-02,-1.509398639247704586e-02,-2.584890780619105918e-02,4.446300641362412043e-02,-3.334180432012586598e-02,5.587714448281781016e-02,-5.884734135772370228e-02,5.668007243573650045e-02,-5.510724852963164860e-02,4.718241971549930192e-02,3.341501638971783664e-03,5.946486362896965389e-02,-5.141164106589565796e-02,6.496280673529635820e-03,5.661055617157240843e-02,2.786223609705172199e-03,1.560896930381540544e-02,2.361257677556931681e-02,-5.483574903487300339e-03,1.538694831088172586e-02,1.017058236195878679e-02,4.839048665402556626e-02,-5.483143871090611493e-02,-2.642175295915122693e-02,5.433178532905339614e-02,4.707634880033664121e-02,-5.348992806831447469e-03,1.449123467212744439e-02,-2.685383966457885116e-02,-3.762100833930449861e-02,-4.378952445999062526e-03,-1.768968054224428349e-02,1.009118566295768085e-02,-5.093660323370795967e-02,5.722482166319425162e-02,5.865014265323403170e-02
2.390365274240660934e-02,4.354196322033087978e-03,-2.297611190856160487e-02,3.785215131225673491e-02,2.228356683968494775e-02,-4.069750588787522660e-02,4.956891278996970740e-02,3.890669945739597818e-02,5.425801338104808275e-02,2.722786675717022917e-02,1.368093464861226509e-02,-9.862097123301312093e-03,5.219873803075775198e-02,4.415718818056133671e-02,-5.485890671307129540e-02,-5.713293016745406294e-02,-1.490185323497428792e-02,3.746111610776131640e-02,5.877865682796756808e-02,-4.216916108648283146e-02,1.135470564181515103e-02,-1.436777843601963825e-02,5.668436327159619148e-02,4.126877876332468720e-02,4.081157609182486240e-02,-3.776450160541493933e-03,-1.027506774766263203e-02,-2.733322475154720960e-02,-5.351309221630073248e-02,4.399536546457941816e-02,3.774430949991029738e-02,6.027944293156870664e-02,5.990781090699949518e-02,6.686560258115724353e-03,3.244714447671663560e-02,5.365075494741247675e-02,4.217691520476368056e-02,-3.047664010434772072e-02,-5.965712506428862139e-03,-4.473338660224936841e-02,5.477081249834183513e-02,1.280752745059982392e-02,-3.273300384226893872e-02,2.071173816785916791e-02,1.424945506222100727e-02,-1.710940557231940481e-02,-4.661538767311592529e-02,2.069635957502182974e-02,2.449657002626466368e-03,3.284895018000684452e-02,2.432262614584540950e-03,4.248259724416453276e-02,6.261366153190204425e-03,7.350764589487705260e-03,4.543459349177998013e-02,-1.164257213440017362e-02,-4.414764441961375324e-02,-5.684153130856454961e-02,3.077644130926882049e-02,1.451258004793701609e-02,2.461752984185751336e-02,-3.462427160492185380e-02,-4.386341740030311881e-02,-5.855901979464910728e-02,-1.802317429151064146e-02,1.084650066036188520e-02,-1.299827738977759120e-02,-7.542212475452013225e-03,4.875245015815890537e-02,-1.830448752311595456e-02,1.687510085255211232e-03,3.421621148889596870e-02,-1.247973362221480378e-02,1.472695218220910172e-02,4.371084648303803083e-02,5.422432351080521545e-02,-4.257246661995475745e-02,5.145798473993938582e-02,-9.509879013806343383e-04,-2.916225376438749683e-02,-4.929331063236196131e-03,5.790488864828783472e-02,-8.904571634556422395e-04,-2.065717921664646586e-02,1.609174462837787561e-02,-3.134545400480386046e-02,-5.116233360395913699e-02,-4.476712515834052608e-02,-4.486771395588894096e-02,-4.198993320182980299e-02,-4.356719403487515491e-02,1.699329760346974388e-02,-3.837385052194716012e-02,-1.861669235385706236e-02,4.786339485164085861e-02,-3.140929176037218860e-03,2.021198704160639265e-02,-3.952707034317862189e-02,-3.711825200850776135e-02,-5.538364065024773547e-02
-3.993536958769541151e-02,-2.670798279967787764e-02,-3.896125576768794119e-02,-4.961357876589329863e-02,-4.576155613608211964e-02,-4.731139482280029805e-03,-3.542408205392427734e-02,-1.637271924213432733e-02,4.122151256377737404e-04,2.296675667153788569e-02,-5.557139372938348088e-02,3.611697768356030014e-02,1.542824006712304602e-02,-5.045115254678296524e-02,4.506366805923300162e-02,5.076857434818663611e-02,-5.294584819534093462e-02,-2.691457956014083400e-02,3.693614126048846286e-02,2.994682125265149195e-02,-3.805528246532105530e-02,-3.506031868301517918e-02,-1.562456143783876560e-02,-1.866945839225268551e-03,1.426471812567773299e-02,-1.581255417823995008e-02,-4.519324733735835022e-03,2.985167643633461834e-02,-5.588851450247184910e-02,-2.986278829653221320e-02,2.573572013619361901e-02,4.767261454227310347e-02,1.408614790365729985e-03,3.873753332866352716e-03,-4.738566112471351288e-02,-6.343488338377755928e-03,3.934522945586420989e-03,-3.106501012314066140e-02,-2.783549639056968547e-02,-1.480284304993761089e-02,-5.789237081516804273e-02,-2.146205619272732734e-02,-3.480716077272457548e-02,-2.080847660751423273e-02,-4.586695268289791433e-02,4.710813363429339901e-02,1.128977673680638463e-02,2.160457514897644316e-02,3.488185851113838332e-02,-1.879128671538114162e-04,-4.982856571127414896e-02,4.476050757280868736e-03,1.047538339684832114e-02,2.960662703793785766e-02,-8.243703801539903689e-03,-4.492387018574149626e-02,-2.608246344606053937e-02,-1.651597160109682591e-02,1.760155882368372865e-02,8.537774437767259653e-03,-1.735862000209833361e-02,5.868687409452949533e-02,1.275929895593194696e-02,-3.169754334949386604e-02,-4.803578500271345197e-02,-4.187456003136415250e-02,-3.064435666913831527e-02,-4.093098741478224528e-02,-3.780847906044119272e-02,-2.592332472303853635e-02,-3.939996276877675424e-02,4.786062220635897702e-02,-5.063514325317673703e-02,2.956735348296561997e-03,-1.080856179939730828e-02,5.818788460719909184e-02,-4.679858269299017742e-02,-1.232137248140905209e-02,5.663080916187173547e-02,4.409002745794899508e-02,3.824745216693117844e-02,-2.920345527319916437e-02,-3.969984244009733265e-02,2.034292540502163557e-02,5.179433671536813610e-02,6.847137399730797609e-03,8.638423771746934696e-03,-2.654046149747216546e-02,3.250812359702725390e-02,-3.775097321423476898e-02,-2.126904445249685333e-02,-8.994378593095422522e-03,9.180171367174372061e-04,-3.107234077295067953e-02,-4.646107769172502094e-02,1.334376367279297912e-02,-2.549686189732941477e-02,9.799522798351291072e-03,-4.169318816091058949e-02,-2.275012901708555781e-03
3.931165425363494781e-03,-5.406218146684593079e-02,-1.970993545836115593e-02,-4.409946014748612753e-02,-5.266876669941419203e-02,5.910243212506280375e-02,-2.142892244222734111e-02,3.737922425679469224e-02,-2.959696132345146155e-02,2.189412856718623776e-02,3.139050561544345225e-02,1.153661420178884317e-02,-3.428679055758245258e-03,-1.063436590027540436e-02,-1.823056735648859866e-02,5.181281135779868680e-02,3.988162674486420839e-02,5.609480036763739991e-02,-4.531989818812673376e-02,2.784885054150370090e-02,5.287569354468708849e-02,-3.845189838930503784e-02,-5.229225402425169422e-02,2.908566015471021615e-02,8.983468097783909104e-03,4.123377927674364007e-02,-4.345317691635237206e-02,3.561720952907898585e-02,-3.599180076071242101e-02,-4.057217401192474843e-02,-4.049860902599411450e-02,3.794620424610081755e-02,1.992724486193739666e-02,2.782312954671936883e-03,-1.702885495322883566e-02,4.550056899965094354e-02,-1.297402384529231477e-02,3.819044005046849655e-02,-7.341973281112007706e-03,-1.484382410394686352e-02,-4.501825431006442439e-03,-2.395919083777130892e-02,2.986837628436081471e-02,3.281524910913196941e-04,-3.230237877028879767e-02,4.819948137559449536e-02,-1.400585344333047863e-02,5.253650904045539284e-03,4.903151064287505217e-02,1.498645652330544802e-02,-4.621243939649405386e-02,5.305562883233930910e-02,1.540503910217405452e-02,-1.991484014195020122e-02,-4.351352708164047539e-02,3.546737600956168662e-02,1.448401612661133313e-02,4.036311085319034715e-03,4.751407995048667621e-02,3.481261531100186823e-02,-4.201741369423003108e-02,-2.271140181006483030e-02,-3.033900010685183779e-02,2.942650902219065556e-02,-5.626858220736216665e-02,8.430582898943415199e-03,3.165960344160511503e-02,4.544810782938214777e-02,-1.904920463095573224e-02,3.875230434813531355e-02,-4.696832480874364030e-02,4.179150000997514103e-02,-4.493492449978716413e-02,-1.238992582811455391e-02,3.586184758582127569e-02,-4.222940989998410360e-02,-3.265959149003507672e-02,2.680966019221286620e-02,2.654234692234817838e-02,1.702621527368628276e-02,2.339541868319500520e-02,5.153721355537942833e-03,-2.993973450207216072e-02,-1.861322913101590495e-02,-3.840791167768036612e-02,4.927016517220504654e-02,1.005930188642172388e-02,-1.195999598261144117e-02,-4.583125859655051530e-03,5.395444665198756429e-02,-4.181517971090049218e-02,1.040164580106626643e-02,7.103336578517457922e-04,1.344438986955265314e-02,-5.812892204243357702e-02,4.488819013576764855e-02,5.212513133139440313e-02,7.856820426819347697e-03,2.372139859969626605e-02,5.096483213976162746e-02
2.499857439134015036e-02,-4.191317228359339037e-02,9.202435893007281098e-03,1.287271571980563335e-02,-9.151889384679845127e-03,2.852155841139917755e-02,5.239638915698801441e-02,5.133505228771057666e-02,-5.930099062611861316e-03,-4.665393359120814654e-02,5.848493848843537568e-02,4.088025890138656526e-02,-4.527581412062824801e-02,5.076489306377291594e-02,4.461948784179169125e-02,2.272378285133210257e-03,1.101028183345869119e-02,-1.218300066969474349e-02,-5.370776704190148576e-02,-1.987966205366293454e-02,3.653230243257696297e-02,-5.975475212445211654e-02,-2.008449513522769792e-02,-1.228360482623376028e-02,4.510919332439565846e-03,5.064592273197479622e-02,-1.853482147812810302e-02,-1.846157585640009757e-02,2.864906265464528187e-02,-5.763806363591448406e-03,-3.322009355813463488e-02,-5.737078407142003761e-03,-4.332233959612941110e-02,-3.903646643219992052e-02,-1.968906749982908435e-04,-9.779779665697145574e-03,5.004161580755479150e-02,-1.659901089887032277e-02,9.721130792892882996e-03,1.595464403550280602e-02,-5.873395416283868492e-02,1.972702229807974522e-02,-3.883755488067339862e-02,5.561752840673780257e-02,-4.238076054599096421e-02,-1.029863568299852622e-02,-5.001802488842078953e-02,5.993644953830565975e-02,2.647775075198916211e-04,1.150600832317981784e-02,-5.222226503094996863e-02,3.015198124071129596e-02,-3.499321753175072686e-02,4.801609410013554097e-02,-3.556812008962018795e-02,-3.731141179714092537e-02,-5.590462243381835034e-02,-3.369480565043104104e-03,7.821591272566682032e-03,-5.238726321824996313e-02,3.323606935376122173e-02,-5.634627651964403162e-03,2.942124976987995234e-03,-7.145612025043172368e-03,-1.197065408820186840e-02,7.194234143996503829e-03,-4.158733427188969489e-02,-3.836805486559087541e-02,4.364111349501822307e-02,5.381356909739913597e-02,-1.528231689116849382e-02,-2.765438192554882033e-02,1.737023265910800709e-02,-1.100912298882126064e-02,-5.725121927423760387e-02,-4.147728005682307928e-02,2.605208168444364536e-02,1.917051807240693212e-02,-5.704499091364753638e-02,-3.353766355298394564e-02,-3.243964005781296844e-02,2.073490569179335663e-02,-5.793587615119707990e-02,-4.775519341237000753e-02,3.617797712381692898e-02,-3.877619250750188179e-02,1.842530449389224653e-02,-3.158222522852265762e-02,-4.831818243915977223e-02,-3.098036768258104895e-02,2.681139281359079876e-02,4.290659725756088699e-02,3.983343104545104818e-02,-1.240244219907939670e-02,2.027560548524711889e-02,-3.558685889865668972e-02,-2.495196839247505738e-02,4.780880011141981634e-02,-5.874511615023378375e-02,-4.999886174862972626e-02
-3.523680420718187933e-02,-5.711299904372586778e-02,-3.842748723343490658e-02,1.001705423485143957e-02,-9.478320602981449641e-03,4.736680982894284769e-02,3.829226398572792983e-02,-1.908109804960330530e-02,-2.902002908920058716e-02,-1.451234367683303973e-02,1.089200787824466839e-02,-2.797778680676749063e-02,1.497571009745626326e-02,-1.092740047814269762e-02,6.278295196735148714e-03,-7.704865062125382073e-03,-2.479297847663327128e-02,5.409557630158137037e-02,3.179797568693508436e-02,-4.341206733904746234e-02,4.444718590637311562e-02,-1.516136827529872277e-03,4.759365080723837460e-02,3.617063945276473985e-02,-9.021270470091217325e-03,-5.760309393882094564e-02,-2.790375577881713462e-02,5.022210341585018126e-03,1.610107699755220986e-02,-2.920528176037266027e-02,-4.350339424376619551e-02,4.040162910876278490e-02,5.843198103367464036e-02,3.098929577240803600e-03,-3.960434223151250432e-02,-2.746588373942335237e-02,-5.809508704677252694e-02,4.997562143931032902e-02,-4.610953947867343916e-02,9.229952762637733815e-03,-2.725504051259149824e-02,6.535329817977434362e-03,1.826538693000334321e-02,3.977576399892450432e-02,-3.541352075554139028e-02,-5.898710535058894477e-02,-4.380139648846667622e-02,4.825304803466456266e-02,4.510123775471232971e-02,1.175065011098767008e-02,1.212504715377860608e-02,1.990787866177915269e-02,-3.915898822525995526e-02,4.998926910123607098e-02,-9.798467756664507033e-03,-1.409664855549358151e-02,2.281986003204844113e-03,-5.464813556074685219e-02,-4.025523551348365869e-02,2.871328064667539801e-02,-5.032574437963103359e-02,1.244292933439993150e-02,-3.071777251641984868e-02,-1.335393777800222143e-02,-2.548924025770923918e-02,-1.740976698724434890e-02,2.642285003473781452e-02,-2.447259846690479079e-02,8.010192432950436967e-03,-2.888968093483403748e-03,1.974316138779420512e-02,5.269346022781461886e-02,2.805447397741582180e-02,-3.438588647032742723e-02,-5.655197117522996891e-02,-2.867737472675929364e-02,1.146896538601314096e-02,-5.411015763928848921e-02,-4.383286927198243007e-04,1.168186217275052341e-02,-1.999466190249548497e-02,3.267932594373389871e-02,-4.745487185486023385e-02,-5.124985408505224743e-02,2.752572470920955361e-02,-5.438689923806855255e-04,2.272641555571675021e-02,-7.861582516183074354e-03,-3.059076150819297832e-02,3.849235473518942269e-02,3.611763872674102205e-02,2.348565086095581039e-02,-2.748544814656266044e-02,1.088425450003687248e-02,-1.677030149902972861e-02,-4.926622855109667742e-02,5.033928396252967258e-02,-4.380947839480198863e-02,5.431078051898634990e-02,-6.513161534215852928e-03
-3.798146966123999713e-02,5.054385508647377470e-03,4.498733671443692905e-02,2.801259098074745935e-02,3.697955106536621184e-02,1.915356090806220879e-02,2.319374482338057430e-02,4.212242327165223454e-02,-3.019679667258523548e-02,-1.275634892759895840e-03,-3.362966819080860648e-02,5.882592797704350174e-02,5.356554521845487138e-02,-5.555756124724061523e-02,2.479791598787700266e-02,5.129642806674512834e-02,-3.853123730388451074e-02,8.196029211126922009e-03,5.011910617148093716e-02,-5.621869765406425218e-02,2.381421424378351789e-02,-2.444518094543669112e-02,5.119363914296939239e-02,5.682234214404515565e-02,5.359053303201413709e-02,-3.110461643713387844e-03,4.367211824947451332e-02,4.156195971521893517e-02,-2.182136690858479597e-02,3.967608634490514541e-02,-5.584937926527817204e-02,1.161274646907516604e-02,-3.256822352853832453e-02,-4.576987762856198072e-02,-5.103086543263689323e-02,2.367772583636217065e-02,-1.931540247513219635e-02,2.711294096961641004e-02,-5.242975994442484328e-02,-2.228097210657144570e-02,4.763716058667369010e-03,3.506906271405976772e-02,-2.186334152272454562e-02,1.518589885286321037e-02,4.655933718465183474e-02,1.397622860519845411e-02,-3.221229698791849838e-02,-5.737010611999308202e-02,4.464391623702881201e-02,-5.774783396887572112e-02,4.519913803808511127e-02,3.490599617431806249e-03,5.296341852702272923e-02,3.604132487708829741e-02,6.006429711039958791e-02,-1.800818558539041617e-02,3.223012127767058144e-02,-1.182977951844001868e-02,-2.427543515614570459e-03,1.538060129631259147e-02,4.507554862189393913e-02,5.839353582158886280e-02,3.236101664117822796e-02,-9.919546228626532208e-03,-9.486468753512479479e-03,2.865883989253699762e-02,-3.151052879625688974e-02,-4.698733849747249031e-02,-1.753649274475364839e-02,-2.566472179443477636e-02,-2.457074000976281619e-02,-3.213409736422239565e-02,-5.523592404042690363e-02,-5.815742006070362402e-02,5.883248788302840315e-02,-8.712510074868244983e-03,-1.395332933772127151e-02,2.167031246603070421e-02,-3.398618779269136497e-02,5.427746697647464064e-02,3.454093957032867979e-02,-4.952811833068116593e-02,-9.941983620202822849e-03,4.573190344605067292e-02,5.364668890188770134e-02,-3.932257847410016924e-03,1.368047545479220833e-02,-4.016469562244205649e-02,5.924819703554522893e-02,-3.236763722406967719e-02,5.340540497091755129e-02,1.805142607528091581e-02,1.299596617390749893e-02,1.530576996960172041e-03,-3.248849216708024623e-02,-3.901945253699587446e-02,-3.371690958645233438e-02,-3.782401122278560707e-02,3.372543582077775631e-02,-1.807894010938813564e-02
-5.333611070747706212e-02,5.658644217378060864e-02,4.629493929735003371e-02,5.159847394260589498e-02,5.969924508657700052e-02,-3.933703722167901373e-02,-1.251601381060371554e-02,3.115053217264730084e-02,2.364537876293746482e-02,-4.174949792144575650e-02,3.809800183486795888e-02,-3.323990667569758778e-02,-3.331505211037785741e-02,4.460113647921825492e-03,1.121106536319424994e-02,9.660558857602996943e-03,-4.927771657532876298e-02,4.553197083906340009e-02,-2.827496326680024180e-02,-4.469050296474830902e-02,4.689351397384189379e-02,5.496387250746153502e-02,4.368236747632261996e-02,3.733599502313073720e-02,1.872637413637243120e-02,6.134771958581313953e-03,-4.982054741467439180e-02,-1.104301411231768323e-02,-1.535720204335345659e-02,-2.898017992061812861e-02,2.695049767660365886e-02,-4.974976976881034275e-04,-5.053713740618389488e-02,-3.375346042584876499e-02,2.210595457448081766e-02,-5.113006209643830569e-02,4.236503582784668931e-02,-5.854598776888306644e-04,-2.341782904033270270e-03,1.114687368406644223e-02,3.916529032833554469e-02,-1.835831842136412609e-02,2.147355413411056180e-02,7.929049509912916224e-03,-2.810268046083327920e-02,4.567299872463774502e-02,3.587760820608932449e-02,1.911356919175028618e-02,4.228962164339278990e-02,4.430559695889592364e-02,2.513420044032354042e-02,4.065290619138049732e-02,2.382038967329317899e-02,2.172984057091012500e-02,1.430773451965352758e-02,3.048444965313467855e-02,-4.118144138726868853e-02,4.594329642667904778e-02,4.485436859335909660e-02,-5.678548719438854253e-02,3.930229662014010639e-02,-4.476831386952049435e-02,-1.988911768883313766e-02,2.937367002045387226e-02,-4.092151544647600059e-02,3.835540768143112095e-02,4.006434892360421357e-02,9.008103077569671983e-04,-5.954319061880374020e-02,-2.568895074986228197e-02,1.410454318544584161e-02,5.804404428429241203e-02,1.590027010083451195e-02,-2.897417302133269146e-02,1.616470572148955356e-02,4.823316331457655828e-03,3.375691000829736388e-02,-4.740874581649397873e-02,3.148701235429125778e-02,4.977863516272638261e-03,5.584933566760345858e-02,-1.907448596020697509e-02,1.599778087909845686e-02,5.211425355375286228e-02,-4.794805837039140678e-02,5.274155999148502638e-02,2.266409070668099976e-02,-5.213051834148869912e-02,-2.400916747377599206e-02,2.511117418545578961e-02,-5.218919826597322870e-02,9.911975960914802541e-03,-1.859066422866479523e-02,1.458567595753674714e-02,-5.479577492015246659e-02,4.481736968829567319e-02,5.711555308533921432e-02,5.655932825771166350e-02,3.011475108604468043e-02,-4.462158648705621955e-02
3.115351409917833936e-02,-5.734765322545208599e-02,-5.764480154267948714e-02,-2.127736979676328813e-02,-1.369937851877137082e-03,3.261843513123978411e-02,2.211037108436580967e-02,-6.525594146533100770e-03,-2.730673574414484855e-02,5.996663624098617223e-02,-8.904527930517136189e-03,-5.864037334087210916e-03,-4.057604875304435949e-02,3.556199093918680637e-02,2.336330552225535095e-02,-3.368272344656918216e-02,-5.037612090522772951e-02,2.177308900654130464e-02,1.863822398415376433e-02,-2.735102265387034243e-02,5.438631816216712989e-02,-4.209183909885599179e-02,-8.162249840361861589e-03,5.351205685288356467e-02,-9.683052805589075634e-03,1.670996925493464444e-02,-1.235288038400063002e-02,-2.723574240498425128e-02,5.838077092311440286e-02,-1.093676666711963438e-02,4.753900397665281746e-02,-3.257476529912643748e-02,-3.460731838306085190e-02,-5.655788819207476642e-02,1.829511388848372236e-02,-1.585927251360268880e-02,4.395144198808194347e-02,-3.231608540274738105e-03,5.647676783838954939e-02,-3.793411308619876882e-02,4.446590625845496525e-02,3.336504809459589493e-02,3.268048889634841275e-02,4.159016587578991814e-02,3.148654051466685810e-02,1.522557852427334005e-02,-4.448182351705728954e-02,-5.638996375704442843e-02,5.076561262773993111e-02,1.407117729269537904e-02,3.577040329779451050e-02,-2.228903272890785450e-03,-4.616296444374778235e-02,-4.521271281100109479e-02,2.238418358918864079e-02,-8.406990698263923714e-03,-3.612480328656814121e-02,-1.013924596025662450e-03,-5.256816781147894552e-02,9.887964160295834720e-03,-2.786563221308623398e-02,3.589366113004776454e-02,-2.287546766066755888e-02,-5.401659001085878410e-03,-5.891174830773601712e-02,-5.157444854395904638e-02,-1.296817958977520419e-02,-2.419918150698481107e-03,1.206517848907371661e-02,-2.513111776619507409e-02,2.352007964850331631e-02,4.344048379757168427e-02,3.375758476462902696e-02,-5.553439917721737090e-02,-2.351388440210228341e-03,-4.765608670076151854e-02,-3.111633543591953502e-02,5.870464781616597377e-02,-4.312468954266981264e-02,-1.341187117455985400e-04,1.425277156405172808e-02,2.442274165990315077e-02,7.195241642241986813e-03,-5.913487116047286274e-02,-2.093345147738187584e-02,2.136502376656369048e-03,-4.971442711164994477e-02,-1.801842491677065755e-02,-5.630830780750268466e-02,-5.083481091198960300e-02,-1.243383578755530468e-02,-4.430439611678241296e-02,8.147249789184778795e-03,2.285459051215472590e-02,3.625887124580403492e-02,-3.616997598109852885e-02,-4.011057798828366466e-02,-4.769979445618108965e-02,1.645717148129845209e-02,2.490654711024162943e-02
-5.650335731706543352e-02,5.261897389096742428e-02,-5.404435921034817653e-02,4.981452968621458144e-03,2.521834292674673267e-02,4.474889186363074228e-02,2.582466400079085761e-02,3.639655296690491593e-02,-1.936664135300429287e-02,3.797640846422755539e-02,-5.064948571605865091e-02,4.762554810385150744e-02,5.740925477923292108e-03,3.827467756141696154e-02,-5.751702212886684873e-03,1.731934639599888234e-02,3.184873736152022544e-03,2.793594884967473893e-02,-5.046671945105767054e-02,-5.303340842199799621e-02,-3.050617776396895992e-02,-4.106810329702946516e-02,4.484713565945376568e-02,-3.387037387277305051e-02,5.740219741005866960e-02,-1.967477105057821238e-02,-3.834516164738371868e-02,3.494546133183637493e-02,1.914444256732034458e-02,-2.176453083601511144e-04,6.678338965456324938e-03,2.644165253746296601e-02,-3.275568945884696492e-02,5.987127045397368924e-02,5.727287396845485989e-02,1.813333631310369218e-02,-3.624329226436080742e-02,2.174039189539202568e-02,-5.160442179760262732e-02,-5.661597982379165672e-02,-2.922998579833551921e-02,-4.508680534284577671e-03,4.442360688796240936e-02,2.740272299505996587e-02,2.927695912291017333e-02,-8.987515419706028352e-03,-1.858439939385431866e-02,-1.555620691966809986e-02,5.882370310125255991e-02,-5.547524779082824847e-02,4.427390766292409879e-02,9.490378376995988949e-03,-7.404637725751708234e-03,2.717215542248416563e-02,-1.608085580249033267e-03,4.504492430944366521e-02,4.833546307338545261e-02,-9.442569621838909841e-03,-2.692059292603682374e-02,1.113994293127134987e-02,4.974215259531018091e-02,-3.490195163818313878e-02,1.483308986784770758e-02,1.586971444692311314e-02,2.811972416120954790e-02,-4.444288422394983978e-02,2.603431765022361580e-02,4.934036517956493645e-02,-3.863886508536189951e-02,-3.165936090117364710e-02,5.686297521287433238e-02,-3.848279258674998371e-02,4.274841005941081712e-02,-9.314989972018416142e-04,-3.049075676109475400e-02,4.472244771468113222e-02,-6.597662912425623569e-03,1.787372927453364504e-03,-1.698025611168942420e-02,1.121238219906667798e-02,-4.058810525344950376e-02,-1.313850729436783285e-02,5.662379941360067698e-02,-2.917563800509965360e-02,1.890667336892740483e-02,-2.108679782755075449e-02,3.298824227035935391e-02,-4.452660230515136791e-02,5.667310241126131964e-02,-5.574228913476065271e-03,-3.183944031215119735e-02,-5.144780713954884982e-02,-3.983611262529623137e-02,2.385272059072729260e-03,-1.966181756135609512e-02,3.967221322090714458e-02,-8.336830566530992193e-03,-3.031184301620356777e-02,1.413084810125124838e-02,2.494291499203772286e-02
-4.016373521333638230e-02,-4.009409623546832113e-02,-5.588993500082362759e-02,2.851646547209005580e-02,1.975924847680430793e-02,-3.060201308084119654e-03,4.151624816657630695e-02,3.687207302369387846e-02,1.029604076994156819e-02,4.442345913254061585e-02,-3.548349186012282608e-02,-4.681297141552466512e-02,-2.777441322269592547e-02,-5.342728306252767650e-02,3.759886601541753519e-03,5.266643410712972678e-02,-5.556760594182844071e-02,-4.558374676453613716e-02,-5.766087734528330122e-03,5.233704100661552144e-02,-2.217653721449609414e-02,8.727132554366539294e-04,-5.529868995714195407e-02,-4.241930410367221460e-02,5.870073102034155388e-02,5.610587220950384590e-02,-5.971760408377339152e-02,5.450069947723457792e-02,1.678162050392623464e-02,4.438087949173059182e-02,-5.459595358019674917e-03,1.881302113090828213e-03,-1.345403544512724196e-03,2.012833451321551989e-02,-4.346778748395749292e-02,-5.669787498065336634e-02,-2.316883461131374194e-02,2.469002602097099958e-02,-3.596452312725870182e-02,2.092063384179413191e-02,5.668407959219973896e-02,-4.898653767065409836e-02,2.082047542365386694e-02,-6.785242200953523276e-03,4.440789509708099880e-02,-3.894445180310451837e-02,2.323589041388109122e-02,4.078583247337744244e-02,5.363247870163369985e-02,2.210465959902797525e-02,-3.407997371842138743e-04,1.421555884473277992e-02,4.449990093971191440e-02,8.517441788557192361e-03,-5.664799935687281351e-02,5.198404756513908681e-02,2.286204307661356128e-02,2.129227988805816943e-02,-3.429725291155608785e-02,1.916587734943081545e-02,-1.280281815991527253e-02,1.824278006618357956e-02,-4.745550186865690745e-02,1.904040529178312180e-02,6.024277865513413127e-02,-5.449782562539347980e-02,5.756008951421865555e-02,-1.122941326466953861e-02,4.472287582770846648e-02,3.406331330860804668e-02,8.083970400862497060e-03,2.876341236166952281e-02,4.565919597386503687e-02,-1.156326525831414057e-02,-2.086447052800682878e-02,2.021628703734878324e-02,3.713453191866156883e-02,3.163866850975475403e-02,3.592436651792629138e-02,-7.770391375274185615e-03,3.833938745778962126e-02,-4.581304163642310745e-02,5.366586344590728794e-03,-5.961884922542409065e-02,-2.115968480038269220e-02,-1.610834420754968938e-02,-1.252437655390800479e-02,2.357862241127526778e-02,-1.344290172986022797e-02,-6.188934297266384353e-03,-3.165926368179009659e-02,-1.528925591707670090e-02,-3.289864621154395957e-02,-5.148409458280221035e-02,1.247869329911269719e-02,2.029100496722013522e-02,1.441376176630786848e-02,-4.403603916817526269e-03,-1.450108049130367435e-02,4.382784753330693645e-02
2.301778463401479499e-03,-2.511227612001040548e-03,-5.722037372687694551e-02,-1.914979802884082469e-02,-1.445164289039418092e-02,-1.220470423788267908e-02,9.670952247391251602e-03,4.053374347275579166e-03,1.301626744616598413e-02,3.195207274271055081e-02,3.775453017553954960e-02,2.631153194760963571e-02,5.494845610267280744e-02,-5.811415743589534028e-02,-3.669738840718429762e-02,-5.940121224838958852e-02,1.778943209527372032e-02,4.801323035600072592e-02,-3.094296057768664704e-02,5.151189531397313420e-02,-5.304362476892585110e-02,5.240471387179828494e-02,-1.789830985576674680e-02,-4.807940905354050887e-02,-1.704247280771489488e-03,-2.933931255482539677e-02,-2.595013609173500366e-02,-2.324603307539037378e-02,3.655310446611409469e-02,4.723907255370815919e-03,-2.276138585524739577e-02,1.330923309311574446e-02,2.607360701448843687e-02,-2.742768427952609056e-02,-1.042831238430415482e-02,-4.561074558048967831e-02,-3.846199687520886201e-02,2.184770306436426696e-02,-3.842713589453641138e-02,3.035383439110838407e-03,2.521662305975700194e-02,-4.742125673394867458e-02,8.119671003499657341e-03,-2.936510067934166787e-02,5.584147939749804085e-02,-1.984839245327720339e-03,3.691096278497135036e-02,6.058677015861390486e-03,-5.507677562824214723e-02,1.606165075891564584e-02,5.445143019803772022e-02,1.225712885719063699e-02,3.850279400703300603e-02,4.634567240548499722e-02,-3.280092088990041455e-02,-3.473516661009503487e-02,1.338730355470518080e-02,-1.073236862237255014e-02,4.099644880695007404e-02,4.825358863057751385e-02,-1.768133903131076032e-02,-3.174051463821522812e-02,3.383895085357310761e-02,-2.716447196963004893e-02,3.891599685452219043e-02,-9.199225548320739618e-03,2.021104141887589481e-02,-4.878936101501024636e-02,1.494077854858879249e-02,-5.818120135510082731e-03,1.044731894120455411e-02,-4.004644960170663376e-02,2.857336883135224229e-02,4.376312246011956203e-02,-3.416882765608349193e-02,-4.876773962851691652e-02,-5.746204747651498940e-02,1.712559594421003695e-02,1.291843211042219969e-02,5.632968724598078937e-03,-3.233441718413362226e-02,-1.315968224766880280e-02,1.139639672495196439e-02,-3.900041109348841646e-04,5.884010312319472302e-02,-4.385518135436265036e-02,2.353970179154125236e-02,-1.154173979829820756e-02,-8.661064929112217287e-03,2.624816531057225927e-02,2.321299530082081286e-02,5.925873592268648266e-02,-4.482568141845385407e-02,-4.775506465516116822e-02,2.706131811492788405e-02,9.455578505353199464e-03,-2.724232089349546901e-02,-5.073337906669385389e-02,-4.998080162619586431e-02,4.755006197240364829e-02
-3.716911970078133620e-02,-2.130615827840303539e-02,-3.297261770694564359e-02,-1.749136037153035256e-02,-5.193910939391500892e-02,2.299125365703977471e-03,-5.215759856135104150e-02,3.623110396184944793e-02,-3.212151224568626784e-02,4.826517155426645299e-03,4.584779945340290014e-02,1.819988414125595436e-02,3.975598862669198555e-03,-2.119009206628848230e-02,-2.014447795150434151e-02,2.044470265846448989e-02,5.960654789152899230e-02,1.952217568064885944e-02,6.970240189510033477e-03,2.782267870910965293e-02,-4.197142548291575397e-03,-5.305870889626861098e-02,7.514677903698491028e-03,5.520196442119826297e-02,-3.916723142387799200e-02,2.291971964414640447e-02,-3.607547143306430448e-02,4.321786034428998918e-03,-4.865170922733705328e-02,-5.986604988170917893e-03,3.090021344204120848e-02,-1.838698948820487872e-02,1.989280631121865400e-02,3.563924192123021917e-02,5.152917810893502260e-02,-3.200932914388885525e-02,-1.214521885363648197e-02,-4.192801297299596219e-02,5.940680658315794505e-02,5.150784503668972419e-02,4.819908686873926144e-03,4.125844962312273656e-02,2.528097889001045071e-03,1.490777057799882836e-02,-4.956268643325940221e-02,3.079250458217074396e-02,-4.490780498081940741e-02,3.933255948381253475e-02,3.402020165512990163e-02,2.518024630211641163e-02,-5.595158099511259031e-02,-2.374803547490831127e-02,-2.857501962931203315e-02,-1.687132533973306411e-02,-4.974141768973433519e-02,5.270891058083874287e-02,6.490002799551216825e-03,-2.345901864982632284e-02,-1.242681036590400322e-02,-6.368799057359456235e-03,1.213439248040864768e-02,1.891362298266202483e-03,5.058999484467125579e-02,-3.662859423903791056e-04,5.936754402294103228e-02,4.239133778443530259e-02,-3.516150169235361667e-02,5.194140822966751558e-02,-4.627656987439272840e-02,3.829300545006161099e-02,-1.440005377619858751e-02,4.559390771400878561e-02,4.439757373602157275e-02,3.690286272334504514e-02,3.498550095061187665e-02,-2.356096915816504461e-02,-5.055244893563798358e-02,-1.170320981224892871e-02,-3.938175777937442945e-02,2.351636467180612602e-02,-1.856452802702155888e-02,5.737143089592400269e-02,1.700503853586336767e-02,3.889986240492064595e-02,-4.432744568058100826e-02,4.366872034173381600e-02,5.099593090611181240e-02,-1.560681896778538542e-03,1.281697294264843613e-02,3.194321140631792982e-02,-3.922324036032948796e-02,3.095381012221092975e-04,-1.222397477777249254e-02,-4.265684385024490211e-02,-1.597892501853311747e-02,-5.209007810649050885e-02,-5.719988629960091886e-02,-4.400879542199428313e-02,5.586418578356388415e-02,5.974599242763309163e-03
5.619072904675443542e-02,-8.142578316674375233e-03,-2.270005499652167844e-02,7.408744784578181596e-04,-7.296523433125996945e-03,-4.756748546560974483e-02,1.698745562430967193e-02,-3.425346167886312437e-02,1.442553603350174747e-02,1.811830691905419802e-02,-4.197519745399420216e-02,-5.291307778973380893e-02,3.386742736853080166e-02,-4.849154214089640598e-03,-5.329737509339314838e-02,5.969423840551304344e-02,-5.334360352187626081e-02,2.352651422214747934e-02,5.834473690091847298e-02,-3.146192112827594922e-02,-4.315438479920449821e-02,-4.567119827288997763e-02,-2.373032844213701989e-02,-4.812464628146954915e-02,2.317984584001821918e-02,-5.279942652776842965e-02,1.136563036412703521e-03,5.991505055090718540e-02,3.787329116947320967e-02,1.389857498091090840e-02,-2.337104415817677083e-02,1.494518283511763260e-02,3.261930621603492762e-03,-8.916339526626642156e-03,-4.454629876130795918e-02,4.663490601891909920e-02,-6.057327081827230258e-03,-3.683676975087863542e-02,-1.595179255839872245e-02,-1.035827019667644872e-02,3.950991317540317183e-02,2.818020148945500625e-02,3.248544095047493918e-02,-5.898283084000088133e-02,-1.011409151997176049e-02,-2.250398989180038469e-03,-5.799839241168267684e-02,-2.897301166308810863e-02,3.139798005417936827e-02,-4.377436691418314096e-02,4.259355167100436178e-03,-3.435434330321293639e-02,-5.885140649310634936e-02,-3.121809133708415562e-02,5.740322262988502289e-02,3.637351668587703035e-02,5.543735109838562880e-02,-1.465130222782728498e-03,-4.707635090305583442e-02,5.785209195436235262e-03,-5.503325186988574681e-03,4.153876123808543375e-02,-4.848209184898548407e-02,-1.418436344615732784e-03,-4.221357913296503589e-02,-2.114881667094748938e-02,2.863167177321224860e-02,-2.892861068133496718e-03,-1.497122361812286938e-02,-1.272900976672512209e-02,-4.891814599005226034e-03,3.438069015210005325e-02,4.729599911064561596e-02,5.492565645994545304e-02,3.460829428929839552e-02,-2.226691207486579047e-02,2.269412487338162698e-02,-7.526747849195123373e-03,-2.959334646014159798e-02,4.111831543575082681e-02,-5.567824402422143215e-02,4.846334314682877037e-02,-4.646857809655785022e-03,1.655020231124819385e-02,1.922238530480190749e-02,4.766186704093713922e-02,1.648605351997755458e-02,1.374346633644226399e-02,-5.227346357145268296e-02,2.220504432096879859e-03,-4.219906334765221451e-02,2.864092281859126690e-02,1.474293621230247367e-03,2.174033601819946523e-02,-5.528662224501874195e-02,-5.008529277924449880e-02,2.609444096651276218e-02,-5.161818207882905296e-02,-5.171801397580352150e-02,-5.885289013389572582e-02
5.506639340173715563e-02,2.864992047536028819e-02,-1.770184209879420087e-02,-2.454330209240567981e-02,-1.812984825162797589e-02,3.313063104196074804e-02,1.946565242907007456e-02,-3.797391370321289567e-02,-3.931121265629505812e-02,-4.844432728379728659e-02,1.933683589869595459e-02,3.189048067935187913e-02,-2.834174409365289304e-02,-5.778697137670152362e-02,-5.040137756169739414e-02,5.643655163313492790e-02,-2.467488248178075633e-02,3.247558019960963827e-02,1.503779210965289735e-02,-1.424126688821116850e-02,-3.550206212610485662e-02,-4.567101989728708511e-02,1.387366910139180808e-02,3.312824859319613013e-02,1.735873814888214822e-02,3.655255376272331051e-03,-5.525304899756458554e-02,5.651239498369935860e-02,3.603299629225133194e-02,-2.499125582899300313e-02,5.789738010900179199e-02,1.228967034100418750e-02,9.942397852371099437e-03,2.992432299610308169e-02,3.760785370143584355e-02,1.887554470231792708e-02,-4.486169377501682959e-02,-1.950930528126969613e-02,5.163844455866774957e-02,-3.321879212504573464e-02,-1.542010819966944425e-02,-8.193361726382703686e-03,-7.309394205795170275e-03,1.362356282683608102e-02,5.344690833136954422e-02,-3.127945981186530666e-02,-4.565715284174510363e-02,-3.649322670875703584e-02,4.667358928410930002e-02,1.758872065191594003e-02,-2.582542137288971681e-02,3.811173087339989052e-02,4.359097794105477180e-02,4.179898454800280022e-02,5.053385026586029727e-02,-2.988642204113544157e-02,3.076494230816548270e-02,-4.760001995671877227e-03,4.125425886190629138e-02,2.756214452810152801e-02,3.334702566206106805e-02,1.883733373023032537e-02,-3.891079928042314590e-02,5.431462069740045084e-03,5.846425585111825890e-02,5.276080955869210526e-02,-5.510558100053101344e-02,-4.043238265694836658e-02,-4.442345262256441191e-02,2.725927822016400645e-02,3.833349044798155941e-02,-3.455826393222392184e-02,7.059927828163169898e-04,4.109798358453172623e-02,2.808215154736598204e-02,5.094947315535483870e-03,1.089837070439227291e-02,1.008507678750909277e-03,-2.442112262086681973e-02,7.843407822796154283e-03,2.278466701140899678e-02,4.503282274107826832e-02,1.644041692628751133e-02,3.149830720792601985e-02,-4.100453831626767187e-02,-4.637206468242716789e-03,-5.918785386648219016e-02,-3.055736818154440593e-02,2.731739692649053433e-02,5.932555817085676669e-02,-4.834994270418956075e-02,-1.188244499424513309e-02,3.619666023451716813e-02,-3.570129300179865350e-02,6.644732086460064351e-03,2.811469083256349852e-02,1.399097671265974244e-02,-3.763263981068601383e-02,-1.744452538892046073e-02,3.423295110785575662e-02
6.541181628625665490e-03,-5.968266657159661259e-02,3.148253196915073299e-02,-5.605399640286302249e-02,2.964212859452799650e-02,-3.588887696650055331e-02,5.525602891277133638e-02,-1.592991076966333852e-02,-2.087671962371066836e-02,-4.235358055959443507e-02,-2.344937996976851832e-02,4.543425081096694185e-02,5.987132130675833219e-02,-1.588542604115307857e-02,-6.198945333060627665e-03,2.678775068755075497e-02,4.658563775795761946e-02,1.122365874281702758e-02,-1.308492942271284598e-02,-1.054016505638984830e-02,2.359682982711268015e-02,-5.992528967724747996e-02,1.442570280780712533e-02,-1.743144438544866684e-02,3.548814098312382675e-02,-4.909631740270238576e-02,1.063957470622854326e-02,-2.295183179573789551e-03,1.716830097301217870e-02,-5.249040472343281111e-02,9.648204191017506134e-03,7.416701287959013775e-03,7.317245106697391373e-03,1.248340658376179135e-02,2.128679756578740617e-02,3.678990754943035207e-02,-2.776583560436981027e-02,3.920973465285070014e-02,-2.104118126605961266e-04,-5.101819024860399648e-02,-5.325067631257248552e-02,-1.999533405071388451e-02,3.436626717689431065e-02,2.505192776426330703e-02,3.481475685612878818e-02,2.083114442218232144e-03,-7.213615372631806966e-03,-4.252674346562303198e-02,-2.072459242022350531e-02,-7.959045805116624073e-03,-4.962589527427002656e-02,-3.370174150847744798e-02,1.184862238114489305e-02,2.842733408334563797e-02,6.011416441519387699e-02,5.224516108854259516e-02,1.719721208356910641e-02,-9.499610942300609415e-03,1.642666674268524613e-02,3.445729725175902813e-02,-4.603895965293517550e-02,-1.086790271845426877e-02,4.098932973551346753e-02,-1.401288231099114684e-02,8.669736339944777992e-03,1.058735454450051260e-02,-3.806068248039566615e-02,-1.661812514715423073e-02,-1.996240649345154897e-02,-5.715346883974915804e-02,-5.739531929353809681e-02,4.001161872731143210e-02,-2.737378702217419316e-02,2.180787304558380255e-03,-2.427912989479717384e-02,5.315781455631422153e-02,-2.903530946180148814e-02,-8.485287530945725964e-03,4.496133129574357568e-02,4.124641978394208430e-02,-3.786464373934884942e-02,3.650695401962667647e-02,-5.043790342854725765e-03,-2.054413838197886259e-03,-4.421221074840720605e-02,-5.059078049174405706e-02,2.749563439738313478e-02,-4.268805688608923979e-04,-7.617510188992940301e-03,2.768488871006184390e-02,3.202802401820551564e-02,-4.114488388251698325e-02,1.329612891989248938e-02,-4.398614250127986375e-02,3.032262207790638320e-02,1.893302936997220270e-02,5.508005112630884326e-02,-5.199530063303531291e-02,-5.343115940364683014e-02,-2.627411937314342097e-02
-2.874472808556021233e-02,-3.052118797704262906e-02,4.900527059843310523e-02,-3.021149012779017484e-02,-2.750902000115298951e-02,3.129043376262295034e-02,-6.062731939839944607e-03,3.337876388652708665e-02,-5.242857577747634529e-02,-1.499249599771048389e-03,-5.625879146306326378e-02,-5.275583128820478945e-02,4.902732999818943532e-02,-4.351674800895964645e-02,3.910809586060944032e-03,-1.072427059494386430e-02,-1.841451632556977830e-02,4.823069631498472926e-02,-5.768100830962396425e-02,1.975745819769667705e-02,5.589787963330283826e-02,7.257907364840282191e-03,5.269258238996509663e-02,-5.400978803922314858e-02,-9.795718162900238571e-03,-2.893144574457793411e-02,2.784324015292274218e-02,5.805742332260246941e-02,-2.936904774636853177e-02,1.859761939164491368e-02,-3.641757634324163662e-02,7.880592507880616535e-03,-4.350715867335674426e-03,5.693658610034633277e-02,1.309131914027708045e-02,-1.815359460013142925e-02,-4.655046710461273329e-02,-4.206904820122076699e-02,-3.313419422689080351e-02,-3.004014412193927938e-02,4.229376261708663043e-02,7.385121178763803806e-03,2.821575426853402662e-03,-4.646927464245807771e-02,4.344257018146258087e-02,2.687742057684357200e-02,-5.215086777897189052e-02,2.507052392254582179e-02,5.251884469864534499e-03,-5.045521601222602986e-02,-5.030068443901367439e-03,-1.846040946519091801e-03,-4.031661397928848478e-02,5.376322962551322721e-02,4.221647854456348631e-02,2.038865719955540098e-02,-4.548173299504939052e-03,-1.064345786627616912e-02,1.821147616705592193e-02,5.480310034221975470e-03,-5.280168131755771932e-02,1.508156992104473957e-03,3.696054861849487616e-02,-4.916771216276522201e-03,-5.404613316271076467e-02,3.453287987363447969e-02,-3.602359054795046395e-02,-2.911684414232223322e-02,-4.044546613828244735e-02,-2.048064708301505082e-02,3.097116344310403210e-02,2.338458041642836605e-03,-3.559928604462894025e-02,4.557650819917120899e-02,4.578781977620470511e-02,4.470176305219616258e-02,-3.150822896856115413e-02,-5.881851547133522089e-03,5.850284643226047465e-02,3.281204852047371612e-02,-5.703637468131025900e-02,-5.244806503574321599e-02,-4.350849748346465908e-03,4.936300508137611565e-02,4.668481716282914425e-03,-2.638705896534622669e-04,-4.759052332906011512e-02,1.891191342780900939e-02,3.885433740975934025e-02,-1.442457555243998463e-02,3.324623027611939979e-02,5.602842454569045144e-02,-3.573376283452850410e-02,2.814183382729249817e-03,-2.567690917065297562e-02,3.532614951022581412e-02,9.359854815107615869e-03,1.623427305455927769e-02,3.593649082887249990e-02,-1.254876961846220461e-02
5.007106898073714063e-02,3.984173113521359555e-03,-4.125988300819857790e-02,2.363072259651599269e-02,3.537523642405897284e-02,-2.210348887092472223e-02,4.308546163078842001e-02,4.899184170674011907e-02,-2.691134202431594638e-02,5.832574387265367782e-02,-4.333988989930024488e-02,-3.594495546438038203e-02,-3.809100978395722065e-02,4.752579608375416542e-02,1.861184744873571606e-02,-4.196561604022466807e-02,-7.198606911700052881e-03,1.390805467538105099e-02,-5.024547711654467341e-02,4.612973862605175557e-02,3.662278315698395958e-02,6.280774674360020118e-04,5.634808142998998237e-02,-9.920246214098251900e-03,5.839677463685576803e-02,2.025568541210379103e-02,1.624499145137192277e-02,-4.029485828102387368e-02,4.607079905601915021e-02,-8.746701292745387782e-03,-4.074377039026058633e-02,-5.879269186478138648e-02,7.208148749332473834e-03,3.305134171519915395e-03,2.645996903508265538e-02,4.707565750231517548e-02,-5.073492120397202904e-02,2.792472674933832097e-02,-3.770655889144589046e-02,4.320582278630399203e-02,3.848767394775925305e-02,4.920828213749245221e-03,2.536095771447861510e-02,-2.239438858346062128e-02,-3.477929806740053930e-03,3.879809351694443048e-02,-4.913716991794267637e-03,-1.715336840843930538e-02,-6.981351157641235575e-04,3.959572201940083497e-02,-1.987835859149501144e-02,-3.935315975386702303e-02,2.557461487239429121e-02,3.932177331382958468e-02,-4.817390220370298265e-02,-3.137820496129109515e-02,-4.318784418646706702e-02,-1.834237108828321722e-02,-5.989012383730101668e-03,3.001517412865775669e-02,1.823247946626542840e-02,1.458725010499796471e-02,-1.780756706600975306e-02,4.118779340932269412e-02,-3.463542809771706730e-03,5.779299054884722009e-02,1.618116348966217380e-02,-4.508256238813899280e-02,2.125177048294676907e-02,-2.109717763515814998e-02,2.247609043998667969e-02,-5.191289649382847815e-02,-3.921807632871911892e-02,4.291151772926336122e-02,-3.290951111418849440e-02,4.065625924548901121e-02,-2.662526290525386863e-02,1.723541592335442810e-02,2.341980090289116218e-02,1.526504886257100835e-03,-2.348478867331434128e-02,-3.466284632620096617e-02,-5.630996693885384485e-02,-2.364935712644218244e-02,1.847556767475754327e-02,5.287139459478105985e-02,4.477728245505938065e-02,3.209459534979685474e-02,3.479453718748915653e-02,1.990163367297430319e-02,-2.891587682756099897e-02,4.911871428128592593e-02,2.059492629993430954e-02,7.290771891206098212e-03,-4.692517264022897511e-02,-6.386530827850340868e-03,-4.781862752778748629e-03,4.397621391022034365e-02,5.627034777813390461e-03,-1.442692277736823923e-02
5.751499242204047985e-02,-4.695760633141600471e-02,-9.342750607215746794e-03,-5.524418873467551450e-02,2.893891397060523174e-02,5.043131955608414624e-02,-2.653343667684272128e-02,4.322568084208431444e-02,-2.506409116317323202e-02,4.954997159491671133e-02,3.063466211628135955e-02,3.677998925512921541e-02,-5.814142240359907593e-02,5.582742416117980611e-02,2.734264137766756128e-02,-2.355228928712282607e-02,3.973388968165026541e-02,-2.635444202983779766e-02,4.496417677584098327e-02,-4.673326459150956014e-02,2.457002805918091087e-02,4.909335073514486079e-03,-4.866883578236668589e-02,-3.113457274273434203e-02,-5.881723749252998346e-02,-3.767426577168759769e-03,-2.397277505468252759e-02,1.186456809228078092e-02,-2.445859462711021115e-02,-2.413515699835269007e-02,2.933566557269528738e-02,-5.450617336134806062e-02,4.860001390461948095e-02,4.249253378128593078e-02,2.024177524016514823e-02,1.124503817991194705e-02,4.732227278057595660e-02,-3.795767590257904250e-02,-5.078768616137495362e-02,-3.142210629440996689e-02,3.553409352728749415e-02,-5.613132894974107862e-02,9.988739955772887869e-03,5.976314042892005157e-02,4.290655211064545865e-02,2.586929096043836043e-03,-5.263668729856205847e-02,3.997259236018529949e-02,1.193948033873862800e-02,-4.644947671339897527e-02,-4.899177661772393527e-02,4.941205365640484459e-02,2.041011983168816019e-02,3.972087818508657220e-02,4.571508716433392294e-02,8.657683389324655199e-03,2.104501043692169181e-03,-8.392332657716539829e-03,-2.208118364538218942e-02,-7.889492919042596919e-03,3.303728076923680840e-02,1.229471754093517701e-02,4.734890623449446861e-02,-6.829898909862551666e-03,1.291789443125551141e-02,1.583923598507665925e-02,1.106115344266803135e-02,2.444310380378102859e-02,-3.167261256693295474e-02,1.491405373136286310e-03,-4.774117404325691622e-02,-1.393105188515327518e-02,-1.487684492595027453e-03,1.836235549911715767e-02,5.434620851946439513e-02,1.214123603455017839e-02,2.938400291525131852e-02,7.558559481457750471e-04,1.617656676635939594e-02,-5.175715883982665022e-02,-2.962700636300989385e-02,-1.666424669264285341e-02,-3.318044019176386635e-03,-5.480702800898086535e-02,-4.342281257651284948e-02,-2.692222011714476629e-02,5.687957310900213642e-02,-2.034410428936109239e-02,-2.166333252784969059e-03,-3.665882069227924256e-02,1.336306744657260806e-02,-2.645552539157494318e-02,-3.534460574588037945e-02,1.999106423565455339e-03,-5.964935112957988478e-02,-5.938900990217066411e-02,-3.388788629003688935e-02,-5.588391142323389377e-02,-4.728267669451556576e-02,-1.943775618008415640e-02
3.650000225967092726e-02,8.691011582033744340e-03,1.528069757551534479e-03,-2.491082337412024728e-02,5.208115518488170420e-02,-1.242276644676148546e-02,-4.980776012241355799e-02,1.412138244204145035e-02,-4.658151545795279069e-02,-1.867026769187494009e-02,8.940799191959356105e-04,4.514133985321607673e-02,-7.784566424140457489e-04,2.439786782852932170e-02,5.944701600567754013e-02,-4.445236131172929789e-02,-2.717345989072614959e-02,-1.271697155084401502e-02,-9.429632175380729328e-03,-1.073326060367644184e-02,4.916889171702085171e-02,2.581811544264766070e-02,1.301628207789025556e-02,-2.299479684043705813e-02,3.905786213064869894e-02,5.489258355039888099e-02,3.874518468675026972e-02,-6.012470521431716869e-02,1.645368785076080018e-02,-5.414519158474639243e-02,-2.923911342345403980e-02,-5.313321322727980467e-02,1.252053392763724689e-02,2.250778117976181061e-02,-4.650319903197529248e-02,-1.401216685876172270e-02,-5.279058560312559906e-03,-1.579574092290418619e-02,-4.571461662646406771e-02,-9.777084776175379299e-03,3.029885394879950136e-02,-5.174805772586974634e-02,-5.064162473235514494e-02,-1.751850313444018592e-02,5.328404666947485213e-02,2.033441237156143749e-02,2.155242056180574003e-02,-1.665617703201295596e-02,1.129802010293911446e-02,-5.909140483700066337e-02,1.641685756040643304e-02,4.985356392732454012e-02,1.357939957591774473e-02,4.507813960296698508e-02,2.701719738346541888e-02,-4.577089926367554351e-02,4.854673441831078295e-02,-5.229857765471137426e-02,4.097394253655230363e-03,-4.316792456381193799e-02,-5.890136584273906323e-02,-9.404773171915658744e-03,-2.472362421166923729e-02,-1.688718411034338370e-03,9.312390606754393507e-03,-5.503738615406048029e-02,-4.547598088244030057e-02,7.073856257590864331e-03,-1.891825142398461529e-02,2.764450989560175362e-02,1.837048443751154725e-02,4.168921691073088076e-02,2.321983187754900202e-02,-8.452203809327023948e-03,2.086444446746918424e-02,-2.709509471375797993e-02,-2.336382125578503888e-02,3.485941239773077127e-02,-6.463252904540252655e-03,3.599272483180607218e-02,3.889284312398028076e-02,4.313167150122057536e-02,5.025745789020859278e-02,-8.325045688591260068e-03,-2.184955200048038435e-02,9.915388066591888927e-03,-1.554008386042679199e-02,1.219227334791882916e-02,2.479920550594562692e-02,2.272673184747479869e-02,-1.513230868557020360e-02,-4.018565388708194436e-02,-8.380037371998050322e-03,-4.311279557824875680e-02,4.705623440432592924e-02,-1.859133928329412960e-02,-4.168148348814777748e-02,-5.724381226443071152e-02,1.759011674431659386e-02,1.651411561641427661e-02
-1.922744092861270945e-02,-5.166310926068644338e-02,-1.090119514285517975e-02,-2.277226690417433197e-02,2.136553111019570683e-02,1.275983334509091759e-02,-1.633365212004281308e-02,-3.402977438146354699e-02,5.887031366526113835e-02,-5.548646362294727165e-03,2.271095592150732326e-02,-4.335901657289512739e-02,-1.738271274849874631e-03,-5.699182729441551465e-02,6.580344989713063798e-04,5.597302698475990074e-02,-1.396779663711152607e-02,-5.560952721258798775e-02,-5.657939501665596588e-02,-1.351182091872232295e-02,-4.101017141510837627e-02,-5.749660587126250583e-02,3.090627917727742369e-02,-5.003244937558314412e-03,-2.542277053533363584e-02,4.826083344207321435e-02,-4.630400499963115840e-02,5.499611981044289638e-02,-2.244063646875122525e-02,4.685196912364770344e-02,1.241769018723927996e-02,3.940972813179683537e-02,5.838505502119289980e-02,-2.552401689489973424e-02,5.562538941950149335e-02,-1.333146727696405548e-02,-1.381035527395311352e-02,-1.925362450553934693e-02,4.994875381588475410e-03,-4.171944529243282879e-02,6.479055253573485183e-03,5.030726336150953548e-03,3.159242950679093387e-02,4.024719339518097183e-02,-7.184381135281273263e-03,-2.384394679666006558e-02,-2.903070893489843179e-02,-3.683660993408571782e-02,-5.335964435503862818e-02,-1.900502739103301919e-02,-2.771433125333699551e-02,5.626252921722688788e-02,6.961242486606056094e-03,-1.842251235495021358e-02,9.706565169173821117e-03,-4.352261889745238921e-02,-6.749834570487607370e-03,1.522726727687561885e-02,-1.339221225622754452e-03,-1.184812844759601351e-02,5.957144877379850351e-02,4.587622817146749105e-02,1.488609030649224070e-02,8.368782830171546047e-03,1.455491149603009224e-02,-3.602982386528272296e-02,-1.264921926616488501e-02,-5.555361414821412963e-02,-2.949808094778993191e-03,5.189926416401620737e-03,-3.284073212330507197e-02,5.597440696338792931e-02,4.939128066204452605e-02,2.679647168818665576e-02,4.027328811696443724e-03,4.462826919602169706e-02,-4.455329909785712972e-02,3.504332446338700308e-02,-4.525673904002276010e-02,3.548974909448759929e-02,-2.704848516586245283e-02,4.548730487965491065e-02,5.356346490198315990e-02,-4.236468800545985236e-02,-4.502329724743774769e-03,5.802006365334434757e-02,-2.001511192845915107e-03,4.385364638440722440e-02,1.070341717028596221e-02,-1.503857898684079174e-02,-2.584028668581462435e-02,-3.579930769036517024e-02,3.157992998919575273e-02,-1.368627809184955017e-02,1.360125159848140372e-03,-9.257543109367881310e-04,9.321937328796998934e-03,4.409847372787045056e-02,5.799014398657135333e-02,-1.114783951629547479e-02
3.950762446380688686e-02,3.190919383908317336e-02,8.869576703056601327e-03,5.501159802230956575e-02,-3.613086010952022004e-02,-4.713328544311125995e-02,4.269736959016487421e-02,-7.340174966157764561e-03,4.185381139047813365e-02,4.741729151826117039e-02,-5.277942711559576588e-02,4.625620331712872874e-02,-6.234117220674535026e-03,1.258439833495253804e-03,1.527047462185271778e-02,5.143325398196021275e-02,-5.800758206510973208e-02,-2.793302908120196774e-03,2.264434649524844911e-02,2.686447181015929470e-02,2.322460929388020165e-02,-4.409699302752480288e-02,-2.419830802271082104e-02,-1.704272207692234670e-02,3.672334653662565063e-02,-2.668753249662196916e-02,-3.489679183503280324e-02,5.518058141997555371e-02,-5.924434767719163886e-02,6.005063551763593910e-02,2.132942251865731567e-02,3.962226562993352574e-02,-2.477444573010339351e-02,-5.858669018063687034e-02,2.869348601381041877e-02,4.030685973810102518e-02,2.900791396304387010e-02,-4.308189779061148000e-02,3.057024955010529538e-02,3.243934798314475343e-02,1.912426651599034161e-02,3.210076617591969828e-02,4.172746491981770695e-02,1.370372329626859571e-02,-4.962537847321996792e-02,-1.492420182379344427e-03,-5.094689299330742299e-02,-1.115280663951071644e-02,-1.120546537936543963e-02,-5.235092979797757035e-02,-1.823632519355350076e-02,-4.692413168015820146e-02,3.718148815723842232e-02,5.400326275196590947e-02,-5.159017981679370202e-02,5.489918134138281613e-02,2.723347410066461350e-03,-2.417779062696691003e-02,-5.104185773107183799e-02,7.530358347603394815e-05,3.552652608791113248e-02,2.498022014352477282e-02,-5.425488615556217642e-02,-5.151956958379751150e-02,-1.171610437184641799e-02,-2.469349322876772390e-02,-3.228167581077188986e-02,-2.641676994030156198e-02,3.660821236315518756e-02,5.177649170057431471e-02,-1.144717710696178427e-02,4.898795116840120450e-02,-2.153243774411576703e-02,-2.842335608514506666e-03,-3.304829961777037278e-02,1.694520330231123056e-02,5.777805417129396048e-02,1.248406152164670269e-02,-1.715146023551302606e-02,1.783077480786708982e-02,-4.548594668194853863e-02,4.688277821881132318e-02,3.720077255111810168e-04,-6.109788581446532960e-03,1.035761169177520750e-02,1.505230280596371942e-02,-5.165539909913439975e-02,2.202856723611353040e-02,-3.113000676275584980e-02,2.580846384005170205e-02,3.890640409748950812e-02,3.666560237721629145e-02,6.333034106848420275e-03,2.433033565706302793e-03,-4.307880080840387899e-02,3.321417961967767368e-02,-2.757420027881301791e-02,-3.986212261588311821e-04,-2.602236862811704854e-02,-4.417018543804963199e-02
1.562815608416398203e-02,-5.375958888277872910e-02,2.999332823703195969e-02,-2.200395733997998968e-02,-6.029725154278126054e-02,1.342474659974558912e-03,-5.466189406476961582e-02,-2.699999437073612174e-02,2.496695240278120134e-02,-5.275143827409452951e-02,4.093338374435660787e-02,-5.985271335151997468e-02,-3.053987670222124695e-02,2.905953317461996629e-02,-2.216278033832208560e-02,-4.802252623244149948e-02,-1.685956284082545942e-02,-2.769676865553670139e-02,4.134030804315340368e-02,-2.251528043024108444e-02,3.485305678497863796e-02,4.727036055029539691e-02,-7.983406016973603261e-03,4.945021092141655555e-02,-1.479875489739809931e-02,5.598038636222207182e-02,-4.954277183145065766e-02,2.255957274465070911e-02,-7.461937313552889682e-04,-1.355258735456427686e-02,1.600863557368521067e-02,2.459066904830299258e-02,-5.978717103486664436e-02,-4.017444920124592367e-02,2.569910559007627937e-02,2.007057300270856728e-02,5.621791161410136239e-02,3.148820508374362837e-02,5.437535865424843184e-02,2.443185273659112533e-02,-2.436035588740282157e-02,-4.760364485719082578e-02,3.399556668776869406e-02,1.738828789553778856e-02,-5.450096512001566945e-02,-1.688169221341754775e-02,5.510239057098479526e-02,4.838900290699271468e-05,-8.114682395744839474e-03,-5.102569657013432750e-03,-3.511660315979366065e-02,-1.583745987836655128e-02,-1.570403615017699345e-02,-5.399807022386815536e-02,3.227587987336583836e-02,-1.007181975172445100e-02,3.886359266291106174e-02,4.226142773942601072e-02,-3.474129267748389538e-02,1.898107822799937477e-02,-3.343562762421839647e-03,4.585716618325072491e-02,-3.428934861292804587e-02,2.144907261351084934e-02,1.299781506900864018e-02,-2.469216831925005393e-02,-4.383574218156584962e-02,1.829184913100498355e-02,2.878129517918805169e-02,-2.224032009249199068e-02,1.747072228080803757e-02,-1.265004383044549680e-02,2.571850634967103380e-02,-3.628275852739332868e-02,4.707046446400326573e-02,-2.564414224812632329e-02,-1.594857943165706518e-02,-5.330604135011449835e-02,-4.686211570824775491e-02,1.913373711692608605e-03,-2.803459779184820991e-02,4.046797262404859541e-02,-5.854107978713874588e-02,-1.458452198666579554e-02,-1.962051845519571791e-02,-5.798206505354865786e-02,-4.531131249940319183e-02,-1.041702490675054139e-02,-8.607237598076489596e-04,-1.154524049625254775e-02,3.731919281568452356e-03,1.147544838819038529e-02,-5.911641840117764363e-02,-4.331093139966511740e-03,5.591052214779500956e-02,2.295806823045580970e-03,2.141639079693983747e-02,-2.269429809333800910e-02,3.305075750971984971e-02,3.292169913336352727e-02
2.568878304411302722e-03,5.742011865681511534e-02,-4.516875361145898660e-02,-5.826915321159137351e-02,3.258837415338318444e-02,3.705125048699300233e-02,-4.581326193148265585e-02,-2.827703921282125055e-02,-5.819621024942172455e-02,-2.493256185831481744e-02,3.294828436390877940e-02,2.166524546053730845e-03,-1.832377262635452586e-02,-1.547170385672891509e-02,-6.015021534871205222e-02,-2.414946142329375822e-02,1.766687838022082749e-02,5.720065237342167319e-02,4.186490579047457555e-02,-5.746730939515649894e-02,4.807716938702735060e-02,3.416137452271118119e-02,3.382093018450073318e-02,-5.066845507739911256e-03,-1.230331535452971851e-02,-2.377368404520485701e-02,-5.238892551546227294e-02,-3.278215234889261115e-02,-3.056644289557300387e-02,-1.920735285177054084e-03,2.984847601665818057e-02,-3.159241785611238522e-03,-5.333589684983022772e-02,5.522180955069400099e-02,5.340450569169782197e-02,3.440155853973828753e-02,5.926740995223841318e-02,5.365770283576072087e-03,5.582235700447570059e-02,-5.119349004880995729e-02,-1.620252815263878085e-02,-3.312643332037495253e-02,-3.669074204646187443e-02,-4.332886207731537903e-02,1.476639013445074991e-02,3.393501101813710397e-02,9.444900894650422318e-03,-4.258582863429778015e-02,3.752992647034260332e-02,1.639980823144035482e-02,-1.349023517815446140e-02,2.100481486555945757e-02,-2.896194166340513437e-02,-1.867399920453127748e-02,5.036006409443737064e-02,-2.527081264058003013e-02,-3.620225126229119957e-03,4.706155432180326309e-02,2.505680296792364703e-02,-5.281011069808431990e-02,-4.254477508213014292e-02,-5.936759159880461434e-02,1.579270256887410281e-02,-6.311997624648960775e-03,-4.411632694257885262e-02,5.523921844736125186e-02,3.577763470299294597e-03,-3.113463717515692689e-02,7.280697665960366208e-05,2.166706157349712961e-02,-5.111699113786057763e-02,-2.717680252174036956e-02,3.702832575046376140e-02,-4.865505609820687007e-03,5.618460833270703773e-03,-8.104203988018801250e-03,-5.501798084854576942e-02,-4.031960074515618386e-02,-6.569148651513282040e-03,-3.508008437311370409e-02,-5.428467894987877573e-02,4.145342744522780010e-02,5.804481040284747290e-02,3.536094496654842989e-02,4.267601315300102727e-02,-3.112452426549975823e-02,5.556404939732929177e-02,-3.655894253706796354e-02,5.445462297214734987e-02,5.968856613758573293e-02,2.553948653117361911e-02,5.803892412230218789e-02,8.388374872403046162e-03,-2.900575291473472470e-02,-7.599997193412539286e-03,1.128597479393219846e-02,-5.149788969639239322e-02,1.475790077437266756e-02,5.804303810251779105e-02,-3.738138400619570728e-02
3.529487059838759544e-02,4.920360710839942475e-02,5.352239128780671151e-02,5.550477677554424560e-02,2.588611803814208547e-03,5.757622021121909517e-02,3.103855792146348325e-02,-4.081155908967867146e-02,-2.786470818077354215e-03,2.633663432288358558e-02,-3.047757929700271179e-02,1.696198750848235473e-02,2.009651570460359651e-02,-4.068751743397538978e-02,7.851045875323316506e-03,3.276553893189615430e-02,-1.332126721579453624e-04,-5.885353650869393216e-02,-5.922321576124212061e-02,-1.724612108348216530e-02,5.141051117296899925e-02,-3.272890564854800260e-02,1.620788847061317706e-02,-3.352515347652179623e-02,-2.151141385617598781e-02,4.198327255458879359e-02,2.760686881019834907e-02,-4.880577069225437020e-02,-8.600461194062278616e-03,-5.679483812563007605e-02,-2.305164253446337005e-03,1.959392725514807684e-02,-4.601888337895745917e-02,-2.546617611767542505e-02,-1.232366120301900229e-02,5.060676820268621839e-02,5.949987191242257084e-02,-5.489598396750736131e-02,3.148460234669152313e-02,-1.547354082545364384e-02,-1.297244618808115341e-02,3.067122051053158827e-02,5.047352452377053961e-02,5.439416280753596455e-02,9.303066055800798470e-03,-1.723504567576613147e-02,3.468618309427742852e-02,-3.003595572071255174e-02,7.729057767893275123e-03,-1.705925568280808324e-02,1.889393626364324272e-02,-3.131489989598366247e-02,-3.720221721401094361e-02,5.045092560208066373e-02,-4.803322646437692411e-02,7.186845262799558456e-04,-3.367269087810056266e-02,-5.561749453526502324e-02,-5.596865722239410812e-02,-3.917702274770868548e-02,4.424240693359780124e-02,-2.623893618293584792e-02,5.433753760825601326e-02,9.845852198564675542e-03,-7.646040023717836503e-03,9.660875724419211441e-03,2.014276086488963734e-03,3.121540272496654833e-02,-2.623684668257464728e-02,-1.772609016426354364e-02,4.753841276613657990e-02,5.385470905782341333e-02,4.735312064406321103e-02,-9.716746696875847022e-03,3.381964905773313101e-02,-2.854549459124418233e-03,-2.967602510174621039e-04,-3.562355198601422496e-02,1.099277493726527263e-02,-3.786048453165687111e-02,-2.031784476117004870e-02,4.282622753123706272e-02,-3.533456586763521201e-02,-5.172988881016143958e-02,-5.198932039803886435e-02,5.317051361033664492e-02,8.347916583350691684e-04,-1.092734985994469471e-02,3.750035006623406164e-02,4.050967363892291062e-02,-2.024229196497014105e-02,2.335556509191158425e-02,3.270473144989647502e-02,1.865504814340722059e-02,-4.202704032370624398e-02,4.534164808062507435e-02,4.715858546864098132e-03,-2.623969825690753918e-02,-9.019499548933529107e-03,-5.578141129750645993e-02
-4.488931074048924108e-02,3.203210742602449757e-02,-6.031209568998993631e-02,-1.006441366676388664e-02,2.715335575796346077e-03,-5.372311306641452261e-02,5.706599876593471815e-02,-3.303667920482947912e-02,-2.361892071576743302e-02,-2.364982624311322279e-02,-3.251902884350123951e-02,-6.013571642128932859e-02,2.766517408913792692e-02,5.631417131588516839e-02,-3.325764952616492437e-02,1.966789333031924297e-02,2.917922782353723349e-02,4.202950761513601918e-02,-9.333007721176463101e-03,-2.377185331250395925e-02,-2.107412357316428703e-02,2.564787318860188223e-02,3.821215617120189700e-02,-3.840595137373768037e-02,-1.556799879099993872e-02,4.848483943446781075e-02,3.699551868227687890e-02,5.848701373120596125e-02,3.066920439129886336e-02,-1.288354230523412400e-02,1.093336984820305474e-02,1.942266617517251354e-02,-5.084960953321539245e-02,5.367534610675989137e-03,2.524974322266690385e-02,-4.013003250044019227e-02,3.385176170396511641e-02,1.010525905360125029e-02,5.455015657963687564e-02,-5.519622466144540052e-02,-2.830800360878220692e-02,1.225013962679687325e-02,-2.454036712676795420e-02,2.586534327730470942e-02,3.124302977736787348e-02,-4.794730613128699026e-02,1.671222430472513090e-03,1.072441034268032788e-03,-1.576826831045281818e-02,5.222242666607338629e-02,3.950610429425820830e-02,2.378877577856885334e-02,2.585357872685322897e-02,-4.618066655601553612e-03,5.078330538534602673e-02,2.347346227465156934e-02,2.762129813765562894e-02,4.362968804033671988e-02,-2.725306601087426617e-02,3.704104140215102453e-02,-3.676221127249312826e-02,-1.865593606537120988e-02,-1.982981745517253813e-02,5.772309086724863869e-02,4.300801508692527614e-02,2.426651655431494997e-02,2.738917559992885831e-02,7.487654865571131101e-03,5.393120514625783513e-02,-4.512954097411997858e-04,-1.441279000974393654e-02,-4.064703584289098420e-02,3.452412873195388060e-02,2.828026779855619469e-02,-1.394990457264932114e-02,-5.727449325249222428e-02,4.089223007814575539e-02,-5.893618208477385823e-02,2.457169297330772176e-02,5.672570358076037267e-02,-7.519726864189839495e-03,-3.196936262797938494e-02,2.471297498251923477e-02,3.825421585135168473e-02,5.600749659111512249e-03,5.633706335959942635e-02,-5.408085635542850267e-02,5.784786285815651623e-04,2.635144393475477229e-02,4.374423150088901924e-02,-3.869043276072963583e-02,3.618851948806522251e-02,6.357896333689866571e-03,-1.247841882789777444e-02,-4.442511062563432589e-02,4.406453089299816606e-02,-4.134210413811247042e-02,-2.294471958595594580e-02,-2.532617726139847411e-02,4.480256007510049349e-02
2.083264379077794104e-02,3.578778639797158823e-02,-3.010030835095032706e-02,1.506318780240753670e-02,8.654502587517196033e-03,4.014832929875872258e-02,4.898506315887792700e-02,-5.884706430313331460e-02,2.099150048242217487e-02,-5.406070230272998212e-02,5.893674109774270191e-03,-2.561722643500486188e-02,-2.330795880312925075e-02,-1.773717435573061996e-02,1.463114404667004848e-02,-2.001805451101889774e-02,2.806978798257431587e-02,-1.151657489914778391e-02,-5.206825777725054838e-02,3.422909804012009422e-02,-2.584333021754681506e-02,-8.110129501037238384e-03,2.236953898823285103e-02,-2.021031084867623215e-02,-5.348774130715717307e-02,-1.520852564906467232e-02,5.361249843408616433e-02,1.709699490357378254e-02,2.068501497668718755e-02,1.595679912345102439e-02,-3.630967474540145595e-02,-9.851140837017439283e-03,3.027011463338779088e-02,-4.808519081365827952e-02,-2.679695280346664280e-02,-2.698195452533979841e-02,-8.200352706251884394e-03,5.794543930239184210e-02,-5.217086957077396447e-02,2.255844817566015226e-03,-3.867727596142790658e-02,5.677629884826815299e-02,-4.664603748219164903e-02,-1.162832172533083235e-02,2.869535166390665623e-02,2.467478664421751330e-02,-9.321012586900658328e-03,-1.851332893317926553e-02,-1.235071143939186177e-02,-2.843464680587532573e-02,-3.554480310498456946e-02,-2.045870373921417681e-03,-2.792107821593524386e-02,-2.563786138950715360e-02,1.890901340401758557e-02,5.651825191970252099e-02,1.250144441685444550e-02,-5.102769711196217944e-02,-5.119607469487602591e-02,5.445382809857982065e-02,-2.445220349526432135e-02,-4.920773498091672582e-02,1.194745124692373449e-02,1.491538097000331617e-02,1.791369068566378911e-02,-2.805759519281962600e-02,-5.849074267638510599e-02,5.609340818587205124e-02,-3.004902415673046598e-02,2.123352275164350905e-02,2.492514096490498765e-02,1.326986451426787929e-02,-2.256841944223044946e-02,-2.761197181063206746e-02,1.178143177263791391e-02,4.416101737741948141e-02,5.388814876440373852e-02,-4.753839986664625678e-02,-4.163698836525343838e-02,5.364719993716114688e-02,2.853253458888309335e-02,4.619939546094553595e-02,-3.587053273996542585e-02,1.056522072639982240e-02,2.426286551611439579e-02,2.172635610164112135e-02,-1.107938583071045417e-02,-5.845645958155708255e-02,1.000312131408329260e-02,-2.978262021642209822e-02,-6.000680966511519679e-03,5.519662433375815969e-02,-1.217906656823805091e-02,4.098924783325681720e-02,-3.757041182429609466e-02,2.080339220401587752e-02,5.753991708754266354e-02,-4.802244024868197042e-02,-5.930988949861697168e-02,-8.011708360941024662e-03
-4.914036516799340226e-02,2.996185852892617116e-02,5.000576097397517461e-02,-7.958852013635936765e-03,-2.910589033423066282e-02,-7.912730727410773740e-03,2.695383954643600782e-02,-5.922132282194099429e-02,1.079056623850171460e-02,1.366603588158419973e-02,1.660891992578970855e-02,-3.111910212247662524e-02,2.582053750144355786e-02,-4.928921848820352197e-02,-3.627611661515047631e-02,4.553307868032318434e-02,2.879645709954065103e-02,-5.865541423509262886e-02,-3.035261641543287800e-02,-3.445028869367654234e-02,-2.764694468082451451e-02,-3.045110716413003057e-02,-5.277113978462726757e-02,-4.952882235134577205e-03,2.807394046999316800e-02,1.287472757724291220e-02,2.085299047603691655e-02,-5.052471733335870546e-02,5.446196913402307632e-02,4.083125386934149947e-02,3.680212933394334113e-02,3.896056690532200689e-02,5.219656973377415077e-02,5.338223095661430613e-03,-3.615408052452166732e-02,1.408725606720569005e-02,2.929806552650704790e-02,2.869926100632390689e-02,2.587331401955384781e-03,-5.205552933416660727e-02,-1.554725935832600679e-02,5.075581296852367530e-02,1.018681849469269679e-02,4.623867254372406206e-03,-2.788250673026165805e-02,-1.586861191506090674e-02,4.768941202862349293e-02,2.007993775289876326e-02,3.466663439071780012e-02,-5.507174574517048615e-03,1.571133112137797910e-02,-3.035173000320628284e-02,2.478412322762624936e-02,-8.733233797101509766e-03,-6.930562087413221981e-03,1.801230379456170497e-02,5.262722178914659710e-02,-5.259260569134089486e-02,3.917280194303490032e-02,-2.504420218968740272e-02,-6.764827866550992587e-03,-5.767016008246980685e-02,-2.399921443308926372e-02,3.173989003011377713e-04,-5.353714756828581445e-02,-1.074095436659509503e-03,5.152107310600607254e-02,-4.760023161290245775e-02,3.189869125897944885e-02,-1.089610969186766663e-02,1.871813939987176933e-02,-2.892193948992610730e-02,-4.107442627137808389e-02,-4.095737565489800114e-02,-5.181026734755620616e-02,-3.791949439700158242e-02,1.980929147573249477e-02,4.604219279025219963e-02,3.789203854531329047e-02,2.233219608457673311e-02,-4.699243495441079999e-02,-2.542968555964068150e-02,-2.294242572928060706e-02,-3.016194300462435654e-02,1.810087688463387799e-03,4.288749967447396186e-03,-1.726341523134519718e-02,-1.763697490218077077e-02,3.963267555375601936e-02,3.489652792570432926e-02,-2.318501188725453910e-02,4.991405792029855737e-02,5.462171629125258526e-02,-2.089952708994709252e-02,-1.756028145609472499e-02,6.796310153157355356e-04,5.321107950853976032e-02,4.539428362613374957e-02,-4.794103370625073246e-02,-1.293956845024380777e-02
6.438006415813085810e-03,3.778607611845365079e-04,-3.692837918697597366e-02,4.328299004973542446e-02,2.134383553174397027e-02,4.076087296259279374e-02,4.327665811921185823e-02,2.995842114071672543e-02,-7.332842700389920546e-03,1.333492323055554887e-02,-4.096910158242280525e-02,2.094632548049533624e-02,-3.869071697826442779e-02,2.339555692692888225e-02,-3.261776220607955773e-02,-4.613363867090451709e-02,-4.037572724226182880e-02,-6.007319386389934485e-02,2.638590351341288040e-02,2.803384095228891870e-02,1.801365174767481170e-03,-4.084878882520568549e-02,-5.023459022580945704e-02,-5.800602935347999589e-02,-4.031979409273574871e-02,4.714772995833978186e-02,-3.117763495956166891e-02,-1.757881236566404687e-02,-4.760598957698228273e-02,-3.349072242326947557e-02,2.319002267037572305e-03,1.299788272180780850e-02,-3.071738596902642143e-02,-5.334944208225502610e-02,-1.314437791174686426e-02,-3.206224952639485232e-02,-3.382936842894462143e-02,5.547186952630503431e-02,1.402897851935541382e-02,6.861075868464760509e-03,-1.015979644505422483e-02,-8.571231771324008472e-03,4.934247828896282453e-03,2.369473800161614463e-02,2.438427680274357287e-02,-3.960257844077524209e-02,1.360094455686787836e-05,-1.062023072163724088e-02,4.469555573443539237e-02,1.585266998787035128e-02,3.920867964668148936e-03,-4.639378984836670106e-02,1.274278149701511993e-02,-4.617554382304891319e-02,-1.963728213430639136e-02,-4.308290170717727491e-02,2.316926749523681717e-02,-3.543392576820841855e-02,-1.304467920782136081e-02,4.772906073160947116e-02,-3.566742712038536989e-02,9.415014369745471198e-04,-9.738017192193190036e-03,-5.812725048699026592e-02,3.531453247154120456e-02,-5.198469873119854201e-02,-3.105539541135198325e-03,7.319440581127918330e-03,1.549169796516269501e-02,2.275406722996221529e-02,-2.976201177613473081e-02,-5.910978928047910808e-02,2.695333828153691907e-02,4.301148549283913790e-03,4.054486961714914850e-02,3.876811350886513741e-02,4.141440506194375704e-02,-1.797986425476045570e-03,-2.006890721441998565e-02,3.516979081160909876e-02,-5.875244945366132551e-03,-3.818541763984378140e-02,4.281945045816598627e-02,4.614704960935528399e-02,-4.063952989184009025e-03,-5.118206827724892244e-02,-1.353120206215234662e-02,3.661483673538459827e-02,4.846479506293464162e-02,-3.576919298997073560e-02,-5.223467337093766483e-02,4.551865247278989030e-02,-1.334075023902356327e-02,5.037499766177924894e-03,5.646137391978282155e-02,-5.228399583391061395e-02,1.789115603444621158e-02,-5.137438447181572054e-02,-1.502180935556484027e-02,3.664823662997144377e-02
-8.025044867034772378e-03,5.997361496461544456e-02,7.124144265515149586e-03,-2.157267271196356903e-02,-3.376213061741462074e-02,-1.803125925822398473e-02,-1.537592857094234600e-02,-5.202477446884045537e-02,-1.573287282548506416e-02,-4.313800019022945124e-03,2.686818646315337553e-02,1.890580728883048053e-02,2.518277434076618762e-02,-5.930461331597068619e-02,-3.405693411399868253e-02,1.950349038375895003e-02,-1.931314457543074122e-03,-5.967255053513360885e-02,3.673027471839643981e-02,3.290819993657590620e-02,5.840658292654763578e-03,-5.229622766943395340e-02,3.214891042987958608e-02,1.009811880589671015e-02,3.401198568846242748e-02,3.036748402658566090e-02,3.655023042235165665e-02,2.172258995778866310e-03,-4.338657373645511683e-02,2.064621225232296520e-02,1.453239106600933556e-02,2.922227480314993492e-02,-3.982126332561684856e-02,-3.679422604650549322e-02,4.709392817429690348e-02,3.015407147171835639e-02,4.924337721704234727e-02,3.120805260912485127e-02,1.171955293161739721e-02,1.859256940916375125e-02,4.693933342395689018e-02,9.506222243423923315e-03,1.596996805617946491e-02,-4.143818259849556263e-02,-3.145804937013338756e-03,2.610333405872069037e-02,-2.763049474336249506e-02,-3.591618446303726508e-02,-2.245751328990631263e-02,-3.118200331055775987e-02,-3.438923285075846936e-02,-9.065017250440256941e-03,4.919633572547614520e-02,8.515839952291214942e-04,-3.764522769635361005e-02,-5.102863772318799729e-02,2.366172698828630100e-02,-1.413763324440376820e-02,3.882150105024778641e-02,1.924130521945026373e-02,3.573471695416455957e-02,-2.750946471793591641e-02,2.320367941485655672e-02,-2.846049457390142229e-02,5.296351272915660741e-02,1.645042022821905855e-02,-2.116861478388658638e-02,-2.780309219802435186e-02,-3.728259830060328545e-02,2.347895461976632486e-02,-3.393049127586923730e-02,1.149614689808818070e-02,-2.839137020959330363e-02,1.953782763011872523e-02,3.799023410279308427e-02,3.353735053528429655e-02,3.146571305566472909e-02,-3.766910884118995773e-02,-4.965188830496777145e-02,2.399859999796540369e-02,-1.588088041929509517e-02,-8.160871633390522420e-03,-5.655607759182167821e-02,-2.900157124727415631e-02,-5.625121564231318899e-02,4.574004155120619391e-02,-3.095328786004964208e-02,6.916410657252900114e-03,-5.561154070804348593e-02,2.012629998925768993e-02,-2.134768006485156938e-02,4.799979709314108195e-02,4.681753212109647511e-02,-2.107466828383028692e-02,4.836670928731599123e-02,5.985001084323191001e-02,3.925391476672131230e-02,4.160079548325529980e-02,-3.027632276549769783e-02,9.252380137480455125e-03
-5.220062013504515874e-02,-4.886383335091459140e-02,6.017991826921573195e-02,-2.091198696673102903e-02,2.993768033958610006e-02,3.699208483357342703e-02,4.318727250716351829e-02,6.002740779034108215e-02,-3.118250303636208726e-02,-5.544610003214484745e-02,-1.071270060888834981e-02,-4.462225841582817543e-02,-5.760833146152719714e-02,-1.683629288669441157e-02,3.422649353327870264e-02,7.983178128641445215e-03,-2.258402917934427753e-02,1.861781283591932429e-02,-3.232584251132452485e-02,-5.857870848455565965e-02,3.188815549923001286e-02,1.492675688891494795e-02,3.164077824270369182e-02,-5.561652308238086706e-02,4.066572877700438959e-02,1.441808672992470931e-02,7.647190863352313142e-03,1.503181857146485174e-02,4.396048865453954652e-02,1.048688982986392508e-02,9.764801338063351654e-03,5.918915385071890634e-02,3.096858942941724258e-02,-6.960925032392357645e-03,2.501767757272234036e-02,-1.336179570416834439e-02,-3.270493912913101375e-02,1.168295118977743727e-02,5.165032122608270021e-02,5.176581215617941795e-02,-1.907049175098049845e-02,3.338649671183018842e-03,-3.478449597622742390e-02,5.978649300850578246e-02,5.803580905987917871e-02,1.803481341133131646e-02,3.672055426262367528e-02,2.594688679191024111e-02,1.123739633074941763e-02,-5.387829041291955501e-02,-5.456641574506703417e-03,2.108394697637116372e-02,2.141510568813391469e-02,-1.530483769329409396e-02,5.327997852867398521e-02,-4.012572271061026069e-02,4.335891803740117865e-05,2.302576111703347195e-02,2.377990052439062779e-02,1.792987118713218128e-02,-2.710630829645182399e-02,-4.147076965844451873e-02,1.639807357455121475e-02,1.197851619585170099e-02,-3.867832200533990322e-02,2.474531936630375295e-02,-5.407468077439211637e-03,2.023645660000140262e-02,4.069557816169238479e-02,-3.983966828829271778e-02,-5.800411119608304966e-02,3.366730721781938107e-02,1.323247111862887147e-02,2.408192202765870038e-02,4.079061959688281419e-02,3.652717412369145544e-02,5.559941378518677008e-02,4.334740696007722931e-03,-1.387737299705154356e-03,-1.183505257308915294e-02,-4.177420998998961771e-02,8.758392558241472406e-03,-2.689830985155151205e-02,5.082106056421538398e-02,1.003505700704179077e-02,1.119903229736439118e-02,-1.750000268738737333e-02,-5.404217968238993197e-02,-5.648434402356684175e-02,-9.247851436761531096e-03,-5.011263143468334957e-02,1.288862752549847085e-02,4.595563010791219039e-02,4.618986492554182782e-02,1.918517041942676554e-02,-3.483323737724643848e-02,4.378721816330185396e-02,4.657329216949628037e-02,-3.659176749559156505e-02,2.863999604729708381e-02
-2.575150601104464823e-02,3.650659244710142276e-02,5.998031531194232546e-02,-5.669155226144474008e-02,4.793305162169591432e-02,1.479255316930831211e-02,5.710272440255184656e-02,-4.220796870248099027e-03,4.190436331436842021e-02,-5.278708994817182809e-02,-1.986979374802660611e-02,-5.222949536946738108e-02,5.733921535942591158e-02,3.823561097717801532e-02,4.252673718725971663e-02,5.283043123254579226e-02,-5.004772107915626822e-02,-1.380001901469268648e-02,-5.174477371485788901e-02,-3.488616005091546568e-02,-3.264579395623277980e-02,-3.726504400792344466e-03,-2.791765103571994602e-02,-4.813281323503042219e-02,-4.010955183430790771e-02,-4.254808999972502226e-02,5.706583410284023217e-02,3.127767679416455782e-02,5.642466148112135205e-02,-7.268924232244954563e-03,-2.673474478819000411e-02,3.598221299599849154e-02,-2.095846833503023365e-02,-2.419978144124593569e-02,-3.226699922620519106e-02,-4.467071326835134887e-02,-2.937712992744823462e-02,-1.745234445650602900e-02,2.098839905215563531e-02,-5.276649003885883205e-02,-3.492067890009617481e-02,3.727659413558853663e-02,-4.259074852758635427e-02,-1.898124364468875558e-02,4.398771115115013286e-02,-4.162532390994183595e-02,-5.033320302521544776e-02,-1.865135241371480282e-03,-2.383354127933236949e-02,7.648760675510565127e-03,3.664707201128800801e-02,-4.376968870681965246e-02,9.734488336246063453e-03,6.645052302449848836e-04,-4.293370767851018704e-02,1.495756510449736641e-02,-2.730507693243527934e-02,-1.467509636446144572e-03,-5.038923563397723626e-02,-4.875253862238320204e-03,-2.334573091355647903e-02,3.888787781722211762e-02,-5.344032635031930462e-02,-9.818160110971529964e-03,-5.014292531096502768e-03,2.714180758574616034e-02,8.961087194950893495e-03,2.017032231633623593e-02,3.341962371243678565e-02,4.369145749178218741e-02,-2.245164014253366383e-02,4.586564815719220908e-03,4.102621660351481181e-02,5.904102074834251257e-02,4.698654527546035353e-02,-1.550451829434471539e-02,-3.677114801266662819e-02,-1.279546372341663039e-03,2.914848300254500521e-02,-8.963706896927052482e-04,-2.028841972658148880e-03,4.079972043263477288e-02,-1.671844610840283324e-02,4.340095163088732860e-02,-1.124185711820947960e-02,-2.071972487126102699e-02,-5.550058904012607902e-03,3.165818884085599971e-02,-4.511425275324655593e-02,-3.662003873432247841e-02,5.445643422286704921e-02,-3.914447091584305483e-02,8.169743065692217435e-03,9.567466036084234723e-03,-1.251569998743034358e-03,1.746018485563181205e-02,-3.259019109094521416e-02,6.352491286170383437e-03,-1.541935652346022347e-02,1.950143625426840541e-02
-4.327812702762961344e-02,8.549730041398546226e-03,-3.796489230966406531e-02,-2.670162285179749490e-02,-3.393119244132752205e-02,-3.825832659214434273e-02,3.928953440385172385e-02,-2.584945287387522411e-02,5.152265971364127645e-02,5.668582617920791406e-02,8.595936586758392076e-03,-4.306370297330588959e-02,-1.513286883398979113e-02,3.591454922809824563e-02,-1.599625834550949532e-02,-4.981687331034900107e-02,6.849793354636831907e-03,4.163089237057612108e-02,3.569671180220223422e-02,-3.918892042684763571e-02,2.084007685096975898e-02,-3.371473174253906274e-02,-3.399177925368729314e-02,4.512315516675653032e-02,-3.019668281504810786e-02,-2.855876193174674768e-02,-6.023468258934600028e-02,4.471269295347728157e-02,3.529483403884758896e-02,1.535930723815159653e-02,3.018880788400482573e-02,-4.197233686966951594e-02,-5.027299685301911403e-03,-1.794695871101964837e-02,-4.900151828116941499e-02,-1.673037936556678396e-03,5.075256109134087396e-02,-5.548128786952909175e-02,-2.515544403580575322e-02,-3.527845899441315464e-02,-3.158658316605317956e-02,4.926823399979390200e-02,-3.851734140955676705e-03,-4.065200658395319751e-03,3.143245758239623933e-02,-4.167756832400828365e-02,-1.536142109467052716e-03,-8.445673457978775459e-03,1.169004570490984711e-02,6.026014622634343759e-02,3.250281129139295094e-02,-1.232015366963360239e-02,3.951174148349369253e-02,-3.972146170260158066e-02,-5.663875611866162757e-02,-3.565150567562799799e-02,-1.925067495109409818e-02,1.276325012205670748e-03,1.388768264163456334e-02,4.953013515699791064e-02,1.188659593401721970e-03,1.538771821135638573e-04,-5.425283569453877991e-02,-5.610222335230174995e-02,6.171272639687867129e-03,-7.457328315288710985e-03,4.091431293248459083e-02,-4.093120316192389724e-02,-5.730124251158434656e-02,-6.147300454829972803e-03,-3.166717369130228610e-02,-5.432866622665007139e-02,2.709261716826997374e-02,-4.685237053821990350e-02,1.306625614450876785e-02,-2.641131141685803749e-02,-3.938519138242869977e-02,-1.450521284173726839e-02,3.636249913936812767e-02,-1.301642791650100238e-02,3.024959005188516264e-02,-4.517646384353448535e-02,3.290359757928631307e-02,-3.173294337222176686e-02,2.139840077952561218e-02,7.935031504713745132e-03,5.176643907835962177e-02,-1.359194643390337909e-02,-5.233219103381279297e-02,-5.800283043236441338e-02,3.942796708246536913e-02,2.983785722412321453e-03,3.320186377586548804e-02,-3.203544269891207136e-02,-1.868708276835439469e-02,-5.668215941321013557e-02,5.566843385703858227e-02,2.024940169810566029e-02,5.225622938955013647e-02,-2.828746446502636638e-02
1.344552084307934492e-02,2.153191537378736087e-02,-2.200843199890794438e-02,4.199137210434759904e-02,5.393974503010713628e-02,4.642391763237709024e-02,2.883793170290517571e-02,-2.684376770300292078e-02,-2.634300132011968207e-02,5.589376459192672147e-02,-5.907291128173945693e-02,2.606145975741749193e-02,2.487885550224750233e-02,1.479967104895455257e-02,5.912035894923026169e-02,-2.269241898443330463e-02,-1.930371371595820604e-02,-5.079127592968362553e-02,-6.900089086536743792e-03,-2.882399902233052230e-02,-1.889179201193060334e-02,4.035839077814466769e-02,5.253118967784006776e-02,-3.790907619250015459e-02,-1.537886489819464443e-02,5.170441809242735248e-02,-5.285773007242838828e-02,-4.917232588709196522e-02,-4.067651077554552963e-02,1.148523838142819983e-02,-4.216248077508119585e-02,5.646264887477570049e-02,-6.427666630398582576e-03,1.831070005960062973e-04,-3.055981072340126226e-02,-3.502977580513416418e-03,1.953115549066693907e-02,3.029874407517029952e-02,3.062334478431922441e-02,9.395771119408190611e-03,4.877670589530595097e-02,3.828795586095939257e-02,3.100694249765123534e-02,-5.360597198576286943e-02,-5.948383121855162214e-02,-3.468662180812600443e-02,1.972536028684127377e-02,-1.071198035859650260e-02,-1.177243999468675396e-02,4.639156191698776827e-02,4.771555901357739382e-02,4.935758388598147917e-02,-2.245132894990127179e-02,2.304648920064610376e-02,-2.754720385675339667e-02,-3.732080714323384590e-02,-3.804184003496987460e-02,-1.904608375144043603e-02,-8.449002080532692222e-03,3.992140509795663594e-02,-4.585139642574367902e-02,2.833839979696387359e-02,3.794311880792644847e-03,-2.557951679090762764e-02,-8.661519644327658621e-04,-2.413238761115159281e-02,1.159007785226905292e-02,-7.980209006016847004e-03,-4.048175367705407479e-02,-4.625043281805994722e-02,5.632759962455721227e-03,4.854187628661237042e-02,-1.882291588008363006e-02,2.810610354045551054e-02,1.913884299437382600e-02,5.205717391960486967e-02,3.871897663167447184e-02,8.034392453507099505e-03,1.894211764529439221e-02,4.805616363184195966e-02,-1.212074740194031379e-02,-2.089323472398681159e-02,-5.900939058820064281e-02,3.939087587501811927e-02,3.630639843926400379e-02,-4.771346417714045218e-02,9.271075184098384256e-03,-4.344779634395587280e-03,-4.599397729210278479e-02,5.796950271407589478e-02,-3.441537870113957343e-02,-5.220324182736602037e-02,1.144115468699970044e-02,2.881377025913107667e-02,-5.639994364406192978e-02,1.914563233868400716e-02,3.895272065861951714e-03,-4.785695110442811373e-02,-3.950246174255333392e-02,8.199535447552645101e-03
-2.456476981082367922e-02,5.287271065979982226e-02,3.844867712368781748e-02,5.833126060348098330e-02,-2.899018530406333172e-02,5.666135186025778731e-02,-8.295051872522312547e-03,-1.839335002017924298e-02,-5.423998685090335864e-02,-5.394858448488490388e-02,2.316174144681074770e-02,-5.074899117357493418e-03,-3.298887535429559370e-02,1.374789594862211618e-02,-2.981198335247351588e-02,9.364485500201065113e-03,-1.698322623995238839e-02,3.902913389309267678e-02,3.868461524322636125e-02,-2.732153487438712842e-03,-1.799524304631013039e-02,-1.657899918835869374e-02,3.687742557149299716e-02,-2.072619323840397404e-02,-3.509529443652715380e-02,-5.009779868323388508e-02,-4.017708850828199604e-03,-2.155351273421131017e-03,4.112279443404883578e-02,-3.362613929303180649e-02,-1.435566543022137771e-02,3.720205854469724877e-02,3.903774474728465005e-02,-1.391901954304166147e-02,-4.930746373966671606e-03,-2.372903251231505903e-02,5.217779658859272862e-02,-4.600185782586043576e-02,5.232189091588736185e-02,2.217925817503043143e-02,3.808454008823640782e-03,-5.637393468550869896e-02,-2.943758127873739253e-03,-1.112806918204149037e-02,-4.086615779574717666e-02,1.886722097733102912e-02,5.683351970744006387e-02,7.501649607256733604e-03,2.590504311493102563e-02,-5.205652652952325737e-02,-9.931583156540359572e-03,-4.627752436217304893e-02,1.360622306277435058e-02,5.289278655839527860e-02,1.951476226164799294e-02,-5.104897797628620698e-02,-1.753117944582639753e-02,6.111371386251874226e-03,-1.167575783745257445e-02,4.024647548813450881e-02,3.795781875373915176e-02,1.348984027313237209e-02,-1.526438823877441890e-02,-2.951303882887607380e-02,-4.754219795131000431e-02,-1.750325688902034868e-02,-1.047373862015117847e-02,2.120899168960138290e-02,1.907834485844493028e-02,-5.185656471349774782e-02,-1.263455438060088684e-02,-3.838606004676315547e-02,-4.139765321617898397e-02,3.948147586361071271e-02,-5.525739237955977490e-02,-9.748727092071795067e-03,-4.002359705551841729e-02,4.575746528603884949e-02,6.880625898498309197e-03,-3.240274752212871090e-02,2.927963649193133610e-04,2.792350472097629085e-02,5.526140028826019568e-02,-3.372175937378033006e-02,4.658394797446725050e-02,5.238880164623413438e-02,5.023156032202340249e-02,1.633462739649541376e-02,1.565987586325588016e-02,-1.167541078747825860e-02,3.044599892241242611e-02,3.774903498768892966e-03,2.140382191840013368e-02,-8.629908311611894645e-03,2.792472357718320947e-02,3.914002520612023389e-02,-4.264933307767777848e-02,4.016031223832458585e-02,4.860849672217078428e-03,4.157601403375872640e-02
