-4.118956589261397495e-03,1.479734115165369339e-02,7.616562095497596274e-03,3.239043508063950763e-03,-1.129320603937886136e-02,-1.129399792336275264e-02,-1.450849786273788154e-02,1.202188009914517165e-02,3.319693435594951031e-03,6.831202990818462627e-03,-1.573962638950639550e-02,1.542754754857987749e-02,1.091437990611845987e-02,-9.444156208812086103e-03,-1.044596197461982595e-02,-1.039410422111838525e-02,-6.426896756580362247e-03,8.127750979944367397e-04,-2.234303996789860271e-03,-6.854128194022801428e-03,3.672227436467810809e-03,-1.183572887598931776e-02,-6.824071262171032409e-03,-4.387456460862618549e-03,-1.442260476522004694e-03,9.362573872117949808e-03,-9.859969916612440141e-03,4.673289449943695217e-04,3.034050358257163460e-03,-1.489042587893826472e-02,3.530790658422827341e-03,-1.081697845775756069e-02,-1.427973301586670657e-02,1.473730107590564761e-02,1.528710304188995485e-02,1.012495211588468683e-02,-6.414699229111889452e-03,-1.320877305025388269e-02,6.048529868991233543e-03,-1.964845478868442515e-03,-1.240881219376349306e-02,-1.583462194868024493e-04,-1.528642823003261743e-02,1.343834341123222205e-02,-7.919462182827663108e-03,5.335747395035495694e-03,-6.181688494371368782e-03,6.588505210140905904e-04,1.533538937863066160e-03,-1.034650124855639695e-02,1.541687014985687956e-02,9.032848949749946663e-03,1.442913100743973935e-02,1.296252396960280440e-02,3.214141119118962310e-03,1.385049662269305891e-02,-1.351014766339178781e-02,-9.981146009245404557e-03,-1.493058209324494776e-02,-5.734556564512066461e-03,-3.654821022905983471e-03,-7.506809376537581201e-03,1.079273722419154570e-02,-4.702912385094437306e-03,-7.192109832346772584e-03,1.401749399446350006e-03,-1.178876877609134725e-02,9.921388683744848669e-03,-1.396787095215088793e-02,1.598491993863837904e-02,8.938031632774600874e-03,-9.891425190146222249e-03,-1.623413728122239524e-02,1.035687199329485102e-02,6.791305807484744952e-03,7.518503725050648158e-03,8.906040494282821754e-03,-1.398448310608907050e-02,-4.646692748812825992e-03,-1.261135156411617546e-02,1.192100004282700861e-02,4.047984321952950541e-03,-5.551764344036721685e-03,-1.432875746734042950e-02,-6.205614131811225051e-03,-5.739382988691602884e-03,7.538169752050769695e-03,4.516130956248556177e-03,1.271252979699804241e-02,-9.122080782786079521e-04,-1.248905046689056768e-02,7.001011107201536403e-03,8.561799074833904843e-03,2.011783483146101312e-03,8.896087267845735613e-03,-2.036959464853826572e-04,7.463384829896361691e-04,-2.378891141464693423e-03,-1.558090121778935196e-02,-1.287326415148496231e-02,-1.538358577594292793e-02,4.478471979701802684e-03,-6.094853972261685994e-03,2.813832160770763291e-04,1.338076043047983082e-02,-8.230953315426194766e-03,-2.942206275675071474e-03,8.389965272759338649e-03,-8.903791180138358533e-03,-1.388811603990598373e-02
-6.902641947746373727e-03,-1.112239863728961553e-02,1.410734619103683196e-02,1.011585899837190612e-02,4.379760899361254643e-03,1.219537298734689468e-02,9.969817368123704004e-03,-1.029017650393361516e-02,1.288805201032311443e-02,1.291639885882187077e-03,1.009352664200208367e-02,1.300402052656246012e-02,-5.975103587698231064e-03,-1.280233314570424462e-02,-8.932124314631089898e-03,-2.393114448900498376e-03,1.044070027441865167e-02,1.184309756394653391e-02,-1.618718870217223521e-02,3.528432544487528490e-04,-2.711468316847469133e-03,-9.123441331602118523e-03,-1.248014931659666669e-02,-5.331234603429623777e-03,1.454110929021817412e-02,-5.804400908281079179e-03,6.169123909179564848e-04,6.665288304146474614e-03,-4.477158297134217584e-03,1.548901449982055881e-02,1.518254532993293729e-02,-8.149202269190568629e-03,-9.033393528473464664e-05,-6.537337595970141996e-03,-7.063872971057118082e-03,-1.520440273210720873e-02,3.597092004618443299e-03,8.795465355078879634e-05,-1.472534116874355328e-02,-7.267228346722774332e-03,1.340372273370066085e-02,-8.550408757576783217e-03,-1.165840899132414635e-02,-3.462750175922517664e-04,1.594432514727912517e-02,-8.468548904333244795e-03,5.651359149391761878e-03,8.589198623002195984e-03,-8.613586726043143474e-03,7.492540438073206840e-03,-4.340794297700342058e-03,4.343715040333192244e-03,4.383896086523537440e-03,1.174513871244596075e-03,-1.345114179782338874e-02,1.100827141644433044e-02,-5.883945732529089270e-03,-1.029186888539351807e-02,-1.507674994801214662e-02,2.984094069139805495e-03,5.829591830542623677e-03,-1.587084037601055320e-02,3.970255806758227072e-04,-8.979380648134789242e-03,4.766148478261143795e-03,-1.069083224543141038e-02,6.268651359066630679e-03,-3.718576706749924556e-03,1.433822388725745391e-02,-1.190050143410105975e-02,-5.217929385732828114e-03,-1.268999916135032241e-02,1.394305941751624103e-02,1.238837787599444268e-02,-7.946986067167878531e-03,5.252414832016817810e-03,1.041467965515705668e-02,1.812290467528490786e-03,9.734541749350030145e-04,-8.475212933644369478e-03,-1.335878864462707385e-02,1.304093745784582099e-02,1.314607171519286896e-02,4.369836153511260333e-03,-5.284791414939098327e-03,-4.950580301371920039e-03,7.418320691945265791e-03,1.303747386708398182e-02,1.270838265740632973e-02,9.188556638124595333e-03,4.663021991062582527e-03,-1.365304522574951364e-02,-1.110902246114189515e-02,1.308487929311919970e-02,3.494158232466541922e-03,-1.611348599807042870e-02,-1.308403450919119575e-02,5.367904728079395983e-03,-1.624925698769769111e-02,-1.113596552780518611e-02,1.599972524977615052e-03,6.300085586900149547e-03,4.989019799717377308e-03,-9.052477447171138406e-03,6.966027656366964756e-03,-8.626340089329409891e-03,-5.732279172805465964e-03,8.092526375598610433e-03,4.912577708813279341e-03,1.146530711303078709e-02
5.174567800707646596e-03,2.242630626037133822e-03,-1.334000938835148281e-02,-4.343004788762657754e-03,-7.708609683789742657e-03,-8.405041800095117144e-03,1.552934630088971535e-02,-3.509694312998530141e-03,1.287122805241119709e-02,4.305394702239094713e-03,9.678910502348155032e-03,8.657805126494413656e-05,2.524821157260285533e-03,-2.456505941542087780e-04,-1.000543673403975035e-02,7.303295663390245961e-03,-7.197433266924971318e-03,-1.561711892656621192e-02,4.775981503225073047e-03,-1.060073612727563050e-02,1.446063691157133818e-02,1.490286843986501214e-02,1.362035734490654043e-02,-4.262802357435983153e-03,-1.590797905908486465e-02,1.406206947962338957e-02,-2.357776627748691799e-03,1.532068199133711055e-02,1.522104550076604570e-02,1.158960624950578291e-02,-6.748420950677440182e-03,-3.772341114530473449e-03,1.152812112994152163e-02,-6.010609178665408080e-03,-1.085083945823095419e-02,1.864834655761738640e-03,1.431933909439701315e-02,6.435828053460398643e-03,2.300168910887627049e-03,-1.322504469196519178e-02,3.775786887992487427e-03,1.608889245259290460e-02,-1.181635358970574250e-02,6.017783668281194995e-04,1.238948488510336655e-02,7.904642308559929262e-03,6.468197459659524168e-03,6.647727897530600165e-03,-4.613027234011178937e-03,-6.776558572614146438e-03,1.015659474656656173e-02,1.018129141122001320e-02,1.205130222872996537e-02,1.356704534760126354e-02,3.723807809880787961e-04,4.978126820879392951e-05,9.793289150778669225e-03,4.923445767313562767e-03,6.630747552526884692e-03,9.711129594860401157e-03,1.280421324943074868e-02,-5.318759351977892305e-03,-4.084719452401429363e-03,-1.332992466505636582e-02,2.570004846188423449e-03,-1.523541718341877259e-02,-1.129446868553608688e-03,1.400060302238898902e-03,-7.008035620661883999e-03,2.982134637044958451e-03,-1.541408354131440679e-02,-1.518925977752754938e-02,1.059125588850110163e-02,-4.590062365027052643e-03,-1.224392646235177191e-02,7.302654978440907291e-04,8.864122254672172560e-03,-9.329841863131748542e-03,4.034600786177280560e-03,-1.361340195468498625e-02,-1.471867749047418156e-02,1.029399718180520115e-03,1.334086246325666631e-03,4.511942727324051369e-03,7.422774358273626083e-03,1.562263601885087623e-02,5.351545563858743637e-04,-5.812492373378936976e-03,9.691218506115964818e-03,-7.523775728448756084e-03,-2.003621129785338427e-03,-1.383964220099107890e-02,-1.558314630171179875e-02,1.518914826509794834e-02,1.103051842971951822e-02,6.434002966516748009e-03,-2.989153712663212333e-03,-1.072603051055117870e-02,-1.127946953173335383e-02,-8.199742028036688737e-03,1.616154049372569039e-03,7.045370055457516635e-03,5.259418663174923042e-03,-7.224960815519874610e-03,1.493362123254737828e-02,7.810361874939537527e-03,1.784490633085437494e-03,3.667888887120243375e-03,-2.639599604246060157e-03,-8.282210165626444770e-03
-4.728541736631345499e-03,8.465311189164218680e-03,-1.594288246904382658e-02,-1.260466782411360197e-02,-1.490512657888369563e-02,-1.507827130526882831e-02,1.167007892310651003e-02,6.686263960569554035e-03,-8.478955653300218219e-04,-1.320345291852345788e-02,-2.752580834242868060e-04,-8.709447477627280543e-04,-1.072906572942459828e-02,-2.171707662535891318e-03,-3.332177499229088593e-03,3.803459084726897293e-03,4.435241595133314514e-03,-1.492806328089527415e-02,-4.116576490027202238e-03,4.132090070484970880e-03,1.029660862532091138e-04,1.170387032792530313e-02,5.210049408825960515e-03,-1.106615477259222623e-02,-1.409860005668106542e-02,4.675748287152139276e-03,-1.554504387751311049e-02,2.816086644097946182e-03,1.445314021542371333e-02,2.477882646028657914e-03,-3.671478205601275743e-03,4.704276347899676372e-03,-1.370593772389922015e-03,1.497638712930257502e-03,1.449367213113180765e-02,-3.739349074938369630e-03,1.514128575856502068e-02,1.330801274723801379e-02,-9.987440593434817118e-03,-1.413824157216574638e-02,-1.310680407710543803e-02,-1.581719484797357994e-02,-1.331478894901371411e-02,6.008270917502966414e-03,-1.407824816784224858e-02,-5.943186886262469271e-03,1.132255523869787200e-02,-1.565139535879012112e-02,1.032427272028784045e-02,-7.161896732309524713e-03,-1.253597950858952037e-02,6.459051580348492728e-03,4.233305368239307677e-03,1.239273322351888869e-02,7.717586019729898508e-03,9.963541862462321416e-03,-7.155993814838075735e-03,-1.058993922501210751e-02,8.227899414166796668e-03,1.007365031361366452e-02,1.610370875652464978e-02,-2.868837369874087904e-03,-4.201757119383500889e-03,9.074876968999620944e-03,-5.226557691889968660e-03,1.414213618223342413e-02,1.176700115061481491e-02,-2.331187596652956398e-03,8.236314495449427800e-03,8.356863077090482400e-03,-1.302978721612187488e-02,1.321616067431825164e-02,1.724399378079706643e-04,1.071788143575642949e-02,-5.907927496546945371e-03,1.298537024946095318e-02,-3.637604876269451108e-03,-1.605962368322750439e-02,1.330904148481119181e-02,-1.341841248615982182e-02,-5.932089813883802999e-03,1.477592428534583481e-02,1.479382301333948338e-02,2.411029489330035989e-03,4.328329891497203867e-03,-1.692578177202166707e-03,-6.789069515108736921e-03,-5.625091410409371016e-03,5.663930372795365070e-03,8.285674443803847655e-03,9.572792612356722727e-03,9.508414535973737369e-03,-1.342105779176440070e-02,-1.831862305322272367e-04,-1.452572921357429825e-02,1.626076115582339877e-03,-1.919604294427278667e-03,1.272866420392692807e-02,-4.894589296330276694e-03,-1.257202160116887950e-02,-1.172089236909567775e-02,8.585620596628058127e-03,3.881201435810525176e-03,-1.309548810660933829e-02,-1.365413386050849318e-02,6.597990693571448295e-03,-1.402656063392452440e-02,1.056694458702032817e-02,6.771110993614527784e-03,-1.374468222618042794e-02
-1.363013751863157569e-02,1.597679895794056060e-02,-4.127798699672473835e-03,-4.246930379786471692e-03,1.026948078410735814e-02,1.468355826522559082e-02,1.595583596788047176e-02,8.318625333923905518e-03,-4.062505008396112040e-03,-1.367403230112658463e-02,9.098973353592975863e-03,1.917462116813946089e-03,-2.487857085990827308e-03,1.334096650406430863e-02,-1.276472349139342287e-02,-2.421242153045248882e-04,-1.604268317658526580e-02,-1.028898273898945070e-03,-1.456694785196337855e-02,-1.251453804253031994e-02,-1.255694467094481577e-02,4.898703485450603239e-03,8.077866545014137506e-03,2.737068783906720405e-03,1.517352516537854787e-02,-4.108107278965519686e-03,-7.035257853740218767e-03,1.210142871094267887e-02,-9.074588081623074370e-03,1.520799727844467271e-02,-1.601639123644128804e-02,1.542652895603477403e-02,-1.499845586989361455e-02,1.284156728596598171e-02,9.094514099056667323e-04,1.618446133213801916e-02,-1.399262801718401290e-02,1.768082813061984089e-03,1.540760882033349183e-02,7.583222347119794203e-04,4.248269393307056024e-03,6.426599044450940178e-03,-1.492456226606677077e-03,4.187842277935559764e-03,2.768111905368193359e-03,1.317036502399169390e-02,-1.492338913175999399e-02,-7.191168246223988633e-03,1.478739923210221040e-02,1.281269812659775569e-02,-1.455827222411608694e-03,3.944057261601562406e-03,-7.308768626504982650e-03,-1.023925251964906760e-02,-1.191812815375172755e-03,-4.814573400860376086e-03,2.746502626771331508e-03,-1.386333769417385543e-02,1.557479252328202064e-02,1.596271996549590219e-02,6.505820746856356106e-03,1.185074978834238860e-03,-6.253373371327015581e-03,1.030216235042379601e-02,6.064884435105245657e-03,-1.107657817003537826e-02,1.349109546993990105e-02,1.058917711235741674e-02,1.476732083341389910e-02,7.410567010421028472e-03,3.723519138789438063e-03,-2.684151947976564940e-03,1.420685099887513368e-02,1.201819462840025832e-02,-1.493086505605853605e-02,-1.554978255489398303e-02,-4.055814690225601968e-03,1.019573489460470078e-02,1.599769747262657152e-02,-1.147711632319951477e-02,3.090392934294717512e-03,-3.910456365920290250e-03,1.542769678629311164e-02,1.123206063814461211e-02,1.110762448364489147e-02,-1.027830686325736887e-03,-2.796549533599355843e-03,-7.439242135225235947e-03,-1.456457677498018514e-02,1.197415158634752147e-02,1.027281120866723428e-02,1.640616413981841465e-02,1.630501761791679216e-02,1.819870917685308944e-03,8.831089875162557307e-03,1.460204423076140109e-02,1.147922674975769726e-02,-8.294780702431572839e-03,-1.623678883405573013e-03,-1.217501767492458822e-02,1.490688858785758387e-02,3.485805232445644570e-03,-8.908891783144348361e-03,5.637082220361463308e-03,3.878252473553183213e-03,-4.656640846413526158e-03,-1.268723903893093433e-02,5.632896652180031417e-03,6.667194140624337247e-04,8.940448721228502413e-03
6.619852099714720927e-04,1.156242376467865596e-02,1.704146485981279874e-03,2.000646398560899583e-03,1.236586408567643715e-02,-3.168741118982906519e-03,-1.201559711752420503e-02,-1.547047297145067932e-02,8.376377139592324633e-03,3.949866800013446776e-03,6.700115589337645068e-03,-9.423635248535284017e-03,-1.193823948273193755e-02,-1.593791919591130632e-02,-4.905339886480997863e-03,2.952075558803027907e-03,-3.537721352761545417e-03,-2.052752477990289412e-03,1.326888007941742081e-02,-4.981904480113008918e-03,4.592870487825438230e-04,9.312574148484407607e-03,-3.396590085606792167e-03,4.008212137176958741e-03,1.189671448863975113e-02,1.475815151276040418e-02,-1.158688337576084873e-02,1.400524130433842239e-02,-2.588289281761302026e-04,-7.937046174907771978e-03,-1.341608525061631103e-03,1.575988531845238724e-02,-2.423543694608293797e-04,-5.622232993736923055e-03,4.379665617827870061e-03,-8.531244457977900722e-03,-1.392477438511818127e-02,-1.218420024633123586e-02,-1.221157734610104836e-02,-1.142833614290839767e-02,-1.185761682069476873e-02,4.625039917435949319e-03,-1.044415242945473908e-02,-5.066876793214800806e-03,1.302690725122340049e-02,-8.548619082646554887e-04,5.501065717759242961e-03,-1.075802251113240279e-02,-1.010241809510489981e-02,-1.507368109224558293e-02,-1.086914869442030633e-02,-7.269070985815083950e-03,-1.060402562020658530e-02,-1.350325214055312327e-02,-1.245485301040985884e-02,-1.287667024441125057e-03,-9.641318439834380138e-03,-4.456138050355881036e-03,1.121919626862946781e-04,6.250827170720080900e-03,-1.512478156172991813e-02,9.829902787643906431e-03,4.199080592318882310e-03,-1.373121332035506445e-02,1.226490987584892903e-02,1.381760552841341388e-02,-1.441019083405896753e-02,-7.325300111335667115e-03,1.005285329028376973e-02,8.150580712807144190e-03,-1.035744824685895689e-02,-9.542313517410605864e-03,-4.252513080667732343e-03,-5.081238045489631233e-04,3.882406598279116057e-03,-4.303678778393529337e-03,-1.230017727054693710e-03,8.124685293114572091e-03,-1.521109183937034356e-02,-8.127709591174316420e-03,7.004451738051828934e-03,1.297498286509916367e-02,3.833805413024685659e-04,1.054313542484492739e-03,-1.289688319064946978e-02,-1.726497556000905704e-03,1.070853115388815339e-03,-8.454916473995077383e-03,-7.575944641947687103e-03,-4.028867239017907241e-03,-1.575647835888457568e-02,-5.841295133991503477e-03,-9.473411914682854790e-03,-5.663411374089918904e-03,-1.248353862797259815e-02,1.282134895642780825e-02,3.072721333145354231e-03,5.880084301169325421e-03,9.493742284336094059e-03,-5.114395874575632334e-05,-1.356176480991936988e-02,1.218239914815970890e-03,2.851069138633621422e-03,8.057990571714690464e-03,-2.243676303406558995e-03,-1.222686130161935482e-02,-7.098824336393831300e-03,-4.495126826632778183e-03,4.790589446983619867e-03,2.323713060417134657e-03
-4.724469158058773773e-03,1.597271710590858831e-02,3.472678956533708453e-03,-8.627072078472386094e-03,-1.307382641598402694e-02,-1.139693520288744162e-02,-8.340427864334589228e-03,-1.114012448147691861e-02,-1.029027614018700534e-02,-7.055511792615615056e-03,-1.072342783627087959e-02,1.302615262458148467e-02,-1.378128979058263794e-02,8.047301548095805480e-04,-2.941749796818644500e-03,1.583690789741142371e-02,-1.273709894837081295e-02,-3.353489175195633904e-03,1.541312104584543000e-02,1.199991559685416841e-02,1.040975078175289566e-02,-7.948259926785668228e-03,-1.080504562951202681e-02,5.536703012629873299e-03,1.409678570901881645e-02,1.863574953660400652e-03,2.351106636295208739e-03,-7.223476968232288124e-03,8.847686469428591924e-03,-1.027462486164196741e-02,-5.788763422729208130e-03,-2.447986317682321507e-03,2.498553253926105873e-04,-8.456911645784758250e-03,-1.264524072640529559e-02,3.631751828020596002e-03,-6.939442055108958722e-03,2.667121189294309122e-03,-1.134757149724761015e-02,-6.191867952065665875e-04,1.069939304225321153e-03,-1.471402155969860244e-02,-5.364423103282401836e-03,-1.200248287759367143e-02,-1.433477798547904379e-02,1.608581890192699315e-02,-5.832277171601112954e-03,1.017344651429904351e-02,-8.055359868929789016e-03,5.958891613834577800e-03,8.543506086204214964e-03,3.139902709903533498e-03,-9.331783546073243009e-04,-2.894339164362708019e-03,-4.961785740988165598e-03,1.410181392430083502e-02,1.085452158677051998e-02,1.526723634899151624e-02,-1.233464763963300521e-02,7.579579220860767526e-03,1.439109694967942443e-02,-1.046539459859836992e-02,-1.423230310434169497e-02,7.916199808861337783e-03,2.445016824796818027e-03,1.122253488120770679e-02,-1.182658495526500014e-02,9.693881650494668226e-03,-9.795833575274259103e-03,-1.104246678431588559e-02,-1.102244471418011018e-02,1.032776059412736369e-02,5.423567872557147861e-03,7.572578776899296362e-04,-4.634717507144049849e-03,1.238382053913218185e-02,-3.531120302512133838e-03,1.039423388087995503e-02,-1.998253681554885194e-03,-4.040020990048118210e-03,-1.225254968493093939e-03,-6.520936465652904003e-03,8.129230465307666839e-03,8.931276352116059058e-05,-8.791689213411783138e-03,1.311837940838026136e-02,-3.811951792095649542e-03,1.429878161995042475e-03,1.334483154636093190e-02,4.078841038307569507e-03,-1.257756922042215647e-02,1.444006966276701991e-02,4.192766021038130987e-03,-5.420191698818291846e-03,-1.184301036780084290e-02,9.653101689776746874e-03,3.942092601066751398e-03,1.098556638293561333e-03,1.293183474679886723e-02,9.474896468055151941e-03,-1.143581546665518346e-02,-6.181327627136318052e-03,-8.257319434023946067e-03,8.008968125799891327e-03,-1.531453428753220235e-02,2.294538902614446773e-03,8.616746031548244700e-03,1.236954226235092644e-02,-5.184593000689094108e-03,1.054715563070916622e-02
-1.278329740139322671e-02,1.137432888341777075e-02,-1.222986993743060795e-02,-3.372147235119331808e-03,9.760464417663178294e-03,-1.149351415097395711e-02,-8.888911255089265023e-03,7.296744366823788332e-03,7.223990121448125440e-03,4.633999069584817700e-03,6.367495457315484018e-03,1.402680489032226072e-03,-8.148651922699472194e-03,-5.065934213130752865e-03,-1.045342280231444446e-02,1.340978578599025250e-02,2.737824867890247763e-03,-3.255133884117760671e-03,-1.247382382287559469e-03,1.468469953928534452e-02,-1.138077375153979595e-02,2.831000089537575454e-03,1.933304293800990428e-04,3.659139106676754290e-03,-1.582086014599564175e-02,1.221715031678075221e-02,1.418681757565793192e-02,2.138378844771482608e-03,6.456216914520642239e-03,1.387102071252440186e-02,6.803823903803858653e-03,-1.140744424074633875e-02,2.504612955999407919e-03,3.503547424353345083e-03,-2.490855789841518297e-03,7.762669096860150796e-03,1.426064540475633843e-02,1.397178296611744849e-02,-1.613986026663197021e-03,-1.269773002272882485e-02,1.591775659967075221e-02,1.112631777927691051e-02,-1.232264934614923750e-02,1.381660359884340390e-02,1.214401802282906798e-02,6.184697356274049826e-04,2.996651631144781319e-03,-3.315828730027184802e-03,-1.461756112565379927e-02,-5.410617332127128261e-03,9.942941091787352303e-03,-1.626335984227404718e-02,-5.466366439849163449e-03,-3.343210010030068027e-03,1.227730041790511817e-03,1.378422362490329400e-02,-5.044594121707620012e-03,-5.024658972440283235e-03,7.797371732476636626e-03,-1.568726396137422666e-03,-9.041462248972675919e-03,-1.561451888953782705e-03,-1.179097516116606181e-02,-1.062449559217446167e-02,-5.358743502803533062e-05,-2.661747730960829957e-03,1.361975033001703271e-02,-4.517727505787590657e-03,2.645785356608193820e-03,4.342351158354044657e-03,-1.598553081636824511e-02,5.369073602414786706e-03,-1.057035813826077975e-02,1.513733796657380087e-02,-1.153470702569701911e-02,-2.802963982651186878e-03,-1.361332962549988840e-02,1.631281215056504599e-02,7.206409080181423504e-05,3.131572754554193868e-03,-1.421325430667128020e-02,8.206418794171855061e-03,-9.524050699307506918e-03,1.306846717303081912e-02,-9.680521052550739025e-03,-1.015499010047538758e-02,-1.521547591050258046e-02,-9.170663915852922052e-04,2.128790579534321336e-03,-1.425816161191444977e-02,9.045810356927346668e-03,-1.533568023012947578e-03,8.007536723111582109e-04,-1.944810337670247391e-03,-3.258034684477421720e-03,1.958043745704221919e-03,-1.131876140555372438e-02,-1.044257503449461805e-02,1.187773536753686070e-02,1.464635710989664087e-02,-4.159364903850563434e-03,-7.526650993952284374e-03,4.727629757223839740e-03,-2.996336230165448818e-03,-1.558197712085980340e-02,-1.128880811751966674e-02,7.090555378624771414e-03,5.217610695213478929e-03,-1.552584826217132292e-02,-9.127894790615332862e-03
-8.829047408903417660e-03,5.643387690052166158e-03,-1.576831913990606876e-02,-1.299745823035475430e-02,9.846504912358685843e-03,-1.055365723464752811e-02,5.014787050970235562e-03,-8.595686121188458526e-03,-1.315068609599570094e-02,-8.431879469910743760e-03,7.297215931744366682e-03,1.167782320231053154e-02,1.084140423669309287e-02,-3.375553796734660338e-03,5.518380652634709109e-03,-9.685621165655409689e-03,-6.791139220102502053e-03,1.301204828395898828e-02,-1.598856875747095910e-02,-1.360811402294026702e-02,-9.590347313626469347e-03,-1.554435793131630703e-02,-1.045875065149847946e-02,2.726326388931661453e-03,-2.579700077170064484e-03,1.289175246220174674e-02,1.042194714619869809e-02,-5.193273383849006386e-03,-7.898337101758278953e-03,-3.949802467250217337e-03,2.964461188958552196e-03,-7.614671607727951236e-03,4.075916199957649137e-03,-2.974093938947982869e-03,1.708754037969505623e-03,-2.097021384684711297e-03,-6.747867176947800437e-03,1.472311058098756120e-02,8.654406594733207031e-03,-1.181539622424523060e-02,1.209712286758858786e-02,-4.126446503348820717e-04,1.295349142564535851e-02,9.844507829608221267e-03,-2.455305438871309160e-03,-1.567774631219675044e-02,-7.594522695645737446e-03,1.366887336737255274e-03,4.382205594527079605e-03,-7.948757039016807885e-03,-1.184025252875517756e-02,1.099604983786764065e-02,1.590334324989547271e-02,8.434309414515953323e-04,-1.077905348324736598e-02,-7.475347729833815152e-03,-1.581165132677819427e-02,1.360178874336216877e-02,-1.254956310656912474e-02,2.512102180481519918e-03,-7.417962850031602565e-03,1.778710759210347554e-03,4.971262531259930742e-03,1.082570908450253624e-02,-9.638443987344896824e-03,-1.605443058943243143e-02,-1.192135934565361453e-02,1.313295856436421521e-02,1.227513516262566072e-02,3.198156537201134447e-03,3.300055609899331215e-03,5.418297003366776346e-03,-1.065784216191515386e-02,1.360550320671466938e-02,-2.666834040205897944e-03,-3.836663359435980684e-03,6.210846536164656845e-04,-1.487349979266519399e-02,-1.095620611608849257e-02,7.814849845523759095e-03,-1.369708117057551015e-02,3.386573118667907459e-03,-8.360409343631469703e-03,-3.634520898733941893e-03,-6.937367685066005499e-03,-4.738389755077479677e-03,7.191466835614866021e-03,-6.660669837836867731e-03,2.180121869999774621e-03,-7.862860443185176870e-04,5.373466153872558278e-03,1.434149878548027397e-02,7.635543438121325521e-03,-9.358754329660688015e-03,-1.539166383114014616e-02,-7.805077386007113101e-03,3.121490834784838679e-03,-1.472707916145491423e-02,-1.192992524519058536e-04,3.179434628857696898e-03,-5.441916665768001260e-03,8.894282351284697394e-03,-1.291572016962276234e-02,-1.394859470110947769e-02,7.491634555405724503e-03,-1.480239950074630352e-04,6.185413895415181086e-03,-2.139674935378001012e-03,-8.325840951038668974e-03,1.047640554061769064e-02
9.830082702759224481e-03,6.392053811657237919e-03,-7.480672544716229430e-03,2.962350963824925566e-03,-4.564347407451471716e-03,-1.340871436182109605e-02,1.370076621822387611e-02,-1.192355898578715406e-02,1.478168238494957654e-02,-1.772677251194962464e-03,-1.033735872843475831e-02,1.375644402933941940e-03,1.224413489003562186e-02,7.624144206731801182e-03,1.006466807073736966e-02,5.212995489630022940e-03,6.312606190163786747e-03,1.146439576334766335e-02,-8.218616141983369275e-03,-3.471876051817036814e-04,-9.152935552712114856e-03,1.601056318924737668e-02,1.457885282865811934e-02,-1.512101679614051911e-02,6.749211011860123746e-03,1.396127067074585601e-02,-1.048698815009723763e-02,2.230700782771739745e-03,1.364084076430106991e-02,-1.530095728466613313e-02,6.481478406956248800e-03,-6.653207652792734322e-03,1.393329476597290721e-02,1.546525028578039918e-02,1.458565372380265200e-02,-8.465696064129703269e-04,1.188617388431781503e-02,1.131185525112578423e-02,-5.939088184074022871e-03,1.079857996927879177e-02,-1.520044046149050636e-02,3.160623513094330470e-03,-8.864043776218598347e-03,-1.245711785833932342e-02,-1.388899289323672695e-02,6.444330565064626017e-03,-5.257043662354676621e-03,7.379287833925546672e-03,-1.426972788112867464e-02,-6.064178230547127325e-03,1.296533341602196937e-03,9.544693367017445876e-03,-5.950512350851145695e-03,4.133122953269308467e-03,1.267198386288521592e-02,3.803888845038203969e-03,-8.767171791954317048e-03,-1.561433437253089036e-02,1.215066666194120244e-02,-1.571713998564818957e-02,1.230178053358856050e-02,9.500311795347120194e-04,1.441497292446232079e-02,9.809312478572427066e-03,1.634760822947094183e-02,-4.901260433173324632e-03,8.772023001738725803e-03,-3.219693067464421670e-03,-6.607008199949209902e-04,4.186114820650706572e-03,1.226814339048691409e-02,1.589287967509792066e-02,8.807648593390022401e-03,-2.699787783442418078e-03,-2.581917746885423279e-03,7.800032788416844977e-03,-8.576172612456686023e-03,-1.278847232808495195e-02,-4.772880511417092880e-03,-6.985128227549702341e-03,-6.687380872026279892e-03,-8.745888319519331405e-03,-1.503347728761438712e-02,-1.582861640820809601e-02,1.601234858886449453e-02,-2.371270592536483396e-03,-3.797656386298683961e-03,5.897975926593399844e-03,-9.249968949556729159e-03,1.477261548884128972e-02,9.400954895646278925e-03,-1.347999250411052730e-02,-2.705894534121715093e-03,1.244678248294338319e-02,1.460093758134602647e-02,-1.070236627069288873e-03,3.723394160707069276e-03,-1.093156401189194181e-02,1.612549151552289742e-02,-8.809450507348345547e-03,1.453526770147850998e-02,4.913029131424817390e-03,3.537092312659593455e-03,4.165748092474193059e-04,-8.842343413050721135e-03,-1.061986494623945801e-02,-9.176679910441874755e-03,-1.029450350514719836e-02,9.179000482647498016e-03,-4.920517584166892062e-03
-1.451640798737592435e-02,1.540104575029502612e-02,1.260002309273976391e-02,1.404347803657623496e-02,1.624825257634711709e-02,-1.070630148599180723e-02,-3.406464409203440770e-03,8.478192879906334273e-03,6.435526711375218721e-03,-1.136289723897788116e-02,1.036907511258052146e-02,-9.046854754992153871e-03,-9.067306973456118468e-03,1.213902336043792829e-03,3.051298578515433940e-03,2.629299585268858423e-03,-1.341184103987297892e-02,1.239236712992065025e-02,-7.695553672071551998e-03,-1.216334610064422408e-02,1.276293625044118071e-02,1.495943343638991493e-02,1.188896340077315490e-02,1.016168087963757911e-02,5.096728716848829450e-03,1.669691536915818720e-03,-1.355958248235063918e-02,-3.005560325610331669e-03,-4.179746281624351252e-03,-7.887491414260115741e-03,7.335075890367851424e-03,-1.354031903831394066e-04,-1.375461568853010401e-02,-9.186627896710871516e-03,6.016543975497947241e-03,-1.391599109808569663e-02,1.153042725311816119e-02,-1.593437228931439409e-04,-6.373594850072818348e-04,3.033827627010840175e-03,1.065955739570723787e-02,-4.996555553671467795e-03,5.844424511179303720e-03,2.158037324267501108e-03,-7.648663723264770981e-03,1.243075047466474237e-02,9.764753961668364013e-03,5.202111005133520059e-03,1.150990188943777984e-02,1.205858681948124116e-02,6.840737038913328669e-03,1.106443953859332502e-02,6.483159164196896154e-03,5.914177600200317894e-03,3.894114304686939910e-03,8.296906215426147133e-03,-1.120829015757227910e-02,1.250431698839878092e-02,1.220794515911453881e-02,-1.545521953028523854e-02,1.069684618940238210e-02,-1.218452377604194517e-02,-5.413190857944622479e-03,7.994587015203665631e-03,-1.113754651029467274e-02,1.043913286965133906e-02,1.090425280375931921e-02,2.451721689710801189e-04,-1.620577946962072427e-02,-6.991722585432725429e-03,3.838812028841683856e-03,1.579775909588367055e-02,4.327552287400500235e-03,-7.885856525633819572e-03,4.399523327375213545e-03,1.312754657039458825e-03,9.187566764310059128e-03,-1.290316611603909910e-02,8.569772178276983260e-03,1.354817528859622675e-03,1.520042859557780603e-02,-5.191473781552307515e-03,4.354091647351385208e-03,1.418385698749081471e-02,-1.304994999212684588e-02,1.435459002487276571e-02,6.168451036212406480e-03,-1.418828374998754895e-02,-6.534538530528977845e-03,6.834470018209197646e-03,-1.420425457562869004e-02,2.697727395213515584e-03,-5.059792758038150935e-03,3.969761202358934767e-03,-1.491368257216857916e-02,1.219787522349564078e-02,1.554505306093082774e-02,1.539366619706980174e-02,8.196285919700790554e-03,-1.214458920791318050e-02,8.479004466306967053e-03,-1.560822340243331156e-02,-1.568909780719245778e-02,-5.791029318993556017e-03,-3.728538978829222853e-04,8.877709791622534138e-03,6.017746010264270369e-03,-1.776061016346791111e-03,-7.432032662439673303e-03,1.632102801944058587e-02
-2.423531799746509504e-03,-1.596006106663506010e-03,-1.104352136670278331e-02,9.678852891015771523e-03,6.358755267230739062e-03,-9.167375520836507780e-03,-1.371079207279256480e-02,5.925948461031944718e-03,5.072737024226666586e-03,-7.444086163183311414e-03,1.480224135020354916e-02,-1.145607171563631753e-02,-2.221507102897482804e-03,1.456429498169643268e-02,-2.635421728820037078e-03,4.547926872499427620e-03,-3.362064633037964607e-03,-7.412710513487089960e-03,1.588940547212895973e-02,-2.976643120331338380e-03,1.293861828102580228e-02,-8.865824239952404748e-03,-9.419021115971615635e-03,-1.539327425659951787e-02,4.979353272256996192e-03,-4.316394036548292477e-03,1.196219700067182104e-02,-8.795419726684358805e-04,1.537119585353347376e-02,-1.032446976155913625e-02,1.210221795729203229e-02,9.080914304305940515e-03,8.894598870325894774e-03,1.131953207887296392e-02,8.569643758405314296e-03,4.143922508980327039e-03,-1.210655013331399937e-02,-1.534757051897006619e-02,1.381679944147196429e-02,3.829730884648677603e-03,9.735576165117131031e-03,-6.066372077847114602e-04,-1.256410369791415016e-02,-1.230547515885032847e-02,6.092269142516136896e-03,-2.288117849301019805e-03,-9.832032670091316734e-03,-2.759583124661633253e-04,-1.430739813942401989e-02,2.691192140023871641e-03,-7.584146662846522405e-03,9.769123061523601534e-03,-6.225981179721118419e-03,-1.470161300258655823e-03,-1.603392077789452669e-02,-1.403693908043206033e-02,-3.529529680392456785e-03,-6.586254360438550254e-04,3.283761246643598832e-03,-6.839898032192603256e-03,6.401424242307709664e-03,1.182313028846592937e-02,9.187750411712776455e-03,-1.511471281083244696e-02,-6.399738091533931127e-04,-1.297048450765707871e-02,-8.468885606173913796e-03,1.597755455264602067e-02,-1.173718104725921495e-02,-3.650288543006645548e-05,3.879155120803367326e-03,6.647100386637978982e-03,1.958317954966652414e-03,-1.609464778476983604e-02,-5.697425594007787288e-03,5.814885966402933912e-04,-1.353069988116331786e-02,-4.904047256394252104e-03,-1.532534634359579602e-02,-1.383563303306442095e-02,-3.384098141878300221e-03,-1.205825998811283287e-02,2.217424561822970049e-03,6.220299078019187779e-03,9.868521742288144036e-03,-9.844327253535706257e-03,-1.091683489785767215e-02,-1.298238038085568376e-02,4.479123287616197137e-03,6.778776978921731249e-03,-1.537843267143247129e-02,1.432122595266932356e-02,-1.470917090330192516e-02,1.355794464636445431e-03,6.863637971242089915e-03,1.217923771829065686e-02,7.028659454162753013e-03,9.905994366545772464e-03,-5.270989269676630215e-03,1.033598123015521536e-02,-1.378519335685276723e-02,1.296217286426524888e-02,1.562498940346858161e-03,1.041716067588898016e-02,-1.565432027882213313e-03,4.713780120524674322e-03,8.668222322363625760e-04,7.603284634691096638e-03,-1.373545014097348957e-02,-1.443402196753985033e-02
-8.302819922246563317e-03,-1.117744310223586605e-02,1.220597658251375804e-02,-9.218448051428778517e-03,1.562306861005316114e-02,-5.354852459993255515e-03,-1.043634422217570509e-02,9.511052967139039735e-03,5.210513764723181430e-03,-5.923619196799216168e-05,1.817633340988312812e-03,7.196584284133731961e-03,-8.915066092844167386e-03,1.629507245849046507e-02,1.558787084599142642e-02,4.935322516053099358e-03,-9.864281634645165331e-03,5.917049338108364837e-03,-1.404509685520843529e-02,-1.540908496749442830e-02,-7.955480699389633897e-03,-1.227120711507742861e-03,1.209070540207317183e-02,7.458157366273302467e-03,7.968265357569698226e-03,-2.446118378237787175e-03,-5.058087667493001149e-03,-4.233909135603421831e-03,1.600995764819321959e-02,-1.509861366812305893e-02,1.204996199207898459e-02,2.582981823152156065e-03,-2.015308967975773264e-03,7.395404141342335792e-03,-4.376702022676473222e-04,1.225980841802708741e-02,1.315538933988381204e-02,-2.569969787103351319e-03,-7.326936759969504033e-03,3.031941294582422061e-03,1.353824588380806750e-02,-9.499211000109608963e-03,4.037099469363890358e-03,4.319236001630591230e-03,7.653302481228085874e-03,-1.209595208523756710e-02,7.085720568496715194e-03,1.342889201503537182e-02,-1.051628103939827169e-02,-8.616680019688549227e-03,1.547630932621434606e-02,-1.047380302524599308e-02,1.163476963360694783e-02,-2.535246628194405896e-04,-8.298622811390014495e-03,1.217204045456183117e-02,-1.795675862554463450e-03,4.864665663907542445e-04,-4.621490434488355684e-03,3.051656979728477413e-03,-1.104680276604854718e-02,-3.575887512237012605e-03,1.541121321333867832e-02,-7.940688943309924530e-03,5.145800484266094092e-03,-5.739161636491934247e-03,8.978359637231758672e-03,-1.211873750784378014e-02,1.542463193509302152e-02,-1.517129390383204369e-03,-8.665691958602011677e-03,-1.400247128234690872e-02,-1.084213407819385223e-02,6.491958620734957939e-04,-5.351326928567845878e-03,1.079752582702141889e-02,-2.269022473144533848e-03,-8.249928130039248589e-03,3.845971397697788442e-03,6.788675169899401063e-03,-1.093130261880894717e-02,-1.091234908430582275e-02,-1.521147845424244971e-02,7.761282959328083542e-03,5.377844552377854075e-03,-8.328903274423231232e-04,1.129941400857867491e-02,1.003541593589092965e-02,2.802257729118131594e-03,1.209066518770514354e-02,-9.657487916269566486e-03,-1.274101510506010261e-02,-7.559319729214922928e-03,-1.454122222833817424e-02,1.023322607709320270e-03,1.433414312739096121e-02,-1.512375064536220469e-02,-1.240645890466981344e-02,-1.569347313389374797e-03,1.424449270909338913e-02,-6.035754345089898443e-03,2.375250370502455621e-04,-1.505056019153541876e-02,-1.154519736706545105e-02,1.597648852429419189e-02,1.527024975532304506e-02,-1.625324931664195310e-02,1.483337233845198437e-02,4.567428083768310110e-03,1.207907635174100373e-02
-1.485929750252429609e-03,5.120311297334698749e-04,-3.661764328284714269e-04,5.478298136561627826e-03,-1.183056149118915691e-02,-1.543137424756051319e-02,-6.305826415699214253e-03,6.719846763950453050e-03,-9.788409463337862521e-03,5.693937037659056039e-03,1.542761957770399581e-02,-1.333259132103320303e-02,5.666677073597026215e-03,-1.846729031713851893e-03,1.208642914788775162e-02,-1.059945211076874366e-02,6.324076891316516777e-03,1.110061788223550699e-02,1.459707001279381654e-02,6.016191524001996034e-03,-9.275494522068710758e-05,3.869026991684311727e-03,1.211147023789481587e-02,2.318179154260829010e-03,-1.541779967502757663e-02,1.414841902195403990e-02,6.222327431133084681e-03,5.795087375823996037e-03,-9.334631069013612018e-03,5.216347636711760223e-03,-3.484523511975191629e-03,4.965109655578339547e-03,-1.291589163951790270e-02,5.182198097953319774e-03,1.639618527956358124e-02,-1.483259016657504335e-02,1.566604186347507477e-02,-3.056292298904763304e-03,1.217215697343220111e-02,9.270960083713919442e-03,2.200201907116933371e-03,7.828494118012108843e-03,1.242699380101705900e-02,-3.147156287351984133e-03,-5.678651154117022801e-03,5.502236041048895812e-03,1.010684897344709191e-02,8.611048203043378604e-03,9.777480100159207169e-03,-2.114855581497326539e-03,1.043477266979154008e-02,-1.246886574059341037e-02,1.460615628777714968e-03,-1.622637135730974067e-02,-5.758999172835672746e-03,-4.384183499999638745e-03,-3.408740484306939551e-03,6.417357736854522980e-03,-3.658734081964023967e-03,-1.684432818112999901e-03,-8.616653559637053872e-03,-4.161253487959572228e-03,-8.953974414414173078e-03,-1.401234758048896037e-02,3.396306942453146752e-03,5.522571906180371616e-03,3.922971578863791026e-03,-1.198522168628400131e-03,-3.946736983205485945e-03,1.192855848622649019e-02,6.264715373520279721e-04,-6.834769930058000103e-04,-1.557358193523149595e-02,-5.211971352525530607e-03,-3.933281626689986640e-03,-3.321735757112940189e-03,2.632128338331968416e-03,1.103200720302374748e-03,3.542617678998793897e-03,8.696346955618510302e-03,1.027559295438083831e-02,7.161169561447472062e-03,1.495523757698728577e-02,-1.581684168552975264e-02,-9.987872289968209236e-03,-1.616713743286595645e-02,4.841722629065100050e-03,1.306768775215290043e-02,-8.421698435165787117e-03,1.401991406313404451e-02,-1.443680253511738995e-02,1.426291112970256084e-02,-4.871355723250331109e-03,-1.308569950743122302e-02,-4.638423857851106799e-04,-7.985235996131229835e-03,-7.062809001983438341e-03,-6.326837404045953031e-03,9.948602749560794475e-03,1.285698640262398270e-03,-6.194931708557046245e-03,3.622353692761268520e-03,7.096413894906674139e-03,-7.464951041034975816e-03,-2.838257892867735322e-03,-1.241380713127199741e-02,-1.046814308812057427e-02,5.946256055466270923e-03,-1.045865502812578368e-02,8.261356858568262790e-04
6.863169877663916930e-03,-1.290657119338087765e-02,2.209918485742594970e-03,-7.992254710689561739e-03,1.519829036651317196e-02,-5.402106732633081207e-04,1.004600050296466582e-02,1.648980892295389680e-03,-1.499016210675150652e-02,4.371475015227908011e-03,1.481996279380055383e-02,3.336004085874874105e-03,1.047924678132989250e-02,1.261383104548296184e-02,-8.927376662518545988e-03,-9.453817373131600046e-03,3.643602011342476129e-03,-2.921012415917140313e-03,1.115794100884505771e-02,1.313310569753018200e-02,-4.812303104538878835e-03,-8.638767508651832780e-03,9.209895696169818902e-03,-7.393312947685681639e-03,1.059170757076757438e-02,-2.503739201377411759e-03,5.500808349061451011e-03,-1.327892605108858988e-02,4.066408933524738936e-03,-1.583508892687056401e-03,2.843430878500577495e-03,-1.089938117259019006e-02,7.776770259919469318e-03,1.191094236167339164e-02,-9.299677762902712475e-03,-1.327304139126944151e-02,-1.563935791145191698e-02,4.661047355263052243e-03,3.515989984733123349e-03,1.533116515279227439e-03,-8.800409059693613256e-03,-3.581650667014389926e-03,3.101739932870763768e-03,-1.061468246557192776e-04,1.601442121717784259e-02,-1.193599789065691134e-02,6.406764771081686904e-03,-3.141297735696033967e-03,-2.357268845598834480e-03,7.143923160391581900e-03,6.317845563278316236e-03,1.612835986837889146e-02,-1.220013741442888683e-02,-1.299742318670140187e-02,7.365237720218501330e-03,2.573510395108862068e-03,-7.414500970682081672e-03,-1.380802648227370116e-02,-1.360319862693417682e-02,1.294162791888114200e-02,-1.011626267740804892e-02,-5.798864636178786662e-03,-8.974107123613319498e-03,-4.760596902161421708e-03,-1.413618826836060549e-02,6.257494477940072665e-04,-1.419565413216756188e-02,9.860964362920969159e-03,-8.742463046982272903e-03,1.313625820422264319e-03,1.247832572268315308e-02,4.953434737047806083e-03,1.082032685157212999e-03,-5.767275072068181810e-03,-5.482691871564256136e-03,5.564403572629721302e-03,1.622302332200604991e-02,5.313320810656692664e-03,1.897079652392943353e-03,7.572456073113964514e-03,-1.142329892525025979e-03,-1.444090795907381451e-02,2.045258435548312579e-03,1.502423454979042762e-02,-1.066008570072353792e-02,6.238025174641420589e-03,-9.818606094686096325e-03,1.176253920237943290e-03,-1.324146157376636899e-02,-1.629365158329139319e-03,8.410064012387490420e-03,-5.004358914249751843e-03,5.414194784679236296e-03,9.699878173097512338e-03,1.402461789510644000e-02,-8.711930343090304105e-03,-3.305545710715676860e-03,-1.141148340856948731e-02,1.616866003443622954e-02,1.401881170533689734e-02,1.311827203605054910e-03,1.122924937179351282e-02,6.880685505930272386e-04,4.057425204460818856e-03,-1.348940085192064896e-02,8.380749056103743017e-03,-1.222248885927295151e-02,1.070508278689905231e-02,9.259226450672480846e-03,6.853269270961173144e-03
-1.522825655058310593e-02,-6.463466632262672082e-03,-7.777219555084998945e-03,-4.591842912253918732e-03,-1.353804586567720555e-02,1.434570388452240802e-02,1.766374173666361916e-03,-6.384805363331451204e-03,-3.382186043571527162e-03,-1.733386335822278794e-03,3.302599113209518395e-03,5.147691950047686166e-04,1.376900181702864559e-02,-9.969148686039864019e-05,1.615797400324315083e-02,1.153758581656873922e-02,-9.569852342897955041e-03,1.413681393898481679e-02,-1.259502351488146418e-02,1.042214894941668676e-02,-3.919240696081493711e-03,1.240922439480637504e-02,1.208361999877402213e-02,1.004379592153323633e-02,9.521950489176070689e-03,-6.412553077852334478e-03,-1.375878300417269703e-02,-3.185244783374321844e-03,-1.071847301204270804e-02,6.400413142760241758e-03,-5.052679307858508675e-03,1.561469493477755585e-02,4.628235429116820711e-03,1.058731628220226616e-02,-1.206453335277315846e-02,1.188524908094514346e-02,1.387948481637928111e-02,-4.247684139626057404e-04,3.488375997625189646e-03,8.693935179193826301e-03,-1.067532956762129621e-02,8.424651339168396182e-05,-3.326980590593801943e-03,-1.160984819797021908e-02,-4.348959676510452156e-03,-1.417727719284357472e-02,-1.556800590336480071e-02,-1.197780679739499782e-02,1.520447032901284419e-02,1.626097572893724823e-03,1.529334511142810445e-02,-2.216153134267354833e-03,-6.178239382182490816e-03,2.016426779918984412e-04,-1.985883665676755824e-03,-1.294637004448028969e-02,4.623449914868898482e-03,-9.322712475932696391e-03,3.926176163226459230e-03,4.931231988773709073e-03,-1.142432553687163822e-02,-1.440127176269446682e-02,9.217646105858514141e-03,-1.319786914188333417e-03,-1.450586537430899846e-02,1.624688991559021176e-02,-1.451844729525476364e-02,6.403175530412605863e-03,1.587959814720999244e-02,-8.562943137521848019e-03,-1.174526315998602327e-02,-1.243026044845575370e-02,-6.458647336132069747e-03,-1.309801165483239806e-02,6.308823325038802159e-03,-1.437033947188650143e-02,3.093366299321235070e-04,1.630698802076869375e-02,1.030791595315332966e-02,3.782753976430351314e-03,-6.360861479978744890e-03,4.067607641478841393e-03,8.877946873444028750e-04,-2.426746543863268681e-03,-1.212409826230603609e-02,1.269255131736967378e-02,-1.648613482806096479e-03,-1.002580749791752088e-02,-4.341575076175188848e-03,-2.819194617378666112e-03,1.075335287091993414e-02,7.669762503512283190e-03,8.841512968076144577e-03,-1.605326720239840313e-02,-2.752736878975068930e-03,-6.124876641358891795e-04,-1.578533409527151099e-02,-7.885540440529859030e-03,8.545540392806777463e-03,-1.191400274760361956e-02,1.159262206197944666e-03,-9.350169273926888305e-03,-1.601749763814466765e-02,-8.496580354756727571e-03,1.562334764257125586e-02,9.899724617036914989e-03,1.508829938308104725e-02,-3.987622604354519465e-04,-1.281269869889163464e-02,1.574551572270870220e-03
-1.497831631175324278e-03,1.130554135694998574e-02,-1.319529707033257650e-02,-3.860536587583913407e-04,-1.148920551523442343e-02,-5.756041210606174796e-03,7.792638482774073491e-03,-7.873455892976258383e-04,-4.074695121713160957e-03,-3.464435194056452415e-03,-1.331397726152662095e-03,9.357340055645950103e-03,1.287248001689129950e-02,1.494903223296413682e-02,9.419286726885378949e-03,-6.060351533139921379e-03,6.176625389602707558e-03,-2.048543494224140237e-03,-8.054376017090414397e-03,1.119110926352752215e-02,-1.515386284367689108e-02,1.319019426463245194e-02,-1.264728210016089057e-03,4.504443346860136435e-03,5.231727320828551478e-03,1.297205773403564515e-02,4.486984068078283747e-03,3.740538292991700629e-03,-1.422718893543286657e-02,6.043513080824623610e-04,-1.148525477606235010e-02,7.795156325699817944e-03,4.012562486293910096e-04,5.917034130098001651e-03,-1.504727574071343214e-02,-1.363163782485478370e-02,7.102084239886142895e-03,-1.404884196998441338e-02,-1.407601306527824295e-02,-1.601790143839780869e-02,1.498733639198219537e-02,7.797605204233647343e-03,-4.817883393176996404e-03,-6.679913135864102083e-03,-4.934373175675728015e-03,9.017113372252361092e-03,5.297936963394358698e-03,-1.033530223485091930e-02,-1.069927285337803936e-02,-1.318501874616409032e-02,5.262877164589667423e-03,8.679583537576980590e-03,-7.713729307967541991e-03,-1.572779195430566365e-02,-1.371766613850240561e-02,1.536025027022347271e-02,-6.715725169962018931e-03,8.838829182537156701e-03,4.092812966627912621e-03,-3.876023910708577703e-03,-9.662542157267898016e-03,-1.243021190023969186e-02,3.775975381148693327e-03,9.016464944802037029e-03,4.724501313888914734e-03,9.948452865457986516e-04,-1.503813816110665183e-02,1.538089243939027261e-02,9.807045700326933943e-03,-6.801832021840531831e-03,1.575784173075505529e-02,3.344860851943605353e-03,2.706007275059822866e-03,8.144457396601120780e-03,1.023567224190300405e-02,5.137328242503199846e-03,-1.220993884264554366e-02,-5.309817893667242300e-03,1.405435677824982618e-02,-9.041108039911755281e-03,-4.196867354343897932e-03,-2.229974777513134190e-03,-1.989386684263979351e-03,3.707904337469375942e-03,1.454656360785744514e-02,-8.513282919035778523e-03,-1.242643772486093021e-02,-9.932305911571775309e-03,1.270307968271795762e-02,4.787095301334054823e-03,-7.028865586972953342e-03,1.037281172407994272e-02,1.186409005020207935e-02,1.137636593872917885e-02,1.375372103255657896e-02,-8.134141951434170278e-03,8.373247473982117772e-03,-1.295522490735528508e-03,1.122810877869835459e-02,7.501546882023648125e-03,9.076009166302245745e-03,5.126928420449056861e-03,-1.059029295494415615e-02,1.478272756045757559e-03,1.591212743778459837e-02,1.435982915025052140e-02,-1.499800202103897251e-02,-1.100441998422064041e-02,-1.209066341589484089e-02,7.419116220444963404e-03
1.043316768961687242e-02,-9.405670040827589229e-03,1.921489800355433370e-04,1.118557557455920372e-02,7.643076400164605828e-03,1.386684048113963775e-03,2.966192949656626648e-03,2.744839983448084148e-04,-6.646659735250258320e-03,2.134728356770179605e-03,6.201268105357952629e-03,1.225651475260324842e-02,4.474563225906416815e-03,8.572846281381708150e-03,-1.116014271827070123e-02,-1.262101419128655241e-03,-1.610906800713897066e-02,-8.316752340203412489e-03,7.434934300195125516e-03,1.614654677785179113e-02,-1.315933023893833646e-02,-3.234026949772213222e-03,9.851589866132036757e-03,-9.716766521153656633e-03,1.808486607935958727e-03,7.651932567839362515e-03,3.807902814975455772e-03,-1.024241823949305005e-02,-4.747849896303126503e-03,9.317130145071902264e-03,1.780303437598550502e-03,-1.624374042718423547e-02,8.568552758679681691e-03,-1.525613079606854584e-02,8.067652976281005500e-03,-9.767820963020196548e-03,1.503894920008821794e-02,-4.335619543074574651e-03,-5.681984971831788821e-03,-1.152730949021140219e-02,-6.382182018465788927e-03,1.236577081876166773e-02,1.629508629901537872e-02,-4.323512202293686851e-03,-1.687157506472121296e-03,7.290781290321625766e-03,1.267914204984981613e-02,3.054726099459860716e-03,-3.561305304540904500e-03,-2.868700664208512479e-03,6.422313221481837885e-03,-1.630977478818421145e-02,3.926221553935053780e-03,-4.744289659518665866e-03,9.658753260993259079e-03,-1.336246990344236787e-02,2.895756837142741177e-03,-6.246765090013412999e-04,4.672670317885965242e-03,-1.428623347823177424e-02,2.625937034488082591e-03,2.018592289321470470e-03,1.991523452000759989e-03,3.397589749954844224e-03,5.793595260524528508e-03,1.001305308394945248e-02,-7.556985171904119850e-03,1.067165373979433833e-02,-5.726746246453121454e-05,-1.388554310771063574e-02,-1.449315543828415959e-02,-5.442099603324504660e-03,9.353414576459313443e-03,6.818345010022175759e-03,9.475479329129447847e-03,5.669580838671032597e-04,-1.963318705172296345e-03,-1.157443897451101988e-02,-5.640580742642490111e-03,-2.166201370230188064e-03,-1.350660430587235887e-02,-9.172551637769811930e-03,3.224821500697475345e-03,7.737024205055736611e-03,1.636118053783806175e-02,1.421948589178141133e-02,4.680539010796743761e-03,-2.585494636384208598e-03,4.470820859385420815e-03,9.378190093240149766e-03,-1.253035350293466021e-02,-2.957900524345462735e-03,1.115600342201890360e-02,-3.813864828297541809e-03,2.359628930273211661e-03,2.881544155288821071e-03,-1.035891796073425131e-02,-4.522929801620202694e-03,-5.433137760233446717e-03,-1.555537253403944074e-02,-1.562119660355938341e-02,1.088990130657500888e-02,-7.450281906620360821e-03,5.935415579940540127e-04,-6.608013791338608611e-03,1.446788139556922509e-02,-7.902495937487609076e-03,-2.309427778957533206e-03,1.223705703485218448e-02,1.122597522879260033e-02
-1.030556239527176572e-02,9.936042052855980841e-03,-1.372760732803145201e-03,-5.591466841996533708e-04,-1.203317003685747469e-02,-1.376921564539542418e-02,7.483444921082079218e-03,-1.161834340237921756e-04,-2.073246141959743816e-03,7.534953979012496555e-03,8.717018498549215788e-03,-1.119834035720369478e-02,3.618787149900854361e-03,-1.197164138647855910e-02,8.252861850839728758e-03,5.152973756913968931e-03,1.499105359406971080e-02,-1.415148175229797439e-02,-1.454227724619451025e-02,-7.150987038057487859e-03,-7.823408847051144949e-03,-8.306905229068987581e-03,1.333768983344498123e-02,-8.222615237299280011e-03,-7.487088060465569433e-03,8.516269682493374238e-03,-1.650084514776476233e-03,9.084647310498220399e-03,-1.426940558821452112e-02,-4.080484792854533870e-04,-1.531186955557372817e-02,-1.435847422195697318e-02,1.334369370666655535e-02,-1.184388700268183651e-02,1.064399086456876758e-03,-2.918808388130178337e-03,-5.011850851634960455e-03,1.312687513087444635e-02,-1.569895214778644146e-02,5.377357294840831581e-03,1.521364073275972839e-02,1.975373589207584085e-03,1.434125986569025936e-02,-1.469976172033009808e-02,-2.666085687460408808e-03,-7.874227507819542629e-03,7.578052249948779608e-03,1.580140044835597057e-02,-7.993328977908440922e-03,5.061685734149435484e-03,-9.911716266851734389e-03,2.144848855854348743e-03,-1.184127708782128354e-03,1.549634388930270189e-02,3.563044384234871371e-03,-4.940836183167539829e-03,-1.266956970671559088e-02,-1.144986875175156918e-02,-9.018083158865840276e-03,-8.175980255952765285e-03,1.151102893193876875e-02,2.009997179117845034e-03,7.679438849225353036e-04,-1.264747167799728546e-02,1.182369813639066319e-02,7.315186607467761420e-03,-1.419382222538257028e-02,6.823406298088478990e-03,1.429397394295370011e-03,-1.373231926755353292e-02,-1.369026064471947062e-03,-5.024341517522015787e-04,-1.097291139960923471e-02,1.463265629253159873e-02,1.148999464367157775e-02,5.549149765470325762e-03,-1.237869397245865925e-03,-2.896813710896449599e-03,4.956589721047960015e-03,1.491567632113148566e-03,-1.437095315458801308e-02,4.104727906853752428e-04,1.005949620372487661e-02,-1.338190130651030095e-03,-1.470965371721362491e-02,9.398761300276919917e-03,-9.804485753231331410e-03,-7.924687107257202823e-03,-1.100798089540110450e-02,-5.574186511894061932e-03,8.429374366076033964e-03,6.364545622762989279e-04,-9.689003443040449665e-03,1.240448879536325266e-02,1.246200114532626003e-02,1.216641074148882944e-02,-8.575546671856797490e-03,-1.600854573886258472e-03,1.592263057745675614e-02,8.930405252777417688e-03,-1.552350319534393820e-02,-1.427470994994282406e-02,-1.184164146972851994e-03,1.343505388261675114e-02,1.270613555736213422e-03,-7.181725634790487884e-05,-1.295264022467466566e-02,5.147226663108049778e-03,1.057492581363193331e-02,-3.925914750559285696e-03
9.048575839684205521e-03,1.524917094266363925e-02,-9.725603786056106689e-03,7.659320035359188294e-04,-6.988445247166099467e-03,9.614664288627792002e-03,2.547457424181094263e-03,4.418457362422733951e-03,9.780779955396615849e-03,-3.415379507520934638e-03,1.362776655528667724e-02,1.084366325947759687e-03,-1.122963949402567239e-02,6.431537764890690907e-03,9.628024199176039161e-03,-6.015872888717875566e-03,1.172650444625082319e-02,1.333403491245340779e-02,-7.324418956142976500e-03,1.587442884364528850e-02,-1.179575180044010324e-02,-9.783083762345922210e-03,-1.036717209673736206e-02,1.293502350893936496e-02,5.065558162769709556e-03,-1.142171777808440210e-02,-1.959233875227667579e-03,3.785334050430853078e-03,-1.367523495187797367e-02,1.255506067773528786e-02,9.967567092691111824e-03,1.709428873616889203e-04,1.533617146982834030e-02,-2.699978297421745232e-03,1.589376117851439355e-02,5.512959036677879052e-03,4.421374572152485596e-03,-1.096699018435993642e-02,1.253901918476092725e-02,-2.380576364211737725e-03,-1.108916990916015630e-02,-1.600151736721214940e-02,1.961830862637964443e-03,8.995533316994332044e-04,7.201569457383530035e-03,1.281250997706852822e-02,-1.380844620342707406e-02,7.600230332740732023e-03,-1.026253668307899707e-02,1.175926295856303053e-02,1.047513157783455488e-02,1.339294317471865408e-03,6.902453220728566735e-03,-6.095046620258626376e-03,-9.465828564626941255e-04,1.055961799901872569e-02,-1.337358867027167589e-03,-4.668606144537694805e-03,-1.900103707660337384e-04,1.077670733325084701e-02,-5.410262570814863142e-03,-1.071068953101283160e-02,6.960603963866504942e-03,1.070214713144880016e-02,-1.311141756413944370e-02,-8.540158235905072337e-03,-1.175436975043793811e-02,-4.992215192324487433e-03,-1.630020375510530259e-03,8.169184210926072956e-03,4.962306156992799498e-03,3.970189635675054965e-03,-4.846658396419551047e-03,1.121001897773666288e-02,-9.426671694181120321e-04,1.572943018321763808e-02,4.404002613063397534e-03,-1.227005231655952516e-02,5.784061992755699759e-03,-5.741986692913574747e-03,6.117283290066874435e-03,-1.412905394328251192e-02,-1.067392408100591508e-02,1.167916239959687283e-02,-8.956931498412970191e-03,1.106535213422126483e-02,-7.246557238183252460e-03,4.690936891663042597e-03,6.374131528900988872e-03,4.154665090817070972e-04,-6.391819151360503964e-03,-9.434134071652666709e-03,-1.532579790684775699e-02,-6.436609496508790065e-03,5.028467104324437983e-03,1.438992691103346128e-02,1.218696474230336266e-02,8.735137116439127894e-03,9.469976172722856592e-03,5.416597314278740610e-03,-7.869990139396132109e-03,1.336856562776215541e-02,5.605289712245062686e-03,1.984318277275571966e-03,-1.277155274143602741e-02,-1.738212364780331422e-03,-1.301472299689854445e-03,1.196893913697727463e-02,1.531501482023909068e-03,-3.926553591191734617e-03
1.565376785660770043e-02,-1.278038016974983315e-02,-2.542802197979449931e-03,-1.503572667685579116e-02,7.876260123518665293e-03,1.372581540549447539e-02,-7.221565033504719067e-03,1.176466769534866182e-02,-6.821655503771111885e-03,1.348594027374147922e-02,8.337789312654310392e-03,1.001035363690120673e-02,-1.582426235024827349e-02,1.519446497425925441e-02,7.441805044009067345e-03,-6.410190690575584202e-03,1.081431221537048661e-02,-7.172848333148920674e-03,1.223783148483487127e-02,-1.271932142021069308e-02,6.687187101521142873e-03,1.336166247005330645e-03,-1.324612288215445098e-02,-8.473849226183003194e-03,-1.600819791331831513e-02,-1.025374751387677242e-03,-6.524633661272468375e-03,3.229161420602151989e-03,-6.656858434096486060e-03,-6.568828907473063354e-03,7.984243402561486125e-03,-1.483486215715103772e-02,1.322739173654627169e-02,1.156512817684749415e-02,5.509173126375132602e-03,3.060544908279881973e-03,1.287963088160519465e-02,-1.033088281739261670e-02,-1.382280716148976893e-02,-8.552106794851157406e-03,9.671260094924144166e-03,-1.527717827752705752e-02,2.718620134735007590e-03,1.626564287432050865e-02,1.167781091474334558e-02,7.040805505775558177e-04,-1.432604698382588214e-02,1.087927955969558019e-02,3.249550172582908823e-03,-1.264208330580975786e-02,-1.333401719727504535e-02,1.344840335855100946e-02,5.554991217357038193e-03,1.081077089617529970e-02,1.244220562117013054e-02,2.356348497067029760e-03,5.727788426052459088e-04,-2.284128392738498260e-03,-6.009802109466617047e-03,-2.147271267199474861e-03,8.991706370755277525e-03,3.346234540658816342e-03,1.288687966817897781e-02,-1.858883180137840168e-03,3.515843645413543189e-03,4.310940725107386545e-03,3.010497279514369115e-03,6.652642320313084494e-03,-8.620286705367779384e-03,4.059135280738780161e-04,-1.299364260002341259e-02,-3.791593165975588528e-03,-4.049008216861655902e-04,4.997654318972544370e-03,1.479132476986093347e-02,3.304461712913253895e-03,7.997399303437298379e-03,2.057201617708272049e-04,4.402751529885733268e-03,-1.408666706327758346e-02,-8.063537181569232701e-03,-4.535482632384206167e-03,-9.030669852664140315e-04,-1.491674530820959188e-02,-1.181832073915454334e-02,-7.327379630094135038e-03,1.548082675031459132e-02,-5.537023867784373297e-03,-5.896076207453434951e-04,-9.977375373764977434e-03,3.637005706718613330e-03,-7.200360037700453270e-03,-9.619687494165635525e-03,5.440937494265375880e-04,-1.623467301409056360e-02,-1.616381633888727340e-02,-9.223214379353236736e-03,-1.520983902630748501e-02,-1.286885407519146318e-02,-5.290344483811099466e-03,9.934150002940653895e-03,2.365419380497215882e-03,4.158924177176465055e-04,-6.779940843146180403e-03,1.417484865486443382e-02,-3.381085416259897464e-03,-1.355610218449896168e-02,3.843395143652709837e-03,-1.267802008973831392e-02,-5.081458311334757089e-03
2.433403693709678241e-04,1.228604968967512978e-02,-2.118713582949894670e-04,6.640330513851190608e-03,1.617960377169957303e-02,-1.209853144977903784e-02,-7.395759176476245089e-03,-3.461158771181738029e-03,-2.566448622012559768e-03,-2.921255185109581515e-03,1.338222234399486649e-02,7.026877143070422646e-03,3.542621661292896015e-03,-6.258458820766851782e-03,1.063031882682238458e-02,1.494003082956333987e-02,1.054521788331764728e-02,-1.636404941107529390e-02,4.478175153200487923e-03,-1.473661429701182864e-02,-7.957964951211123419e-03,-1.446118568932896510e-02,3.407694642569523372e-03,6.125908510426878069e-03,-1.265670482740436330e-02,-3.813670104754335322e-03,-1.436793325089665918e-03,-4.299102740305780178e-03,-1.244207755559501201e-02,-2.661014266985673761e-03,8.246392915354266301e-03,-1.408419002695855855e-02,-1.378305384489532381e-02,-4.767984306587379033e-03,1.450223779747858606e-02,5.534386033283624634e-03,5.865889466642761757e-03,-4.533286325145650941e-03,3.074964917545954923e-03,-1.608281762173649834e-02,4.468151109190046828e-03,1.356856853629406431e-02,3.695884492754872470e-03,1.226884857385789757e-02,7.353229447959518626e-03,-1.245739591521160053e-02,1.321289073993523779e-02,-1.423402419720910632e-02,1.115181551152186201e-03,-1.174894825708979428e-02,-1.603109499821522149e-02,-2.559682784915105758e-03,-6.728991132321971227e-03,-4.596159169688214812e-04,2.534539162910937494e-03,-1.497944153357800949e-02,-1.237712842873386898e-02,1.925280679771158117e-03,-5.148951665870476514e-03,7.523964138602796947e-03,4.999866759749946495e-03,1.134649064813686783e-02,6.319706263950093141e-03,-2.300423432851537390e-03,5.678644061260198356e-03,-7.374430645659441237e-03,-6.358895633639733390e-03,9.487633159849255884e-03,-1.759093695497859159e-03,9.796085078295884915e-03,1.058540585520343150e-02,1.173908131628013593e-02,1.367849574079195614e-02,-2.265815000871333404e-03,-5.946759277591921918e-03,2.698656062816901218e-03,-4.229520947135104354e-03,3.318352460731411463e-03,6.749561978028128378e-03,6.185499980061062372e-03,-4.118537399088134307e-03,-1.093726819084658158e-02,-2.280782003557820133e-03,-1.173394388508459951e-02,1.280722362208218390e-02,-5.059976486628091005e-03,-1.134438585429521119e-02,-1.557996116628611837e-02,4.787475273675628404e-03,4.494621686109541436e-03,-5.233103302258295883e-03,-1.406106973261866087e-02,-2.966961672769709898e-03,-6.197893187064925508e-03,5.815024049346260819e-03,3.472824400416900381e-03,-4.445505211259618075e-03,-9.261831845013527784e-03,1.602264357438272155e-02,-1.510166626406224486e-03,6.181206270326985476e-03,-1.180095747805067104e-02,-4.731026444138423676e-04,-1.551137880092601229e-02,1.790962469915691050e-04,1.523409347290991152e-02,-3.801593929131086118e-03,-1.513516029375281367e-02,-1.539912773627759128e-02,-3.677491712590078270e-03
-1.116167587019948303e-02,-1.564876361709654357e-02,8.411714914304865148e-03,-1.361725551619345298e-03,-6.919276722001528254e-03,1.313507750683663711e-02,-1.260249049111694664e-02,1.496821013570977070e-02,-6.107633836734041761e-03,1.275162905186232563e-02,3.379703818440021011e-03,1.072608566024537032e-02,1.589057146857565314e-02,-6.946832789423819723e-03,1.513947748644051301e-02,-3.628405136702852075e-03,-3.758743353200814669e-03,-5.240229646496640838e-03,1.359447622323043531e-03,-1.135471786072816958e-02,1.763394596757484950e-03,1.369205122003140304e-03,8.598463404057309079e-03,1.095401730500317021e-02,-1.955362067334422745e-03,-6.489570670571594840e-03,-7.901243819089852002e-03,-1.002576400082449103e-02,-1.452281310437645787e-02,-5.172569348608583965e-03,-7.542967311156494048e-03,1.531288685442953185e-02,1.894630761302633359e-03,-5.014027118768536566e-03,2.641821052993028728e-03,-1.184548487345791525e-02,-1.837092190877659620e-03,4.144382134203075142e-03,-3.644938005156830060e-04,-3.224687067556043178e-03,1.621347044861100317e-02,1.248606312356427550e-02,4.051524517997330717e-03,2.277718872056527441e-03,3.961388085743967197e-03,-9.806182265712455604e-03,-3.442718735089244676e-03,-1.511994252021235143e-02,-8.028447747741947107e-04,1.412534365284797431e-03,-8.938212025257163615e-03,1.523446905959054132e-02,1.344274960432607913e-02,7.293154871777222069e-03,1.096111946567257609e-03,1.214640803063041577e-02,-1.212600353323878451e-02,9.537688226547109960e-03,-1.231745771052398554e-02,9.659190938212989727e-03,-7.361744996023879620e-03,1.238021046380231686e-02,1.457828663209362156e-02,-1.153033258682908437e-02,-1.225392221351232543e-03,1.579123232409586700e-02,-5.447482518176495871e-04,1.193558012022285196e-02,2.913132743313697620e-03,-4.093027129793241209e-03,-7.032911456542662379e-03,-9.743443029603825536e-03,8.595061429397924530e-03,-3.724973455593961775e-03,3.701831924441880296e-04,-2.519611403113905263e-04,2.537137479703712589e-03,1.200221440526979926e-02,1.578308913397641344e-02,-3.034090496097055934e-03,1.075272995577189646e-02,8.684676669749332931e-03,2.414019177420907714e-03,1.497242281705063287e-02,-9.833681146365897199e-03,-1.282819448591200791e-02,1.162087802685847493e-02,-1.997764236913734687e-03,1.139128807691050689e-02,1.290549198666868583e-02,-1.436489626234693957e-02,1.258948038002178325e-02,-1.696730185535464189e-03,3.425076521003542164e-04,4.156141811453987686e-03,1.399851037161946657e-02,-1.578783522924322863e-02,-7.602489965754475340e-04,6.163077284269452907e-03,7.311662361368279940e-03,6.321006526073996538e-03,-1.200181140531274629e-02,-6.586016625554555297e-03,-4.638491701071507933e-03,9.994937274507977726e-03,-7.263505057990814369e-03,-9.497806664347753156e-03,1.501841477092717703e-02,-1.612444384152475485e-02,1.634388997458351145e-02
5.805196429002971482e-03,1.078393166728719606e-02,-6.742823147561596842e-03,-1.594545020270648691e-02,7.809462370456365758e-03,1.097025660264698381e-02,7.895039746331032962e-03,-1.172553448129979789e-02,8.320258242658340117e-03,8.828967915385980622e-03,5.205022479573296994e-03,8.736816620782997603e-03,1.135690055049466164e-02,3.729721490300859452e-03,-1.350646364891797298e-02,-4.061897271593791479e-04,-1.386613824236637531e-02,-3.035442390454548209e-03,-3.049774439448984902e-03,-1.424827280027718066e-02,-4.963352842729373132e-03,-1.277126942491958912e-02,1.011962898135716597e-02,1.469798574283934234e-02,-1.404122063699101211e-02,1.494182654028292090e-02,7.412093152556444497e-04,-6.580432437215616784e-03,-1.389198465035369756e-02,2.049526158074897709e-05,9.669200476478970185e-03,6.798828456140817642e-03,-1.476646970121809829e-02,-1.402200275745948792e-02,-3.188754276013582890e-03,-6.720790428613785880e-03,-8.786054520463475875e-03,-7.189812025575894119e-03,9.963601381935064186e-03,1.409192885853137456e-02,-3.115560752072453216e-03,1.333297603056140222e-02,-5.860450773598271067e-03,-7.735941519346438552e-04,-8.994705353972136733e-03,4.611950164766997866e-03,1.572536497209630485e-02,3.397768003401105148e-03,-4.668086800019677352e-03,4.852974812161120824e-03,-1.237984080520194985e-02,1.276001431635170359e-02,1.012487758545734212e-04,-1.662891849226177552e-03,2.819015393103005678e-03,4.096762320734065495e-03,-1.405897126969638325e-02,5.995481581523293482e-03,-8.472606510369068769e-03,7.024250281097239347e-03,1.058909672470169025e-02,9.979221134621593312e-03,1.723652243733825654e-03,6.621950385636466048e-04,-1.172469158037097413e-02,9.039852661353429616e-03,-7.504828077326430695e-03,-1.084921317770258731e-04,-7.082468421355720897e-03,-1.202173207216798712e-02,4.253491430081197955e-03,-1.463166539712864971e-02,8.163238447887081334e-03,-5.988783543588717569e-03,-1.641101108239860842e-02,3.653792827862212375e-04,-1.487724442374235845e-02,-7.348547330195812077e-03,6.795217395357612197e-03,-1.435727858199986086e-02,1.114077668684608155e-02,-1.629002180018957954e-02,-8.311991710926367599e-03,7.909088868497719804e-03,-6.032010157061847878e-03,-1.307021779668041638e-02,-4.588641530847795483e-03,-7.538187325671885305e-03,1.125152865325226674e-02,-6.127949570003825112e-03,9.485903362410036399e-03,1.286550200898416325e-02,-2.172831451975635805e-03,1.345878856323213732e-02,-4.027754572770011685e-03,1.523609646346090786e-02,-1.348398072508861720e-02,6.140004541732109813e-03,-2.030904109484916347e-04,-3.688587051320692169e-03,4.357045953038650096e-03,6.692804928081510195e-03,-1.627218324772752162e-02,-1.093421862857425937e-02,6.994486412821667755e-03,5.462577274253448655e-03,1.530074334936705818e-02,8.570096801634769987e-03,1.479925851763142300e-02,6.649580134498341705e-03
-6.630120945988673443e-03,-1.295621149099379990e-02,9.252521589140069724e-03,4.732543823413643339e-03,-1.483344463804297554e-02,-4.594664448469465597e-03,1.499713368669037573e-02,1.316996119482242723e-05,-2.208560743970700620e-03,-1.388758609180477683e-03,-9.557632377699342222e-03,-4.310457324850205073e-03,-4.274143592035695854e-03,-1.469657250037840687e-02,8.784477049010468164e-03,-2.741231836217241074e-03,1.057744480178076166e-02,1.150222839755189221e-02,-9.455484695559039296e-03,5.166051141395101853e-03,-9.100123827347029537e-04,1.248087505127451306e-02,-9.332479768099153153e-03,5.837761413018173820e-03,3.537595523622260284e-03,-6.720429830009018099e-03,-1.193070716061468695e-02,4.978464708188252118e-03,7.833361257209538880e-03,-6.053114033813276895e-03,4.754979864454102374e-03,-3.442943155493177754e-03,6.999766688001217776e-03,-9.875023107323200808e-03,1.281109659574338443e-02,-6.979527123786305118e-03,-4.340700564365491260e-03,-1.450822405619677999e-02,-1.275439063233339831e-02,5.207600078600396537e-04,-7.630133766979110312e-03,1.101410645134078166e-02,-1.593303649140093495e-02,-3.969447127865199411e-03,-5.340086613768253200e-03,-1.578089030308483728e-02,-1.233231088581443133e-02,-2.835185797299776597e-03,-2.342618742923150712e-04,-3.142250515324539195e-03,1.015710784843709517e-03,3.123255303609798021e-03,-1.608962552538742083e-02,-1.178787020971611317e-03,1.521708162666669632e-02,6.248462450948639741e-04,5.828866452796658930e-03,-6.176672534614315729e-03,8.995374314679135605e-03,8.960248693021949373e-03,6.991676941214469481e-04,1.562794620847772487e-02,-1.229351085048799828e-02,-1.585902664964653278e-02,8.869528141080763178e-03,1.008418239307897792e-02,-1.246892569796412276e-02,-7.696118679137139811e-03,-1.583917387477005653e-02,-6.785857373268262827e-03,8.967484354713705849e-03,5.896596847428445384e-04,-4.987153277278312535e-03,-4.210910065713683627e-03,-1.637099246548583825e-02,-6.572722121014789795e-03,4.808367371164246062e-03,1.556821440450939162e-02,1.139430762285390496e-02,-1.564079003983142105e-02,1.308508994080873414e-02,9.297649254948503125e-03,9.204991038125012737e-03,-1.379035621902673482e-03,-3.348574594485055796e-03,-6.470447364561650663e-03,-1.425861403681401816e-02,-8.922268457308545758e-03,-8.319222191294174326e-03,-5.227635960990726456e-04,8.123814239767454190e-03,-8.598460233109880618e-04,-1.451634978206602263e-02,1.502963576844887870e-02,1.453502294602343307e-02,9.363019772913989958e-03,1.613072066578612879e-02,1.460393522694721207e-03,1.519308585393951139e-02,-1.393325418724269439e-02,-4.409817400834147895e-03,-9.015970884764079596e-03,-9.986063360096903568e-03,-1.179275037493267460e-02,4.018945904550179880e-03,9.236040244800170634e-03,2.570604286072490554e-03,-1.159052009484597828e-02,1.021446290614771817e-02,4.463510819302019851e-03
-3.671616754468154126e-03,5.716848458637510851e-03,-7.882527535582599387e-03,-5.082473911449031378e-03,1.370642191506420311e-02,-6.877918573312278953e-03,-9.853111567642704009e-04,1.280867153591646462e-02,6.819671886774460526e-03,-1.437324736624277961e-02,-1.157934661210245977e-02,-1.615798695189345560e-02,4.298275796118703786e-03,-1.717926776425169428e-03,-1.200707348751549851e-02,1.503437392133029002e-02,9.737544325652088733e-04,-8.473866762657288054e-03,1.981576390739715651e-05,5.897091136125656025e-03,-1.391243359520475016e-02,-7.396668935266490462e-03,1.007794300246636458e-02,-1.324237248651165440e-03,1.529167924601145543e-03,-2.205708851704999297e-03,-1.497416002114235027e-02,-1.097372430312475514e-02,-1.787915179606803118e-03,-9.547693115169350944e-03,-1.477457836065439699e-02,1.128231618856405730e-02,1.579796760920353094e-02,9.624134514960120887e-03,1.161506547789465174e-02,-8.471114347444111750e-03,1.512278266606468732e-02,-9.950191688437316426e-03,1.482083176626540141e-02,1.624534610307080615e-02,6.951043136758661319e-03,1.579636554919596619e-02,2.283051208339879120e-03,-7.894451577105346396e-03,-2.068479656635748183e-03,3.071686564145996532e-03,-1.401610217553631195e-02,4.016635368352273333e-03,1.579748524492310957e-02,-1.017403433000288286e-02,9.606151154849909210e-03,1.339167077917336433e-02,1.456710768910372995e-02,1.510665052690230749e-02,7.045385305876136631e-04,1.567043213070066013e-02,8.447717018567659983e-03,-1.110761985619666825e-02,-7.583895170379849554e-04,7.168001636679342294e-03,-8.295036321065509671e-03,4.616518296587867123e-03,5.469638059901441203e-03,-1.107385962775605213e-02,2.136807193889020406e-03,8.917746808917126691e-03,-3.625629001595345198e-05,-1.601807736124180939e-02,-1.611869240015775112e-02,-4.693850498784431571e-03,1.399232049594769170e-02,-8.907776384003402922e-03,4.411276310410160682e-03,-9.124489942165211684e-03,-5.854728734050082886e-03,1.142652332469709479e-02,7.513719421739202022e-03,-1.328339224794203646e-02,-2.340774419367256526e-03,-1.545776455899399576e-02,-6.273930426698849476e-04,5.332849327366127878e-03,-1.252488937403472592e-02,-6.931090353213950270e-03,-3.354112093069076123e-03,1.377356699632338068e-02,1.619398948330613708e-02,-1.494095631590681636e-02,8.569116250180494263e-03,-4.211410030692653780e-03,-3.530690913952719452e-03,8.347739355116354579e-03,1.373730226724541661e-02,1.480437641538133800e-02,2.532001314084954963e-03,-4.690836121941052185e-03,9.440485604263706976e-03,-8.174840305172410837e-03,2.103605876553107587e-03,-4.642991627394523445e-03,5.142333845727390697e-03,-8.522928592733106448e-03,-1.012527077715577074e-02,1.373115155316121695e-02,-1.307313006250321145e-02,1.956032725166684423e-04,-9.164644971962209938e-03,-1.513732874782666195e-02,-1.523290416134466356e-02,-1.066275059041229753e-02
1.204138848657333553e-02,-7.141411282784448054e-03,1.478896482116850812e-02,2.679730591562060147e-03,-2.081011063608238700e-03,2.629385826427443982e-03,5.482224534716517326e-04,8.495848599293098075e-03,-7.140842586654740955e-03,-4.824482952210989474e-03,1.293845737216037760e-02,1.465755411024371666e-02,1.288802669761015054e-02,-2.644592143874926592e-03,9.204642355804622603e-03,-7.769183770458962723e-04,-8.076878537005244914e-05,-9.695607867335248944e-03,2.991886805881647463e-03,-1.030443039005128451e-02,-5.529876852006116242e-03,1.165594909634976549e-02,-9.616954955800591925e-03,-1.407924502085272297e-02,-1.414985412085058639e-02,1.447133767775399607e-02,2.272039737451492236e-04,-2.974080162270155252e-03,1.020641314130464779e-02,1.102545615302269293e-02,-5.509313762578015548e-03,6.356648566097538103e-03,8.901196929188670559e-03,5.077316030017081823e-03,-1.143843553173241531e-02,1.234056727473574304e-02,1.283508035531284773e-03,-7.141618695296212717e-03,-2.454823449958029244e-03,-1.518194172325932310e-02,-1.221745531006045334e-02,8.718129873433753951e-03,-1.641505119132757873e-02,-2.739216133357571994e-03,7.390287465293250918e-04,-1.462173782976402929e-02,1.553156593732037648e-02,-8.991542643887089417e-03,-6.428325664988918456e-03,-6.436737175278393029e-03,-8.850654533745982641e-03,-1.636704631450002639e-02,7.529588280673192406e-03,1.532694220573850574e-02,-9.051683799570515304e-03,5.352980561349392555e-03,7.941665978724567199e-03,1.143910705068164682e-02,-2.540150491530578092e-03,-6.469949096831783923e-03,-5.735712103986297453e-03,6.980542568171009543e-03,1.040014432437288451e-02,-1.045288926937711776e-02,-4.237118511257497062e-03,1.319604487648703105e-02,1.006901395270339179e-02,1.591832141533374573e-02,8.347190631016580126e-03,-3.506494079613832644e-03,2.975718613302268372e-03,5.286237460165705941e-03,-1.383966075125599507e-02,1.460873716913344564e-03,6.872184141940616310e-03,-1.092212980279006450e-02,9.213382405802165304e-03,2.750332960060315399e-03,1.484683300265906766e-02,-1.502267236812369379e-02,-7.704546211607911366e-03,3.334101837687522985e-03,-6.679114330738250040e-03,7.039731070871834903e-03,8.503367812052083086e-03,-1.304974525635592235e-02,4.548540625965068955e-04,2.918846423058689323e-04,-4.291625561232668279e-03,1.421329829865655009e-02,1.075231621354198926e-02,6.474554858637286692e-03,7.036529131100140860e-03,-1.256892165483880193e-03,1.382161485235260633e-02,6.388736462693567382e-03,7.517646629808460816e-03,1.187462571894423030e-02,-7.417425452907610781e-03,1.008140380201228564e-02,-1.000551503045400345e-02,-5.077557694385166458e-03,-5.397051203700143490e-03,1.571040569337739043e-02,1.170542593840656793e-02,6.604580837677479117e-03,7.454470192381528609e-03,2.037903616433986518e-03,1.467837393408206841e-02,-1.228283840672853640e-04
-3.922707097360372472e-03,-1.106284181478910458e-02,9.396379515379110758e-03,7.696997398397486569e-03,-3.796724273207086314e-03,-1.558831156406070319e-02,1.112957595621595457e-02,-1.604057088176316301e-02,6.687640238662343264e-03,1.543894831525146998e-02,-2.046632603432553977e-03,-8.701052717348943186e-03,6.726092747849576892e-03,1.041159164343635236e-02,1.524347501315308608e-03,1.533317269839747782e-02,-1.471910427567071564e-02,1.574436469603789090e-04,7.172032346178127023e-03,1.190580083808222799e-02,-1.053031613503365056e-02,9.849374211573603405e-03,1.730418958132716456e-03,-3.396232240040770577e-03,-1.209111467206421334e-02,1.199297623561853578e-02,-1.125201749368071394e-02,-6.244829370713352729e-03,-6.892987077805882122e-03,1.219384451363650715e-02,5.669988919537237090e-03,9.740307297007116949e-03,-8.192355062495377052e-03,4.099724873631598390e-03,2.355482783085421482e-03,1.092710961451108000e-02,1.333219000540967689e-02,-1.601631583091554789e-02,5.713224703265074901e-03,-1.471361897785484520e-02,1.604072302747117096e-03,-6.972201487938464726e-03,-6.343691635013467417e-03,-4.827499719714506594e-03,3.982136182902330269e-03,-5.448283396388409888e-03,7.639711427572613150e-03,-3.134448643435966148e-03,-1.417133838708018942e-02,9.316081461496893146e-03,-7.033739809937031295e-03,-2.207321589555006746e-03,6.088283343786783652e-03,-5.500609510883318343e-03,-1.455767705666369261e-02,-4.139281253916857889e-03,1.459163201381770587e-02,4.653263053610154007e-03,5.629809010136130158e-03,4.342937705357379982e-03,-9.882348853368430608e-03,-2.681169992231882335e-03,8.238570979666409375e-03,-1.308727312027327915e-02,-7.293285816189939465e-03,-7.343637452960134759e-03,-2.231877501852544063e-03,1.577092192819615560e-02,-1.419926608258224345e-02,6.139698469503363778e-04,-1.052673526901364183e-02,1.545271875212118548e-02,-1.269558095076846367e-02,-3.164862606858688792e-03,7.809970141600518917e-03,6.715699085998450869e-03,-2.536885794110739414e-03,-5.038744528495331214e-03,-3.361474314688439949e-03,-7.739014497604843404e-03,-9.674174904368648339e-03,-5.568214225445059905e-04,-7.599237316963388701e-03,-6.977817672065557593e-03,5.146437368051267648e-03,1.538248651273851735e-02,3.402499079504897692e-03,-1.388813057622599947e-02,-1.393395764642448367e-02,1.482061542673761279e-02,-6.655118969479635258e-03,-1.339279425594709638e-02,3.251719602519026996e-03,4.059496513257347325e-03,4.875541900288894379e-03,-7.636392934562238020e-03,-1.591933631666166485e-02,1.526685744100159635e-02,-8.178397121492096342e-03,5.779095535529469446e-03,6.783837640015518908e-03,3.611638806638935249e-03,-6.142412333933396432e-03,-7.515108297592221209e-03,3.206534335152976152e-03,1.201923681507490599e-02,1.466665534423433268e-02,-1.293845386132574937e-02,-1.133227568449064575e-02,1.460107666903777759e-02
7.765656466362442709e-03,1.257401907235789623e-02,-9.762828242833731726e-03,2.875520027739848078e-03,6.603587140173223027e-03,5.913229237508373960e-03,-3.015459560788674460e-03,-1.591000553897667369e-02,2.722534287114648874e-03,-8.105890366956306631e-03,-1.633196195907681524e-03,1.502278114632811003e-02,-3.314757991627786168e-03,1.115598113080649816e-02,-1.022548174324900902e-02,5.662027559736462073e-03,1.566055156484175148e-02,-1.307019439461159192e-02,-1.614228225920136262e-02,-2.180534457811277634e-03,-1.337445831660964007e-02,8.154673385379753586e-03,1.360999177459075102e-02,-2.166148626298153648e-03,-7.921705825998343747e-03,-2.153595866097489635e-03,7.335985441988388325e-03,-1.611817720175227897e-02,2.936851972428058087e-03,3.719464164067444976e-03,4.520424430546664610e-03,-8.469638611038783627e-03,7.027536351122608445e-03,-1.341497149797557520e-02,-9.873215388187804240e-03,1.239266864938839800e-02,7.837487853970924109e-03,-1.596415472389847712e-02,-8.261025363984389469e-03,-9.376282584665206546e-03,-7.524626810387191785e-03,-8.287831440994980828e-03,-1.436264071210397245e-02,-1.348018411634215518e-03,7.640841603746595899e-03,3.504094988526746269e-03,5.675526645863589355e-03,-1.375123533623272276e-02,1.482283115995037051e-02,1.111298015437017263e-02,1.001637946841901598e-02,1.060383813358601289e-02,1.420626085678876500e-02,1.452896046531395018e-03,-9.840001011337789344e-03,3.834107020209232518e-03,7.974009855278553494e-03,7.811034141369876428e-03,7.041900455645414437e-04,-1.416787410611932384e-02,-4.231473891465613486e-03,1.381413228315401739e-02,2.772530868876711511e-03,1.258470905613444293e-03,-7.588739374475833750e-03,-4.318935927213492926e-03,1.297955461136618936e-02,5.465126064044408503e-03,9.435165063400648144e-03,-1.498879313113951487e-03,4.276129053232716019e-03,-8.260784110519231102e-03,6.745457057317579344e-03,-2.376910936441666705e-03,-1.886280523799539277e-03,4.902381279888895840e-03,1.432347077055010076e-02,-1.431404935995204443e-02,1.066160182043512754e-02,-6.816242352160679224e-03,-1.841172893423169941e-03,-1.569599960233045155e-02,-6.531829626609906604e-03,8.638597510016525190e-05,-1.457112388347878845e-02,-2.923349184840793170e-04,1.402241196880819885e-02,-1.295528251349631517e-02,8.681818198524425198e-03,-2.965577573322724855e-03,5.094487481162039873e-03,-7.871640204974859195e-03,-1.117916401653053053e-02,-1.114730652858361530e-02,-1.410112152490923879e-02,-1.032049101519364256e-02,5.391464679149705549e-03,1.253123346099216731e-02,1.031301839787187799e-02,6.078119782595032064e-03,-1.278985942300479677e-02,-6.921158773631318900e-03,-6.244205055236987795e-03,-8.209130072278145521e-03,4.926488082862251049e-04,1.167262544221919123e-03,-4.698557420658630232e-03,-4.800228587107571894e-03,1.078676492039321380e-02,9.497734836547918474e-03
-6.310229360244026982e-03,1.358503309419204462e-02,1.486630930033982362e-02,-5.688192445167482639e-03,-4.779355048737876470e-03,1.849741379401833587e-04,1.448237843646099123e-02,1.235489301096035462e-02,-1.304803809999058491e-02,-3.521742630138654812e-03,1.752222397127000449e-03,1.028417876559979064e-04,-1.005074069856231288e-02,1.178026545507770105e-02,5.809119196814835004e-03,1.109382469021402001e-02,1.177854210319454788e-02,8.153737836668057196e-03,-1.995768625311275177e-03,3.629345738326294601e-03,-1.115049795641220344e-02,5.700929491820110225e-03,-1.053039349008705675e-02,6.367533082901902231e-03,-8.877526642606957397e-03,-1.255612214700068535e-02,-1.098900016632663700e-02,-1.635002964531571262e-02,7.181411157198257407e-03,7.629927779109392343e-03,4.902748150233922700e-04,-1.111775261659114604e-02,-1.367227188341403610e-02,-1.578741263008470383e-02,-1.097377692624089580e-02,1.283212582761382621e-02,-8.485569404126513601e-03,-4.784398578161323974e-03,-1.295684964980698371e-02,-9.115118894861313700e-03,6.311593137451597954e-04,3.537613936581533031e-03,-8.360304137616351300e-03,-1.452003636733731513e-02,-3.577485309224483299e-03,-8.726333602966493755e-03,-9.207287662258643521e-03,1.509769421101496249e-02,3.818245708803565813e-03,1.867368565458816382e-03,-2.765176318797899803e-03,-2.332819091915067002e-03,1.342946713680062340e-03,6.448960740161752310e-03,6.636631465070619643e-03,-1.077857343500974834e-02,3.701748357393741611e-06,-2.890492014329376809e-03,1.216472130527146596e-02,4.314597037179451235e-03,1.067136660037269194e-03,-1.262692709659945373e-02,3.468183424906619555e-03,-1.256752740841236490e-02,-5.344649158770356165e-03,-1.172580771574192361e-02,6.305944233057007679e-03,-9.643997588553030603e-03,-3.550350464879855825e-03,1.299034573844839134e-02,-9.707549295808082235e-03,2.562470116124768507e-04,-2.650381302177329864e-03,-1.582040520129744665e-02,9.611502496908935073e-03,-1.414859624882831325e-02,-8.452299652536703631e-04,1.992120990931451480e-03,4.216351831742713892e-03,6.192939809463971282e-03,-8.100281399162691590e-03,-1.608782128770714845e-02,7.335849013484540063e-03,1.170637047349656944e-03,1.103503538879128769e-02,1.055145838589787582e-02,1.127169552596085991e-02,-4.893552259766667609e-04,-5.462123899192971102e-03,9.572108379856267280e-03,-1.599056465149167839e-03,-1.039286693903246524e-02,1.165410459069768541e-02,1.255977218168567895e-02,-1.106079893152778779e-03,-1.393014554107934941e-02,-3.682766648867961609e-03,9.965404327231728449e-03,1.319058943042682001e-02,-9.735246757480782442e-03,-1.421663146566015667e-02,1.238874229046409668e-02,-3.630931666342897095e-03,1.371048636133458554e-03,1.536700611416073892e-02,-1.423005548525889397e-02,4.869408678601214700e-03,-1.398248794673810809e-02,-4.088462964799383786e-03,9.974494725652736232e-03
-2.184164234355067194e-03,1.632292740801785658e-02,1.938967490268178259e-03,-5.871401463494670646e-03,-9.188987649539286096e-03,-4.907540359552964825e-03,-4.184843052106137704e-03,-1.415950360128218240e-02,-4.281992026018205909e-03,-1.174080378592517668e-03,7.312673372813965032e-03,5.145564764565689446e-03,6.853957323388716778e-03,-1.614084624860941120e-02,-9.269223868036547201e-03,5.308235261871427878e-03,-5.256429133233109620e-04,-1.624098716095307912e-02,9.996822907184628459e-03,8.956574637199886738e-03,1.589643068577573917e-03,-1.423338460529663049e-02,8.749919969029790537e-03,2.748389609721583072e-03,9.256990323542591687e-03,8.265071859059277409e-03,9.947820525448918330e-03,5.912204211874216853e-04,-1.180845766927019272e-02,5.619248131766463490e-03,3.955258734617759543e-03,7.953382009578588083e-03,-1.083809256692478198e-02,-1.001422844271865169e-02,1.281748267802426330e-02,8.206987689160333624e-03,1.340249494904824194e-02,8.493848129463235294e-03,3.189692865272161261e-03,5.060311288111783191e-03,1.277540686036762220e-02,2.587294024137840997e-03,4.346521873713651667e-03,-1.127816702185627240e-02,-8.561889367007270973e-04,7.104504659242695357e-03,-7.520149655971581151e-03,-9.775253202746390230e-03,-6.112227175433987240e-03,-8.486758331561419441e-03,-9.359665108923999680e-03,-2.467211933425509165e-03,1.338969173796194893e-02,2.317743184924904584e-04,-1.024584426515606772e-02,-1.388838658095019850e-02,6.439976182959955379e-03,-3.847818099771640847e-03,1.056598879169375407e-02,5.236876725171664589e-03,9.725863467343736149e-03,-7.487209098354799877e-03,6.315310072789279139e-03,-7.746049445246371533e-03,1.441499856331356945e-02,4.477285809351911998e-03,-5.761429632840040990e-03,-7.567125242234246617e-03,-1.014714797502351031e-02,6.390231305895211628e-03,-9.234810113433487844e-03,3.128888785512051046e-03,-7.727235972331781763e-03,5.317580777896307835e-03,1.033974413313859878e-02,9.127809597064938038e-03,8.563975180621801950e-03,-1.025234395996042248e-02,-1.351367878943390485e-02,6.531662396738410932e-03,-4.322275027318392762e-03,-2.221131998405955019e-03,-1.539278146828730078e-02,-7.893313459043869648e-03,-1.530980765598284089e-02,1.244899741862419591e-02,-8.424509195871687089e-03,1.882428950614183517e-03,-1.513570830374313600e-02,5.477744403275862893e-03,-5.810165557533128119e-03,1.306403164146755641e-02,1.274225638534680696e-02,-5.735860357058331430e-03,1.316389357432198176e-02,1.628928626262640678e-02,1.068367817407286924e-02,1.132242512294135209e-02,-8.240260637523939141e-03,2.518206204921703568e-03,-1.420736324833142897e-02,-1.329919507328425690e-02,1.637907666410341051e-02,-5.691583630847669301e-03,8.148092844425400272e-03,1.006807936733364849e-02,1.175421415735291263e-02,1.633756811943586421e-02,-8.486894341172191228e-03,-1.509068056705225799e-02
-2.915659402653692205e-03,-1.214477208574327866e-02,-1.567917180077172540e-02,-4.582308182886477878e-03,9.315372596838143726e-03,2.172769427955486762e-03,-6.146660812300384913e-03,5.067181753110498905e-03,-8.798075304059689572e-03,-1.594327783664511999e-02,8.678950696845898205e-03,4.062592679774967505e-03,8.611622405845661965e-03,-1.513706434897530567e-02,1.106792944218585283e-02,3.924148697621793365e-03,2.081324285878113564e-03,4.091187157840664619e-03,1.196465921809791895e-02,2.854200826976065631e-03,2.657671102349995138e-03,1.610942182186799604e-02,8.428673800692714629e-03,-1.894544360272969836e-03,6.809023187574691875e-03,-3.636659578526095071e-03,-8.901253452929511201e-03,3.179731024962665926e-03,1.405758923272464392e-02,1.408902222320496458e-02,-5.190386683712788600e-03,9.086751941779090593e-04,-9.467243271552724937e-03,1.627199871032593975e-02,1.579551772740245968e-02,4.908507687989014170e-03,9.994177305547219392e-03,7.061924645000825992e-03,3.058465037836577850e-03,-1.466397221173124793e-02,-1.485125823494142785e-03,5.738385724669995379e-03,5.828516686690965107e-03,-4.165494356251979793e-03,1.450113057779510960e-02,-1.092095681385852647e-02,1.180093065979541423e-05,6.266886320750356988e-03,6.472139294230098636e-03,4.879945722720636057e-03,-7.377482629376003881e-03,-1.128703619231233649e-02,4.463038700379458323e-03,3.260174502337625287e-03,-1.052701996919139758e-02,6.734895869503710643e-03,-1.471742347718927061e-03,5.507725560185343198e-03,1.107605350373731291e-02,-1.084310181757413248e-02,-1.578689056810851643e-02,9.163179709346125704e-03,3.601461503121130940e-03,6.554340026609060087e-03,1.110192078634621680e-02,9.941545327771569851e-03,1.513240773762602846e-02,1.179779770741864369e-03,-3.776983464787079625e-04,-3.221128226714153279e-03,-1.136962308502170206e-02,2.383758358128779814e-03,-7.320872009537738624e-03,1.383189062186099619e-02,2.731226176009354887e-03,3.048023557322321504e-03,-4.762949068100636070e-03,-1.470857770449829870e-02,-1.537325785230996347e-02,-2.516973635347045414e-03,-1.363907854505189837e-02,3.507878116265245125e-03,1.250767382762818167e-02,1.257142516105796796e-02,5.221598602177282035e-03,-9.480509144404776142e-03,1.191750045249585950e-02,1.267578196984825781e-02,-9.959125607385975812e-03,7.794904087768726383e-03,-7.008748155558384291e-03,9.935943644212680628e-03,1.632475103134103933e-02,-1.542965340270691273e-02,1.304586562819895143e-02,4.026066657884882008e-03,1.554156149788260555e-02,-1.148767853291773585e-03,1.140504671701388431e-02,-1.436698184381393281e-02,-5.407931490417620078e-03,-1.421522217688928752e-02,1.560592688129305329e-02,1.040652798317923122e-02,1.157443726573844332e-02,1.437877797514641731e-02,-1.362141199248670213e-02,-3.755930149266418442e-03,-1.408329622268503917e-02,-9.494913027863318214e-03
-8.885156001336470821e-03,-1.014237024993087976e-03,-7.598304546545906792e-03,-1.310023444213974028e-02,-1.091655561109355736e-02,-1.158024882817358658e-02,1.553152112121683470e-02,8.512797637824804156e-03,1.535701414566599185e-02,-1.978372033223612173e-03,-7.276354755453372236e-03,9.793224087960163138e-03,-5.704234394037797050e-03,-6.586417643632330385e-03,-8.782060016803471328e-03,-1.215795996912780695e-02,-7.995528692818743358e-03,-4.749978000014616099e-03,5.712380591714826851e-03,-1.436137519788261568e-02,-9.504307970451278398e-03,1.014551383057950111e-02,-1.159185913470628902e-02,-5.166096162603418807e-03,1.197206832352372755e-02,-1.132910098746066525e-02,-1.369911117878009135e-02,-5.076310168897577458e-04,-6.486738616774553878e-03,2.081751539261430389e-03,9.974177753160099261e-03,-1.191272948703330122e-02,2.649420858830830224e-03,1.808573760634011565e-04,-1.168520180427436682e-02,4.070977704870071094e-03,-7.431581186184076440e-03,-3.994098618269055598e-04,-1.371436148853447633e-02,-1.326890415659056060e-03,-6.353972012758164582e-03,1.058405445522829502e-02,-1.454477220010342957e-02,-2.672193678274007930e-03,-1.364732358320317439e-03,7.387144416855875341e-03,2.438925448572710868e-03,5.489725892963604088e-03,9.095768067061282477e-03,1.189143741643106968e-02,-6.110628689862008557e-03,1.248318357719887563e-03,1.116604286468132062e-02,1.606910466109252866e-02,1.278825643805847623e-02,-4.219841121202895159e-03,-1.000794732941084550e-02,-3.482521866198710989e-04,7.933298207638486352e-03,-2.439638448868136232e-04,-5.521868285174670642e-04,1.110439774694662630e-02,-4.550234004792375053e-03,1.181237087889138414e-02,-3.059679123563045257e-03,-5.639255949257659592e-03,-1.510551075733405609e-03,8.616361021817668664e-03,-1.227867743494682855e-02,-9.966820147356789464e-03,1.482132473161412722e-02,-1.065389100792999734e-02,2.223546522618830013e-03,2.603962653874030038e-03,-3.406378996428490662e-04,4.752111909498903976e-03,-8.870022654208701077e-03,1.728947874584568388e-03,-4.196662771775301962e-03,5.307676192577695864e-03,-1.177894189376055278e-02,2.326966998841684901e-03,-1.033284689591389485e-02,-7.267340008490613332e-03,-9.235000948567960444e-03,-1.041271045749469007e-02,1.069337271643992088e-02,-7.035406203981342359e-03,1.402284379339088782e-02,1.542809494362887973e-02,2.339542963891132286e-03,-1.172058242559569259e-02,-4.118689853830040555e-03,9.774808143344511022e-03,-4.353677261704237515e-03,-1.355858250697433015e-02,1.864297820860514330e-03,1.133061654690729024e-02,9.715519663039498890e-03,-1.066598876361602062e-02,5.672011964204497735e-03,-9.176087169982203098e-03,-9.251490768976739290e-03,1.228110039126795866e-02,-8.218585153550965819e-03,-7.772794722309182489e-03,-1.639398178567334080e-02,1.216938551606751469e-02,9.606141204495608280e-03,4.180319249285047514e-03
8.216441845567305086e-03,-1.142354697599442560e-02,-1.368272495662464653e-03,-4.884596408062222631e-03,-1.333666857097242329e-02,-4.553481861212957892e-04,1.381324722469579394e-02,-1.510025758714029186e-02,-6.846518875928589432e-03,-9.601684433601207977e-03,-8.596872214406307139e-03,1.340926018173748020e-02,-1.048320612571009480e-03,-1.106419469381049415e-03,8.554924089130968440e-03,-1.134332027003658039e-02,-4.180894574393093739e-04,-2.298646077074847915e-03,3.181661928336920048e-03,1.640091218495806982e-02,8.846240627298027764e-03,-3.353157453051714039e-03,1.075385047874728717e-02,-1.081092971124830195e-02,-1.541528395696680626e-02,-9.703215980446672911e-03,-5.239426870757272862e-03,3.473754339397815420e-04,3.779789425045276732e-03,1.348054142065628278e-02,3.235156704725533671e-04,4.188051820574714468e-05,-1.476591163036548165e-02,-1.526925665141781914e-02,1.679625871679480895e-03,-2.029649685449709268e-03,1.113558621303551398e-02,-1.114018320104774584e-02,-1.559559186915214501e-02,-1.673101398651169122e-03,-8.618806414874152083e-03,-1.478655031075341852e-02,7.373756335878804344e-03,-1.275173830425483691e-02,3.556223026863050696e-03,-7.188326387566976866e-03,-1.071940753055448774e-02,-3.947861678726872874e-03,9.896725988190120324e-03,-3.542661353965380344e-03,8.232984835590468828e-03,-1.229560933260453494e-02,8.955322020628613336e-03,-8.636706848722112626e-03,5.823970137166950035e-03,2.159665434678165706e-03,1.408919285165956096e-02,-3.699299351976199132e-03,-1.424317269938517663e-02,-1.578654198459861213e-02,1.073104972765962471e-02,8.120924139182200555e-04,9.036500676907711568e-03,-8.719037629573881537e-03,-5.086034845080410725e-03,-1.542709696551401721e-02,1.515119282542168495e-02,5.511248807812989953e-03,1.422249833440276771e-02,-7.698956104145699732e-03,3.659446922018342110e-03,5.860308600861880921e-03,-5.990001404691466108e-03,1.142872776681432695e-02,1.468069822125780965e-02,1.263512692967031642e-02,7.848775933577179648e-03,-7.306027356068687216e-03,-7.169734532616217279e-03,1.521252074821814217e-02,-1.607778425897817345e-02,7.093107794457458558e-03,6.771240196165411590e-03,4.028003920343266493e-03,1.609069801834700844e-02,-6.176161100406767426e-03,-5.253862350579500094e-03,-1.382378418326090340e-02,-1.877986733580212092e-03,-7.844983897133263329e-03,-5.141750248005783064e-03,1.098428172730202268e-02,1.429733385713209161e-02,-1.031765550834785536e-02,-4.185642227820553923e-03,1.407231269441468896e-02,-1.438620785880424975e-02,-1.338315701683075697e-02,-1.107086396230114525e-02,3.125919831153120727e-03,-1.147529815302357654e-02,1.536735311671860553e-02,-1.749408233484621867e-03,4.983595336702508166e-05,-8.317417123099090509e-03,-9.534000708873418672e-04,5.315764831867509504e-03,8.246363011216012104e-03,8.334709091657470717e-03,2.557232709999841033e-03
1.327548172644024520e-02,1.042077461044438325e-02,8.439112296838521127e-03,-1.458985572032137253e-02,-1.618962371209517817e-02,-9.440605008343441740e-03,5.368621255348282953e-03,-2.915463373229146889e-03,-3.204087056648047358e-03,1.262632072391056855e-02,1.298667099642306609e-02,1.343357840412602588e-02,-6.110543993037388828e-03,6.272527851685518081e-03,-7.497480502266708202e-03,-1.015754721750657466e-02,-1.035378964107140816e-02,-5.183743595666446061e-03,-2.299552023203796803e-03,1.086534800052465881e-02,-1.247930470516472878e-02,7.712819095833124521e-03,1.032692083512047523e-03,-6.961938111559626968e-03,-2.357392604746208497e-04,-6.568075167578030053e-03,3.154453830196531517e-03,-2.171961326374559787e-03,-1.101785721954021656e-02,-1.258790983208227070e-02,1.533059696805015842e-03,1.321156850963281851e-02,-5.123004336141931576e-03,7.649595377630086408e-03,5.208989737485940179e-03,1.416832171043233383e-02,1.053808487689874077e-02,2.186708352723085863e-03,5.155447298961345765e-03,1.307937283642468182e-02,-3.298885352992684226e-03,-5.686479861511236841e-03,-1.606049592859901121e-02,1.072095467024155105e-02,9.881457146118840726e-03,-1.298610084798175468e-02,2.523294407275588399e-03,-1.182512053307378406e-03,-1.251811072232286021e-02,1.577747123029074605e-02,-9.366781185185924993e-03,-1.420807679033593909e-02,3.113921639207242655e-03,7.842199950238002218e-03,-1.535028672961408040e-02,5.210837582982472474e-03,1.060170263257568125e-03,-1.302515346636232141e-02,-1.075132482579433182e-02,2.231655069797562185e-03,-6.685755972077319503e-03,1.439028510244443580e-02,1.046451787164330918e-02,1.587593032386916403e-02,-7.890214564228011096e-03,1.542143380552974709e-02,-2.257651629650976599e-03,-5.006090050546190863e-03,-1.476241458016996216e-02,-1.468310404219671725e-02,6.303895879923710616e-03,-1.381227560561663122e-03,-8.978531942722104905e-03,3.741743893789652164e-03,-8.113882086957206405e-03,2.548717750687581364e-03,-4.622298809772345043e-03,1.062249990617763172e-02,1.052873279015846021e-02,-7.436060519169487761e-04,-4.897737882031333485e-03,-4.512280949027850686e-03,1.003687273067017591e-02,-5.641016434887632415e-03,-9.551832814954258274e-03,-1.363504153768935016e-02,-1.093493696474896922e-03,-5.866186721542332189e-04,1.119232830567000805e-02,-9.151975097980897395e-03,-3.907159587587775637e-03,1.012522759237041541e-02,1.062484350924340799e-02,-3.788318341755767937e-03,-1.341993728026751390e-03,-6.458294624886929368e-03,1.420115139846784592e-02,-1.252025555518875531e-02,1.424036933198286232e-02,6.036494904772823390e-03,1.036541124951037562e-03,-1.534320791099237288e-02,-8.011981644994323410e-04,-3.028709634345593503e-03,-1.112247990283974329e-02,5.135062786955696922e-03,1.546829246617925126e-02,2.041712543955911344e-03,7.050536115191187794e-03,-1.416814551126019742e-02
