-9.115594836450281735e-03,3.274775144435189411e-02,1.685608784764366236e-02,7.168273721097910729e-03,-2.499280786981802893e-02,-2.499456037519122084e-02,-3.210851712956237086e-02,2.660542440333000733e-02,7.346758744435703294e-03,1.511802257693002638e-02,-3.483310735002646125e-02,3.414245081862919695e-02,2.415443400754817629e-02,-2.090070621188912237e-02,-2.311778601548100665e-02,-2.300302047721821883e-02,-1.422325912378414985e-02,1.798739152966410092e-03,-4.944701293841517221e-03,-1.516875796571729058e-02,8.126945922520542598e-03,-2.619345620414520459e-02,-1.510223946598319815e-02,-9.709807470187833967e-03,-3.191842853327524817e-03,2.072015768922358739e-02,-2.182093666482279662e-02,1.034237974010384850e-03,6.714606765063904290e-03,-3.295375571776419654e-02,7.813934523713299968e-03,-2.393887646997757204e-02,-3.160224142315242596e-02,3.261487774378999532e-02,3.383163539917850848e-02,2.240736439599499280e-02,-1.419626497708715608e-02,-2.923211760149403357e-02,1.338590161052866448e-02,-4.348367095757027859e-03,-2.746173743487670751e-02,-3.504334045395099471e-04,-3.383014198419609375e-02,2.974017597787799796e-02,-1.752643103096946861e-02,1.180845448325309154e-02,-1.368059276632004571e-02,1.458091212470285407e-03,3.393849709396116934e-03
-2.289767112441924365e-02,3.411882084376618995e-02,1.999044890627044851e-02,3.193287165220356355e-02,2.868714782591644946e-02,7.113162655185240393e-03,3.065230544678616831e-02,-2.989908478306603501e-02,-2.208910947518600079e-02,-3.304262477279131666e-02,-1.269105247311477606e-02,-8.088424075992957027e-03,-1.661319591699146267e-02,2.388522859612048077e-02,-1.040793776890284322e-02,-1.591673955045971520e-02,3.102188457364081151e-03,-2.608952958222713128e-02,2.195686152452949041e-02,-3.091206463782184347e-02,3.537596245457200889e-02,1.978061026721319310e-02,-2.189054981145105092e-02,-3.592750124163653774e-02,2.292062244841097315e-02,1.502972677907337545e-02,1.663907648664817926e-02,1.970981120669186917e-02,-3.094882872148711078e-02,-1.028351901986046361e-02,-2.790997397210514749e-02,2.638216841591025513e-02,8.958527283202760705e-03,-1.228651802731545173e-02,-3.171073662746673461e-02,-1.373354219959985710e-02,-1.270173375279716119e-02,1.668259904637681840e-02,9.994574871908185401e-03,2.813388984915606017e-02,-2.018792640302091018e-03,-2.763931143264831275e-02,1.549382211629017625e-02,1.894797620367146690e-02,4.452244818222520287e-03,1.968778388556096173e-02,-4.507961367762232667e-04,1.651709376962484568e-03,-5.264684717034462565e-03
-3.448183529256153290e-02,-2.848960839584360402e-02,-3.404515974527937139e-02,9.911232412545888798e-03,-1.348842071880871664e-02,6.227245507328633490e-04,2.961274003369194011e-02,-1.821578691476730821e-02,-6.511348141963446343e-03,1.856769365274528114e-02,-1.970483328668798384e-02,-3.073556035803977696e-02,-1.527612295327077964e-02,-2.461479682775667005e-02,3.122073498669516306e-02,2.238724056772672596e-02,9.692776550059102603e-03,2.698937865037782241e-02,2.206403824652041976e-02,-2.277301976184203935e-02,2.852233516213646680e-02,2.858506910463020322e-03,2.233781719848285802e-02,2.877898317114394727e-02,-1.322340311944010874e-02,-2.833263215780199712e-02,-1.976753687894135594e-02,-5.296162083937792572e-03,2.310614143362019549e-02,2.620976372582905362e-02,-3.582360011631658542e-02,7.808715820688263368e-04,-6.000705774052711092e-03,-2.019093741114723339e-02,-2.761961244386336098e-02,-1.179846729864237817e-02,3.218068894140511949e-02,-1.284562383739570879e-02,1.365278629023453701e-03,1.475083952259498635e-02,-9.908325123340404675e-03,3.427848231379054811e-02,3.360024045277112958e-02,-1.803486502380037548e-02,-1.999165410445415407e-04,-1.446767392240071864e-02,-1.563294066953386033e-02,-3.364861270872485099e-02,7.960664938548488168e-03
1.946509919137345411e-04,-3.258840947067067478e-02,-1.608298309465071990e-02,2.966355752791329653e-02,-1.892276848056866773e-02,-2.580103249439602217e-02,-7.663355255029959774e-04,3.528612279190939532e-02,-1.874160579060859047e-02,1.250692964704424107e-02,1.900861369144084614e-02,-1.906258659970855654e-02,1.658161756481203383e-02,-9.606540207141509025e-03,9.613004054449834912e-03,9.701928064508790958e-03,2.599297260857104126e-03,-2.976849987598110051e-02,2.436222375919168751e-02,-1.302166317489975543e-02,-2.277676514331495802e-02,-3.336610643939703913e-02,6.604049326242229269e-03,1.290137345162845582e-02,-3.512349485762138873e-02,8.786507589282891622e-04,-1.987211909056236722e-02,1.054788452285760833e-02,-2.365970436976269631e-02,1.387304884668898348e-02,-8.229520727498673000e-03,3.173168660512375866e-02,-2.633680328330753953e-02,-1.154771339167658638e-02,-2.808402767131525785e-02,3.085715464008366438e-02,2.741651458352945686e-02,-1.758734368506852802e-02,1.162403256359953972e-02,2.304855563065236895e-02,4.010750118372363553e-03,2.154335365828577344e-03,-1.875635384387451185e-02,-2.956411463710748727e-02,2.886068342238270676e-02,2.909335431187577356e-02,9.670812258845362663e-03,-1.169568464482751043e-02,-1.095604754618463225e-02
1.641736306979493104e-02,2.885301820684086152e-02,2.812471188298210079e-02,2.033504302115964751e-02,1.031965699633807451e-02,-3.021532901952277139e-02,-2.458519423312347657e-02,2.895793037268231881e-02,7.732863906517588835e-03,-3.566048987847275642e-02,-2.895606079531602706e-02,1.187962134619435610e-02,-3.596096241445739805e-02,-2.464482148920924334e-02,3.540872784426107433e-03,1.394261541742538787e-02,1.104111736545563931e-02,-2.003388840990745837e-02,1.541640081871684630e-02,-1.909081085747877521e-02,-1.268601241512159854e-02,1.790943653923586509e-02,1.087194463589846380e-02,2.537368191506023801e-02,1.145175058362312391e-02,4.963128819581742561e-03,-2.952255457503146288e-02,-9.611432208423144677e-03,-1.705979684587179135e-02,-1.860105926652522168e-02,3.436773995698329948e-02,-7.767246549890255078e-03,2.848510233859315524e-02,9.528197946764143181e-03,2.142023706384589207e-02,1.916044561183812142e-04,5.587640026138106925e-03,-5.436452749905254034e-04,-2.214286687726356798e-02,1.616280307780756584e-02,-1.592852075565127576e-02,-3.456198810601315841e-02,1.056964582809242353e-02,-2.346031413788061959e-02,3.200259684857208881e-02,3.298129214396295500e-02,3.014298801000508260e-02,-9.433937531548364230e-03,-3.520568586408826667e-02
3.112053384404465939e-02,-5.217956535264949708e-03,3.390594841791532560e-02,3.368544454532304555e-02,2.564876628219844509e-02,-1.493481901036958215e-02,-8.348505850873585987e-03,2.551269457902008778e-02,-1.330197995672198485e-02,-2.401381369118476758e-02,4.127034794009198579e-03,3.168989298177388864e-02,1.424302482948124754e-02,5.090465848005101650e-03,-2.926812810317081306e-02,8.356131635243298217e-03,3.560606230893987451e-02,-2.615057707789712402e-02,1.331785770126203304e-03,2.741896448711511960e-02,1.749363341185787568e-02,1.431466102802167115e-02,1.471197687658143752e-02,-1.020901442476654895e-02,-1.499708991701252658e-02,2.247739217963500361e-02,2.253204796051394912e-02,2.667053803264568188e-02,3.002500410878509302e-02,8.241097595488239627e-04,1.101701029379871381e-04,2.167336656264945427e-02,1.089599655676738374e-02,1.467439795534673623e-02,2.149154060564709492e-02,2.833679298432442012e-02,-1.177085852558240088e-02,-9.039825194014810758e-03,-2.950023624037465680e-02,5.687635302261899450e-03,-3.371725027896973342e-02,-2.499560221118620005e-03,3.098450344216045847e-03,-1.550936795107626422e-02,6.599712939417291986e-03,-3.411265384639913800e-02,-3.361510008590799098e-02,2.343933357793815536e-02,-1.015819125229679501e-02
-2.709683154444328737e-02,1.616138518852191066e-03,1.961704264255013236e-02,-2.064771902044053656e-02,8.928908401098440209e-03,-3.012759515071775779e-02,-3.257366219428946275e-02,2.278147524097206070e-03,2.952444250102249489e-03,9.985305971610082196e-03,1.642721940522995708e-02,3.457419789187820419e-02,1.184341714989687678e-03,-1.286353092523869618e-02,2.144747570381732443e-02,-1.665074387034404593e-02,-4.434180848735045158e-03,-3.062828370529047453e-02,-3.448680385073089882e-02,3.361485329959076201e-02,2.441145825704156905e-02,1.423898575969279913e-02,-6.615246739804802462e-03,-2.373760106928467575e-02,-2.496240783149504538e-02,-1.814671372984749328e-02,3.576683848957619687e-03,1.559199217244633916e-02,1.163953262672393595e-02,-1.598944151905189875e-02,3.304935064181473148e-02,1.728498294049117881e-02,3.949226763655796710e-03,8.117344350575482134e-03,-5.841654312524875714e-03,-1.832922260385328947e-02,-1.046465766372778501e-02,1.873444045661269014e-02,-3.528293002452101423e-02,-2.789518229743334632e-02,-3.298628959415030731e-02,-3.336947333002889676e-02,2.582685902778906334e-02,1.479726040158163732e-02,-1.876463679496413435e-03,-2.922034370578036749e-02,-6.091691207659859783e-04,-1.927473444667464602e-03,-2.374431826207135804e-02
-4.806170379776091017e-03,-7.374387019591103522e-03,8.417372517053770681e-03,9.815559962057417848e-03,-3.303705043075806647e-02,-9.110327478123167455e-03,9.144660326952984419e-03,2.278725458350981518e-04,2.590164222800186641e-02,1.153027434485806579e-02,-2.449032445920726678e-02,-3.120137906112406892e-02,1.034782135214205347e-02,-3.440248000469006001e-02,6.232234867165470198e-03,3.198600603407506654e-02,5.483761181741154435e-03,-8.125287812057298276e-03,1.041095633247230735e-02,-3.033238453408619844e-03,3.314399514199086079e-03,3.207570654767197965e-02,-8.275491712648916712e-03,3.350892957644481529e-02,2.945174333674890552e-02,-2.210303991555145897e-02,-3.128910904468430038e-02,-2.900645175021183270e-02,-3.500477282504464716e-02,-2.946673963704455820e-02,1.329680518954085358e-02,-3.115633863188167069e-02,-1.315276879433872892e-02,2.505776009836635509e-02,-3.463784471236992096e-02,2.284847753543240920e-02,-1.584987543749219463e-02,-2.774316932017881557e-02,1.429442043348863080e-02,9.368658231661336142e-03,2.742615333124247962e-02,1.707966222676938345e-02,2.205015002853041861e-02,-1.583681178827505559e-02,-2.343641969170470393e-02,1.820902837630060389e-02,2.229382922422320362e-02,3.563885202659983209e-02,-6.348976627629186568e-03
-9.298839322882642214e-03,2.008346042191918798e-02,-1.156680855360628542e-02,3.129772814193710478e-02,2.604135600960124156e-02,-5.159112789449710017e-03,1.822765165378021149e-02,1.849443572992548815e-02,-2.883600700647947351e-02,2.924846703036404830e-02,3.816239799123529093e-04,2.371956648637245715e-02,-1.307473682098286329e-02,2.873770855074904429e-02,-8.050323306057023329e-03,-3.554128807859423256e-02,2.945402001889083077e-02,-2.969606717659824605e-02,-1.312821004663587351e-02,3.270035413105224636e-02,3.273996551052230780e-02,5.335809564190449085e-03,9.578955435522168785e-03,-3.745816824731131815e-03,-1.502477767733030600e-02,-1.244879694750150589e-02,1.253475081404670580e-02,1.833688934070317259e-02,2.118538931318427257e-02,2.104291525502417423e-02,-2.970192145876592374e-02,-4.054064229523224447e-04,-3.214665154766209454e-02,3.598642209903813501e-03,-4.248244577262430544e-03,2.816959663880118370e-02,-1.083213477716543117e-02,-2.782293348032262997e-02,-2.593931342633472997e-02,1.900069522033439803e-02,8.589422830950984439e-03,-2.898140856269861704e-02,-3.021773825913787528e-02,1.460190429150696849e-02,-3.104194980376980689e-02,2.338553063793551157e-02,1.498503396985116295e-02,-3.041812935253274466e-02,-3.016463235103551341e-02
3.535799004624196051e-02,-9.135163165045118161e-03,-9.398811519809530460e-03,2.272721840591692549e-02,3.249594041660167770e-02,3.531159719897415672e-02,1.840981241171050706e-02,-8.990662774678461963e-03,-3.026177516960801284e-02,2.013678773290589891e-02,4.243503759347096518e-03,-5.505835450174252632e-03,2.952467275201649602e-02,-2.824939885266588083e-02,-5.358411041679069474e-04,-3.550379732297971602e-02,-2.277037786034947619e-03,-3.223787183588863042e-02,-2.769571756557553943e-02,-2.778956697491727704e-02,1.084123982119507799e-02,1.787699311015786621e-02,6.057361745116943662e-03,3.358027807549085475e-02,-9.091584406923059261e-03,-1.556961302574698565e-02,2.678147212299732821e-02,-2.008282109003479282e-02,3.365656773988944667e-02,-3.544561106424574948e-02,3.414019658828144899e-02,-3.319283510750618837e-02,2.841946058598084079e-02,2.012691903030010623e-03,3.581756421871431367e-02,-3.096685408978401902e-02,3.912914888004294205e-03,3.409832474827390741e-02,1.678230420084496008e-03,9.401774868528960452e-03,1.422260026198483331e-02,-3.302930239263203796e-03,9.268044616965235433e-03,6.126062764797329460e-03,2.914711743257100349e-02,-3.302670614846252989e-02,-1.591465574175406072e-02,3.272574914630287102e-02,2.835557072592362338e-02
-3.221867194710759455e-03,8.728528021453694011e-03,-1.617491520213508102e-02,-2.266032073281951109e-02,-2.637581268560376582e-03,-1.065505291971614865e-02,6.078239627037023037e-03,-3.068072381011391694e-02,3.446831624158302326e-02,3.532683206046333818e-02,1.439792450387277802e-02,2.622669873732494123e-03,-1.383923738421480483e-02,2.279954544086017221e-02,1.342209563083223908e-02,-2.451339230803062721e-02,2.985692068823049897e-02,2.343473307276873474e-02,3.268131397359808066e-02,1.640020352520295960e-02,8.240458742261041677e-03,-5.940252369013344219e-03,3.144094743440524475e-02,2.659726814886017796e-02,-3.304325099312323266e-02,-3.441296709338075022e-02,-8.975856541971784230e-03,2.256401259517532357e-02,3.540424020412367978e-02,-2.539981668315108645e-02,6.839297590050805349e-03,-8.654166433868418218e-03,3.414278109414890100e-02,2.485748799166812364e-02,2.458210039220114912e-02,-2.274675125599252227e-03,-6.188997610418356388e-03,-1.646366397056945804e-02,-3.223262444455628206e-02,2.649979721950777856e-02,2.273458891353536543e-02,3.630821104276359124e-02,3.608436534475960300e-02,4.027526287484612527e-03,1.954393922871990735e-02,3.231554305247378439e-02,2.540448723333037923e-02,-1.835704225135600248e-02,-3.593336934944305495e-03
-2.694433064445931822e-02,3.299018906712509330e-02,7.714378020053556939e-03,-1.971612134700534424e-02,1.247533361107526495e-02,8.582896531257513256e-03,-1.030553499044822505e-02,-2.807791928995000477e-02,1.246607059922373237e-02,1.475505729784467234e-03,1.978595948577186250e-02,1.465028540857838931e-03,2.558860917372634755e-02,3.771418457933159614e-03,4.427597520165859300e-03,2.736668968580978009e-02,-7.012688664297834183e-03,-2.659151964041725838e-02,-3.423744836341849340e-02,1.853762197953144966e-02,8.741385015015510490e-03,1.482791521256071610e-02,-2.085529161343816634e-02,-2.642032073579397497e-02,-3.527194588667972863e-02,-1.085592673076897149e-02,6.533189689542562816e-03,-7.829272728949971533e-03,-4.542912624440698446e-03,2.936513947555456291e-02,-1.102537056909114709e-02,1.016440586250847312e-03,2.060950412619111383e-02,-7.516937451250857438e-03,8.870508117590871974e-03,2.632842245681788276e-02,3.266102150141698274e-02,-2.564274033525975813e-02,3.099476834737904807e-02,-5.728100284808711846e-04,-1.756534587358458965e-02,-2.969091681003237400e-03,3.487794205126452246e-02,-5.363504545320905677e-04,-1.244247103274733618e-02,9.692565684070373472e-03,-1.888035628546973904e-02,-3.081668833671289548e-02,-2.696465244166348918e-02
-2.702524024925275284e-02,-2.529186207135884074e-02,-2.624189605327051367e-02,1.023559949616162715e-02,-2.311378134094615316e-02,-1.121342139258643157e-02,2.882963340370198191e-02,-1.891880778052258119e-03,1.217431773437840405e-02,-2.380840203768191943e-02,-2.235749472657428891e-02,-3.335931480535737903e-02,-2.405433355956651531e-02,-1.608706100880963330e-02,-2.346759406038675250e-02,-2.988382441529555816e-02,-2.756362960620517902e-02,-2.849714636387470652e-03,-2.133704269082543556e-02,-9.861805562174580722e-03,2.482901806784514444e-04,1.383360242968150085e-02,-3.347240441086233448e-02,2.175439559801791226e-02,9.292915945017125867e-03,-3.038832153938064717e-02,2.714326959048253898e-02,3.057951470896620727e-02,-3.189095546713830581e-02,-1.621150075833014195e-02,2.224780367518639987e-02,1.803791563461437653e-02,-2.292189774566152916e-02,-2.111793653127468431e-02,-9.411166502976709217e-03,-1.124520404293596811e-03,8.592089956116715985e-03,-9.524400464026123656e-03,-2.722131927953300602e-03,1.798060690874609541e-02,-3.366341626159240902e-02,-1.798729993286030115e-02,1.550143651963077629e-02,2.871472040188157923e-02,8.484531475285506715e-04,2.333283897414082080e-03,-2.854187930154122865e-02,-3.820883242046501510e-03,2.369887353191403416e-03
-1.871143608405648542e-02,-1.676619803166099279e-02,-8.916219582523175063e-03,-3.487040216528337205e-02,-1.292727383930579975e-02,-2.096545153163042671e-02,-1.253360222657874841e-02,-2.762711327292238089e-02,2.837471573462204896e-02,6.800188861250671887e-03,1.301311750489776015e-02,2.101044433711844045e-02,-1.131858508715290722e-04,-3.001331783800665481e-02,2.696066646103065147e-03,6.309654048369497253e-03,1.783300592173975643e-02,-4.965442990907115509e-03,-2.705906491891944474e-02,-1.571029095922151300e-02,-9.948090979368776759e-03,1.060197442729245675e-02,5.142571016687707067e-03,-1.045564470731451430e-02,3.534895656688876592e-02,7.685328475507101527e-03,-1.909243081056821723e-02,-2.893346943274331326e-02,-2.522236916933094306e-02,-1.845806323186999220e-02,-2.465402560092867790e-02,-2.277324026518972797e-02,-1.561443668354218703e-02,-2.373184113379705681e-02,2.882796335193731074e-02,-3.049914494903351730e-02,1.780935022001155004e-03,-6.510337916141343932e-03,3.504839944935401325e-02,-2.818826343249837899e-02,-7.421551537882755886e-03,3.411052376356456944e-02,2.655681512587584198e-02,2.303764762228209181e-02,-1.759016284276117281e-02,-2.391246812476149897e-02,1.225318604339499171e-02,3.119736375826201447e-02,4.124246968082515875e-03
5.203195287280192559e-03,-1.598615764111347565e-02,1.958066887753158458e-02,-2.273860267899594292e-02,-1.281101677624742370e-02,-5.417598110973866413e-03,5.529506962871139812e-04,-1.871585156581010920e-02,-2.798497351776186096e-02,8.037370021593220545e-03,-1.535756466341887255e-02,5.902561878098838179e-03,-2.511312316722166121e-02,-1.370312075611190752e-03,2.367865012789672347e-03,-3.256335823074505559e-02,-1.187191621982699313e-02,-2.656249673250256696e-02,-3.172406053677915422e-02,3.559926028469596881e-02,-1.290731633559831677e-02,2.251468654863315183e-02,-1.782718395683125998e-02,1.318752466769204483e-02,1.890749229249581026e-02,6.948866857197285099e-03,-2.065201612690717621e-03,-6.405414228056134640e-03,-1.098084611963216599e-02,3.120849161850235490e-02,2.402196254907511958e-02,3.378766874906267981e-02,-2.729760508435811334e-02,1.677424165825786712e-02,3.184869910679895971e-02,-2.316079203483535284e-02,-3.149727506887767953e-02,1.751921112499630478e-02,5.411026375286109684e-03,2.483640669623186914e-02,-2.617321994412809272e-02,2.145336946468155009e-02,-2.167899758650005532e-02,-2.443790096336837664e-02,-2.439359045045339305e-02,2.285619649145264123e-02,1.200280853241157339e-02,1.675874909128242897e-03,-1.025701681019752613e-02
2.740642881654713550e-02,-7.814664053605938077e-03,2.300330742509626783e-02,-4.422302237656211901e-03,-8.940903764814175578e-03,-2.711591545599049188e-03,-1.443137685162761315e-02,1.799066575429988588e-02,1.976566026709658053e-04,-1.945674227458242880e-02,2.903206892478319909e-02,-8.436167587543202950e-03,3.164439757441651728e-03,2.953322641332324985e-02,9.026815772818139877e-03,-2.783521082491800802e-02,3.195707980974497181e-02,9.278941271549752054e-03,-1.199533677804030807e-02,-2.620957075347836451e-02,2.136312000676784603e-02,8.724180063654576184e-03,2.431197562432348049e-03,2.861923001351328669e-02,2.096873697219326857e-02,-2.530841443928233403e-02,-1.367979413699895765e-02,-1.827413733661285497e-02,1.772451515589480026e-02,-3.389234303610427768e-02,5.078006169629764588e-03,1.906957840657152320e-02,2.737482979789276211e-02,-1.147393718821699410e-02,2.334173602537779196e-02,-2.829050446628859558e-02,2.517233949687308625e-02,-2.706572328117004891e-02,-7.462843382312983609e-03,2.160072268762646200e-02,-2.543610644512124541e-02,-1.967190277018341163e-02,1.614830451151799684e-02,1.598729329202486921e-02,1.025542684789437428e-02,1.409179908891292424e-02,3.104249036357171511e-03,-1.803364706106544771e-02,-1.121133538416150925e-02
-2.313429745009676006e-02,2.967697556885313601e-02,6.059035022100278146e-03,-7.203883066740214385e-03,-2.760561359812360813e-03,3.249846615138441558e-02,-2.518660252812908451e-02,6.265239567093017214e-03,4.278563819731740696e-04,8.097980355907832134e-03,-3.501288443559453373e-02,2.703757369867148055e-02,3.139661179617316000e-02,4.732410923337459704e-03,1.428814708133658781e-02,3.069772697120261989e-02,1.505743037140212098e-02,-2.524562654754472849e-02,5.542917589502610425e-03,7.753642972095730994e-03,-5.512471832166883703e-03,1.717943484058406800e-02,3.155999894608153833e-02,3.092072225135597888e-02,-3.571885833686863371e-03,-2.810113671301939231e-02,3.522732437776191633e-02,2.462347021619582660e-02,-2.727105185910393484e-02,3.057729735517357786e-02,2.687572582611517588e-02,1.368725162892985665e-03,6.631840259428899327e-03,-7.338205828338025330e-03,-3.234988323642416785e-02,-1.197414790515929917e-02,2.200455880300470485e-02,-3.599217320912578150e-02,-1.209752533521345208e-02,-7.398802887132092075e-03,2.717069089457753613e-03,3.050563776934002436e-02,-1.116410798009193420e-02,-1.111998983031609912e-02,1.725623467063364114e-02,-3.471722492466901896e-03,-2.000951085660131884e-02,-3.455623400698421173e-03,-2.609441249661538509e-02
-2.351289581745288210e-02,-1.185934678975986037e-04,-5.890669966160205946e-03,3.014164463537305147e-02,-9.998108169338925169e-03,5.855343898969857588e-03,9.609985669755259641e-03,-3.537731437799226941e-02,1.188220816269150784e-02,-2.339308511183857062e-02,3.350019278315489318e-02,-2.552726971620379245e-02,-6.203193321732232077e-03,-3.012743508019214908e-02,3.610161529629980770e-02,1.594838497980619204e-04,6.930431970515482133e-03,-3.145511848919007453e-02,1.816148997076845462e-02,-2.107751938999340505e-02,2.892160898062810792e-02,-2.142380134591402585e-02,-2.247384096385837346e-02,-3.367311857704769623e-02,-2.029544493285375534e-03,4.711191291813725951e-03,-3.155450210514289949e-02,2.001913358254197792e-02,-3.393914077261213965e-03,1.772134734223333469e-03,-4.304027655489567339e-03,-7.210302780132931376e-03,4.333314292366886346e-03,-2.504936402885949917e-02,-2.311029043419782214e-02,2.628642007719171267e-02,3.241361115381928559e-02,-9.205021810451168712e-03,-1.665710707296815668e-02,1.046263937715499574e-02,-6.631142250727834787e-03,-3.448421635588691525e-02,-2.498307490154754590e-02,1.569199106527774390e-02,1.154700810294881190e-02,-3.435999850523743793e-02,-2.020079328777652991e-02,-1.953941908035660910e-02,1.248928814196394003e-02
-3.489660680230734224e-02,-2.876446026172990722e-02,2.179113748617441879e-02,-2.335612461773238849e-02,1.109814244386565264e-02,-1.902297106658831782e-02,-2.910356632186135786e-02,-1.866045327058719547e-02,1.614934812405964884e-02,2.584399776426136650e-02,2.399293275814567625e-02,-7.470382387592061982e-03,1.221263713093523502e-02,-2.143508832203886230e-02,-1.502935810728757600e-02,2.879674926852474059e-02,-3.538403759529966386e-02,-3.011589251626093158e-02,-2.122423933279048158e-02,-3.440096194848476369e-02,-2.314608842517962284e-02,6.033587928121383545e-03,-5.709091657909068709e-03,2.853052457110604595e-02,2.306463919511280922e-02,-1.149314760090189465e-02,-1.747967946276461626e-02,-8.741242641239141409e-03,6.560600123191275522e-03,-1.685190404036676984e-02,9.020342861345972615e-03,-6.581918203185951541e-03,3.781615355181857773e-03,-4.640883411103281786e-03,-1.493359346286961091e-02,3.258347299372799794e-02,1.915292437729665051e-02,-2.614845834819961093e-02,2.677194293214655435e-02,-9.132170641681823997e-04,2.866715805198361347e-02,2.178671777530502909e-02,-5.433795937261143641e-03,-3.469616157238131909e-02,-1.680731281563389509e-02,3.025035801847501728e-03,9.698186864576227584e-03,-1.759126299363412277e-02,-2.620346742540980225e-02
2.433517638538410660e-02,3.519542643129410647e-02,1.866583094088210748e-03,-2.385494533491318986e-02,-1.654356866600591863e-02,-3.499250454979354469e-02,3.010189414443745909e-02,-2.777323095664425284e-02,5.559491868580021014e-03,-1.641657113576266633e-02,3.936435420190690683e-03,1.100181904775008983e-02,2.395819807591121134e-02,-2.133068128746928860e-02,-3.552979532843829336e-02,-2.638296358306483486e-02,2.906433381423447621e-02,2.716589900386023881e-02,7.077787440798944535e-03,7.303298596548541202e-03,1.199114365881212389e-02,-2.358669456049719906e-02,3.011011456196856922e-02,-5.901926393191220081e-03,-8.490856349312479734e-03,1.374512194730361219e-03,-3.291629687563064205e-02,-2.424699890241139091e-02,1.729491519410859823e-02,-3.031278424211982653e-02,7.494769067067579872e-03,-1.850228391386944671e-02,-8.043498206280126281e-03,-1.535297390931824983e-02,-1.048645215079057301e-02,1.591531654500622298e-02,-1.474061847104180152e-02,4.824791723421848616e-03,-1.740116665528648352e-03,1.189192924581525083e-02,3.173893422832223254e-02,1.689809514368093013e-02,-2.071170472286026215e-02,-3.406303715589260872e-02,-1.727328792526541465e-02,6.908119840295260349e-03,-3.259225579365129799e-02,-2.640192063393357485e-04,7.036354294484931104e-03
-1.204341594378464247e-02,1.968378945451332296e-02,-2.858356710876671161e-02,-3.086940468483343261e-02,1.657961277083395274e-02,-3.275894599323103196e-04,1.368883738987525071e-02,-4.735279280064295764e-03,-1.842578117483964842e-02,2.318516016886168832e-02,2.175479376518978450e-02,1.414614877752412569e-02,-1.655535292592595284e-02,6.555930018781342544e-03,-1.010128190416075683e-02,-2.967460441771027635e-02,3.032093956024167064e-02,-2.638783157033511295e-02,3.271309728623685714e-02,-3.923082763196413664e-03,-2.287743796405280333e-02,3.044415920495288901e-03,2.709729281230992270e-02,1.687286769285885682e-02,2.227395077078274735e-02,1.153679426765484572e-02,1.397032455783167593e-02,2.537166502212008512e-02,-1.818848371986959978e-02,-7.683551580332110545e-04,-2.025621058502732191e-02,3.543271310920396294e-02,3.226421854329738353e-02,-3.346407267028107813e-02,1.493656748173151187e-02,3.089745766399461593e-02,-2.320858036721469217e-02,4.936727080375943877e-03,3.018831952734916252e-02,-3.386229599517573408e-02,1.434405287325665572e-02,-1.472410403249824369e-02,3.083554465093733474e-02,3.422589012397200120e-02,3.227926949207998719e-02,-1.873529221704571014e-03,2.630509521938580869e-02,2.503408013249429007e-02,-1.314369802418238406e-02
2.389815907882739815e-02,-3.363984387302787482e-02,6.994723724702413097e-03,-1.961686896317996545e-02,-2.756864190377223550e-02,-3.073750090767190038e-02,1.426184159756237364e-02,-1.163427655161257054e-02,1.633098009602334741e-02,-3.158009922461754021e-02,-1.342053274118192030e-02,2.869336536541142787e-03,2.112320333715561951e-02,-1.316898065909914706e-02,9.146946182793299143e-03,2.804415831165903497e-02,8.418323612504708536e-03,-1.940248317386177382e-02,-3.455582565544196988e-02,2.689043981958575552e-02,-3.478334306082889876e-02,2.722486743450550084e-02,2.102498321349461751e-03,3.190153863247242871e-02,2.170882752489419060e-02,3.617862192415071537e-02,-1.084689855999292768e-02,1.941321930615716798e-02,-7.125449580423066226e-03,-1.462186078602043145e-03,9.264221609763107629e-03,2.715042562835252860e-02,3.517226966663093007e-02,1.949206171497222875e-02,-5.974855778383501154e-03,-5.713999546149256016e-03,1.726212380960910620e-02,-1.897978604252175544e-02,-2.830195701112800388e-02,-1.056278307430997404e-02,-1.545867197750996208e-02,-1.479973221988976038e-02,-1.935538107234026362e-02,-3.327034042896864774e-02,-3.503004969146499697e-02,3.543666434762517137e-02,-5.247819805993153217e-03,-8.404530660946908649e-03,1.305271316578833496e-02
-2.047095359386262928e-02,3.269303148812604393e-02,2.080509809884204669e-02,-2.983234889782916677e-02,-5.988370527508272111e-03,2.754576885508858847e-02,3.231309394491997666e-02,-2.368523013067776010e-03,8.240182155329952435e-03,-2.419246386837898763e-02,3.568705909097281970e-02,-1.949604950100936387e-02,3.216776101779195152e-02,1.087294367182846735e-02,7.827880610683849577e-03,9.219148339827406375e-04,-1.956884424765906877e-02,-2.350264781137178030e-02,-2.030875883117308836e-02,-2.278259577680239942e-02,2.031389445121587964e-02,-1.088951624298073982e-02,-3.212602289582711101e-02,3.408380012630778111e-02,2.788490311910006222e-02,3.107938942832427082e-02,3.595873956827716489e-02,-2.369393909069755777e-02,-7.538790153808033224e-03,1.876294871375715906e-02,1.424235793428676317e-02,-2.514704031326428849e-02,2.294762897026630249e-02,-2.002144492265941697e-02,-2.006670738973909476e-02,2.686467222122378325e-03,6.752778516602670443e-03,5.818859510547912985e-03,-2.968152401729510712e-02,2.742534313554328973e-02,-1.703090280185266814e-02,-2.691850047608106145e-02,2.824544353921630210e-02,3.310647520405893274e-02,2.631126865220682551e-02,2.248864821677813361e-02,1.127948619201789467e-02,3.695166778901117378e-03,-3.000848816488778034e-02
-6.651555944095595072e-03,-9.250127501168776967e-03,-1.745567705079121776e-02,1.623313537353836961e-02,-2.996585655487009250e-04,-3.044011293408804830e-02,-2.033077455537449577e-02,1.331511415762692482e-02,-3.079725018916622953e-02,2.551779822215534052e-02,-3.526409628623857818e-04,-1.410529755434205635e-03,6.714113842219271606e-03,2.359049051608924988e-02,-1.105779461813942779e-02,1.293419941230377311e-02,4.775916779809354085e-03,-1.692713143015652649e-02,2.751028868220604245e-02,2.161021580665722225e-02,1.151270599468483778e-02,2.547237387860461222e-02,2.668665944019125297e-02,1.513912222139110302e-02,2.448652850315750917e-02,1.434777252936182343e-02,1.308856882220824427e-02,8.618000087909818974e-03,1.836174618907864334e-02,-2.480488193349067103e-02,2.767309751939504847e-02,2.701720191618909098e-02,-3.420369122456243249e-02,2.367301372989322542e-02,-2.696536843992578675e-02,-1.197984333266503658e-02,1.769268855742198165e-02,-2.464832033545958853e-02,2.310267263600266838e-02,2.413202188448432609e-02,5.425864801150647419e-04,-3.586474303688071824e-02,-1.547326584208841109e-02,8.495611534106351295e-03,3.496175988291867764e-02,9.577234532731595390e-03,-1.745205890575932117e-02,9.736512453280181736e-03,2.905235661971559101e-03
2.033285234776045433e-02,-2.855578394000933551e-02,1.896562134729004589e-02,2.998324309268740519e-03,3.363981761277234223e-02,-1.148916493076494391e-02,9.635968352156083772e-03,3.139005976737067188e-02,-2.888062891323095460e-02,3.176790623412585612e-02,1.365129716617797216e-02,-3.139985656238002826e-02,-1.446147935687679825e-02,1.512525278131993632e-02,-3.143520133297746100e-02,5.970295967204759455e-03,-1.119774383127251569e-02,8.785412988451209160e-03,-3.300522472165607485e-02,2.699491630789442251e-02,3.440250032836021654e-02,3.406746855887865522e-02,1.813906507353898329e-02,-2.687698990639632302e-02,1.876474482222362239e-02,-3.454230156839224741e-02,-3.472128337857821601e-02,-1.281603139386710763e-02,-8.251568067391041889e-04,1.964711299628673496e-02,1.331777436092639391e-02,-3.930571317998420022e-03,-1.644770880535384450e-02,3.611979770008966195e-02,-5.363478220998639176e-03,-3.532094769528461298e-03,-2.444023484224092449e-02,2.142010956515718115e-02,1.407245631850990476e-02,-2.028816744012416906e-02,-3.034312761349176185e-02,1.311461872001418172e-02,1.122639057310448850e-02,-1.647438420888354405e-02,3.275859599287544305e-02,-2.535324320953441166e-02,-4.916380699205468406e-03,3.223200081249154303e-02,-5.832408325383355539e-03
1.006494188931067457e-02,-7.440529742079310740e-03,-1.640494727645584738e-02,3.516458096538867262e-02,-6.587559754426349293e-03,2.863424254113572723e-02,-1.962080927807929864e-02,-2.084508015282657972e-02,-3.406660116189359766e-02,1.101972453309756420e-02,-9.552540391958812618e-03,2.647334072328214744e-02,-1.946499821192671995e-03,3.401773981251433876e-02,-2.284891360421737252e-02,2.678321879106506168e-02,2.009682154902785872e-02,1.968448993757864612e-02,2.505106959326087665e-02,1.896533714339187007e-02,9.170846501270065246e-03,-2.679280625830844295e-02,-3.396545497457332391e-02,3.057773077126208980e-02,8.475514203794434417e-03,2.154564290674493982e-02,-1.342538790842788500e-03,-2.780541049932970174e-02,-2.723304394868547584e-02,1.348270027476639217e-02,-5.063795842533565759e-03,-2.175910920570450074e-02,-6.107187860999453407e-04,-3.166346665143142391e-02,5.955832901821425142e-03,-1.678434978872218875e-02,2.161988498942651188e-02,-1.377861617713222256e-02,-3.253589705782732044e-03,-3.548440540307735980e-02,-3.106491817241955819e-02,-7.811143874049137313e-03,-1.457593080638114325e-03,7.267237810196861166e-03,-1.513726542946687396e-02,1.416688632291983156e-02,2.616557447806093853e-02,2.033325877479595645e-02,-3.345012142445510234e-02
-1.416315473047552323e-03,-2.870476516128048217e-02,-1.874235093989426795e-02,3.535966224041207917e-02,-2.597536163110271759e-02,-8.078393319544968241e-05,8.584894164986979839e-03,1.471058814258324396e-02,4.333921140359222636e-03,-3.561879933957790012e-02,-1.260887853520932869e-02,1.286882814644927731e-03,-2.994456855696260578e-02,-1.085306603246132158e-02,-3.391627101890497958e-02,-3.061941108193096117e-02,-7.489291736788718061e-03,-2.668593613508480483e-02,4.907345694943600518e-03,1.376604121164962113e-02,2.183986256906148352e-02,-2.178631814537970030e-02,-2.415986710924190178e-02,-2.873109172189221294e-02,9.912673811340153365e-03,1.500199943539280885e-02,-3.403375549474910861e-02,3.169406875667014206e-02,-3.255262332314291102e-02,3.000486349710236155e-03,1.518980389670426638e-02,2.695366995277288791e-02,1.555501021656128212e-02,2.192279261524881714e-02,-1.166513934497790707e-02,2.287438944534858631e-02,-3.050778386711012688e-02,2.868637080048956969e-02,3.457940612852853594e-03,2.305404633668020620e-02,-3.464431780461137578e-03,1.043198897479077382e-02,1.918349973606056202e-03,1.682670371830264494e-02,-3.039769797715446628e-02,-3.194369575526647548e-02,-1.837483371602588456e-02,-2.473661482451520663e-02,2.701284529180901853e-02
-2.040119521452827753e-02,3.457515525232723874e-02,-1.185073558714552951e-02,-2.309650112630629373e-02,2.104875432348376346e-02,1.153130200322912378e-02,-1.310946386378968541e-04,4.022574343431967007e-03,1.592664188585006524e-02,-1.972978560988324082e-02,3.606235587659704228e-02,3.449725966168851882e-02,1.092228079335443199e-02,-2.183047885682787986e-02,1.309492421796902561e-02,-3.108297200911749880e-02,-3.410159158518914768e-02,-1.760614301541836915e-02,-2.715720590667117240e-03,2.675774054514691233e-02,1.650552495616992507e-02,1.763443653140147130e-02,-5.413464205023075550e-03,-1.119397032353282133e-02,-9.369994419248524331e-03,3.543137299629261355e-02,-3.341449267747204771e-02,2.666757197703656379e-02,5.716354435770551468e-03,-4.460047010504208584e-03,1.636664682993701353e-02,-9.686007000560613138e-04,2.713197963838632348e-02,2.911397499327411653e-02,-5.687557713579444001e-03,-1.621512279840567686e-02,6.709939231059457859e-03,2.996126849085451946e-02,-2.102254706172520735e-02,8.934438195613188249e-03,9.558829897970386874e-03,1.693739738883357979e-02,-2.676935189305151147e-02,1.568129122679111712e-02,2.971925924896809401e-02,-2.327340797699173694e-02,-1.906943231681448511e-02,3.425036470380578985e-02,-2.317940058505206860e-02
2.574871662204483019e-02,-5.610712463770102737e-04,-1.836554515927058331e-02,2.693774180721920583e-02,-3.973980610360126377e-03,1.076591128019737179e-03,-1.022774419404130254e-02,6.753571688411161289e-03,-2.444749685296727232e-02,-7.913737626479783530e-03,3.410630157093629683e-02,-1.757340762420454491e-02,1.138808611046581570e-02,-1.270124388189791502e-02,1.986985950818660404e-02,-2.681977793570440929e-02,3.413599832254921029e-02,-3.357534010739352242e-03,-1.917789982978822250e-02,-3.098863805743413621e-02,-2.399454795832358170e-02,1.436724646137437509e-03,-1.184293329174358408e-02,2.389582617399823791e-02,-5.021536180767294417e-03,-1.825777976377190859e-02,8.511455815142740869e-03,1.502390495845694514e-02,-2.419188538366180696e-02,-2.414993962931722207e-02,-3.366427187258404924e-02,1.717636720249269416e-02,1.190161900727349127e-02,-1.843255835217253022e-03,2.500654662397975084e-02,2.220921335401643965e-02,6.201630323696291636e-03,2.675765154739284668e-02,-2.137282709221606167e-02,-2.819693021422380041e-02,-1.672940571171804142e-02,-3.218093888289423610e-02,2.264698371227706879e-03,3.172265554282395483e-02,-3.347012290686619124e-02,-2.745652940962901162e-02,-3.473096634187772778e-03,3.152425168194095823e-02,-1.335762830946703693e-02
5.256627386915811934e-04,-3.330814632165033512e-02,-2.555048571752315326e-02,3.535730303066347835e-02,3.379433766887295770e-02,-3.596979777174293125e-02,3.282749146909164778e-02,1.010809969806510632e-02,2.673200448581647404e-02,-3.288486602175573915e-03,1.133167641161565058e-03,-8.103790190514111253e-04,1.212393117625236785e-02,-2.618202035014152024e-02,-3.415091962297626960e-02,-1.395532035087725456e-02,1.487158194939560557e-02,-2.166256740692276000e-02,1.260115806873923772e-02,3.414261022509480770e-02,-2.950613777269874699e-02,1.254082949225132117e-02,-4.086965536296720269e-03,2.674827683759689947e-02,-2.345747250214437127e-02,1.399571017720695545e-02,2.456659419827937618e-02,3.230453469279868234e-02,1.331433415303911842e-02,-2.052744381704057477e-04,8.562479769617709416e-03,2.680369486054052369e-02,5.130324020320875533e-03,-3.412087796057786809e-02,3.131163259081252981e-02,1.377053012644414466e-02,1.282501221245257658e-02,-2.065831793292270332e-02,1.154421284902784964e-02,-7.711541465637641868e-03,1.098820222014412241e-02,-2.858394658596120907e-02,1.146863706850489474e-02,3.628612699185376073e-02,-3.282576045742203324e-02,3.467025865011966190e-02,-6.763830036765404279e-03,2.693799967320785471e-02,2.051740872636715479e-02
4.869230522106474807e-03,1.732511110832779186e-02,2.750197484976742504e-02,-6.964919629714304110e-03,-1.256732913219506080e-02,1.217690775753231536e-02,2.236730063029328600e-02,1.905696863636094363e-02,2.163837981368208971e-02,-4.680351977681806303e-03,2.309302314966637029e-02,-2.759464094806752740e-02,3.232464337797797977e-03,-3.591031460361684968e-02,-1.274514600612382254e-02,-9.702564134528440798e-03,-7.543827298048620851e-03,1.420214847668863078e-02,-8.097084002401794961e-03,-3.727790464985603330e-03,-1.906937375851129254e-02,-9.209201404768128929e-03,-1.981589297409367539e-02,-3.101049512982514966e-02,7.516310831811343768e-03,1.222191272497249667e-02,8.681863645046191541e-03,-2.652429627494406247e-03,-8.734458469101416198e-03,2.639889588223110276e-02,1.386433818204731248e-03,-1.512591651128190190e-03,-3.446563710915147294e-02,-1.153452776673423268e-02,-8.704680641703316582e-03,-7.351278572474748314e-03,5.825119777257909207e-03,2.441475303666610763e-03,7.840108707722412071e-03,1.924574189766616733e-02,2.274074514905611785e-02,1.584826614766073061e-02,3.309718941687564420e-02,-3.500399124706984194e-02,-2.210399529602352989e-02,-3.577922498319935363e-02,1.071513642850616642e-02,2.891988405714901456e-02,-1.863792179065055024e-02
3.102724038766773926e-02,-3.194984938347375514e-02,3.156501318455990496e-02,-1.078071694009669242e-02,-2.895974557543705419e-02,-1.026521927376691790e-03,-1.767199397146920065e-02,-1.563058601713974288e-02,-1.400181942236093657e-02,2.201708852436663408e-02,2.845358437853469716e-03,-1.370990110502983035e-02,8.016571163584972071e-03,1.570495645095522363e-02,-1.652055992564240711e-02,-6.281301691839090776e-03,-2.747279164862579531e-02,-2.316687467162787881e-02,1.315956112204116381e-02,-2.314587680267195594e-02,1.828307249422648053e-03,1.518876796653318741e-02,-2.856331966046712564e-02,4.890734121872242213e-03,-1.768752697280095987e-02,3.363508553332495571e-02,-1.195531323790272049e-03,2.223263788468883215e-02,3.649332393160385248e-03,-3.317448031720078572e-02,9.674439196657932949e-03,3.279781502717370872e-02,7.382855575331771607e-03,2.319144807178175755e-02,2.791546127138941000e-02,-1.975702992842014866e-02,-2.092208717516867364e-02,8.063595466692968783e-03,-6.464444360778296740e-03,2.469345506355129921e-02,2.906465943221536383e-02,-1.065002856440261901e-02,-1.911831377404294222e-02,2.038226813827762746e-02,-1.636201884377461516e-02,2.344033318850620440e-02,-5.540983897571659551e-03,1.217374815596168267e-02,-2.938737204963208158e-02
8.999302486938885737e-03,-3.504437391567562232e-03,6.292749940953127306e-03,-2.412124055795950364e-02,1.721064189178402037e-02,2.635990992777042033e-02,-2.058096334813973652e-02,-2.937434880612387403e-02,-3.461120483636679485e-02,1.031528696244526748e-02,7.781179397083998542e-03,3.392914852948715042e-03,-1.947604002245103064e-02,-7.926491969185722047e-03,6.864409445295573120e-03,-2.349117854895320617e-04,3.544125124713275177e-02,-2.641535990537449349e-02,1.417870535899389689e-02,-6.951954165751103587e-03,-5.216832770971013833e-03,1.581009842216872172e-02,1.398191972798558218e-02,3.569340699533078004e-02,-2.699992272530700801e-02,-2.876438270719913412e-02,1.629988602130224076e-02,5.695393374711943749e-03,-1.640890970771917076e-02,-3.055831548007485743e-02,-3.010501433449785241e-02,2.864090312099355773e-02,-2.238813394313812072e-02,-1.283337160499286797e-02,-1.986044834049349381e-02,-1.053559842143067700e-02,-3.128456491192684735e-02,1.384835773723342833e-03,-3.141616783352037950e-02,2.182313745753296577e-02,-1.934780065822916048e-02,2.907163619273830935e-03,2.761557667827526860e-02,1.096236465066102381e-02,2.394628674505696730e-03,-1.276346126210576963e-02,-1.213365487865969948e-02,1.231448969548001524e-02,3.590290512195197514e-02
1.175882257955796276e-02,4.198395663788472704e-03,1.675847753756056976e-02,-2.528071428810851635e-03,-3.195893502946385578e-02,4.526327682815840456e-03,3.324988547845948716e-02,-2.359165969920013622e-02,1.380527054348120938e-02,-2.172939507330647058e-02,2.603148134561449663e-03,-2.930446003329301510e-02,-3.605921136114823618e-03,1.861217384164826766e-02,-1.107506410662585997e-02,1.198206510634968261e-02,2.146664026986984733e-02,3.103765036056011645e-02,-1.928022923524642940e-02,-7.315448648040597315e-03,-2.525456556317996412e-02,3.578259462760107618e-02,3.102480077782339418e-02,2.903183130085269965e-03,2.485126642451182880e-02,1.522753151432056735e-03,8.979420744441128643e-03,-2.985317035706500088e-02,1.854729739579603909e-02,-2.704938833893812816e-02,2.369124200785233461e-02,2.049144121676916425e-02,1.516685709726776736e-02,-3.370140320064103634e-02,-1.430419131200103867e-02,-1.721163621949838018e-02,-1.016213175197324022e-02,-2.996082583403078883e-02,3.174824046359919077e-02,3.909133526362199018e-03,-1.413010735618380753e-02,-7.485060103588832801e-03,-3.836128686956716185e-03,7.308927581738937189e-03,1.139227208216480117e-03,3.047195063759764594e-02,-2.206255839723854860e-04,3.575894554836102357e-02,2.553364072076205749e-02
-2.117888225137983665e-02,3.128594957325740028e-02,-2.787383863586944191e-02,2.306508580248339130e-02,-8.673606889946033904e-03,2.746264967020054307e-02,2.674205995606367819e-02,2.222775896191376069e-02,2.107287144961950132e-02,-1.419151536516095879e-02,-3.044933555154716656e-02,-7.049212651537978963e-03,-2.372087569408651980e-02,1.416464867520146088e-02,-1.118200117210102831e-02,3.455662360979829678e-02,1.024267143031454275e-02,2.343061490026892776e-02,-2.669981961486070365e-02,2.630304855230739675e-02,3.071645873972765270e-02,-9.400479653268272156e-04,7.720067338037019979e-03,1.924040443507167575e-02,-2.362539564940243503e-02,1.864445681375540573e-04,-7.362885826875251866e-03,-2.569356340421307533e-02,-9.624610872200994177e-03,-3.137549813244894237e-02,-3.445329688507034471e-02,-2.650788650674070629e-02,3.364876230632089793e-02,3.598689696725445100e-03,3.384544962023611214e-02,-4.904531919607608113e-03,-1.367295959306902460e-02,4.462520821664107832e-04,-4.394926359707057931e-03,-2.865139784087919472e-02,1.023208068772651740e-02,-2.063194109131446380e-02,8.688955657801427854e-03,1.091322811495437813e-02,-2.528298626534159974e-02,-3.187121681752783098e-02,2.039942044202436647e-02,-2.920798634186900101e-03,-3.210269121287465804e-02
3.595572388624937443e-02,-3.213053605443109972e-02,1.417076206971642528e-02,3.514287653649913329e-02,-1.895050810992121582e-02,-2.599324802136770973e-02,-2.750920421329174775e-02,-1.429352580728608657e-02,-2.898699338561509103e-02,1.396195276146698465e-02,-3.180276107533724916e-02,6.845877895109923460e-04,3.608872601078588760e-02,2.281227864408670244e-02,8.371550383660034469e-03,-1.407711754317545264e-02,9.001955327725148087e-03,1.964763767815239353e-03,-5.370592718137947967e-03,-2.683164173291533935e-02,2.808967580567347730e-02,-3.648519285284425664e-03,-2.218794907854310453e-02,-9.608268135095951457e-03,-6.239113071529997327e-03,2.379806773400903325e-02,1.697382479244664150e-02,1.956700640359391313e-02,-3.552722065579721339e-02,-6.092036547680876671e-03,-1.355486339220625695e-03,-3.493426231916226671e-02,-1.745135938303333384e-02,1.891199438285782325e-02,-2.636668281735509226e-02,2.565544052700216484e-03,-2.069270527772852988e-02,-3.544805962359223045e-02,-1.880364173082818210e-02,3.457577277458706577e-02,2.190891713610495367e-02,3.339166630350254295e-02,-8.824941762371088343e-04,-2.835557199245776136e-02,3.484614093612179234e-03,-3.314826458382759584e-03,2.502010695751671204e-02,-2.920229413277697708e-02,-8.543689796453451946e-04
-2.542657107448834455e-02,-1.273859978874053618e-02,1.724575959384822346e-02,-1.742461527032099439e-03,-9.017640513239324682e-03,-7.667084340847727872e-03,-2.946494330486532694e-03,2.070857481638353759e-02,2.848787304051800945e-02,3.308345647244907012e-02,2.084566797195541721e-02,-1.341206394031698237e-02,1.366938769273273561e-02,-4.533597791945148670e-03,-1.782500661056589733e-02,2.476685918048368226e-02,-3.353676371589708882e-02,2.919100119771358276e-02,-2.798949124832359522e-03,9.968709216496986214e-03,1.157824937407566507e-02,2.870824684260978032e-02,9.930070374823605356e-03,8.278123551492428192e-03,-3.148595698608468163e-02,1.337479903944880678e-03,-2.541782775884112236e-02,1.725133179046538234e-02,8.880135803410775996e-04,1.309489056137232675e-02,-3.330087755775232999e-02,-3.016795265397267597e-02,1.571750539782941491e-02,-3.109126026080794719e-02,-3.115139216329190427e-02,-3.544895326726696383e-02,3.316822677448864193e-02,1.725675136312518343e-02,-1.066237820907431529e-02,-1.478320549625849155e-02,-1.092017982383594772e-02,1.995562475945629813e-02,1.172477684112146860e-02,-2.287288677204876372e-02,-2.367838413988103061e-02,-2.917954734322306468e-02,1.164718657911573488e-02,1.920864305391068588e-02,-1.707112700163050667e-02
-3.480691675683367237e-02,-3.035834049484463157e-02,3.399351632276872981e-02,-1.486246051777457937e-02,1.956106696211858467e-02,9.057736816750532050e-03,-8.577964535612802796e-03,-2.138401254953956748e-02,-2.750909677203616094e-02,8.356548786335857640e-03,1.995418973536951940e-02,1.045571587085140398e-02,2.201675681833283570e-03,-3.328065533115776714e-02,3.403919916661335421e-02,2.170381095537659774e-02,-1.505302217030889643e-02,3.487341942106487319e-02,7.402456338120643430e-03,5.988620032617394083e-03,1.802436422459585338e-02,2.265239727923901852e-02,1.136933633207088366e-02,-2.702161410430200389e-02,-1.175107033179094429e-02,3.110346499194768799e-02,-2.000872696237549625e-02,-9.288017864588406919e-03,-4.935120370122226575e-03,-4.402678832318431337e-03,8.205901883211725797e-03,3.219275980173866292e-02,-1.884060590012643158e-02,-2.750074420680539630e-02,-2.198102226122356992e-02,2.811297595723499104e-02,1.059424159123295052e-02,-1.555546640568092158e-02,2.295589840349576347e-02,2.625622185064012751e-02,2.517684767035727536e-02,3.043813298572104267e-02,-1.800153528317299453e-02,1.853069576823060741e-02,-2.867099439174142488e-03,2.484874219676059745e-02,1.660154957725019920e-02,2.008596606908055054e-02,1.134632065755178214e-02
-2.343720252557833506e-02,3.271541034690099523e-03,3.521486657251173685e-02,3.177950085601759234e-02,-3.319183070209762165e-02,-2.435370021811267965e-02,-2.675764762622871024e-02,1.641912364078589384e-02,2.308947119453507585e-02,-2.081553310881032945e-02,4.252417359308153957e-04,2.475461266477200009e-02,1.691476621763298924e-02,3.068847577012770011e-03,6.564432654206166923e-03,6.074560058543448200e-04,-1.470961294427087195e-02,4.724332088600052132e-03,1.372392408019558648e-02,2.712469048180506451e-02,9.902582014042767000e-03,1.897242459412717269e-02,-2.469832763033777759e-02,-2.793135817279579925e-03,-3.565071249566972161e-02,-1.840566732022502067e-02,1.645413037197336614e-02,3.573365614447557986e-02,-2.912269653191961599e-02,-7.157171658750340233e-03,2.180239091343335114e-02,-2.150401559417846817e-02,4.002331859498098159e-03,1.693436565612603528e-02,8.427206863114600210e-03,-2.266732673514997715e-02,-1.050738823317935722e-02,2.061958692703347654e-02,3.939960150441424239e-03,-3.594875380544643173e-02,1.896292266990810826e-02,-3.376309123320721250e-02,1.785438962978902824e-02,-2.161700333672225000e-02,3.328245022814012299e-02,-9.595088043098430955e-03,-1.257470714914858158e-02,-2.551089835253102581e-02,-1.412430167496492826e-02
2.736648327834025410e-02,3.606238650683427083e-02,-9.568293487071027892e-03,-3.733820427816989841e-03,1.613510772534302445e-02,2.805999997707084651e-02,6.760363906627002775e-03,-7.881465983334711226e-03,-6.348674086577289939e-03,1.421311537791760532e-02,-3.609489335975225172e-02,8.689056111229357879e-03,-1.049950913192017332e-02,2.137562740573713260e-02,-2.957226157022540755e-02,6.408551656284230263e-03,-1.382461270592197280e-03,1.034100954916684217e-02,-3.161662748911001075e-02,5.811417904920299429e-03,4.467313274776882337e-03,4.407407677725268605e-03,7.519149791918162268e-03,1.282171003671353678e-02,2.215972249552633153e-02,-1.672423914146983076e-02,2.361726073551514982e-02,-1.267376758714274041e-04,-3.072986624426940830e-02,-3.207456306325985607e-02,-1.204382079987120768e-02,2.069988740319312487e-02,1.508956679187528974e-02,2.097002689241555737e-02,1.254725576680441835e-03,-4.344988218092401926e-03,-2.561519983627237249e-02,-1.248307613298561304e-02,-4.793984495166207782e-03,-2.989124303702966889e-02,-2.029962261906757132e-02,7.136799231356553801e-03,1.712268055384962712e-02,3.620865857576112401e-02,3.146890950733308850e-02,1.035842362355988457e-02,-5.721915501255624842e-03,9.894299844470055144e-03,2.075471769041357592e-02
-2.773071849993201388e-02,-6.546080824632346043e-03,2.468916702212991046e-02,-8.440401296383294796e-03,5.222055835406173678e-03,6.377097804680774244e-03,-2.292515034517850908e-02,-1.000962128437225124e-02,-1.202398749285872072e-02,-3.442533818395428213e-02,-3.457101234565689712e-02,2.410026082296459413e-02,-1.648809590641149916e-02,1.313557024459791967e-03,-1.462408624372510228e-02,3.201862949652376639e-02,-1.748888331346767563e-02,-5.110956496095313099e-03,2.708162892783697387e-02,2.484402047268248828e-02,-2.280707002398897967e-02,2.198929065382749723e-02,-3.038034117729304824e-03,-1.237438297018476647e-03,-2.663040997811912461e-02,-3.047242385762652037e-02,1.656148842629784693e-02,-2.571236400086105594e-04,-4.588266813884439577e-03,1.667548227214828843e-02,1.929148974810282469e-02,-2.478286219453541134e-02,8.008678106453189990e-03,-2.649424193761341917e-02,1.826427233284878479e-02,1.140396116175426515e-02,3.317645325306900483e-02,-3.131841066878048030e-02,-3.218327372549700804e-02,-1.582573137322835014e-02,-1.731385697910618748e-02,-1.838387484111880105e-02,2.951742120635656927e-02,-1.819733405170053525e-02,-1.656955099793047670e-02,1.884721585703220265e-02,-3.651774801855881165e-03,2.010508300341159668e-02,-3.157938596348928983e-02
-9.030453538872718067e-04,-3.388644576179346279e-02,-3.177650228657682291e-02,2.953070827907783996e-02,-2.621151081966295940e-02,2.355604048298202101e-03,-6.459566663264658393e-03,-1.109164438958433301e-02,2.905087066799695583e-02,-3.474309185708205489e-02,1.190054066566142467e-02,3.366905717547809956e-02,4.371666682962016548e-03,3.173840547887878116e-02,-3.253180001562449436e-02,-5.900270226083167806e-03,-1.742632291839368852e-02,1.677086234413811480e-02,3.496981849996765035e-02,-1.768990441585022860e-02,1.120193314545721644e-02,-2.193545565836505298e-02,4.746729598065062630e-03,-2.620573486016669357e-03,3.429470286466790308e-02,7.885314711898598269e-03,-1.093448299903179710e-02,-2.803881558249029723e-02,-2.533951553255283859e-02,-1.995777097820241111e-02,-1.809412694428198451e-02,2.547486811775956025e-02,4.448291578263945459e-03,1.699523935341767022e-03,-2.798991079990397618e-02,2.616683117292975189e-02,1.618911872986277325e-02,-3.141211367085363498e-02,1.510076784494859999e-02,3.163375778381495498e-03,-3.039076909286980363e-02,-3.029768984893362570e-03,-1.111928727607668218e-03,-2.428396908961853728e-02,3.238329010106686529e-02,2.542831748160653826e-02,1.228073174664877192e-02,-2.739508329646573367e-03,-6.410890606142843201e-03
1.096934689367272918e-02,3.300963705457524936e-03,-3.180411920639396317e-02,9.084105574285497283e-04,2.226250499726893997e-02,-2.961526488760263948e-03,-3.255369183064112798e-02,2.080024348913959986e-02,-2.169814557871613259e-02,-1.753799422497712840e-02,-2.436158081186652960e-02,-1.233614015687983442e-02,1.865490926664211888e-02,1.408527085875745230e-03,-2.144257358428874882e-02,2.745216939324307895e-02,2.757944902559504932e-02,2.692528278214650905e-02,-1.897840078371248670e-02,-3.542824832305924675e-03,3.523811089754581155e-02,1.976373245152939287e-02,-3.435480867655155146e-02,-3.159112495887157063e-02,-2.620654126775078321e-03,2.973289597639905066e-02,2.811973886296697221e-03,-1.589375845425891371e-04,-2.866527427316607063e-02,1.139124236331914147e-02,2.340319375880426517e-02,-8.688377129742821253e-03,2.002525382678160479e-02,3.374768849652248076e-02,-2.152357319925814541e-02,1.695071473854990220e-03,-1.546601281886926700e-02,2.127805482876780202e-02,5.637735974805737488e-03,9.778415053701442969e-03,2.164568266883758543e-02,-7.558520010733757628e-03,3.015938521119419444e-02,2.399793216418057845e-03,-2.485212979758410698e-02,1.423353006266703420e-02,2.130762142627128791e-02,-1.331362898655151679e-02,2.595173342164873095e-02
2.950933256104156660e-02,-1.620955068831834989e-02,3.513143643610931732e-02,-2.610498359814520872e-02,-2.165078118596836312e-02,-2.294341743731671823e-02,2.862628701036980944e-02,1.121050315331491472e-02,-2.527721507741560736e-02,-4.335948148369863329e-03,8.377260302841497627e-03,-3.026443673613386093e-02,2.778539754064417860e-02,2.205905819910564461e-02,3.783108822813631227e-04,3.394022792708084602e-02,-5.975277401726352897e-03,3.517422050729103467e-02,1.220063864215529745e-02,9.784871082400239950e-03,-2.427086494589128160e-02,2.774989637733809786e-02,-5.268414255678127017e-03,-2.454125887803697281e-02,-3.541269394977636376e-02,4.341695498339354607e-03,1.990786629538477803e-03,1.593767449047938864e-02,2.835515433530625892e-02,-3.055924435803108671e-02,1.681994429307337793e-02,-2.271185053055670491e-02,2.602423074450507454e-02,2.318234078285551919e-02,2.963970146386742371e-03,1.527570528462297156e-02,-1.348884706491072089e-02,-2.094866894479935782e-03,2.336931628696848826e-02,-2.959686832955886991e-03,-1.033201519421672945e-02,-4.205088150582935824e-04,2.384975310908357682e-02,-1.197336278875513714e-02,-2.370365020070052189e-02,1.540439773437248146e-02,2.368474515723397941e-02,-2.901666178221238082e-02,-1.890008322026143911e-02
-2.601340166637517923e-02,-1.104818903608837700e-02,-3.607371186443349316e-03,1.807908672921511306e-02,1.098199784370156029e-02,8.786361147151002665e-03,-1.072605969376403540e-02,2.480870795685898716e-02,-2.086201152117463358e-03,3.481054229419665996e-02,9.746425486497537968e-03,-2.715465024113335527e-02,1.280061211917913125e-02,-1.270749596763169446e-02,1.353805867180465569e-02,-3.126877605486217543e-02,-2.362228519017417483e-02,2.584696151966975677e-02,-1.982243724787909403e-02,2.448854815347757327e-02,-1.603723620555802185e-02,1.038143500206821154e-02,1.410648526939777339e-02,9.194620731806136009e-04,-1.414562945469493953e-02,-2.087852638557612106e-02,-3.391727036608398194e-02,-1.424475422819243380e-02,1.112841754412843311e-02,3.184610971358529941e-02,2.697077050206612286e-02,1.933158776227259998e-02,2.095784794781224009e-02,1.198738210494800643e-02,-1.741694526828169512e-02,2.958575191709595861e-02,1.240497413615891491e-02,4.391462024476123008e-03,-2.826451255320535857e-02,-3.846809091980958953e-03,-2.880266863158002788e-03,2.648826163384791418e-02,3.389340649510577935e-03,-8.689790937401208060e-03,3.464309524812739238e-02,-2.828404838909307981e-02,-5.627433570542276012e-03,-3.327531851516833672e-02,1.743082126664521544e-02
3.037637550310556822e-02,-1.598192636992802618e-02,2.603619187826985287e-02,-1.509689319094503941e-02,2.984551180862013084e-02,1.845222389670070351e-02,2.215374839382338798e-02,-3.502041379766615559e-02,3.362661962087321044e-02,1.646933590169324946e-02,-1.418628720487449812e-02,2.393297585296216140e-02,-1.587411224453277869e-02,2.708334285030988137e-02,-2.814892027837926844e-02,1.479930338958339482e-02,2.957047465272030946e-03,-2.931477589794288449e-02,-1.875333584540235868e-02,-3.542747855608874286e-02,-2.269239936527728350e-03,-1.443955905422399794e-02,7.146403836458928120e-03,-1.473218351633845749e-02,-1.453736682406360156e-02,1.766979727902465505e-02,-3.283078856226222253e-02,2.927332230879075084e-02,2.559459426365571708e-02,1.219226010655796895e-02,6.773241416376040575e-03,2.850369850117765239e-02,-2.286310623222271438e-02,-3.059102635726460365e-02,-1.892652637883123629e-02,2.140330607346039790e-02,-3.380967106699416663e-02,6.016533344165210344e-03,3.599722574966199989e-02,2.584397057084925758e-02,1.558189044289180585e-03,-3.170473810114239621e-02,2.407675401027794398e-02,7.191525846912255431e-03,-2.797798588236113243e-02,-2.950929335587275382e-02,2.976243948123056746e-02,1.229365936739493757e-02,2.392513861790752927e-02
2.753563987784804837e-02,5.214795962827386763e-03,1.267607401761086878e-03,-5.054966842068648464e-03,-1.330019384520035944e-02,-4.752090596626437104e-03,1.989939694383418070e-02,7.405496425940921550e-03,2.851974067108902638e-02,-4.113863681546418849e-03,7.780855535951446134e-03,9.540471758426262786e-03,6.662481835286769051e-03,1.472285290451942272e-02,-1.907741421335595183e-02,8.983205286023810288e-04,-2.875601595322787793e-02,-8.391112248134897228e-03,-8.960793248123874195e-04,1.106022627749001994e-02,3.273443668911820564e-02,7.313049670397509493e-03,1.769891238608964704e-02,4.552758942109018793e-04,9.743656734968565020e-03,-3.117497035039966738e-02,-1.784528103245145575e-02,-1.003740174692762527e-02,-1.998562638248001060e-03,-3.301200281223213434e-02,-2.615493054387070526e-02,-1.621610290696808010e-02,3.426036214051332573e-02,-1.225389612264108849e-02,-1.304850892871817257e-03,-2.208076474404580686e-02,8.048997293814500950e-03,-1.593499794374255221e-02,-2.128917160202600106e-02,1.204124895549527757e-03,-3.592868686320379451e-02,-3.577187512493611860e-02,-2.041174349618055106e-02,-3.366064368168306814e-02,-2.847984852879519024e-02,-1.170797404988413101e-02,2.198510338939178507e-02,5.234870585214479281e-03,9.204046445523756574e-04
-1.500457516409613515e-02,3.137012357513496025e-02,-7.482624323453420517e-03,-3.000078597516119341e-02,8.505754349841569695e-03,-2.805751698566817665e-02,-1.124569150964190543e-02,5.385325546574065789e-04,2.719005376350830741e-02,-4.688890057012803252e-04,1.469560584886848119e-02,3.580681403189130141e-02,-2.677506024214090438e-02,-1.636743255233133812e-02,-7.659833343467314058e-03,-5.679765081240567039e-03,-6.464981629270719586e-03,2.961597537036039091e-02,1.555106581330329384e-02,7.840117520871754328e-03,-1.385049190842505169e-02,2.352578312192859025e-02,3.306353561516811590e-02,2.333744762861184041e-02,-3.621500763176620924e-02,9.910575510715516345e-03,-3.261335784475668381e-02,-1.761164087211718882e-02,-3.200381133956886615e-02,7.541512762963160747e-03,1.355714700460764789e-02,-2.801034453044601649e-02,-8.439970356924108089e-03,-3.179743590738390562e-03,-9.514273309670372852e-03,-2.753535645803771928e-02,-5.889046749144011793e-03,1.824995603850804171e-02,-3.116948846221024444e-02,-3.050304894851383827e-02,-1.055194736422254524e-02,3.209466308247135857e-02,1.224805837464997861e-02,1.298170315091987277e-02,-1.003254113563222319e-02,6.805154100852997719e-03,-3.559261820104824697e-02,9.888391464381999715e-03,3.002837505253799430e-02
8.179300963284548073e-03,2.715198625803045412e-02,1.627331071218535152e-02,-2.756925726684641281e-02,2.924123039255751080e-02,-3.150108399109262380e-02,2.467989882653837033e-03,-2.600140344893850375e-02,-3.547815171671397927e-02,-5.664791718843252902e-03,-1.489181920009335046e-02,-1.017168399005300957e-03,5.609146784029323853e-03,-3.315075479367404765e-02,-2.739161861749069005e-02,4.260806891967390368e-03,-1.139505993845820429e-02,1.665116083774588820e-02,1.106512259365392825e-02,2.511073115789615520e-02,1.398603761392787533e-02,-5.091029126362060092e-03,1.256731343511070277e-02,-1.632023073284879708e-02,-1.407276696109263474e-02,2.099692433455938034e-02,-3.893021220305680798e-03,2.167955418368567796e-02,2.342638696581305149e-02,2.597956708510534840e-02,3.027165313425385015e-02,-5.014437776824929964e-03,-1.316067479462079866e-02,5.972351186148380439e-03,-9.360282991784721340e-03,7.343791055100554882e-03,1.493734419916455461e-02,1.368902790238405755e-02,-9.114667133597367452e-03,-2.420508769266513718e-02,-5.047561003411433350e-03,-2.596819752092961731e-02,2.834345519034736291e-02,-1.119815043798212152e-02,-2.510607307338882585e-02,-3.447975488009706602e-02,1.059508250174991985e-02,9.946973061215110684e-03,-1.158129453586463110e-02
