-1.008923258128268004e-02,3.624554258543193075e-02,1.865648855139713166e-02,7.933917871081757472e-03,-2.766229258562566753e-02,-2.766423227630162782e-02,-3.553803157912224092e-02,2.944715287866606773e-02,8.131466900524131347e-03,1.673278032694202472e-02,-3.855363559796595035e-02,3.778920996211107552e-02,2.673437191360481316e-02,-2.313311307360881725e-02,-2.558699942891919446e-02,-2.545997577016471253e-02,-1.574244708528428627e-02,1.990862691129054087e-03,-5.472845414218028420e-03,-1.678893476850733604e-02,8.994985961853736028e-03,-2.899118230820505945e-02,-1.671531142007903065e-02,-1.074691313555019463e-02,-3.532763959775405815e-03,2.293328014223547720e-02,-2.415163344826408431e-02,1.144705052319848959e-03,7.431794694701967206e-03,-3.647355019925038744e-02,8.648541779129543042e-03,-2.649579065037204612e-02,-3.497768050561925884e-02,3.609847662945678270e-02,3.744519631155394934e-02,2.480069759361767587e-02,-1.571256969063855244e-02,-3.235440348287019208e-02,1.481565131863424312e-02,-4.812816691068895827e-03,-3.039492880472096509e-02,-3.878632372417556017e-04,-3.744354338474354532e-02,3.291672763353448161e-02,-1.939843116811013762e-02,1.306971688020136350e-02,-1.514181847105499149e-02,1.613830104483429846e-03,3.756347191638679476e-03,-2.534337404073875449e-02,3.776305606688424438e-02,2.212563107929337372e-02,3.534362538789517089e-02,3.175122542217077848e-02,7.872920385808283156e-03,3.392628175711814853e-02,-3.309260950668936607e-02,-2.444844982769678321e-02,-3.657191136838244816e-02,-1.404658526402640870e-02,-8.952349592417573401e-03,-1.838765330537811202e-02,2.643641264086780615e-02,-1.151961081267939731e-02,-1.761680835332338560e-02,3.433533567350260420e-03,-2.887615527171088353e-02,2.430207645804720665e-02,-3.421378585756425228e-02,3.915447311937441527e-02,2.189337955078940121e-02,-2.422868198318129523e-02,-3.976492182844182377e-02,2.536877679831580149e-02,1.663505364464549358e-02,1.841629818169036176e-02,2.181501843437825411e-02,-3.425447671728230892e-02,-1.138190288257906815e-02,-3.089104153863088398e-02,2.920005089326025913e-02,9.915388624402261472e-03,-1.359884244701469597e-02,-3.509776409532684022e-02,-1.520042343946264446e-02,-1.405840741243414606e-02,1.846446939108627866e-02,1.106209657657322709e-02,3.113887389655611848e-02,-2.234420117044288306e-03,-3.059146950185045316e-02,1.714871905881527187e-02,2.097181174606649323e-02,4.927789605154270572e-03,2.179063837251507887e-02,-4.989457245831422803e-04,1.828128647647240135e-03,-5.827006304063567753e-03,-3.816484413118225588e-02,-3.153258678259351910e-02
-3.768152721789958665e-02,1.096985229943181830e-02,-1.492912050479499285e-02,6.892378324336786164e-04,3.277568024132621050e-02,-2.016141723404420161e-02,-7.206825994424545349e-03,2.055091117164036668e-02,-2.180950882215971012e-02,-3.401842913512719696e-02,-1.690776742287040599e-02,-2.724390614019044782e-02,3.455542532230612002e-02,2.477842433691121449e-02,1.072806314086142965e-02,2.987211732350367535e-02,2.442070073818107881e-02,-2.520540865162488459e-02,3.156880909860099171e-02,3.163824366078986979e-03,2.472372205184934779e-02,3.185286971130456973e-02,-1.463579634481024586e-02,-3.135884389430678570e-02,-2.187890979239551920e-02,-5.861845772187375750e-03,2.557411108791530011e-02,2.900923163817689318e-02,-3.964992301184037948e-02,8.642765665827349154e-04,-6.641641855797934466e-03,-2.234753378469742438e-02,-3.056966646178194136e-02,-1.305866296324064389e-02,3.561791207058313813e-02,-1.421766641370635596e-02,1.511104198202426353e-03,1.632637840786171218e-02,-1.096663448232811262e-02,3.793977099709416184e-02,3.718908604400430334e-02,-1.996117105485775700e-02,-2.212696500483527233e-04,-1.601296785697209346e-02,-1.730269688091356714e-02,-3.724262494624323155e-02,8.810944486641365467e-03,2.154416870023810084e-04,-3.606918127700672189e-02,-1.780080838980733701e-02,3.283192555801658225e-02,-2.094391158312685144e-02,-2.855684377636975510e-02,-8.481879121242339196e-04,3.905503767189240361e-02,-2.074339888517879454e-02,1.384279625748560498e-02,2.103892593095803981e-02,-2.109866369183609897e-02,1.835270206572911858e-02,-1.063261588412555900e-02,1.063977013571677961e-02,1.073819212963401937e-02,2.876928503646681168e-03,-3.294807681048868980e-02,2.696435571279204302e-02,-1.441250853332659045e-02,-2.520955407772859994e-02,-3.692994414942660925e-02,7.309428602979402279e-03,1.427937065072025155e-02,-3.887503942902577336e-02,9.724995486965006030e-04,-2.199466244220506239e-02,1.167450529570306268e-02,-2.618680014565914760e-02,1.535483080775515777e-02,-9.108516793683366086e-03,3.512095174253437868e-02,-2.914984030556724837e-02,-1.278112600230344939e-02,-3.108368593370003721e-02,3.415301091658037858e-02,3.034487569536086643e-02,-1.946584990987904745e-02,1.286559683385714997e-02,2.551037453863394186e-02,4.439138805057237479e-03,2.384440176850962517e-03,-2.075972217972958320e-02,-3.272186116047633153e-02,3.194329637588173842e-02,3.220081887014648175e-02,1.070375284114820184e-02,-1.294490208221584816e-02,-1.212626425903029666e-02,1.817090352899269901e-02,3.193481243777623185e-02,3.112871563074751102e-02,2.250703133167802558e-02
1.142190076052792234e-02,-3.344263182682844643e-02,-2.721114168898102967e-02,3.205093028425488183e-02,8.558811999880800922e-03,-3.946939095051901769e-02,-3.204886101711262175e-02,1.314848508405171146e-02,-3.980195699302396806e-02,-2.727713773922532323e-02,3.919073818414752983e-03,1.543182779200409117e-02,1.222042039559319455e-02,-2.217371036136685583e-02,1.706302838344227538e-02,-2.112990258586188233e-02,-1.404100687685270674e-02,1.982234553926672666e-02,1.203317830711337841e-02,2.808384783194451881e-02,1.267491339555913699e-02,5.493241186126108719e-03,-3.267586206333558674e-02,-1.063803040063313575e-02,-1.888195573142200170e-02,-2.058784057050931995e-02,3.803856225953903408e-02,-8.596867057391583897e-03,3.152759943284400013e-02,1.054590587780429925e-02,2.370813507629635636e-02,2.120697503643445580e-04,6.184456507299624685e-03,-6.017120900505820236e-04,-2.450794906414346594e-02,1.788915395465004443e-02,-1.762984791041187493e-02,-3.825355807596225038e-02,1.169859092848134392e-02,-2.596611301991612678e-02,3.542079794059845022e-02,3.650402779433455092e-02,3.336256406566926597e-02,-1.044157749667469146e-02,-3.896600926645406304e-02,3.444452168395344127e-02,-5.775287079763701328e-03,3.752744671246634189e-02,3.728339079559286201e-02,2.838831399233533032e-02,-1.653000876612651521e-02,-9.240210731926630852e-03,2.823770845471225421e-02,-1.472276598322247443e-02,-2.657873192489328476e-02,4.567843860425396113e-03,3.507469413741295255e-02,1.576432396830608831e-02,5.634179097367560639e-03,-3.239426027041990980e-02,9.248651027211923781e-03,3.940914996595316216e-02,-2.894372325749459962e-02,1.474033963150378924e-03,3.034758727343349338e-02,1.936213043148612284e-02,1.584361163754553770e-02,1.628336483810684590e-02,-1.129944044301659303e-02,-1.659893083555151472e-02,2.487820505297410126e-02,2.493869862416643601e-02,2.951922130230314606e-02,3.323197829023576133e-02,9.121330188289551895e-04,1.219373844480839175e-04,2.398830136631184551e-02,1.205979921644809334e-02,1.624177210792378256e-02,2.378705455769156846e-02,3.136344913919406757e-02,-1.302810529391860116e-02,-1.000536997452494345e-02,-3.265115990475795510e-02,6.295132290497926220e-03,-3.731859370335007670e-02,-2.766538539092042084e-03,3.429396185902055822e-03,-1.716592534602319475e-02,7.304629046173272654e-03,-3.775623037181105590e-02,-3.720553283628501989e-02,2.594289152392569020e-02,-1.124318884158345168e-02,-2.999104727368349238e-02,1.788758462044485889e-03,2.171234124910944446e-02,-2.285310429081344186e-02,9.882606146055027824e-03,-3.334552709329092340e-02
-3.605285884231978349e-02,2.521476726146434574e-03,3.267795163892132926e-03,1.105183766395609855e-02,1.818181262076205840e-02,3.826707199047581220e-02,1.310841391333632472e-03,-1.423748615968485273e-02,2.373828307857160994e-02,-1.842921175999596983e-02,-4.907796220984587260e-03,-3.389969425061902658e-02,-3.817034338162765550e-02,3.720525969069254923e-02,2.701884895308436299e-02,1.575985348500370115e-02,-7.321822013587107533e-03,-2.627301700071823023e-02,-2.762864551567319193e-02,-2.008496633420831998e-02,3.958709866914517962e-03,1.725737467008888609e-02,1.288275246052687263e-02,-1.769727562763779086e-02,3.657935562825862658e-02,1.913119397900195362e-02,4.371044133666826884e-03,8.984358844892343168e-03,-6.465602089163006820e-03,-2.028696900227661137e-02,-1.158238896606840658e-02,2.073546822102529871e-02,-3.905150388464788402e-02,-3.087466996346677900e-02,-3.650955902275772325e-02,-3.693367065803850047e-02,2.858542884479872009e-02,1.637775750633273242e-02,-2.076888983378858636e-03,-3.234137201598577538e-02,-6.742345454152340366e-04,-2.133347107501426445e-03,-2.628045165764781796e-02,-5.319517997106975281e-03,-8.162046154962675562e-03,9.316433054732281907e-03,1.086396106337779097e-02,-3.656574163022820179e-02,-1.008340261579993534e-02,1.012140256020695704e-02,2.522116389625082985e-04,2.866819964732524387e-02,1.276182428886568458e-02,-2.710613886347731580e-02,-3.453400198807324295e-02,1.145307335445147796e-02,-3.807701289578240694e-02,6.897900598278171140e-03,3.540243505927510859e-02,6.069482351449159881e-03,-8.993150748419038651e-03,1.152295178937484330e-02,-3.357219005451861447e-03,3.668410911850788006e-03,3.550171649516352390e-02,-9.159397945104978331e-03,3.708802224235603628e-02,3.259748746845510942e-02,-2.446386818001810431e-02,-3.463110242138253692e-02,-3.210463423576246506e-02,-3.874363668233943292e-02,-3.261408552532975291e-02,1.471703849855678266e-02,-3.448415078534423223e-02,-1.455761755922840850e-02,2.773418236926066330e-02,-3.833751693526782356e-02,2.528892607878990145e-02,-1.754280247667198284e-02,-3.070642046242912440e-02,1.582120914275597992e-02,1.036932570717326134e-02,3.035554395883832343e-02,1.890394293596406317e-02,2.440532911801205143e-02,-1.752834349756236115e-02,-2.593966640516469357e-02,2.015393681529769818e-02,2.467503571694221881e-02,3.944544195717056972e-02,-7.027111559756740039e-03,-1.029204943262638713e-02,2.222857716574791129e-02,-1.280226072070006146e-02,3.464064212541550364e-02,2.882283627418914113e-02,-5.710158226613068488e-03,2.017454924721121326e-02,2.046982856156262867e-02
-3.191598426912545250e-02,3.237249919613962440e-02,4.223852815983457180e-04,2.625305614190732648e-02,-1.447125098172150764e-02,3.180718654390411043e-02,-8.910179274812796493e-03,-3.933745719252958878e-02,3.260000732328144357e-02,-3.286790756605918046e-02,-1.453043568882667058e-02,3.619308275958536131e-02,3.623692503510432539e-02,5.905728004417722977e-03,1.060208477984081986e-02,-4.145907955504413329e-03,-1.662957592876955493e-02,-1.377845439754255344e-02,1.387358900657183897e-02,2.029545462418124585e-02,2.344820321006842873e-02,2.329051148118327363e-02,-3.287438714478617408e-02,-4.487079301458537974e-04,-3.558023913885509371e-02,3.983013602947631585e-03,-4.702000074727362769e-03,3.117839453255675033e-02,-1.198911635273827714e-02,-3.079470424179628699e-02,-2.870989451073405890e-02,2.103016168703161423e-02,9.506860082670223755e-03,-3.207691618247787008e-02,-3.344529839760708445e-02,1.616153538741662773e-02,-3.435754407319571713e-02,2.588334188564285834e-02,1.658558719127146627e-02,-3.366709328699751119e-02,-3.338652024128288542e-02,3.913458107602003216e-02,-1.011089100533097383e-02,-1.040269967153607811e-02,2.515471524754566909e-02,3.596683559251636492e-02,3.908323300333901157e-02,2.037616661688548478e-02,-9.950956511460570461e-03,-3.349403889560703673e-02,2.228760037302429317e-02,4.696752889499026737e-03,-6.093914375061336777e-03,3.267820648305078124e-02,-3.126672043016714975e-02,-5.930743548345970015e-04,-3.929596204494684858e-02,-2.520248456832658614e-03,-3.568120267667810458e-02,-3.065390038039695481e-02,-3.075777385606730599e-02,1.199919390757985503e-02,1.978643682375499577e-02,6.704349257721917664e-03,3.716699148288463844e-02,-1.006265759498469609e-02,-1.723260520412737279e-02,2.964200427574941246e-02,-2.222786954675057616e-02,3.725142965521186650e-02,-3.923156090514912792e-02,3.778671495715766465e-02,-3.673816568642109676e-02,3.145494647699952767e-02,2.227667759314521864e-03,3.964324241931309334e-02,-3.427442737726376504e-02,4.330853782353090257e-03,3.774037078104826998e-02,1.857482406470114438e-03,1.040597953587693580e-02,1.574171785037954338e-02,-3.655716602324866026e-03,1.025796554058781493e-02,6.780388241305857280e-03,3.226032443601704186e-02,-3.655429247393740533e-02,-1.761450197276748231e-02,3.622119021936892613e-02,3.138423253355775849e-02,-3.565995204554298168e-03,9.660823114751627277e-03,-1.790255977638589846e-02,-2.508067222620299908e-02,-2.919301630666041539e-03,-1.179312036149618610e-02,6.727457108638453323e-03,-3.395773548913863515e-02,3.814988110879616312e-02,3.910009510215601419e-02
1.593576849493773609e-02,2.902797548022058652e-03,-1.531740793904106876e-02,2.523476754150448531e-02,1.485571122645663010e-02,-2.713167059191681427e-02,3.304594185997979799e-02,2.593779963826398083e-02,3.617200892069871720e-02,1.815191117144681829e-02,9.120623099074841658e-03,-6.574731415534207195e-03,3.479915868717183003e-02,2.943812545370755665e-02,-3.657260447538085435e-02,-3.808862011163603734e-02,-9.934568823316190789e-03,2.497407740517421093e-02,3.918577121864504076e-02,-2.811277405765522097e-02,7.569803761210100110e-03,-9.578518957346423765e-03,3.778957551439746099e-02,2.751251917554978915e-02,2.720771739454990248e-02,-2.517633440360995522e-03,-6.850045165108420778e-03,-1.822214983436480293e-02,-3.567539481086715036e-02,2.933024364305293966e-02,2.516287299994019594e-02,4.018629528771246878e-02,3.993854060466632550e-02,4.457706838743815368e-03,2.163142965114442026e-02,3.576716996494164885e-02,2.811794346984245255e-02,-2.031776006956514599e-02,-3.977141670952574759e-03,-2.982225773483290765e-02,3.651387499889455213e-02,8.538351633733214791e-03,-2.182200256151262466e-02,1.380782544523944527e-02,9.499636708147336447e-03,-1.140627038154626814e-02,-3.107692511541061339e-02,1.379757305001455027e-02,1.633104668417644173e-03,2.189930012000456186e-02,1.621508409723027228e-03,2.832173149610968735e-02,4.174244102126802372e-03,4.900509726325136262e-03,3.028972899451998213e-02,-7.761714756266782124e-03,-2.943176294640916651e-02,-3.789435420570969743e-02,2.051762753951254584e-02,9.675053365291343480e-03,1.641168656123833877e-02,-2.308284773661456804e-02,-2.924227826686874240e-02,-3.903934652976606690e-02,-1.201544952767375982e-02,7.231000440241256225e-03,-8.665518259851727467e-03,-5.028141650301341282e-03,3.250163343877260358e-02,-1.220299168207730073e-02,1.125006723503473938e-03,2.281080765926397913e-02,-8.319822414809868033e-03,9.817968121472734483e-03,2.914056432202535157e-02,3.614954900720347697e-02,-2.838164441330316701e-02,3.430532315995958592e-02,-6.339919342537561533e-04,-1.944150250959166340e-02,-3.286220708824130320e-03,3.860325909885855417e-02,-5.936381089704281236e-04,-1.377145281109764217e-02,1.072782975225191476e-02,-2.089696933653590466e-02,-3.410822240263942234e-02,-2.984475010556034841e-02,-2.991180930392595833e-02,-2.799328880121986635e-02,-2.904479602325009749e-02,1.132886506897982752e-02,-2.558256701463143545e-02,-1.241112823590470766e-02,3.190892990109390343e-02,-2.093952784024812573e-03,1.347465802773759394e-02,-2.635138022878574446e-02,-2.474550133900517077e-02,-3.692242710016515467e-02
-2.662357972513026971e-02,-1.780532186645191611e-02,-2.597417051179195732e-02,-3.307571917726219446e-02,-3.050770409072140615e-02,-3.154092988186686392e-03,-2.361605470261618489e-02,-1.091514616142288431e-02,2.748100837585158089e-04,1.531117111435858873e-02,-3.704759581958898262e-02,2.407798512237353111e-02,1.028549337808203068e-02,-3.363410169785530784e-02,3.004244537282199645e-02,3.384571623212442176e-02,-3.529723213022728512e-02,-1.794305304009388702e-02,2.462409417365897524e-02,1.996454750176765783e-02,-2.537018831021403339e-02,-2.337354578867678265e-02,-1.041637429189250924e-02,-1.244630559483512295e-03,9.509812083785153594e-03,-1.054170278549329889e-02,-3.012883155823889870e-03,1.990111762422307889e-02,-3.725900966831456607e-02,-1.990852553102147315e-02,1.715714675746241036e-02,3.178174302818206204e-02,9.390765269104864397e-04,2.582502221910901521e-03,-3.159044074980900396e-02,-4.228992225585170329e-03,2.623015297057613559e-03,-2.071000674876043862e-02,-1.855699759371312249e-02,-9.868562033291740018e-03,-3.859491387677869284e-02,-1.430803746181821649e-02,-2.320477384848304570e-02,-1.387231773834282124e-02,-3.057796845526527044e-02,3.140542242286226138e-02,7.526517824537589177e-03,1.440305009931762588e-02,2.325457234075892221e-02,-1.252752447692075837e-04,-3.321904380751609931e-02,2.984033838187245390e-03,6.983588931232212645e-03,1.973775135862523497e-02,-5.495802534359934925e-03,-2.994924679049432853e-02,-1.738830896404035611e-02,-1.101064773406454887e-02,1.173437254912248345e-02,5.691849625178172813e-03,-1.157241333473222125e-02,3.912458272968632328e-02,8.506199303954629573e-03,-2.113169556632924287e-02,-3.202385666847563234e-02,-2.791637335424276486e-02,-2.042957111275887569e-02,-2.728732494318816121e-02,-2.520565270696079052e-02,-1.728221648202568975e-02,-2.626664184585116718e-02,3.190708147090597774e-02,-3.375676216878448904e-02,1.971156898864374375e-03,-7.205707866264871898e-03,3.879192307146605428e-02,-3.119905512866011713e-02,-8.214248320939367479e-03,3.775387277458115004e-02,2.939335163863265876e-02,2.549830144462078216e-02,-1.946897018213277625e-02,-2.646656162673155163e-02,1.356195027001442371e-02,3.452955781024542176e-02,4.564758266487197250e-03,5.758949181164623420e-03,-1.769364099831477466e-02,2.167208239801816580e-02,-2.516731547615650919e-02,-1.417936296833123382e-02,-5.996252395396947481e-03,6.120114244782914707e-04,-2.071489384863378636e-02,-3.097405179448334614e-02,8.895842448528651011e-03,-1.699790793155294202e-02,6.533015198900860715e-03,-2.779545877394038952e-02,-1.516675267805703926e-03
2.620776950242329709e-03,-3.604145431123061821e-02,-1.313995697224076831e-02,-2.939964009832408270e-02,-3.511251113294279469e-02,3.940162141670853352e-02,-1.428594829481822509e-02,2.491948283786312585e-02,-1.973130754896763872e-02,1.459608571145749011e-02,2.092700374362896354e-02,7.691076134525894580e-03,-2.285786037172163505e-03,-7.089577266850268997e-03,-1.215371157099239853e-02,3.454187423853245092e-02,2.658775116324280097e-02,3.739653357842492865e-02,-3.021326545875115469e-02,1.856590036100246380e-02,3.525046236312472103e-02,-2.563459892620335509e-02,-3.486150268283445819e-02,1.939044010314014410e-02,5.988978731855938535e-03,2.748918618449575427e-02,-2.896878461090158022e-02,2.374480635271932275e-02,-2.399453384047494503e-02,-2.704811600794982882e-02,-2.699907268399607402e-02,2.529746949740054041e-02,1.328482990795826213e-02,1.854875303114624299e-03,-1.135256996881922262e-02,3.033371266643395889e-02,-8.649349230194875934e-03,2.546029336697899423e-02,-4.894648854074670936e-03,-9.895882735964573948e-03,-3.001216954004294526e-03,-1.597279389184753581e-02,1.991225085624053967e-02,2.187683273942131023e-04,-2.153491918019252715e-02,3.213298758372966357e-02,-9.337235628886983441e-03,3.502433936030358800e-03,3.268767376191669682e-02,9.990971015536963609e-03,-3.080829293099603128e-02,3.537041922155953477e-02,1.027002606811603519e-02,-1.327656009463346748e-02,-2.900901805442698128e-02,2.364491733970778761e-02,9.656010751074219772e-03,2.690874056879356477e-03,3.167605330032444849e-02,2.320841020733457882e-02,-2.801160912948668161e-02,-1.514093454004321847e-02,-2.022600007123455737e-02,1.961767268146043589e-02,-3.751238813824143981e-02,5.620388599295609265e-03,2.110640229440340770e-02,3.029873855292142606e-02,-1.269946975397048643e-02,2.583486956542353774e-02,-3.131221653916242686e-02,2.786100000665009055e-02,-2.995661633319143813e-02,-8.259950552076367539e-03,2.390789839054751134e-02,-2.815293993332273342e-02,-2.177306099335671319e-02,1.787310679480857631e-02,1.769489794823211545e-02,1.135081018245752069e-02,1.559694578879666955e-02,3.435814237025294933e-03,-1.995982300138143817e-02,-1.240881942067726881e-02,-2.560527445178691075e-02,3.284677678147002872e-02,6.706201257614482006e-03,-7.973330655074294115e-03,-3.055417239770034064e-03,3.596963110132504055e-02,-2.787678647393365683e-02,6.934430534044177044e-03,4.735557719011637711e-04,8.962926579701767024e-03,-3.875261469495571570e-02,2.992546009051176223e-02,3.475008755426293311e-02,5.237880284546230641e-03,1.581426573313084172e-02,3.397655475984107803e-02
1.666571626089343242e-02,-2.794211485572892228e-02,6.134957262004853487e-03,8.581810479870421657e-03,-6.101259589786562840e-03,1.901437227426611490e-02,3.493092610465867165e-02,3.422336819180704648e-02,-3.953399375074573632e-03,-3.110262239413875973e-02,3.898995899229024814e-02,2.725350593425770671e-02,-3.018387608041882969e-02,3.384326204251527498e-02,2.974632522786112634e-02,1.514918856755473288e-03,7.340187888972459634e-03,-8.122000446463160592e-03,-3.580517802793431459e-02,-1.325310803577528854e-02,2.435486828838463735e-02,-3.983650141630140640e-02,-1.338966342348513021e-02,-8.189069884155839030e-03,3.007279554959709986e-03,3.376394848798319748e-02,-1.235654765208540028e-02,-1.230771723760006389e-02,1.909937510309685227e-02,-3.842537575727631837e-03,-2.214672903875642210e-02,-3.824718938094668740e-03,-2.888155973075293842e-02,-2.602431095479994586e-02,-1.312604499988605353e-04,-6.519853110464763138e-03,3.336107720503652535e-02,-1.106600726591354736e-02,6.480753861928588086e-03,1.063642935700187010e-02,-3.915596944189245199e-02,1.315134819871982899e-02,-2.589170325378226112e-02,3.707835227115852811e-02,-2.825384036399397267e-02,-6.865757121999016901e-03,-3.334534992561385275e-02,3.995763302553709956e-02,1.765183383465944141e-04,7.670672215453211602e-03,-3.481484335396664576e-02,2.010132082714086166e-02,-2.332881168783381906e-02,3.201072940009035833e-02,-2.371208005974679081e-02,-2.487427453142728243e-02,-3.726974828921222893e-02,-2.246320376695402302e-03,5.214394181711121644e-03,-3.492484214549997079e-02,2.215737956917414320e-02,-3.756418434642934574e-03,1.961416651325330156e-03,-4.763741350028781289e-03,-7.980436058801245597e-03,4.796156095997669219e-03,-2.772488951459312762e-02,-2.557870324372724449e-02,2.909407566334547626e-02,3.587571273159941704e-02,-1.018821126077899472e-02,-1.843625461703254573e-02,1.158015510607200357e-02,-7.339415325880838982e-03,-3.816747951615839796e-02,-2.765152003788205054e-02,1.736805445629576242e-02,1.278034538160461968e-02,-3.802999394243168629e-02,-2.235844236865595913e-02,-2.162642670520864216e-02,1.382327046119556820e-02,-3.862391743413138429e-02,-3.183679560824666938e-02,2.411865141587795150e-02,-2.585079500500124874e-02,1.228353632926149595e-02,-2.105481681901510277e-02,-3.221212162610651020e-02,-2.065357845505402801e-02,1.787426187572719802e-02,2.860439817170725568e-02,2.655562069696736083e-02,-8.268294799386262731e-03,1.351707032349807810e-02,-2.372457259910445634e-02,-1.663464559498336812e-02,3.187253340761320164e-02,-3.916341076682251787e-02,-3.333257449908648418e-02
-2.349120280478791956e-02,-3.807533269581724056e-02,-2.561832482228993194e-02,6.678036156567626093e-03,-6.318880401987632227e-03,3.157787321929522717e-02,2.552817599048528424e-02,-1.272073203306886904e-02,-1.934668605946705464e-02,-9.674895784555359243e-03,7.261338585496445591e-03,-1.865185787117832478e-02,9.983806731637507106e-03,-7.284933652095130878e-03,4.185530131156764942e-03,-5.136576708083587760e-03,-1.652865231775551419e-02,3.606371753438757100e-02,2.119865045795672059e-02,-2.894137822603163809e-02,2.963145727091540463e-02,-1.010757885019914707e-03,3.172910053815890946e-02,2.411375963517648977e-02,-6.014180313394144016e-03,-3.840206262588062580e-02,-1.860250385254475641e-02,3.348140227723345273e-03,1.073405133170147151e-02,-1.947018784024843671e-02,-2.900226282917746021e-02,2.693441940584185082e-02,3.895465402244975561e-02,2.065953051493868778e-03,-2.640289482100833390e-02,-1.831058915961556594e-02,-3.873005803118168000e-02,3.331708095954021703e-02,-3.073969298578228815e-02,6.153301841758488343e-03,-1.817002700839432869e-02,4.356886545318288707e-03,1.217692462000222707e-02,2.651717599928300056e-02,-2.360901383702759121e-02,-3.932473690039262060e-02,-2.920093099231111516e-02,3.216869868977637048e-02,3.006749183647488416e-02,7.833766740658444985e-03,8.083364769185736806e-03,1.327191910785276673e-02,-2.610599215017329888e-02,3.332617940082404501e-02,-6.532311837776337733e-03,-9.397765703662387671e-03,1.521324002136562525e-03,-3.643209037383123017e-02,-2.683682367565577015e-02,1.914218709778359520e-02,-3.355049625308734879e-02,8.295286222933287087e-03,-2.047851501094656232e-02,-8.902625185334812549e-03,-1.699282683847282149e-02,-1.160651132482956593e-02,1.761523335649187519e-02,-1.631506564460319039e-02,5.340128288633623488e-03,-1.925978728988935688e-03,1.316210759186280110e-02,3.512897348520974128e-02,1.870298265161054671e-02,-2.292392431355161353e-02,-3.770131411681997696e-02,-1.911824981783952909e-02,7.645976924008759772e-03,-3.607343842619231689e-02,-2.922191284798828490e-04,7.787908115167014450e-03,-1.332977460166365549e-02,2.178621729582259567e-02,-3.163658123657348692e-02,-3.416656939003482468e-02,1.835048313947303458e-02,-3.625793282537903323e-04,1.515094370381116391e-02,-5.241055010788715947e-03,-2.039384100546198439e-02,2.566156982345961166e-02,2.407842581782734456e-02,1.565710057397053795e-02,-1.832363209770843798e-02,7.256169666691248028e-03,-1.118020099935315183e-02,-3.284415236739778032e-02,3.355952264168644145e-02,-2.920631892986799011e-02,3.620718701265756428e-02,-4.342107689477235286e-03
-2.532097977415999346e-02,3.369590339098251213e-03,2.999155780962461590e-02,1.867506065383163841e-02,2.465303404357747225e-02,1.276904060537480297e-02,1.546249654892038056e-02,2.808161551443481840e-02,-2.013119778172348801e-02,-8.504232618399304878e-04,-2.241977879387239969e-02,3.921728531802899653e-02,3.571036347896990731e-02,-3.703837416482707451e-02,1.653194399191799946e-02,3.419761871116341889e-02,-2.568749153592300369e-02,5.464019474084614962e-03,3.341273744765395348e-02,-3.747913176937616581e-02,1.587614282918900846e-02,-1.629678729695779177e-02,3.412909276197959030e-02,3.788156142936343479e-02,3.572702202134275112e-02,-2.073641095808925229e-03,2.911474549964966976e-02,2.770797314347928780e-02,-1.454757793905652775e-02,2.645072422993675898e-02,-3.723291951018544571e-02,7.741830979383443161e-03,-2.171214901902554506e-02,-3.051325175237464687e-02,-3.402057695509125984e-02,1.578515055757477928e-02,-1.287693498342146192e-02,1.807529397974427104e-02,-3.495317329628322423e-02,-1.485398140438096322e-02,3.175810705778245573e-03,2.337937514270651065e-02,-1.457556101514969650e-02,1.012393256857547184e-02,3.103955812310121853e-02,9.317485736798967674e-03,-2.147486465861233110e-02,-3.824673741332871441e-02,2.976261082468587352e-02,-3.849855597925047612e-02,3.013275869205673738e-02,2.327066411621203732e-03,3.530894568468181255e-02,2.402754991805886031e-02,4.004286474026638731e-02,-1.200545705692694295e-02,2.148674751844705313e-02,-7.886519678960011298e-03,-1.618362343743046756e-03,1.025373419754172649e-02,3.005036574792929044e-02,3.892902388105923955e-02,2.157401109411881748e-02,-6.613030819084353938e-03,-6.324312502341652119e-03,1.910589326169133059e-02,-2.100701919750459085e-02,-3.132489233164831993e-02,-1.169099516316909719e-02,-1.710981452962318308e-02,-1.638049333984187630e-02,-2.142273157614826146e-02,-3.682394936028459548e-02,-3.877161337380240907e-02,3.922165858868559979e-02,-5.808340049912162455e-03,-9.302219558480847098e-03,1.444687497735380050e-02,-2.265745852846090536e-02,3.618497798431642015e-02,2.302729304688578421e-02,-3.301874555378744164e-02,-6.627989080135215233e-03,3.048793563070044399e-02,3.576445926792513191e-02,-2.621505231606677949e-03,9.120316969861472223e-03,-2.677646374829470433e-02,3.949879802369681697e-02,-2.157842481604644799e-02,3.560360331394503419e-02,1.203428405018727720e-02,8.663977449271664799e-03,1.020384664640114477e-03,-2.165899477805349402e-02,-2.601296835799724733e-02,-2.247793972430155163e-02,-2.521600748185707022e-02,2.248362388051850305e-02,-1.205262673959208927e-02
-3.555740713831803679e-02,3.772429478252040114e-02,3.086329286490001669e-02,3.439898262840392767e-02,3.979949672438466007e-02,-2.622469148111934018e-02,-8.344009207069142536e-03,2.076702144843153158e-02,1.576358584195830873e-02,-2.783299861429716637e-02,2.539866788991197027e-02,-2.215993778379839185e-02,-2.221003474025190494e-02,2.973409098614549894e-03,7.474043575462832427e-03,6.440372571735329850e-03,-3.285181105021917070e-02,3.035464722604225979e-02,-1.884997551120016004e-02,-2.979366864316553357e-02,3.126234264922792688e-02,3.664258167164101410e-02,2.912157831754840984e-02,2.489066334875382133e-02,1.248424942424828515e-02,4.089847972387541768e-03,-3.321369827644959222e-02,-7.362009408211787377e-03,-1.023813469556896991e-02,-1.932011994707874894e-02,1.796699845106910359e-02,-3.316651317920688794e-04,-3.369142493745592992e-02,-2.250230695056584101e-02,1.473730304965387670e-02,-3.408670806429219685e-02,2.824335721856445491e-02,-3.903065851258870735e-04,-1.561188602688846558e-03,7.431249122710960331e-03,2.611019355222369415e-02,-1.223887894757608348e-02,1.431570275607370497e-02,5.286033006608610238e-03,-1.873512030722218266e-02,3.044866581642515987e-02,2.391840547072621517e-02,1.274237946116685456e-02,2.819308109559518979e-02,2.953706463926394563e-02,1.675613362688235797e-02,2.710193746092032577e-02,1.588025978219545151e-02,1.448656038060675000e-02,9.538489679769016072e-03,2.032296643542311904e-02,-2.745429425817912106e-02,3.062886428445269621e-02,2.990291239557272412e-02,-3.785699146292569039e-02,2.620153108009340079e-02,-2.984554257968032379e-02,-1.325941179255542279e-02,1.958244668030257804e-02,-2.728101029765066590e-02,2.557027178762074152e-02,2.670956594906947340e-02,6.005402051713113571e-04,-3.969546041253581986e-02,-1.712596716657485349e-02,9.403028790297226006e-03,3.869602952286160802e-02,1.060018006722300565e-02,-1.931611534755512533e-02,1.077647048099303340e-02,3.215544220971770263e-03,2.250460667219824143e-02,-3.160583054432931915e-02,2.099134156952750518e-02,3.318575677515092030e-03,3.723289044506896545e-02,-1.271632397347131557e-02,1.066518725273230342e-02,3.474283570250190356e-02,-3.196537224692760221e-02,3.516103999432335092e-02,1.510939380445399695e-02,-3.475367889432579710e-02,-1.600611164918399471e-02,1.674078279030385627e-02,-3.479279884398214784e-02,6.607983973943200827e-03,-1.239377615244319567e-02,9.723783971691163028e-03,-3.653051661343497541e-02,2.987824645886378097e-02,3.807703539022613826e-02,3.770621883847443540e-02,2.007650072402978464e-02,-2.974772432470414521e-02
2.076900939945222277e-02,-3.823176881696805501e-02,-3.842986769511964884e-02,-1.418491319784218919e-02,-9.132919012514246126e-04,2.174562342082651811e-02,1.474024738957720529e-02,-4.350396097688733268e-03,-1.820449049609656339e-02,3.997775749399077455e-02,-5.936351953678090793e-03,-3.909358222724806410e-03,-2.705069916869623503e-02,2.370799395945787091e-02,1.557553701483689775e-02,-2.245514896437945246e-02,-3.358408060348515300e-02,1.451539267102753411e-02,1.242548265610250897e-02,-1.823401510258022482e-02,3.625754544144475094e-02,-2.806122606590399221e-02,-5.441499893574573525e-03,3.567470456858903849e-02,-6.455368537059382600e-03,1.113997950328976180e-02,-8.235253589333753343e-03,-1.815716160332283072e-02,3.892051394874292830e-02,-7.291177778079755388e-03,3.169266931776854035e-02,-2.171651019941762267e-02,-2.307154558870723113e-02,-3.770525879471650632e-02,1.219674259232248099e-02,-1.057284834240179196e-02,2.930096132538795653e-02,-2.154405693516491926e-03,3.765117855892635701e-02,-2.528940872413251023e-02,2.964393750563663887e-02,2.224336539639725982e-02,2.178699259756560619e-02,2.772677725052661094e-02,2.099102700977790309e-02,1.015038568284889163e-02,-2.965454901137152405e-02,-3.759330917136294997e-02,3.384374175182661149e-02,9.380784861796918200e-03,2.384693553186300122e-02,-1.485935515260523344e-03,-3.077530962916518245e-02,-3.014180854066739190e-02,1.492278905945909097e-02,-5.604660465509281320e-03,-2.408320219104542401e-02,-6.759497306837748947e-04,-3.504544520765262572e-02,6.591976106863889524e-03,-1.857708814205748585e-02,2.392910742003183724e-02,-1.525031177377837027e-02,-3.601106000723918073e-03,-3.927449887182400678e-02,-3.438296569597269065e-02,-8.645453059850134389e-03,-1.613278767132320449e-03,8.043452326049143827e-03,-1.675407851079671606e-02,1.568005309900220856e-02,2.896032253171445039e-02,2.250505650975268002e-02,-3.702293278481157829e-02,-1.567592293473485344e-03,-3.177072446717434107e-02,-2.074422362394635552e-02,3.913643187744397789e-02,-2.874979302844653944e-02,-8.941247449706567977e-05,9.501847709367818723e-03,1.628182777326876371e-02,4.796827761494657297e-03,-3.942324744031523720e-02,-1.395563431825458216e-02,1.424334917770912409e-03,-3.314295140776662291e-02,-1.201228327784710503e-02,-3.753887187166845413e-02,-3.388987394132639969e-02,-8.289223858370201384e-03,-2.953626407785494082e-02,5.431499859456519197e-03,1.523639367476981726e-02,2.417258083053601750e-02,-2.411331732073234910e-02,-2.674038532552243733e-02,-3.179986297078738616e-02,1.097144765419896632e-02,1.660436474016108513e-02
-3.766890487804361309e-02,3.507931592731161619e-02,-3.602957280689877972e-02,3.320968645747638184e-03,1.681222861783115280e-02,2.983259457575382703e-02,1.721644266719390276e-02,2.426436864460327497e-02,-1.291109423533619467e-02,2.531760564281836795e-02,-3.376632381070576033e-02,3.175036540256766932e-02,3.827283651948861116e-03,2.551645170761130538e-02,-3.834468141924456293e-03,1.154623093066592041e-02,2.123249157434681407e-03,1.862396589978315697e-02,-3.364447963403844472e-02,-3.535560561466532387e-02,-2.033745184264596981e-02,-2.737873553135297330e-02,2.989809043963584032e-02,-2.258024924851536469e-02,3.826813160670577280e-02,-1.311651403371880652e-02,-2.556344109825581246e-02,2.329697422122424880e-02,1.276296171154689581e-02,-1.450968722401007249e-04,4.452225976970882425e-03,1.762776835830864169e-02,-2.183712630589797546e-02,3.991418030264912153e-02,3.818191597896990197e-02,1.208889087540246030e-02,-2.416219484290720379e-02,1.449359459692801597e-02,-3.440294786506841590e-02,-3.774398654919443319e-02,-1.948665719889034267e-02,-3.005787022856384969e-03,2.961573792530827059e-02,1.826848199670664044e-02,1.951797274860678222e-02,-5.991676946470684412e-03,-1.238959959590287853e-02,-1.037080461311206542e-02,3.921580206750169967e-02,-3.698349852721882769e-02,2.951593844194939573e-02,6.326918917997325677e-03,-4.936425150501137955e-03,1.811477028165610695e-02,-1.072057053499355511e-03,3.002994953962910551e-02,3.222364204892363276e-02,-6.295046414559271782e-03,-1.794706195069121352e-02,7.426628620847565421e-03,3.316143506354011367e-02,-2.326796775878875803e-02,9.888726578565137232e-03,1.057980963128207427e-02,1.874648277413969860e-02,-2.962858948263322537e-02,1.735621176681574271e-02,3.289357678637661736e-02,-2.575924339024126056e-02,-2.110624060078242561e-02,3.790865014191621696e-02,-2.565519505783331669e-02,2.849894003960720679e-02,-6.209993314678943733e-04,-2.032717117406316817e-02,2.981496514312075019e-02,-4.398441941617081512e-03,1.191581951635576264e-03,-1.132017074112628106e-02,7.474921466044451984e-03,-2.705873683563300020e-02,-8.759004862911886832e-03,3.774919960906711336e-02,-1.945042533673310009e-02,1.260444891261826988e-02,-1.405786521836716735e-02,2.199216151357290261e-02,-2.968440153676757398e-02,3.778206827417420616e-02,-3.716152608984043225e-03,-2.122629354143413041e-02,-3.429853809303256423e-02,-2.655740841686415193e-02,1.590181372715152551e-03,-1.310787837423739617e-02,2.644814214727142856e-02,-5.557887044353994506e-03,-2.020789534413570954e-02,9.420565400834165007e-03,1.662860999469181408e-02
-2.677582347555758704e-02,-2.672939749031220946e-02,-3.725995666721575172e-02,1.901097698139336822e-02,1.317283231786953862e-02,-2.040134205389412814e-03,2.767749877771753450e-02,2.458138201579591897e-02,6.864027179961044306e-03,2.961563942169373811e-02,-2.365566124008188290e-02,-3.120864761034977328e-02,-1.851627548179728133e-02,-3.561818870835177508e-02,2.506591067694502201e-03,3.511095607141981323e-02,-3.704507062788562483e-02,-3.038916450969075117e-02,-3.844058489685552981e-03,3.489136067107700967e-02,-1.478435814299739436e-02,5.818088369577692140e-04,-3.686579330476129346e-02,-2.827953606911480511e-02,3.913382068022770027e-02,3.740391480633589033e-02,-3.981173605584892305e-02,3.633379965148971630e-02,1.118774700261748918e-02,2.958725299448705659e-02,-3.639730238679782844e-03,1.254201408727218664e-03,-8.969356963418159863e-04,1.341888967547701095e-02,-2.897852498930499066e-02,-3.779858332043557062e-02,-1.544588974087582681e-02,1.646001734731399740e-02,-2.397634875150579659e-02,1.394708922786275403e-02,3.778938639479981904e-02,-3.265769178043606558e-02,1.388031694910257623e-02,-4.523494800635682184e-03,2.960526339805399573e-02,-2.596296786873633980e-02,1.549059360925405734e-02,2.719055498225162251e-02,3.575498580108912861e-02,1.473643973268531568e-02,-2.271998247894758711e-04,9.477039229821852123e-03,2.966660062647460613e-02,5.678294525704794329e-03,-3.776533290458187336e-02,3.465603171009271760e-02,1.524136205107570578e-02,1.419485325870544629e-02,-2.286483527437072408e-02,1.277725156628720798e-02,-8.535212106610181107e-03,1.216185337745571797e-02,-3.163700124577126932e-02,1.269360352785541164e-02,4.016185243675608058e-02,-3.633188375026231293e-02,3.837339300947909676e-02,-7.486275509779691251e-03,2.981525055180563738e-02,2.270887553907202649e-02,5.389313600574997462e-03,1.917560824111301521e-02,3.043946398257668662e-02,-7.708843505542759510e-03,-1.390964701867121803e-02,1.347752469156585260e-02,2.475635461244104357e-02,2.109244567316983371e-02,2.394957767861752296e-02,-5.180260916849456498e-03,2.555959163852641186e-02,-3.054202775761540034e-02,3.577724229727152240e-03,-3.974589948361605118e-02,-1.410645653358846147e-02,-1.073889613836645843e-02,-8.349584369272002038e-03,1.571908160751684519e-02,-8.961934486573484154e-03,-4.125956198177588991e-03,-2.110617578786005977e-02,-1.019283727805113220e-02,-2.193243080769597189e-02,-3.432272972186813792e-02,8.319128866075130302e-03,1.352733664481342232e-02,9.609174510871910588e-03,-2.935735944545017368e-03,-9.667386994202449568e-03,2.921856502220462198e-02
1.534518975600986188e-03,-1.674151741334026959e-03,-3.814691581791795905e-02,-1.276653201922721415e-02,-9.634428593596118875e-03,-8.136469491921784897e-03,6.447301498260833534e-03,2.702249564850385966e-03,8.677511630777321600e-03,2.130138182847369707e-02,2.516968678369303075e-02,1.754102129840642149e-02,3.663230406844853598e-02,-3.874277162393022222e-02,-2.446492560478952943e-02,-3.960080816559305439e-02,1.185962139684914630e-02,3.200882023733381265e-02,-2.062864038512442905e-02,3.434126354264874920e-02,-3.536241651261722713e-02,3.493647591453218765e-02,-1.193220657051116337e-02,-3.205293936902700591e-02,-1.136164853847659514e-03,-1.955954170321692887e-02,-1.730009072782333346e-02,-1.549735538359357963e-02,2.436873631074272517e-02,3.149271503580543946e-03,-1.517425723683159429e-02,8.872822062077161814e-03,1.738240467632562111e-02,-1.828512285301739024e-02,-6.952208256202769589e-03,-3.040716372032644874e-02,-2.564133125013923903e-02,1.456513537624284232e-02,-2.561809059635760527e-02,2.023588959407225316e-03,1.681108203983799898e-02,-3.161417115596577843e-02,5.413114002333104316e-03,-1.957673378622777627e-02,3.722765293166535594e-02,-1.323226163551813415e-03,2.460730852331423357e-02,4.039118010574259746e-03,-3.671785041882809353e-02,1.070776717261042940e-02,3.630095346535847783e-02,8.171419238127090173e-03,2.566852933802200171e-02,3.089711493698999584e-02,-2.186728059326694187e-02,-2.315677774006335427e-02,8.924869036470120531e-03,-7.154912414915032270e-03,2.733096587130004820e-02,3.216905908705167128e-02,-1.178755935420717181e-02,-2.116034309214348194e-02,2.255930056904873610e-02,-1.810964797975336479e-02,2.594399790301479131e-02,-6.132817032213825834e-03,1.347402761258392756e-02,-3.252624067667349295e-02,9.960519032392527172e-03,-3.878746757006721387e-03,6.964879294136368248e-03,-2.669763306780441672e-02,1.904891255423482588e-02,2.917541497341303788e-02,-2.277921843738898999e-02,-3.251182641901127074e-02,-3.830803165100998831e-02,1.141706396280669014e-02,8.612288073614799214e-03,3.755312483065385669e-03,-2.155627812275574470e-02,-8.773121498445866223e-03,7.597597816634642058e-03,-2.600027406232560917e-04,3.922673541546314174e-02,-2.923678756957509908e-02,1.569313452769416709e-02,-7.694493198865470264e-03,-5.774043286074810946e-03,1.749877687371483720e-02,1.547533020054720626e-02,3.950582394845765510e-02,-2.988378761230256475e-02,-3.183670977010744085e-02,1.804087874328525604e-02,6.303719003568799065e-03,-1.816154726233031036e-02,-3.382225271112923592e-02,-3.332053441746390954e-02,3.170004131493576321e-02
-2.477941313385422298e-02,-1.420410551893535461e-02,-2.198174513796375892e-02,-1.166090691435356722e-02,-3.462607292927667030e-02,1.532750243802651503e-03,-3.477173237423402535e-02,2.415406930789962964e-02,-2.141434149712417856e-02,3.217678103617763099e-03,3.056519963560192996e-02,1.213325609417063335e-02,2.650399241779465270e-03,-1.412672804419231980e-02,-1.342965196766955811e-02,1.362980177230965761e-02,3.973769859435265922e-02,1.301478378709923847e-02,4.646826793006688695e-03,1.854845247273976400e-02,-2.798095032194383019e-03,-3.537247259751240269e-02,5.009785269132326774e-03,3.680130961413217300e-02,-2.611148761591865902e-02,1.527981309609760183e-02,-2.405031428870953170e-02,2.881190689619332179e-03,-3.243447281822469525e-02,-3.991069992113944684e-03,2.060014229469413899e-02,-1.225799299213658523e-02,1.326187087414576818e-02,2.375949461415347713e-02,3.435278540595668173e-02,-2.133955276259256670e-02,-8.096812569090986247e-03,-2.795200864866397017e-02,3.960453772210528745e-02,3.433856335779314484e-02,3.213272457915950040e-03,2.750563308208182206e-02,1.685398592667363381e-03,9.938513718665884997e-03,-3.304179095550626583e-02,2.052833638811382699e-02,-2.993853665387960147e-02,2.622170632254168868e-02,2.268013443675326313e-02,1.678683086807760544e-02,-3.730105399674172456e-02,-1.583202364993887418e-02,-1.905001308620802095e-02,-1.124755022648870825e-02,-3.316094512648955217e-02,3.513927372055915960e-02,4.326668533034144261e-03,-1.563934576655087727e-02,-8.284540243936001566e-03,-4.245866038239637201e-03,8.089594986939096719e-03,1.260908198844134772e-03,3.372666322978083026e-02,-2.441906282602527190e-04,3.957836268196068125e-02,2.826089185629019826e-02,-2.344100112823574097e-02,3.462760548644500808e-02,-3.085104658292848329e-02,2.552867030004106821e-02,-9.600035850799056025e-03,3.039593847600585014e-02,2.959838249068104735e-02,2.460190848223002547e-02,2.332366730040791661e-02,-1.570731277211002974e-02,-3.370163262375865110e-02,-7.802139874832618276e-03,-2.625450518624961732e-02,1.567757644787074953e-02,-1.237635201801437143e-02,3.824762059728266383e-02,1.133669235724224338e-02,2.593324160328042832e-02,-2.955163045372067102e-02,2.911248022782253822e-02,3.399728727074120133e-02,-1.040454597852358883e-03,8.544648628432289020e-03,2.129547427087861988e-02,-2.614882690688632300e-02,2.063587341480728379e-04,-8.149316518514993293e-03,-2.843789590016326807e-02,-1.065261667902207658e-02,-3.472671873766033229e-02,-3.813325753306727461e-02,-2.933919694799618644e-02,3.724279052237591814e-02,3.983066161842205820e-03
3.746048603116962361e-02,-5.428385544449582621e-03,-1.513336999768111722e-02,4.939163189718787008e-04,-4.864348955417330429e-03,-3.171165697707315628e-02,1.132497041620644622e-02,-2.283564111924208176e-02,9.617024022334497158e-03,1.207887127936946303e-02,-2.798346496932946348e-02,-3.527538519315586568e-02,2.257828491235386661e-02,-3.232769476059759676e-03,-3.553158339559542994e-02,3.979615893700869100e-02,-3.556240234791750027e-02,1.568434281476498507e-02,3.889649126727897505e-02,-2.097461408551729717e-02,-2.876958986613633099e-02,-3.044746551525998046e-02,-1.582021896142467646e-02,-3.208309752097969481e-02,1.545323056001214439e-02,-3.519961768517895079e-02,7.577086909418022029e-04,3.994336703393811666e-02,2.524886077964880182e-02,9.265716653940605022e-03,-1.558069610545117882e-02,9.963455223411753908e-03,2.174620414402328363e-03,-5.944226351084426659e-03,-2.969753250753863483e-02,3.108993734594606151e-02,-4.038218054551486261e-03,-2.455784650058575463e-02,-1.063452837226581266e-02,-6.905513464450964943e-03,2.633994211693544557e-02,1.878680099297000416e-02,2.165696063364995483e-02,-3.932188722666725422e-02,-6.742727679981172506e-03,-1.500265992786692024e-03,-3.866559494112177531e-02,-1.931534110872540344e-02,2.093198670278624204e-02,-2.918291127612208935e-02,2.839570111400290062e-03,-2.290289553547529208e-02,-3.923427099540422597e-02,-2.081206089138943477e-02,3.826881508659001063e-02,2.424901112391801908e-02,3.695823406559041457e-02,-9.767534818551522596e-04,-3.138423393537055628e-02,3.856806130290823219e-03,-3.668883457992382687e-03,2.769250749205695236e-02,-3.232139456599032040e-02,-9.456242297438217839e-04,-2.814238608864335148e-02,-1.409921111396499060e-02,1.908778118214149791e-02,-1.928574045422331001e-03,-9.980815745415243939e-03,-8.486006511150081394e-03,-3.261209732670150400e-03,2.292046010140003087e-02,3.153066607376373703e-02,3.661710430663030202e-02,2.307219619286559470e-02,-1.484460804991052582e-02,1.512941658225441452e-02,-5.017831899463414715e-03,-1.972889764009439634e-02,2.741221029050054658e-02,-3.711882934948095014e-02,3.230889543121917562e-02,-3.097905206437189581e-03,1.103346820749879359e-02,1.281492353653460384e-02,3.177457802729142383e-02,1.099070234665170190e-02,9.162310890961507595e-03,-3.484897571430178170e-02,1.480336288064586356e-03,-2.813270889843480504e-02,1.909394854572750780e-02,9.828624141534980999e-04,1.449355734546630900e-02,-3.685774816334582565e-02,-3.339019518616299920e-02,1.739629397767517363e-02,-3.441212138588602837e-02,-3.447867598386900739e-02,-3.923526008926381259e-02
3.671092893449143246e-02,1.909994698357352430e-02,-1.180122806586279827e-02,-1.636220139493711756e-02,-1.208656550108531610e-02,2.208708736130716305e-02,1.297710161938004855e-02,-2.531594246880859364e-02,-2.620747510419670426e-02,-3.229621818919818643e-02,1.289122393246396915e-02,2.126032045290125044e-02,-1.889449606243525856e-02,-3.852464758446767779e-02,-3.360091837446492480e-02,3.762436775542327833e-02,-1.644992165452050306e-02,2.165038679973975422e-02,1.002519473976859650e-02,-9.494177925474111754e-03,-2.366804141740323775e-02,-3.044734659819138892e-02,9.249112734261204227e-03,2.208549906213074995e-02,1.157249209925476433e-02,2.436836917514887367e-03,-3.683536599837639036e-02,3.767492998913290342e-02,2.402199752816755116e-02,-1.666083721932866760e-02,3.859825340600119004e-02,8.193113560669457174e-03,6.628265234914065135e-03,1.994954866406871766e-02,2.507190246762389454e-02,1.258369646821194850e-02,-2.990779585001121510e-02,-1.300620352084646235e-02,3.442562970577849740e-02,-2.214586141669715527e-02,-1.028007213311296110e-02,-5.462241150921801590e-03,-4.872929470530112939e-03,9.082375217890719526e-03,3.563127222091302254e-02,-2.085297320791019982e-02,-3.043810189449673229e-02,-2.432881780583802389e-02,3.111572618940619539e-02,1.172581376794395829e-02,-1.721694758192647556e-02,2.540782058226659368e-02,2.906065196070317658e-02,2.786598969866853001e-02,3.368923351057352689e-02,-1.992428136075695758e-02,2.050996153877698500e-02,-3.173334663781251196e-03,2.750283924127085861e-02,1.837476301873434970e-02,2.223135044137404190e-02,1.255822248682021518e-02,-2.594053285361542713e-02,3.620974713160029623e-03,3.897617056741216335e-02,3.517387303912807017e-02,-3.673705400035400664e-02,-2.695492177129890643e-02,-2.961563508170960562e-02,1.817285214677600083e-02,2.555566029865436947e-02,-2.303884262148261225e-02,4.706618552108779029e-04,2.739865572302115082e-02,1.872143436491065238e-02,3.396631543690322146e-03,7.265580469594848032e-03,6.723384525006061846e-04,-1.628074841391121200e-02,5.228938548530769233e-03,1.518977800760599670e-02,3.002188182738550759e-02,1.096027795085833915e-02,2.099887147195067527e-02,-2.733635887751177662e-02,-3.091470978828477281e-03,-3.945856924432145085e-02,-2.037157878769626715e-02,1.821159795099368955e-02,3.955037211390450419e-02,-3.223329513612636921e-02,-7.921629996163420326e-03,2.413110682301144311e-02,-2.380086200119910234e-02,4.429821390973375655e-03,1.874312722170899670e-02,9.327317808439827135e-03,-2.508842654045733908e-02,-1.162968359261363875e-02,2.282196740523716877e-02
4.360787752417110037e-03,-3.978844438106440839e-02,2.098835464610048288e-02,-3.736933093524201499e-02,1.976141906301866202e-02,-2.392591797766703207e-02,3.683735260851421500e-02,-1.061994051310889177e-02,-1.391781308247377717e-02,-2.823572037306295440e-02,-1.563291997984567888e-02,3.028950054064462327e-02,3.991421420450554786e-02,-1.059028402743538398e-02,-4.132630222040418154e-03,1.785850045836716651e-02,3.105709183863841066e-02,7.482439161878016651e-03,-8.723286281808562831e-03,-7.026776704259898865e-03,1.573121988474178445e-02,-3.995019311816498664e-02,9.617135205204749640e-03,-1.162096292363244167e-02,2.365876065541588219e-02,-3.273087826846825255e-02,7.093049804152361595e-03,-1.530122119715859701e-03,1.144553398200811797e-02,-3.499360314895520047e-02,6.432136127345003222e-03,4.944467525306008027e-03,4.878163404464927293e-03,8.322271055841193657e-03,1.419119837719160122e-02,2.452660503295356689e-02,-1.851055706957987004e-02,2.613982310190046329e-02,-1.402745417737307420e-04,-3.401212683240265738e-02,-3.550045087504832136e-02,-1.333022270047591953e-02,2.291084478459620363e-02,1.670128517617553571e-02,2.320983790408585878e-02,1.388742961478821140e-03,-4.809076915087870732e-03,-2.835116231041535234e-02,-1.381639494681566847e-02,-5.306030536744416048e-03,-3.308393018284667975e-02,-2.246782767231829750e-02,7.899081587429926388e-03,1.895155605556375633e-02,4.007610961012925133e-02,3.483010739236172548e-02,1.146480805571273645e-02,-6.333073961533738742e-03,1.095111116179016235e-02,2.297153150117268311e-02,-3.069263976862344687e-02,-7.245268478969511643e-03,2.732621982367564040e-02,-9.341921540660763981e-03,5.779824226629851416e-03,7.058236363000341441e-03,-2.537378832026377512e-02,-1.107875009810282106e-02,-1.330827099563436366e-02,-3.810231255983276277e-02,-3.826354619569206222e-02,2.667441248487428460e-02,-1.824919134811612415e-02,1.453858203038920025e-03,-1.618608659653144807e-02,3.543854303754280510e-02,-1.935687297453432196e-02,-5.656858353963816442e-03,2.997422086382904582e-02,2.749761318929472287e-02,-2.524309582623256165e-02,2.433796934641778084e-02,-3.362526895236483699e-03,-1.369609225465257506e-03,-2.947480716560480288e-02,-3.372718699449603341e-02,1.833042293158875305e-02,-2.845870459072615444e-04,-5.078340125995292956e-03,1.845659247337455913e-02,2.135201601213700465e-02,-2.742992258834465319e-02,8.864085946594992341e-03,-2.932409500085323903e-02,2.021508138527092213e-02,1.262201957998146731e-02,3.672003408420589088e-02,-3.466353375535687065e-02,-3.562077293576455111e-02,-1.751607958209561167e-02
-1.916315205704013924e-02,-2.034745865136175155e-02,3.267018039895539655e-02,-2.014099341852678207e-02,-1.833934666743532518e-02,2.086028917508196689e-02,-4.041821293226629738e-03,2.225250925768472096e-02,-3.495238385165089223e-02,-9.994997331806987090e-04,-3.750586097537550456e-02,-3.517055419213652168e-02,3.268488666545962124e-02,-2.901116533930642519e-02,2.607206390707295877e-03,-7.149513729962575330e-03,-1.227634421704651597e-02,3.215379754332314821e-02,-3.845400553974930719e-02,1.317163879846444847e-02,3.726525308886855653e-02,4.838604909893520593e-03,3.512838825997672415e-02,-3.600652535948209443e-02,-6.530478775266824847e-03,-1.928763049638528709e-02,1.856216010194849247e-02,3.870494888173497267e-02,-1.957936516424568785e-02,1.239841292776327521e-02,-2.427838422882775543e-02,5.253728338587077690e-03,-2.900477244890449328e-03,3.795772406689755518e-02,8.727546093518053633e-03,-1.210239640008761892e-02,-3.103364473640848192e-02,-2.804603213414717452e-02,-2.208946281792719887e-02,-2.002676274795951727e-02,2.819584174472441335e-02,4.923414119175868915e-03,1.881050284568935036e-03,-3.097951642830537936e-02,2.896171345430838609e-02,1.791828038456238018e-02,-3.476724518598125341e-02,1.671368261503054439e-02,3.501256313243022566e-03,-3.363681067481735093e-02,-3.353378962600911482e-03,-1.230693964346061056e-03,-2.687774265285898523e-02,3.584215308367548480e-02,2.814431902970898972e-02,1.359243813303693225e-02,-3.032115533003292267e-03,-7.095638577517444923e-03,1.214098411137061288e-02,3.653540022814649735e-03,-3.520112087837180825e-02,1.005437994736315755e-03,2.464036574566325077e-02,-3.277847477517680744e-03,-3.603075544180717182e-02,2.302191991575631633e-02,-2.401572703196697134e-02,-1.941122942821481984e-02,-2.696364409218829708e-02,-1.365376472201003215e-02,2.064744229540268691e-02,1.558972027761890925e-03,-2.373285736308595670e-02,3.038433879944746688e-02,3.052521318413646892e-02,2.980117536813076812e-02,-2.100548597904076595e-02,-3.921234364755681392e-03,3.900189762150697848e-02,2.187469901364914177e-02,-3.802424978754016804e-02,-3.496537669049547270e-02,-2.900566498897643938e-03,3.290867005425073683e-02,3.112321144188609327e-03,-1.759137264356414661e-04,-3.172701555270673879e-02,1.260794228520600337e-02,2.590289160650622452e-02,-9.616383701626655262e-03,2.216415351741293088e-02,3.735228303046030096e-02,-2.382250855635233491e-02,1.876122255152832922e-03,-1.711793944710198259e-02,2.355076634015054390e-02,6.239903210071743624e-03,1.082284870303951672e-02,2.395766055258166313e-02,-8.365846412308135249e-03
3.338071265382475811e-02,2.656115409014239270e-03,-2.750658867213237949e-02,1.575381506434399281e-02,2.358349094937264509e-02,-1.473565924728314526e-02,2.872364108719227538e-02,3.266122780449341040e-02,-1.794089468287729527e-02,3.888382924843578059e-02,-2.889325993286682645e-02,-2.396330364292025353e-02,-2.539400652263814478e-02,3.168386405583610566e-02,1.240789829915714231e-02,-2.797707736014977409e-02,-4.799071274466701342e-03,9.272036450254032836e-03,-3.349698474436311330e-02,3.075315908403449677e-02,2.441518877132263510e-02,4.187183116240012870e-04,3.756538761999331233e-02,-6.613497476065499821e-03,3.893118309123717868e-02,1.350379027473585895e-02,1.082999430091461344e-02,-2.686323885401591116e-02,3.071386603734609783e-02,-5.831134195163591855e-03,-2.716251359350705177e-02,-3.919512790985425071e-02,4.805432499554982556e-03,2.203422781013276641e-03,1.763997935672176678e-02,3.138377166821011699e-02,-3.382328080264801473e-02,1.861648449955887949e-02,-2.513770592763059364e-02,2.880388185753599353e-02,2.565844929850616754e-02,3.280552142499496525e-03,1.690730514298574225e-02,-1.492959238897374578e-02,-2.318619871160035664e-03,2.586539567796294903e-02,-3.275811327862844513e-03,-1.143557893895953519e-02,-4.654234105094156508e-04,2.639714801293388882e-02,-1.325223906099667198e-02,-2.623543983591134637e-02,1.704974324826285734e-02,2.621451554255305530e-02,-3.211593480246865279e-02,-2.091880330752739561e-02,-2.879189612431137454e-02,-1.222824739218881032e-02,-3.992674922486734446e-03,2.001011608577183548e-02,1.215498631084361777e-02,9.724833403331975892e-03,-1.187171137733983306e-02,2.745852893954846274e-02,-2.309028539847804342e-03,3.852866036589814441e-02,1.078744232644144631e-02,-3.005504159209265724e-02,1.416784698863117649e-02,-1.406478509010543332e-02,1.498406029332445197e-02,-3.460859766255231645e-02,-2.614538421914607350e-02,2.860767848617556952e-02,-2.193967407612566062e-02,2.710417283032600516e-02,-1.775017527016924460e-02,1.149027728223628309e-02,1.561320060192744087e-02,1.017669924171400340e-03,-1.565652578220955854e-02,-2.310856421746730963e-02,-3.753997795923589426e-02,-1.576623808429478482e-02,1.231704511650502827e-02,3.524759639652070425e-02,2.985152163670625261e-02,2.139639689986456983e-02,2.319635812499276639e-02,1.326775578198286648e-02,-1.927725121837399816e-02,3.274580952085728164e-02,1.372995086662287187e-02,4.860514594137397941e-03,-3.128344842681931443e-02,-4.257687218566893333e-03,-3.187908501852498508e-03,2.931747594014689345e-02,3.751356518542259873e-03,-9.617948518245492823e-03
3.834332828136031296e-02,-3.130507088761066287e-02,-6.228500404810497285e-03,-3.682945915645034068e-02,1.929260931373681653e-02,3.362087970405609055e-02,-1.768895778456181303e-02,2.881712056138954064e-02,-1.670939410878215237e-02,3.303331439661113395e-02,2.042310807752090521e-02,2.451999283675280680e-02,-3.876094826906604368e-02,3.721828277411986380e-02,1.822842758511170405e-02,-1.570152619141521738e-02,2.648925978776684245e-02,-1.756962801989186279e-02,2.997611785056065320e-02,-3.115550972767303778e-02,1.638001870612060609e-02,3.272890049009657097e-03,-3.244589052157778597e-02,-2.075638182848955904e-02,-3.921149166168665101e-02,-2.511617718112506368e-03,-1.598185003645501839e-02,7.909712061520520615e-03,-1.630572975140680628e-02,-1.609010466556845889e-02,1.955711038179685710e-02,-3.633744890756536450e-02,3.240000926974631601e-02,2.832835585419061705e-02,1.349451682677676491e-02,7.496692119941297458e-03,3.154818185371729977e-02,-2.530511726838602718e-02,-3.385845744091663112e-02,-2.094807086293997561e-02,2.368939568485832828e-02,-3.742088596649404547e-02,6.659159970515257133e-03,3.984209361928003207e-02,2.860436807376363563e-02,1.724619397362557290e-03,-3.509112486570803435e-02,2.664839490679019735e-02,7.959653559159084180e-03,-3.096631780893264671e-02,-3.266118441181595222e-02,3.294136910426988946e-02,1.360674655445877172e-02,2.648058545672437453e-02,3.047672477622261067e-02,5.771788926216435932e-03,1.403000695794779382e-03,-5.594888438477692641e-03,-1.472078909692145846e-02,-5.259661946028397657e-03,2.202485384615786995e-02,8.196478360623449602e-03,3.156593748966297908e-02,-4.553265939908367199e-03,8.611929620837005875e-03,1.055949065671777341e-02,7.374102295112020325e-03,1.629540253585401791e-02,-2.111507504462196635e-02,9.942702487575241343e-04,-3.182744936217127285e-02,-9.287367923435516787e-03,-9.917896617300183022e-04,1.224157033274476947e-02,3.623080567964292314e-02,8.094157356366784434e-03,1.958933527683420772e-02,5.039039654305166619e-04,1.078437784423959614e-02,-3.450477255988442654e-02,-1.975133757533992576e-02,-1.110949779509523387e-02,-2.212029346117590656e-03,-3.653801867265390330e-02,-2.894854171767522952e-02,-1.794814674476317637e-02,3.791971540600141966e-02,-1.356273619290739203e-02,-1.444222168523312489e-03,-2.443921379485282375e-02,8.908711631048404217e-03,-1.763701692771662763e-02,-2.356307049725358399e-02,1.332737615710303343e-03,-3.976623408638658985e-02,-3.959267326811376914e-02,-2.259192419335792276e-02,-3.725594094882259122e-02,-3.152178446301037024e-02,-1.295850412005610311e-02
2.433333483978061471e-02,5.794007721355828693e-03,1.018713171701022841e-03,-1.660721558274683152e-02,3.472077012325446715e-02,-8.281844297840989730e-03,-3.320517341494236968e-02,9.414254961360965165e-03,-3.105434363863519148e-02,-1.244684512791662499e-02,5.960532794639570014e-04,3.009422656881071204e-02,-5.189710949426970575e-04,1.626524521901954665e-02,3.963134400378501981e-02,-2.963490754115286410e-02,-1.811563992715076524e-02,-8.477981033896010016e-03,-6.286421450253818974e-03,-7.155507069117627607e-03,3.277926114468056318e-02,1.721207696176510482e-02,8.677521385260169792e-03,-1.532986456029136919e-02,2.603857475376579467e-02,3.659505570026591603e-02,2.583012312450017750e-02,-4.008313680954477681e-02,1.096912523384053172e-02,-3.609679438983092598e-02,-1.949274228230269204e-02,-3.542214215151986284e-02,8.347022618424829524e-03,1.500518745317453925e-02,-3.100213268798352254e-02,-9.341444572507814556e-03,-3.519372373541706459e-03,-1.053049394860279021e-02,-3.047641108430937384e-02,-6.518056517450251421e-03,2.019923596586633077e-02,-3.449870515057983089e-02,-3.376108315490342765e-02,-1.167900208962678946e-02,3.552269777964989217e-02,1.355627491437428993e-02,1.436828037453715713e-02,-1.110411802134196949e-02,7.532013401959409063e-03,-3.939426989133377327e-02,1.094457170693762145e-02,3.323570928488302212e-02,9.052933050611829818e-03,3.005209306864465094e-02,1.801146492231027810e-02,-3.051393284245035656e-02,3.236448961220718401e-02,-3.486571843647424257e-02,2.731596169103486620e-03,-2.877861637587462301e-02,-3.926757722849270188e-02,-6.269848781277105251e-03,-1.648241614111282255e-02,-1.125812274022892174e-03,6.208260404502927848e-03,-3.669159076937365122e-02,-3.031732058829353371e-02,4.715904171727242598e-03,-1.261216761598974063e-02,1.842967326373450010e-02,1.224698962500769817e-02,2.779281127382058139e-02,1.547988791836599903e-02,-5.634802539551348431e-03,1.390962964497945500e-02,-1.806339647583865213e-02,-1.557588083719002418e-02,2.323960826515384520e-02,-4.308835269693501481e-03,2.399514988787071132e-02,2.592856208265351819e-02,2.875444766748038242e-02,3.350497192680572389e-02,-5.550030459060839756e-03,-1.456636800032025392e-02,6.610258711061258417e-03,-1.036005590695119292e-02,8.128182231945885530e-03,1.653280367063041795e-02,1.515115456498319739e-02,-1.008820579038013400e-02,-2.679043592472129393e-02,-5.586691581332032391e-03,-2.874186371883250338e-02,3.137082293621728385e-02,-1.239422618886275133e-02,-2.778765565876518268e-02,-3.816254150962046510e-02,1.172674449621106084e-02,1.100941041094284992e-02
-1.281829395240847123e-02,-3.444207284045762429e-02,-7.267463428570119545e-03,-1.518151126944955465e-02,1.424368740679713558e-02,8.506555563393945057e-03,-1.088910141336187423e-02,-2.268651625430902902e-02,3.924687577684075890e-02,-3.699097574863150720e-03,1.514063728100488102e-02,-2.890601104859674697e-02,-1.158847516566583087e-03,-3.799455152961034310e-02,4.386896659808708476e-04,3.731535132317326253e-02,-9.311864424741016222e-03,-3.707301814172532517e-02,-3.771959667777063929e-02,-9.007880612481547478e-03,-2.734011427673891520e-02,-3.833107058084166824e-02,2.060418611818494450e-02,-3.335496625038875985e-03,-1.694851369022242274e-02,3.217388896138213827e-02,-3.086933666642076649e-02,3.666407987362859527e-02,-1.496042431250081510e-02,3.123464608243179882e-02,8.278460124826185484e-03,2.627315208786455344e-02,3.892337001412859293e-02,-1.701601126326648603e-02,3.708359294633432890e-02,-8.887644851309368585e-03,-9.206903515968740612e-03,-1.283574967035956346e-02,3.329916921058983462e-03,-2.781296352828854790e-02,4.319370169048989544e-03,3.353817557433968598e-03,2.106161967119395129e-02,2.683146226345398122e-02,-4.789587423520848264e-03,-1.589596453110670576e-02,-1.935380595659895106e-02,-2.455773995605714174e-02,-3.557309623669241416e-02,-1.267001826068867888e-02,-1.847622083555799238e-02,3.750835281148458961e-02,4.640828324404037107e-03,-1.228167490330014065e-02,6.471043446115880456e-03,-2.901507926496825832e-02,-4.499889713658404046e-03,1.015151151791707923e-02,-8.928141504151695983e-04,-7.898752298397341762e-03,3.971429918253233105e-02,3.058415211431165723e-02,9.924060204328160467e-03,5.579188553447697076e-03,9.703274330686727581e-03,-2.401988257685514286e-02,-8.432812844109922185e-03,-3.703574276547608179e-02,-1.966538729852662128e-03,3.459950944267747158e-03,-2.189382141553671349e-02,3.731627130892527927e-02,3.292752044136301737e-02,1.786431445879110153e-02,2.684885874464295382e-03,2.975217946401446240e-02,-2.970219939857141750e-02,2.336221630892466872e-02,-3.017115936001517340e-02,2.365983272965839490e-02,-1.803232344390829842e-02,3.032486991976993465e-02,3.570897660132210660e-02,-2.824312533697323144e-02,-3.001553149829182601e-03,3.868004243556289606e-02,-1.334340795230609710e-03,2.923576425627148062e-02,7.135611446857307270e-03,-1.002571932456052667e-02,-1.722685779054308058e-02,-2.386620512691011234e-02,2.105328665946383515e-02,-9.124185394566365626e-03,9.067501065654267342e-04,-6.171695406245253845e-04,6.214624885864665667e-03,2.939898248524696125e-02,3.866009599104756195e-02,-7.431893010863648702e-03
2.633841630920458893e-02,2.127279589272211557e-02,5.913051135371066684e-03,3.667439868153970356e-02,-2.408724007301347655e-02,-3.142219029540750663e-02,2.846491306010991151e-02,-4.893449977438508840e-03,2.790254092698541896e-02,3.161152767884077563e-02,-3.518628474373050596e-02,3.083746887808581569e-02,-4.156078147116356106e-03,8.389598889968357971e-04,1.018031641456847679e-02,3.428883598797347054e-02,-3.867172137673981908e-02,-1.862201938746797488e-03,1.509623099683229767e-02,1.790964787343952980e-02,1.548307286258679936e-02,-2.939799535168319614e-02,-1.613220534847387838e-02,-1.136181471794822997e-02,2.448223102441709695e-02,-1.779168833108131162e-02,-2.326452789002186883e-02,3.678705427998370248e-02,-3.949623178479442359e-02,4.003375701175728579e-02,1.421961501243820987e-02,2.641484375328901485e-02,-1.651629715340225887e-02,-3.905779345375790662e-02,1.912899067587361251e-02,2.687123982540067998e-02,1.933860930869591224e-02,-2.872126519374098436e-02,2.038016636673686127e-02,2.162623198876316780e-02,1.274951101066022600e-02,2.140051078394646436e-02,2.781830994654513681e-02,9.135815530845728741e-03,-3.308358564881330732e-02,-9.949467882528961402e-04,-3.396459532887161070e-02,-7.435204426340476756e-03,-7.470310252910291639e-03,-3.490061986531838023e-02,-1.215755012903566717e-02,-3.128275445343879635e-02,2.478765877149227692e-02,3.600217516797726836e-02,-3.439345321119579441e-02,3.659945422758854178e-02,1.815564940044307350e-03,-1.611852708464460437e-02,-3.402790515404788968e-02,5.020238898402262307e-05,2.368435072527408369e-02,1.665348009568318188e-02,-3.616992410370811761e-02,-3.434637972253166971e-02,-7.810736247897610840e-03,-1.646232881917848029e-02,-2.152111720718125759e-02,-1.761117996020103785e-02,2.440547490877012504e-02,3.451766113371620981e-02,-7.631451404641188645e-03,3.265863411226746504e-02,-1.435495849607717686e-02,-1.894890405676337777e-03,-2.203219974518024621e-02,1.129680220154082038e-02,3.851870278086263338e-02,8.322707681097801791e-03,-1.143430682367535013e-02,1.188718320524472481e-02,-3.032396445463235793e-02,3.125518547920754647e-02,2.480051503407873265e-04,-4.073192387631021684e-03,6.905074461183471381e-03,1.003486853730914570e-02,-3.443693273275626188e-02,1.468571149074235360e-02,-2.075333784183722857e-02,1.720564256003446688e-02,2.593760273165966745e-02,2.444373491814419083e-02,4.222022737898946561e-03,1.622022377137535051e-03,-2.871920053893591354e-02,2.214278641311844681e-02,-1.838280018587534412e-02,-2.657474841058874186e-04,-1.734824575207803005e-02,-2.944679029203308568e-02
1.041877072277598744e-02,-3.583972592185247913e-02,1.999555215802130415e-02,-1.466930489331999196e-02,-4.019816769518749777e-02,8.949831066497057966e-04,-3.644126270984640592e-02,-1.799999624715741334e-02,1.664463493518746409e-02,-3.516762551606301274e-02,2.728892249623773858e-02,-3.990180890101331646e-02,-2.035991780148082783e-02,1.937302211641330971e-02,-1.477518689221472142e-02,-3.201501748829432836e-02,-1.123970856055030686e-02,-1.846451243702446759e-02,2.756020536210226218e-02,-1.501018695349405283e-02,2.323537118998575748e-02,3.151357370019693127e-02,-5.322270677982401596e-03,3.296680728094436574e-02,-9.865836598265398383e-03,3.732025757481470529e-02,-3.302851455430043381e-02,1.503971516310047100e-02,-4.974624875701926094e-04,-9.035058236376182841e-03,1.067242371579013929e-02,1.639377936553532839e-02,-3.985811402324442726e-02,-2.678296613416394911e-02,1.713273706005085176e-02,1.338038200180570979e-02,3.747860774273423928e-02,2.099213672249575224e-02,3.625023910283228096e-02,1.628790182439408124e-02,-1.624023725826854309e-02,-3.173576323812721256e-02,2.266371112517912706e-02,1.159219193035852281e-02,-3.633397674667711297e-02,-1.125446147561169792e-02,3.673492704732319453e-02,3.225933527132847194e-05,-5.409788263829892405e-03,-3.401713104675621688e-03,-2.341106877319577145e-02,-1.055830658557770085e-02,-1.046935743345132723e-02,-3.599871348257876330e-02,2.151725324891055890e-02,-6.714546501149632265e-03,2.590906177527404000e-02,2.817428515961733701e-02,-2.316086178498926243e-02,1.265405215199958203e-02,-2.229041841614559476e-03,3.057144412216714416e-02,-2.285956574195202942e-02,1.429938174234056392e-02,8.665210046005759545e-03,-1.646144554616670030e-02,-2.922382812104389743e-02,1.219456608733665397e-02,1.918753011945870113e-02,-1.482688006166132597e-02,1.164714818720535665e-02,-8.433362553630330619e-03,1.714567089978068573e-02,-2.418850568492888001e-02,3.138030964266884382e-02,-1.709609483208421321e-02,-1.063238628777137505e-02,-3.553736090007632992e-02,-3.124141047216516531e-02,1.275582474461738926e-03,-1.868973186123213878e-02,2.697864841603239347e-02,-3.902738652475915698e-02,-9.723014657777195868e-03,-1.308034563679714296e-02,-3.865471003569909830e-02,-3.020754166626879109e-02,-6.944683271167027307e-03,-5.738158398717658646e-04,-7.696826997501697923e-03,2.487946187712300992e-03,7.650298925460255126e-03,-3.941094560078509113e-02,-2.887395426644341016e-03,3.727368143186333971e-02,1.530537882030387096e-03,1.427759386462655773e-02,-1.512953206222533882e-02,2.203383833981322967e-02,2.194779942224234573e-02
1.712585536274201454e-03,3.828007910454340329e-02,-3.011250240763932093e-02,-3.884610214106091336e-02,2.172558276892212065e-02,2.470083365799533373e-02,-3.054217462098843261e-02,-1.885135947521416472e-02,-3.879747349961447378e-02,-1.662170790554320932e-02,2.196552290927251960e-02,1.444349697369153680e-03,-1.221584841756968159e-02,-1.031446923781927615e-02,-4.010014356580803019e-02,-1.609964094886250432e-02,1.177791892014721717e-02,3.813376824894777750e-02,2.790993719364971357e-02,-3.831153959677099236e-02,3.205144625801822911e-02,2.277424968180745066e-02,2.254728678966715083e-02,-3.377897005159940548e-03,-8.202210236353145098e-03,-1.584912269680323685e-02,-3.492595034364150836e-02,-2.185476823259507526e-02,-2.037762859704866578e-02,-1.280490190118035911e-03,1.989898401110545140e-02,-2.106161190407492348e-03,-3.555726456655348283e-02,3.681453970046266039e-02,3.560300379446521002e-02,2.293437235982552502e-02,3.951160663482560648e-02,3.577180189050714002e-03,3.721490466965046706e-02,-3.412899336587330024e-02,-1.080168543509251768e-02,-2.208428888024996373e-02,-2.446049469764124615e-02,-2.888590805154358024e-02,9.844260089633832117e-03,2.262334067875806584e-02,6.296600596433613722e-03,-2.839055242286518330e-02,2.501995098022840106e-02,1.093320548762690206e-02,-8.993490118769639774e-03,1.400320991037297055e-02,-1.930796110893675394e-02,-1.244933280302085166e-02,3.357337606295824478e-02,-1.684720842705334995e-02,-2.413483417486079682e-03,3.137436954786883975e-02,1.670453531194909455e-02,-3.520674046538954660e-02,-2.836318338808676079e-02,-3.957839439920307623e-02,1.052846837924940014e-02,-4.207998416432640228e-03,-2.941088462838589712e-02,3.682614563157416560e-02,2.385175646866196254e-03,-2.075642478343794894e-02,4.853798443973577020e-05,1.444470771566475076e-02,-3.407799409190705175e-02,-1.811786834782690842e-02,2.468555050030917311e-02,-3.243670406547124237e-03,3.745640555513802226e-03,-5.402802658679200544e-03,-3.667865389903050832e-02,-2.687973383010412026e-02,-4.379432434342187160e-03,-2.338672291540913259e-02,-3.618978596658584124e-02,2.763561829681853224e-02,3.869654026856497731e-02,2.357396331103228312e-02,2.845067543533401355e-02,-2.074968284366650317e-02,3.704269959821952091e-02,-2.437262835804530556e-02,3.630308198143156195e-02,3.979237742505715297e-02,1.702632435411574607e-02,3.869261608153478499e-02,5.592249914935363241e-03,-1.933716860982314517e-02,-5.066664795608358945e-03,7.523983195954798107e-03,-3.433192646426159317e-02,9.838600516248444464e-03,3.869535873501185608e-02,-2.492092267079713472e-02
2.352991373225839580e-02,3.280240473893294290e-02,3.568159419187113407e-02,3.700318451702949013e-02,1.725741202542805481e-03,3.838414680747938984e-02,2.069237194764231985e-02,-2.720770605978577866e-02,-1.857647212051569260e-03,1.755775621525572025e-02,-2.031838619800180670e-02,1.130799167232156982e-02,1.339767713640239478e-02,-2.712501162265025523e-02,5.234030583548877381e-03,2.184369262126410055e-02,-8.880844810529690825e-05,-3.923569100579595015e-02,-3.948214384082807810e-02,-1.149741405565477687e-02,3.427367411531266617e-02,-2.181927043236532929e-02,1.080525898040878355e-02,-2.235010231768119401e-02,-1.434094257078399187e-02,2.798884836972585777e-02,1.840457920679889822e-02,-3.253718046150290422e-02,-5.733640796041518210e-03,-3.786322541708671274e-02,-1.536776168964224453e-03,1.306261817009871790e-02,-3.067925558597163482e-02,-1.697745074511694888e-02,-8.215774135346000373e-03,3.373784546845747662e-02,3.966658127494837593e-02,-3.659732264500490523e-02,2.098973489779434529e-02,-1.031569388363576256e-02,-8.648297458720767203e-03,2.044748034035439102e-02,3.364901634918035511e-02,3.626277520502397406e-02,6.202044037200532024e-03,-1.149003045051075200e-02,2.312412206285161670e-02,-2.002397048047503333e-02,5.152705178595516460e-03,-1.137283712187205434e-02,1.259595750909549283e-02,-2.087659993065577035e-02,-2.480147814267395778e-02,3.363395040138710684e-02,-3.202215097625128043e-02,4.791230175199704734e-04,-2.244846058540037395e-02,-3.707832969017667291e-02,-3.731243814826273181e-02,-2.611801516513912250e-02,2.949493795573186403e-02,-1.749262412195723079e-02,3.622502507217067319e-02,6.563901465709782827e-03,-5.097360015811890424e-03,6.440583816279473427e-03,1.342850724325975751e-03,2.081026848331102991e-02,-1.749123112171642805e-02,-1.181739344284236069e-02,3.169227517742438660e-02,3.590313937188227555e-02,3.156874709604214069e-02,-6.477831131250564103e-03,2.254643270515541836e-02,-1.903032972749612011e-03,-1.978401673449746998e-04,-2.374903465734281433e-02,7.328516624843513932e-03,-2.524032302110457496e-02,-1.354522984078003131e-02,2.855081835415803487e-02,-2.355637724509014250e-02,-3.448659254010762176e-02,-3.465954693202590725e-02,3.544700907355775865e-02,5.565277722233793372e-04,-7.284899906629795606e-03,2.500023337748936980e-02,2.700644909261527143e-02,-1.349486130998009230e-02,1.557037672794105501e-02,2.180315429993098103e-02,1.243669876227147982e-02,-2.801802688247082701e-02,3.022776538708337943e-02,3.143905697909398032e-03,-1.749313217127168932e-02,-6.012999699289018826e-03,-3.718760753167096866e-02
-2.992620716032615494e-02,2.135473828401632940e-02,-4.020806379332662189e-02,-6.709609111175924429e-03,1.810223717197564051e-03,-3.581540871094301276e-02,3.804399917728980979e-02,-2.202445280321965043e-02,-1.574594714384495303e-02,-1.576655082874214853e-02,-2.167935256233415736e-02,-4.009047761419287648e-02,1.844344939275861447e-02,3.754278087725677199e-02,-2.217176635077661509e-02,1.311192888687949358e-02,1.945281854902482233e-02,2.801967174342400932e-02,-6.222005147450975111e-03,-1.584790220833597052e-02,-1.404941571544285686e-02,1.709858212573458700e-02,2.547477078080126120e-02,-2.560396758249178228e-02,-1.037866586066662523e-02,3.232322628964520717e-02,2.466367912151791464e-02,3.899134248747063852e-02,2.044613626086590891e-02,-8.589028203489414842e-03,7.288913232135368382e-03,1.294844411678167453e-02,-3.389973968881025701e-02,3.578356407117325513e-03,1.683316214844460257e-02,-2.675335500029345920e-02,2.256784113597674196e-02,6.736839369067499327e-03,3.636677105309124580e-02,-3.679748310763025776e-02,-1.887200240585480346e-02,8.166759751197913766e-03,-1.636024475117863267e-02,1.724356218486980397e-02,2.082868651824524783e-02,-3.196487075419131990e-02,1.114148286981675321e-03,7.149606895120217505e-04,-1.051217887363521154e-02,3.481495111071558624e-02,2.633740286283880322e-02,1.585918385237923556e-02,1.723571915123548598e-02,-3.078711103734368786e-03,3.385553692356401551e-02,1.564897484976771058e-02,1.841419875843708365e-02,2.908645869355781094e-02,-1.816871067391617398e-02,2.469402760143401404e-02,-2.450814084832874870e-02,-1.243729071024747210e-02,-1.321987830344835760e-02,3.848206057816575681e-02,2.867201005795017715e-02,1.617767770287662984e-02,1.825945039995257105e-02,4.991769910380753489e-03,3.595413676417188314e-02,-3.008636064941331363e-04,-9.608526673162623780e-03,-2.709802389526065267e-02,2.301608582130258360e-02,1.885351186570412632e-02,-9.299936381766212359e-03,-3.818299550166148054e-02,2.726148671876383114e-02,-3.929078805651590317e-02,1.638112864887181219e-02,3.781713572050690586e-02,-5.013151242793226041e-03,-2.131290841865292329e-02,1.647531665501282203e-02,2.550281056756778866e-02,3.733833106074340921e-03,3.755804223973294859e-02,-3.605390423695233049e-02,3.856524190543767568e-04,1.756762928983651370e-02,2.916282100059267718e-02,-2.579362184048641926e-02,2.412567965871014602e-02,4.238597555793244091e-03,-8.318945885265181805e-03,-2.961674041708954597e-02,2.937635392866544057e-02,-2.756140275874164464e-02,-1.529647972397062822e-02,-1.688411817426564709e-02,2.986837338340032899e-02
1.388842919385195954e-02,2.385852426531439099e-02,-2.006687223396688355e-02,1.004212520160502331e-02,5.769668391678129532e-03,2.676555286583914839e-02,3.265670877258528004e-02,-3.923137620208887177e-02,1.399433365494811600e-02,-3.604046820181998345e-02,3.929116073182845927e-03,-1.707815095666990676e-02,-1.553863920208616543e-02,-1.182478290382041330e-02,9.754096031113363915e-03,-1.334536967401259676e-02,1.871319198838287609e-02,-7.677716599431855943e-03,-3.471217185150036327e-02,2.281939869341339383e-02,-1.722888681169787439e-02,-5.406753000691491388e-03,1.491302599215523286e-02,-1.347354056578415303e-02,-3.565849420477144177e-02,-1.013901709937644648e-02,3.574166562272410724e-02,1.139799660238252112e-02,1.379000998445812330e-02,1.063786608230068292e-02,-2.420644983026763730e-02,-6.567427224678291410e-03,2.018007642225852494e-02,-3.205679387577218403e-02,-1.786463520231109173e-02,-1.798796968355986445e-02,-5.466901804167922062e-03,3.863029286826122344e-02,-3.478057971384930502e-02,1.503896545044010151e-03,-2.578485064095193541e-02,3.785086589884543301e-02,-3.109735832146109588e-02,-7.752214483553887363e-03,1.913023444260443517e-02,1.644985776281167322e-02,-6.214008391267104685e-03,-1.234221928878617529e-02,-8.233807626261240020e-03,-1.895643120391688266e-02,-2.369653540332304284e-02,-1.363913582614278237e-03,-1.861405214395682461e-02,-1.709190759300476675e-02,1.260600893601172313e-02,3.767883461313500937e-02,8.334296277902962513e-03,-3.401846474130811732e-02,-3.413071646325067932e-02,3.630255206571987581e-02,-1.630146899684287859e-02,-3.280515665394448388e-02,7.964967497949155747e-03,9.943587313335543534e-03,1.194246045710919274e-02,-1.870506346187975066e-02,-3.899382845092339706e-02,3.739560545724802954e-02,-2.003268277115364052e-02,1.415568183442900314e-02,1.661676064326999061e-02,8.846576342845252280e-03,-1.504561296148696457e-02,-1.840798120708804150e-02,7.854287848425274207e-03,2.944067825161298529e-02,3.592543250960248541e-02,-3.169226657776416656e-02,-2.775799224350228994e-02,3.576479995810742663e-02,1.902168972592205992e-02,3.079959697396368948e-02,-2.391368849331028043e-02,7.043480484266547402e-03,1.617524367740959604e-02,1.448423740109408032e-02,-7.386257220473636115e-03,-3.897097305437138837e-02,6.668747542722193618e-03,-1.985508014428139650e-02,-4.000453977674346163e-03,3.679774955583876850e-02,-8.119377712158700605e-03,2.732616522217120800e-02,-2.504694121619739644e-02,1.386892813601058386e-02,3.835994472502844005e-02,-3.201496016578797565e-02,-3.953992633241130983e-02,-5.341138907294016441e-03
-3.276024344532893484e-02,1.997457235261744513e-02,3.333717398265011178e-02,-5.305901342423958132e-03,-1.940392688948710739e-02,-5.275153818273848293e-03,1.796922636429066841e-02,-3.948088188129399156e-02,7.193710825667809158e-03,9.110690587722798661e-03,1.107261328385980570e-02,-2.074606808165108118e-02,1.721369166762903510e-02,-3.285947899213567669e-02,-2.418407774343364625e-02,3.035538578688212058e-02,1.919763806636043055e-02,-3.910360949006174563e-02,-2.023507761028858418e-02,-2.296685912911769142e-02,-1.843129645388300736e-02,-2.030073810942001691e-02,-3.518075985641817144e-02,-3.301921490089717703e-03,1.871596031332877635e-02,8.583151718161940308e-03,1.390199365069127481e-02,-3.368314488890580133e-02,3.630797942268204626e-02,2.722083591289433183e-02,2.453475288929555728e-02,2.597371127021467010e-02,3.479771315584943153e-02,3.558815397107620120e-03,-2.410272034968110808e-02,9.391504044803792792e-03,1.953204368433802962e-02,1.913284067088260113e-02,1.724887601303589637e-03,-3.470368622277773124e-02,-1.036483957221733671e-02,3.383720864568244557e-02,6.791212329795130904e-03,3.082578169581603415e-03,-1.858833782017443523e-02,-1.057907461004060391e-02,3.179294135241565733e-02,1.338662516859917377e-02,2.311108959381186559e-02,-3.671449716344698643e-03,1.047422074758531767e-02,-2.023448666880418509e-02,1.652274881841749726e-02,-5.822155864734338687e-03,-4.620374724942147120e-03,1.200820252970780273e-02,3.508481452609772677e-02,-3.506173712756058963e-02,2.611520129535659790e-02,-1.669613479312493515e-02,-4.509885244367327524e-03,-3.844677338831320457e-02,-1.599947628872617350e-02,2.115992668674251628e-04,-3.569143171219053834e-02,-7.160636244396730021e-04,3.434738207067070809e-02,-3.173348774193496952e-02,2.126579417265296243e-02,-7.264073127911776888e-03,1.247875959991451116e-02,-1.928129299328406807e-02,-2.738295084758538694e-02,-2.730491710326532831e-02,-3.454017823170413282e-02,-2.527966293133438597e-02,1.320619431715499593e-02,3.069479519350146179e-02,2.526135903020885684e-02,1.488813072305115309e-02,-3.132828996960719536e-02,-1.695312370642711869e-02,-1.529495048618706964e-02,-2.010796200308290205e-02,1.206725125642258388e-03,2.859166644964930646e-03,-1.150894348756346247e-02,-1.175798326812051327e-02,2.642178370250401059e-02,2.326435195046955284e-02,-1.545667459150302549e-02,3.327603861353237158e-02,3.641447752750171657e-02,-1.393301805996472777e-02,-1.170685430406314884e-02,4.530873435438236181e-04,3.547405300569316661e-02,3.026285575075583073e-02,-3.196068913750048368e-02,-8.626378966829204020e-03
4.292004277208723295e-03,2.519071741230243205e-04,-2.461891945798398013e-02,2.885532669982361284e-02,1.422922368782931352e-02,2.717391530839519467e-02,2.885110541280790086e-02,1.997228076047781464e-02,-4.888561800259946452e-03,8.889948820370363602e-03,-2.731273438828187017e-02,1.396421698699689025e-02,-2.579381131884294839e-02,1.559703795128591919e-02,-2.174517480405303502e-02,-3.075575911393634357e-02,-2.691715149484121689e-02,-4.004879590926622296e-02,1.759060234227525360e-02,1.868922730152594233e-02,1.200910116511653969e-03,-2.723252588347045353e-02,-3.348972681720630007e-02,-3.867068623565332597e-02,-2.687986272849049452e-02,3.143181997222651430e-02,-2.078508997304111261e-02,-1.171920824377602893e-02,-3.173732638465485284e-02,-2.232714828217964922e-02,1.546001511358381392e-03,8.665255147871871177e-03,-2.047825731268427749e-02,-3.556629472150334148e-02,-8.762918607831241685e-03,-2.137483301759656243e-02,-2.255291228596308095e-02,3.698124635087002288e-02,9.352652346236941389e-03,4.574050578976507006e-03,-6.773197630036149018e-03,-5.714154514216004781e-03,3.289498552597521202e-03,1.579649200107742860e-02,1.625618453516237960e-02,-2.640171896051682343e-02,9.067296371245251675e-06,-7.080153814424826678e-03,2.979703715629026042e-02,1.056844665858023245e-02,2.613911976445432335e-03,-3.092919323224446043e-02,8.495187664676745465e-03,-3.078369588203260301e-02,-1.309152142287092584e-02,-2.872193447145151082e-02,1.544617833015787638e-02,-2.362261717880561121e-02,-8.696452805214239384e-03,3.181937382107297846e-02,-2.377828474692357877e-02,6.276676246496980076e-04,-6.492011461462125245e-03,-3.875150032466017497e-02,2.354302164769413522e-02,-3.465646582079902338e-02,-2.070359694090132072e-03,4.879627054085278887e-03,1.032779864344179552e-02,1.516937815330814121e-02,-1.984134118408981823e-02,-3.940652618698606974e-02,1.796889218769127938e-02,2.867432366189275571e-03,2.702991307809942886e-02,2.584540900591008813e-02,2.760960337462917136e-02,-1.198657616984030380e-03,-1.337927147627998754e-02,2.344652720773939686e-02,-3.916829963577421123e-03,-2.545694509322918644e-02,2.854630030544398969e-02,3.076469973957018586e-02,-2.709301992789338916e-03,-3.412137885149927469e-02,-9.020801374768230504e-03,2.440989115692306435e-02,3.230986337528975877e-02,-2.384612865998048808e-02,-3.482311558062510526e-02,3.034576831519325904e-02,-8.893833492682374359e-03,3.358333177451949640e-03,3.764091594652187872e-02,-3.485599722260707134e-02,1.192743735629747323e-02,-3.424958964787714472e-02,-1.001453957037655960e-02,2.443215775331429584e-02
-5.350029911356514629e-03,3.998240997641029637e-02,4.749429510343432768e-03,-1.438178180797571211e-02,-2.250808707827641267e-02,-1.202083950548265417e-02,-1.025061904729489617e-02,-3.468318297922696331e-02,-1.048858188365670886e-02,-2.875866679348629794e-03,1.791212430876891470e-02,1.260387152588698587e-02,1.678851622717745726e-02,-3.953640887731378617e-02,-2.270462274266578373e-02,1.300232692250596553e-02,-1.287542971695382604e-03,-3.978170035675573230e-02,2.448684981226428858e-02,2.193879995771726849e-02,3.893772195103175141e-03,-3.486415177962263329e-02,2.143260695325305623e-02,6.732079203931138657e-03,2.267465712564161601e-02,2.024498935105710495e-02,2.436682028156776994e-02,1.448172663852577468e-03,-2.892438249097007211e-02,1.376414150154864173e-02,9.688260710672889214e-03,1.948151653543328879e-02,-2.654750888374456455e-02,-2.452948403100365868e-02,3.139595211619793103e-02,2.010271431447890195e-02,3.282891814469489355e-02,2.080536840608323071e-02,7.813035287744929738e-03,1.239504627277583301e-02,3.129288894930459114e-02,6.337481495615948299e-03,1.064664537078630936e-02,-2.762545506566370726e-02,-2.097203291342225693e-03,1.740222270581379127e-02,-1.842032982890832657e-02,-2.394412297535817441e-02,-1.497167552660420668e-02,-2.078800220703850427e-02,-2.292615523383897611e-02,-6.043344833626837671e-03,3.279755715031743013e-02,5.677226634860809600e-04,-2.509681846423574003e-02,-3.401909181545866023e-02,1.577448465885753284e-02,-9.425088829602511556e-03,2.588100070016519094e-02,1.282753681296684017e-02,2.382314463610970406e-02,-1.833964314529060863e-02,1.546911960990436999e-02,-1.897366304926761255e-02,3.530900848610439569e-02,1.096694681881270513e-02,-1.411240985592438976e-02,-1.853539479868290124e-02,-2.485506553373552016e-02,1.565263641317754875e-02,-2.262032751724615473e-02,7.664097932058785978e-03,-1.892758013972886677e-02,1.302521842007914842e-02,2.532682273519538951e-02,2.235823369018952525e-02,2.097714203710981593e-02,-2.511273922745996603e-02,-3.310125886997850736e-02,1.599906666531026797e-02,-1.058725361286339678e-02,-5.440581088927014079e-03,-3.770405172788111881e-02,-1.933438083151610073e-02,-3.750081042820878341e-02,3.049336103413746030e-02,-2.063552524003309241e-02,4.610940438168599498e-03,-3.707436047202898599e-02,1.341753332617179155e-02,-1.423178670990104394e-02,3.199986472876071436e-02,3.121168808073097878e-02,-1.404977885588685679e-02,3.224447285821065851e-02,3.990000722882126871e-02,2.616927651114753922e-02,2.773386365550353089e-02,-2.018421517699846290e-02,6.168253424986969505e-03
-3.480041342336343685e-02,-3.257588890060972298e-02,4.011994551281047872e-02,-1.394132464448735211e-02,1.995845355972406324e-02,2.466138988904895135e-02,2.879151500477567655e-02,4.001827186022738347e-02,-2.078833535757472137e-02,-3.696406668809656265e-02,-7.141800405925565962e-03,-2.974817227721877899e-02,-3.840555430768479578e-02,-1.122419525779627322e-02,2.281766235551913047e-02,5.322118752427629565e-03,-1.505601945289618271e-02,1.241187522394621504e-02,-2.155056167421634528e-02,-3.905247232303710181e-02,2.125877033282000741e-02,9.951171259276631390e-03,2.109385216180245659e-02,-3.707768205492057573e-02,2.711048585133625857e-02,9.612057819949806209e-03,5.098127242234874561e-03,1.002121238097656783e-02,2.930699243635969189e-02,6.991259886575948608e-03,6.509867558708900236e-03,3.945943590047926164e-02,2.064572628627816056e-02,-4.640616688261571185e-03,1.667845171514822575e-02,-8.907863802778895682e-03,-2.180329275275400686e-02,7.788634126518290644e-03,3.443354748405513116e-02,3.451054143745294067e-02,-1.271366116732033230e-02,2.225766447455345461e-03,-2.318966398415161362e-02,3.985766200567052164e-02,3.869053937325278580e-02,1.202320894088754200e-02,2.448036950841578005e-02,1.729792452794015958e-02,7.491597553832943929e-03,-3.591886027527969871e-02,-3.637761049671135033e-03,1.405596465091410799e-02,1.427673712542260748e-02,-1.020322512886272931e-02,3.551998568578264986e-02,-2.675048180707350481e-02,2.890594535826744905e-05,1.535050741135564507e-02,1.585326701626041737e-02,1.195324745808811796e-02,-1.807087219763454586e-02,-2.764717977229634235e-02,1.093204904970080868e-02,7.985677463901132839e-03,-2.578554800355993201e-02,1.649687957753583067e-02,-3.604978718292807180e-03,1.349097106666759943e-02,2.713038544112825190e-02,-2.655977885886180723e-02,-3.866940746405536644e-02,2.244487147854625289e-02,8.821647412419246492e-03,1.605461468510580025e-02,2.719374639792187381e-02,2.435144941579429900e-02,3.706627585679117542e-02,2.889827130671815143e-03,-9.251581998034360925e-04,-7.890035048726101383e-03,-2.784947332665974051e-02,5.838928372160980158e-03,-1.793220656770100688e-02,3.388070704281025136e-02,6.690038004694526599e-03,7.466021531576260209e-03,-1.166666845825824715e-02,-3.602811978825994771e-02,-3.765622934904455654e-02,-6.165234291174353197e-03,-3.340842095645556176e-02,8.592418350332312743e-03,3.063708673860812345e-02,3.079324328369454841e-02,1.279011361295117645e-02,-2.322215825149762450e-02,2.919147877553456352e-02,3.104886144633084780e-02,-2.439451166372770888e-02,1.909333069819805356e-02
-1.716767067402976202e-02,2.433772829806761170e-02,3.998687687462820772e-02,-3.779436817429648876e-02,3.195536774779727390e-02,9.861702112872206341e-03,3.806848293503455744e-02,-2.813864580165398917e-03,2.793624220957894450e-02,-3.519139329878121641e-02,-1.324652916535106785e-02,-3.481966357964491610e-02,3.822614357295060078e-02,2.549040731811867341e-02,2.835115812483980646e-02,3.522028748836385226e-02,-3.336514738610417419e-02,-9.200012676461789829e-03,-3.449651580990525240e-02,-2.325744003394364032e-02,-2.176386263748851871e-02,-2.484336267194896166e-03,-1.861176735714662953e-02,-3.208854215668694582e-02,-2.673970122287193385e-02,-2.836539333315001021e-02,3.804388940189348811e-02,2.085178452944303623e-02,3.761644098741422776e-02,-4.845949488163302753e-03,-1.782316319212666825e-02,2.398814199733232538e-02,-1.397231222335348737e-02,-1.613318762749729046e-02,-2.151133281747012391e-02,-2.978047551223422795e-02,-1.958475328496548512e-02,-1.163489630433735267e-02,1.399226603477042238e-02,-3.517766002590588109e-02,-2.328045260006411654e-02,2.485106275705901979e-02,-2.839383235172423040e-02,-1.265416242979250198e-02,2.932514076743342191e-02,-2.775021593996122166e-02,-3.355546868347696055e-02,-1.243423494247653449e-03,-1.588902751955490952e-02,5.099173783673709506e-03,2.443138134085866622e-02,-2.917979247121309933e-02,6.489658890830708390e-03,4.430034868299899224e-04,-2.862247178567345340e-02,9.971710069664909207e-03,-1.820338462162351956e-02,-9.783397576307629757e-04,-3.359282375598482417e-02,-3.250169241492212747e-03,-1.556382060903765095e-02,2.592525187814807494e-02,-3.562688423354620076e-02,-6.545440073981019687e-03,-3.342861687397667789e-03,1.809453839049744023e-02,5.974058129967261752e-03,1.344688154422415613e-02,2.227974914162452261e-02,2.912763832785478582e-02,-1.496776009502244140e-02,3.057709877146146983e-03,2.735081106900987338e-02,3.936068049889500375e-02,3.132436351697356208e-02,-1.033634552956314186e-02,-2.451409867511108315e-02,-8.530309148944419540e-04,1.943232200169666898e-02,-5.975804597951367599e-04,-1.352561315105432370e-03,2.719981362175651063e-02,-1.114563073893522042e-02,2.893396775392488574e-02,-7.494571412139651619e-03,-1.381314991417401626e-02,-3.700039269341738168e-03,2.110545922723732967e-02,-3.007616850216436599e-02,-2.441335915621498098e-02,3.630428948191136151e-02,-2.609631394389536757e-02,5.446495377128143800e-03,6.378310690722821703e-03,-8.343799991620227605e-04,1.164012323708787239e-02,-2.172679406063014046e-02,4.234994190780255047e-03,-1.027957101564014840e-02,1.300095750284560245e-02
-2.885208468508640434e-02,5.699820027599030239e-03,-2.530992820644270558e-02,-1.780108190119832762e-02,-2.262079496088501354e-02,-2.550555106142956066e-02,2.619302293590114808e-02,-1.723296858258348274e-02,3.434843980909418198e-02,3.779055078613860474e-02,5.730624391172260516e-03,-2.870913531553725626e-02,-1.008857922265985960e-02,2.394303281873215797e-02,-1.066417223033966181e-02,-3.321124887356599609e-02,4.566528903091220983e-03,2.775392824705074507e-02,2.379780786813482166e-02,-2.612594695123175367e-02,1.389338456731317034e-02,-2.247648782835937054e-02,-2.266118616912485978e-02,3.008210344450434892e-02,-2.013112187669873626e-02,-1.903917462116449730e-02,-4.015645505956399325e-02,2.980846196898485206e-02,2.352988935923172598e-02,1.023953815876772928e-02,2.012587192266988151e-02,-2.798155791311300600e-02,-3.351533123534607313e-03,-1.196463914067976385e-02,-3.266767885411293870e-02,-1.115358624371118931e-03,3.383504072756057801e-02,-3.698752524635272321e-02,-1.677029602387049984e-02,-2.351897266294210309e-02,-2.105772211070211508e-02,3.284548933319592773e-02,-2.567822760637117514e-03,-2.710133772263546067e-03,2.095497172159748941e-02,-2.778504554933885345e-02,-1.024094739644701739e-03,-5.630448971985850017e-03,7.793363803273230250e-03,4.017343081756229173e-02,2.166854086092863049e-02,-8.213435779755733773e-03,2.634116098899579386e-02,-2.648097446840105146e-02,-3.775917074577440913e-02,-2.376767045041866186e-02,-1.283378330072939763e-02,8.508833414704470568e-04,9.258455094423041071e-03,3.302009010466527145e-02,7.924397289344811690e-04,1.025847880757092291e-04,-3.616855712969251763e-02,-3.740148223486783330e-02,4.114181759791910552e-03,-4.971552210192473412e-03,2.727620862165639273e-02,-2.728746877461592918e-02,-3.820082834105623104e-02,-4.098200303219981869e-03,-2.111144912753485856e-02,-3.621911081776670732e-02,1.806174477884664800e-02,-3.123491369214660002e-02,8.710837429672511900e-03,-1.760754094457202268e-02,-2.625679425495246536e-02,-9.670141894491512263e-03,2.424166609291207933e-02,-8.677618611000668253e-03,2.016639336792343945e-02,-3.011764256235631779e-02,2.193573171952420409e-02,-2.115529558148117328e-02,1.426560051968374029e-02,5.290021003142496465e-03,3.451095938557308118e-02,-9.061297622602252147e-03,-3.488812735587518837e-02,-3.866855362157627096e-02,2.628531138831024377e-02,1.989190481608214302e-03,2.213457585057698740e-02,-2.135696179927471308e-02,-1.245805517890292806e-02,-3.778810627547342371e-02,3.711228923802571689e-02,1.349960113207043788e-02,3.483748625970008866e-02,-1.885830964335090745e-02
8.963680562052895456e-03,1.435461024919157218e-02,-1.467228799927196119e-02,2.799424806956506140e-02,3.595983002007142187e-02,3.094927842158472220e-02,1.922528780193678150e-02,-1.789584513533527821e-02,-1.756200088007978805e-02,3.726250972795114302e-02,-3.938194085449296666e-02,1.737430650494499115e-02,1.658590366816499809e-02,9.866447365969701136e-03,3.941357263282017215e-02,-1.512827932295553526e-02,-1.286914247730546954e-02,-3.386085061978907906e-02,-4.600059391024494994e-03,-1.921599934822034589e-02,-1.259452800795373383e-02,2.690559385209644050e-02,3.502079311856003824e-02,-2.527271746166676741e-02,-1.025257659879642846e-02,3.446961206161823499e-02,-3.523848671495225654e-02,-3.278155059139464117e-02,-2.711767385036368411e-02,7.656825587618798154e-03,-2.810832051672079376e-02,3.764176591651713366e-02,-4.285111086932387806e-03,1.220713337306708558e-04,-2.037320714893417137e-02,-2.335318387008943845e-03,1.302077032711129040e-02,2.019916271678019737e-02,2.041556318954614729e-02,6.263847412938793741e-03,3.251780393020396037e-02,2.552530390730625709e-02,2.067129499843415458e-02,-3.573731465717524397e-02,-3.965588747903441014e-02,-2.312441453875066499e-02,1.315024019122751353e-02,-7.141320239064333913e-03,-7.848293329791169309e-03,3.092770794465850986e-02,3.181037267571825561e-02,3.290505592398764584e-02,-1.496755263326751163e-02,1.536432613376406686e-02,-1.836480257116893111e-02,-2.488053809548922829e-02,-2.536122668997991061e-02,-1.269738916762695735e-02,-5.632668053688460325e-03,2.661427006530442396e-02,-3.056759761716244805e-02,1.889226653130924791e-02,2.529541253861762942e-03,-1.705301119393841727e-02,-5.774346429551770968e-04,-1.608825840743439289e-02,7.726718568179366878e-03,-5.320139337344564380e-03,-2.698783578470271075e-02,-3.083362187870662685e-02,3.755173308303813573e-03,3.236125085774157334e-02,-1.254861058672241715e-02,1.873740236030367254e-02,1.275922866291588284e-02,3.470478261306991080e-02,2.581265108778297776e-02,5.356261635671399381e-03,1.262807843019625974e-02,3.203744242122796848e-02,-8.080498267960208036e-03,-1.392882314932454048e-02,-3.933959372546708827e-02,2.626058391667874040e-02,2.420426562617599905e-02,-3.180897611809362785e-02,6.180716789398922259e-03,-2.896519756263724564e-03,-3.066265152806852204e-02,3.864633514271725856e-02,-2.294358580075971099e-02,-3.480216121824401126e-02,7.627436457999799135e-03,1.920918017275404996e-02,-3.759996242937461985e-02,1.276375489245600361e-02,2.596848043907967665e-03,-3.190463406961874249e-02,-2.633497449503555132e-02,5.466356965035095578e-03
-1.637651320721578499e-02,3.524847377319987457e-02,2.563245141579187716e-02,3.888750706898731757e-02,-1.932679020270888434e-02,3.777423457350519154e-02,-5.530034581681540252e-03,-1.226223334678616141e-02,-3.615999123393556780e-02,-3.596572298992326694e-02,1.544116096454049847e-02,-3.383266078238328367e-03,-2.199258356953039464e-02,9.165263965748075142e-03,-1.987465556831567379e-02,6.242990333467375585e-03,-1.132215082663492502e-02,2.601942259539511207e-02,2.578974349548423736e-02,-1.821435658292474939e-03,-1.199682869754008403e-02,-1.105266612557246134e-02,2.458495038099533028e-02,-1.381746215893598154e-02,-2.339686295768476573e-02,-3.339853245548925209e-02,-2.678472567218799592e-03,-1.436900848947420678e-03,2.741519628936588474e-02,-2.241742619535453535e-02,-9.570443620147583985e-03,2.480137236313149571e-02,2.602516316485643105e-02,-9.279346362027773160e-03,-3.287164249311114259e-03,-1.581935500821003704e-02,3.478519772572848112e-02,-3.066790521724028704e-02,3.488126061059157457e-02,1.478617211668695197e-02,2.538969339215760377e-03,-3.758262312367246366e-02,-1.962505418582492257e-03,-7.418712788027658801e-03,-2.724410519716478213e-02,1.257814731822068550e-02,3.788901313829336898e-02,5.001099738171155447e-03,1.727002874328734811e-02,-3.470435101968216696e-02,-6.621055437693573048e-03,-3.085168290811536249e-02,9.070815375182899806e-03,3.526185770559684546e-02,1.300984150776532747e-02,-3.403265198419080234e-02,-1.168745296388426329e-02,4.074247590834582239e-03,-7.783838558301715144e-03,2.683098365875633343e-02,2.530521250249276322e-02,8.993226848754913572e-03,-1.017625882584961144e-02,-1.967535921925071471e-02,-3.169479863420666260e-02,-1.166883792601356405e-02,-6.982492413434117536e-03,1.413932779306758744e-02,1.271889657229661845e-02,-3.457104314233182957e-02,-8.423036253733922826e-03,-2.559070669784209787e-02,-2.759843547745265482e-02,2.632098390907380847e-02,-3.683826158637317633e-02,-6.499151394714529177e-03,-2.668239803701227819e-02,3.050497685735922837e-02,4.587083932332205842e-03,-2.160183168141913829e-02,1.951975766128755379e-04,1.861566981398419043e-02,3.684093352550679018e-02,-2.248117291585354990e-02,3.105596531631149571e-02,3.492586776415608496e-02,3.348770688134893037e-02,1.088975159766360744e-02,1.043991724217058562e-02,-7.783607191652171242e-03,2.029733261494161625e-02,2.516602332512595311e-03,1.426921461226675521e-02,-5.753272207741262807e-03,1.861648238478880515e-02,2.609335013741348464e-02,-2.843288871845185001e-02,2.677354149221638710e-02,3.240566448144718663e-03,2.771734268917248195e-02
