-5.024437825478775266e-03,1.805028020754510451e-02,9.290931298595773644e-03,3.951091099798715624e-03,-1.377582170764158481e-02,-1.377678767359821234e-02,-1.769793972640287816e-02,1.466468213357570438e-02,4.049470516461017508e-03,8.332924602817129781e-03,-1.919971052778704501e-02,1.881902656113131761e-02,1.331371721297519919e-02,-1.152029031065719342e-02,-1.274232571560175893e-02,-1.267906793354202886e-02,-7.839738648471573923e-03,9.914496201822689710e-04,-2.725477016280578469e-03,-8.360889514716654536e-03,4.479503009003161194e-03,-1.443760878948611992e-02,-8.324225087199358178e-03,-5.351962741503997131e-03,-1.759316451968152275e-03,1.142077351083326843e-02,-1.202751345723551517e-02,5.700631160552848417e-04,3.701033757961580059e-03,-1.816382799922669489e-02,4.306973806006512799e-03,-1.319490374388528064e-02,-1.741888489179839461e-02,1.797704136146947851e-02,1.864770776315386944e-02,1.235074740162160449e-02,-7.824859705937999010e-03,-1.611249293446935862e-02,7.378194356679853433e-03,-2.396782712152310292e-03,-1.513667454475104215e-02,-1.931558921463943067e-04,-1.864688460560228606e-02,1.639253036150017592e-02,-9.660418721718850091e-03,6.508719006340279480e-03,-7.540625598585386571e-03,8.036873920327481475e-04,1.870660901436062631e-03,-1.262100027228790083e-02,1.880600192130835527e-02,1.101856427748810173e-02,1.760112544317179659e-02,1.581211026024105168e-02,3.920714352132525886e-03,1.689528831504484227e-02,-1.648011953433130630e-02,-1.217532801419300009e-02,-1.821281186145446221e-02,-6.995199461485151864e-03,-4.458270097023951661e-03,-9.157051346078300819e-03,1.316533349515216882e-02,-5.736766184714340092e-03,-8.773170559955046147e-03,1.709899716540429822e-03,-1.438032532531202147e-02,1.210243407610750964e-02,-1.703846535706700013e-02,1.949892761344846140e-02,1.090290301629312335e-02,-1.206588362762428708e-02,-1.980293107056402963e-02,1.263365084556127005e-02,8.284256715033456314e-03,9.171316494481801529e-03,1.086387918032037138e-02,-1.705872940520658868e-02,-5.668187635524376058e-03,-1.538373868623818183e-02,1.454162534484361100e-02,4.937863534952326161e-03,-6.772223538613319702e-03,-1.747868651947276711e-02,-7.569810872852397732e-03,-7.001086891392204956e-03,9.195305756760968965e-03,5.508924095133468056e-03,1.550715920048494935e-02,-1.112741218288055590e-03,-1.523455181192152723e-02,8.540062091290006110e-03,1.044396224954111455e-02,2.454039223366827078e-03,1.085173790951250890e-02,-2.484749708424048879e-04,9.104080665283256291e-04,-2.901849139423656829e-03,-1.900609237732876766e-02,-1.570322821773157546e-02
-1.876540055451399874e-02,5.462986445117046057e-03,-7.434702011387906741e-03,3.432404405519719919e-04,1.632228876018045408e-02,-1.004038578255401354e-02,-3.588999345223423901e-03,1.023435376347690481e-02,-1.086113539343553681e-02,-1.694117770929334452e-02,-8.420068176589464576e-03,-1.356746525781484490e-02,1.720860181050844900e-02,1.233965531978178584e-02,5.342575444148992339e-03,1.487631442710483226e-02,1.216150896761417945e-02,-1.255229350850919391e-02,1.572126693110329626e-02,1.575584534307335671e-03,1.231241358182097803e-02,1.586272911622967768e-02,-7.288626579715503338e-03,-1.561670425936478000e-02,-1.089569707661296877e-02,-2.919199194549313217e-03,1.273590732178182111e-02,1.444659735581209359e-02,-1.974566165989651012e-02,4.304097301582019992e-04,-3.307537644187371999e-03,-1.112907182477931856e-02,-1.522369389796740871e-02,-6.503214155693841717e-03,1.773772021115040468e-02,-7.080397874025765384e-03,7.525298907048084572e-04,8.130536447115133819e-03,-5.461383972199400187e-03,1.889400595655289436e-02,1.852016484991414469e-02,-9.940663185319163417e-03,-1.101922857240796684e-04,-7.974457992772103140e-03,-8.616743046694958288e-03,-1.854682722322913146e-02,4.387850354347399943e-03,1.072899601271857595e-04,-1.796245227594935046e-02,-8.864802578124053589e-03,1.635029892789225878e-02,-1.043006796839717268e-02,-1.422130820063213959e-02,-4.223975802378685234e-04,1.944940876060241922e-02,-1.033021264481904025e-02,6.893712536227831859e-03,1.047738511361710582e-02,-1.050713451853437820e-02,9.139645628733102101e-03,-5.295042710294528727e-03,5.298605527586956396e-03,5.347619680557741742e-03,1.432710394816047493e-03,-1.640814225162336853e-02,1.342824914497043991e-02,-7.177429249596642760e-03,-1.255435793070884543e-02,-1.839111218641445097e-02,3.640095444283742918e-03,7.111126584058686563e-03,-1.935976963565483669e-02,4.843047752508573421e-04,-1.095334189621812240e-02,5.813903637260125351e-03,-1.304102647253825749e-02,7.646705742262068818e-03,-4.536041363254316588e-03,1.749023396778212266e-02,-1.451662047217249125e-02,-6.365000749147118470e-03,-1.547967559498262050e-02,1.700819943645702839e-02,1.511174809628971355e-02,-9.693993255119765298e-03,6.407067223260860984e-03,1.270416652023970312e-02,2.210691124918504231e-03,1.187451208071779382e-03,-1.033834164550533410e-02,-1.629548685791721435e-02,1.590776159518910923e-02,1.603600779733294762e-02,5.330468914891805209e-03,-6.446561236943493430e-03,-6.038879600997087635e-03,9.049109957438366061e-03,1.590353659401256420e-02,1.550210038411226239e-02,1.120850160317565791e-02
5.688106578742906094e-03,-1.665443064976056958e-02,-1.355114856111255470e-02,1.596136328155893513e-02,4.262288375940639223e-03,-1.965575669335847125e-02,-1.596033278652208773e-02,6.547945571857753319e-03,-1.982137458252593992e-02,-1.358401459413421247e-02,1.951698761570547051e-03,7.685050240418038470e-03,6.085769357005411766e-03,-1.104250775996069509e-02,8.497388134954254185e-03,-1.052269148775921738e-02,-6.992421424672648142e-03,9.871528078554830249e-03,5.992522796942463537e-03,1.398575622030837247e-02,6.312106870988451121e-03,2.735634110690802253e-03,-1.627257930754112333e-02,-5.297739139515302183e-03,-9.403213954248158465e-03,-1.025274460411364393e-02,1.894320400525044065e-02,-4.281239794581009547e-03,1.570074451755631290e-02,5.251861127146541589e-03,1.180665126799558713e-02,1.056107356814435939e-04,3.079859340635213508e-03,-2.996526208451898436e-04,-1.220495863394344821e-02,8.908798669415723265e-03,-8.779664259385113606e-03,-1.905027192182920034e-02,5.825898282383709659e-03,-1.293112428391823311e-02,1.763955737441803145e-02,1.817900584157860697e-02,1.661455690470329746e-02,-5.199905593343996657e-03,-1.940507261469412437e-02,1.715337179860881509e-02,-2.876092965722323522e-03,1.868866846280824168e-02,1.856712861620524874e-02,1.413738036818299598e-02,-8.231944365531006225e-03,-4.601624944499462487e-03,1.406237881044670492e-02,-7.331937459644792890e-03,-1.323620849859685755e-02,2.274786242491847778e-03,1.746719768043165227e-02,7.850633336216434124e-03,2.805821190489045554e-03,-1.613234161466911565e-02,4.605828211551538619e-03,1.962575668304467752e-02,-1.441397418223231211e-02,7.340689136488887968e-04,1.511309846216988065e-02,9.642340954880090909e-03,7.890118595497678730e-03,8.109115689377209904e-03,-5.627121340622263587e-03,-8.266267556104656133e-03,1.238934611638110340e-02,1.241947191483488630e-02,1.470057220854696818e-02,1.654952518853741034e-02,4.542422433768197204e-04,6.072481745514579339e-05,1.194617408042330034e-02,6.005780009791151022e-03,8.088402509746045466e-03,1.184595316973040269e-02,1.561899767131864729e-02,-6.487996436371464351e-03,-4.982674247313422650e-03,-1.626027763256946215e-02,3.134975880667967719e-03,-1.858465966426834162e-02,-1.377736192467837089e-03,1.707839300579223896e-03,-8.548630822319552500e-03,3.637705264994290158e-03,-1.880260272516190781e-02,-1.852835535246994195e-02,1.291955997891499480e-02,-5.599108043108559467e-03,-1.493554154229438137e-02,8.908017140981540740e-04,1.081274594205650433e-02,-1.138084593682509547e-02,4.921537860735404092e-03,-1.660607249245888220e-02
-1.795432370347525494e-02,1.255695409620924668e-03,1.627361991618282407e-03,5.503815156650137749e-03,9.054542685139506386e-03,1.905700185125695778e-02,6.527990128841490653e-04,-7.090268107523057563e-03,1.182166497312866354e-02,-9.177747456477992546e-03,-2.444082518050324625e-03,-1.688204773680827830e-02,-1.900883100405057272e-02,1.852821932596488905e-02,1.345538677863601477e-02,7.848407035531844780e-03,-3.646267362766380214e-03,-1.308396246635768097e-02,-1.375906546680525158e-02,-1.000231323443574391e-02,1.971437513723430044e-03,8.594172585704265219e-03,6.415610725342382921e-03,-8.813243262563620270e-03,1.821651910287279755e-02,9.527334601542973569e-03,2.176779978566080378e-03,4.474210704756387096e-03,-3.219869840403177808e-03,-1.010291056313375284e-02,-5.768029705102067049e-03,1.032626317407060040e-02,-1.944764893455465035e-02,-1.537558564180645758e-02,-1.818176039333335020e-02,-1.839296798770317584e-02,1.423554356470976487e-02,8.156123238153701119e-03,-1.034290713722671668e-03,-1.610600326396091977e-02,-3.357688036167865743e-04,-1.062406859535710516e-03,-1.308766492550861478e-02,-2.649119962559274167e-03,-4.064698985171412600e-03,4.639583661256676227e-03,5.410252609562140290e-03,-1.820973933185364782e-02,-5.021534502668368108e-03,5.040458474983064430e-03,1.256013962033291568e-04,1.427676342436797266e-02,6.355388495855111321e-03,-1.349885715401170395e-02,-1.719793299006047368e-02,5.703630530516837389e-03,-1.896235242209964172e-02,3.435154497942529382e-03,1.763041265951900693e-02,3.022602211021682000e-03,-4.478589072712682063e-03,5.738429991108672315e-03,-1.671895064715027239e-03,1.826868634101692533e-03,1.767985481459143429e-02,-4.561380176662279719e-03,1.846983507669330837e-02,1.623354875929064814e-02,-1.218300635364901775e-02,-1.724628900584850369e-02,-1.598810784940971064e-02,-1.929433106780504073e-02,-1.624181459161421967e-02,7.329085172281278593e-03,-1.717310709110142844e-02,-7.249693544495747731e-03,1.381162281989181152e-02,-1.909208343376337866e-02,1.259388518723737228e-02,-8.736315633382648119e-03,-1.529179739028970614e-02,7.878962153092479437e-03,5.163924202172284414e-03,1.511706089150148709e-02,9.414163582110104608e-03,1.215385390077000291e-02,-8.729115061786056270e-03,-1.291795386977201941e-02,1.003666053401825603e-02,1.228816778703722620e-02,1.964383009467094571e-02,-3.499501556758856814e-03,-5.125440617447941070e-03,1.106983142854246240e-02,-6.375525838908631740e-03,1.725103977845692318e-02,1.435377246454619393e-02,-2.843658796853308808e-03,1.004692552511118539e-02,1.019397462365818907e-02
-1.589416016602447634e-02,1.612150459967753510e-02,2.103478702359761864e-04,1.307402195866985001e-02,-7.206682988897311973e-03,1.583997889886424801e-02,-4.437269278856772504e-03,-1.959005368187973634e-02,1.623480364699416215e-02,-1.636821796789747485e-02,-7.236156973035682075e-03,1.802415521427351217e-02,1.804598866748195404e-02,2.941052546200026603e-03,5.279838220360729036e-03,-2.064662161841198090e-03,-8.281528812527239741e-03,-6.861670289976192633e-03,6.909047325272776353e-03,1.010713640284226049e-02,1.167720519861407957e-02,1.159867471762927177e-02,-1.637144479810351619e-02,-2.234565492126352191e-04,-1.771895909114984055e-02,1.983540774267920827e-03,-2.341596037214226534e-03,1.552684047721326378e-02,-5.970579943663663000e-03,-1.533576271241455374e-02,-1.429752746634556197e-02,1.047302052014174520e-02,4.734416321169772172e-03,-1.597430425887398295e-02,-1.665575860200833175e-02,8.048444622933480924e-03,-1.711005694845146863e-02,1.288990425905014482e-02,8.259622421253191502e-03,-1.676621245692476100e-02,-1.662648708015887836e-02,1.948902137585797889e-02,-5.035223720654825874e-03,-5.180544436424966946e-03,1.252704819327774520e-02,1.791148412507315157e-02,1.946345003566283052e-02,1.014733097520897215e-02,-4.955576342707364822e-03,-1.668003137001230693e-02,1.109922498576609851e-02,2.338982938970515357e-03,-3.034769358780546166e-03,1.627374682855929275e-02,-1.557082677422324223e-02,-2.953510287076293304e-04,-1.956938909838353349e-02,-1.255083731502664151e-03,-1.776923893298569881e-02,-1.526564238943768463e-02,-1.531737138032151883e-02,5.975598565974768288e-03,9.853645538229989509e-03,3.338765930345515085e-03,1.850916175847655207e-02,-5.011203482302379122e-03,-8.581837391655432190e-03,1.476171812932320845e-02,-1.106947903428178760e-02,1.855121196829551122e-02,-1.953731733076426863e-02,1.881778404866451745e-02,-1.829560651183770661e-02,1.566456334554576849e-02,1.109378544138632213e-03,1.974233472481792470e-02,-1.706866483387735681e-02,2.156765183611838999e-03,1.879470464896203924e-02,9.250262384221171353e-04,5.182177808866714544e-03,7.839375489489012680e-03,-1.820546867957783480e-03,5.108466839212733035e-03,3.376633344170317224e-03,1.606564156913648650e-02,-1.820403765202083246e-02,-8.772021982438206814e-03,1.803815272924572805e-02,1.562934780171176471e-02,-1.775865611868040561e-03,4.811089911146311342e-03,-8.915474768640178904e-03,-1.249017476864909375e-02,-1.453812212071688842e-03,-5.872973940025102112e-03,3.350273640101950143e-03,-1.691095227359104211e-02,1.899864079218049201e-02,1.947184736087369944e-02
7.936012710478994314e-03,1.445593178914985266e-03,-7.628069153642453269e-03,1.256691423566923607e-02,7.398144190775403015e-03,-1.351157195477457537e-02,1.645687904626994338e-02,1.291702421985546460e-02,1.801366044250796161e-02,9.039651763380516028e-03,4.542070303339271718e-03,-3.274216244936035362e-03,1.732998102621157235e-02,1.466018647594636432e-02,-1.821315702873966755e-02,-1.896813281559474665e-02,-4.947415274011463839e-03,1.243709054777675758e-02,1.951451406688523363e-02,-1.400016148071230038e-02,3.769762273082630580e-03,-4.770102440758519982e-03,1.881920860616993763e-02,1.370123454942379776e-02,1.354944326248585379e-02,-1.253781453299776007e-03,-3.411322492223994255e-03,-9.074630617513674072e-03,-1.776634661581184479e-02,1.460646133424036569e-02,1.253111075397021941e-02,2.001277505328081033e-02,1.988939322112383279e-02,2.219938005694420489e-03,1.077245196626992231e-02,1.781205064254094000e-02,1.400273584798154315e-02,-1.011824451464344264e-02,-1.980616552134382199e-03,-1.485148435194678929e-02,1.818390974944948668e-02,4.252099113599141882e-03,-1.086735727563328813e-02,6.876297071729244037e-03,4.730819080657374699e-03,-5.680322650010042121e-03,-1.547630870747448810e-02,6.871191378907247176e-03,8.132861248719868612e-04,1.090585145976227278e-02,8.075111880420676085e-04,1.410422228506262587e-02,2.078773562859147651e-03,2.440453843709917883e-03,1.508428503927095390e-02,-3.865333948620857957e-03,-1.465701794731176510e-02,-1.887138839444342867e-02,1.021777851467724901e-02,4.818176575915089459e-03,8.173019907496694228e-03,-1.149525817283405561e-02,-1.456265457690063617e-02,-1.944159457182350476e-02,-5.983693864781532840e-03,3.601038219240145985e-03,-4.315428093406160036e-03,-2.504014541850068439e-03,1.618581345250875644e-02,-6.077089857674496456e-03,5.602533483047301413e-04,1.135978221431346163e-02,-4.143271562575314912e-03,4.889348124493421606e-03,1.451200103236862694e-02,1.800247540558733150e-02,-1.413405891782497890e-02,1.708405093365987504e-02,-3.157279832583706329e-04,-9.681868249776648741e-03,-1.636537912994417022e-03,1.922442303123155991e-02,-2.956317782672732478e-04,-6.858183499926626472e-03,5.342459216621454204e-03,-1.040669072959488246e-02,-1.698589475651443581e-02,-1.486268555256905349e-02,-1.489608103335512794e-02,-1.394065782300749415e-02,-1.446430841957854936e-02,5.641774804351955275e-03,-1.274011837328645723e-02,-6.180741861480544899e-03,1.589064709074476320e-02,-1.042788486444356589e-03,6.710379697813322573e-03,-1.312298735393530209e-02,-1.232325966682457606e-02,-1.838736869588224881e-02
-1.325854270311487525e-02,-8.867050289493055848e-03,-1.293513691487239645e-02,-1.647170815027657401e-02,-1.519283663717926197e-02,-1.570738308116969998e-03,-1.176079524190286156e-02,-5.435742788388596945e-03,1.368554217117408758e-04,7.624963214950577529e-03,-1.844970271815531485e-02,1.199083659094202052e-02,5.122175702284851445e-03,-1.674978264553194512e-02,1.496113779566535587e-02,1.685516668359796424e-02,-1.757802160085318935e-02,-8.935640413966756609e-03,1.226279889848217071e-02,9.942344655880295048e-03,-1.263435377848659037e-02,-1.164002580276103996e-02,-5.187354397362470108e-03,-6.198260186227891539e-04,4.735886417725007277e-03,-5.249767987175663064e-03,-1.500415811600297336e-03,9.910756576863093484e-03,-1.855498681482065440e-02,-9.914445714448693811e-03,8.544259085216280442e-03,1.582730802803467007e-02,4.676601104014223298e-04,1.286086106511629031e-03,-1.573203949340488614e-02,-2.106038128341414933e-03,1.306261617934691664e-03,-1.031358336088269816e-02,-9.241384801669135646e-03,-4.914543892579286907e-03,-1.922026711063579141e-02,-7.125402655985471970e-03,-1.155597737654455795e-02,-6.908414233694725771e-03,-1.522782829072210665e-02,1.563990036658540958e-02,3.748205876619720069e-03,7.172718949460178683e-03,1.158077702569794420e-02,-6.238707189506539224e-05,-1.654308381614301784e-02,1.486048851417248349e-03,3.477827287753642270e-03,9.829400176595368827e-03,-2.736909662111248250e-03,-1.491472490166617648e-02,-8.659377864092099308e-03,-5.483302571564146501e-03,5.843717529462997759e-03,2.834541113338730212e-03,-5.763061840696646725e-03,1.948404219938379076e-02,4.236087253369406544e-03,-1.052358439203196494e-02,-1.594788062090086653e-02,-1.390235393041289701e-02,-1.017392641415392103e-02,-1.358908782170770504e-02,-1.255241504806647521e-02,-8.606543808048794028e-03,-1.308078763923388108e-02,1.588972657251118067e-02,-1.681086756005467642e-02,9.816361356344584493e-04,-3.588442517399906620e-03,1.931837768959009799e-02,-1.553712945407273970e-02,-4.090695663827805320e-03,1.880142864174141545e-02,1.463788911603906492e-02,1.269815411942115148e-02,-9.695547150702123196e-03,-1.318034769011231476e-02,6.753851234467183468e-03,1.719571978950222221e-02,2.273249616710624598e-03,2.867956692219982787e-03,-8.811433217160758585e-03,1.079269703421304773e-02,-1.253332310712594252e-02,-7.061322758228954534e-03,-2.986133692907679774e-03,3.047816893901891485e-04,-1.031601713661962558e-02,-1.542507779365270837e-02,4.430129539367269262e-03,-8.464958149913366300e-03,3.253441569052628948e-03,-1.384213846942231561e-02,-7.553042833672406328e-04
1.305146921220680335e-03,-1.794864424699284949e-02,-6.543698572175903581e-03,-1.464102076896539595e-02,-1.748603054420551361e-02,1.962200746552085137e-02,-7.114402250819476872e-03,1.240990245325583781e-02,-9.826191159385884444e-03,7.268850684305831061e-03,1.042164786432722527e-02,3.830155914993895773e-03,-1.138321446511737388e-03,-3.530609478891433978e-03,-6.052548362354214818e-03,1.720185337078916285e-02,1.324070007929491720e-02,1.862347372205561472e-02,-1.504620619845807583e-02,9.245818379779228297e-03,1.755473025683611243e-02,-1.276603026524927333e-02,-1.736102833605156215e-02,9.656439171363792248e-03,2.982511408464257833e-03,1.368961471987888839e-02,-1.442645473622898751e-02,1.182491356365422339e-02,-1.194927785255652485e-02,-1.346996177195901659e-02,-1.344553819663004551e-02,1.259813980970547059e-02,6.615845294163215894e-03,9.237279009510829990e-04,-5.653579844471972975e-03,1.510618890788411293e-02,-4.307375916637048822e-03,1.267922609675553938e-02,-2.437535129329186472e-03,-4.928149602510358170e-03,-1.494606043094138820e-03,-7.954451358140074424e-03,9.916300926407790178e-03,1.089466270423181441e-04,-1.072438975173588098e-02,1.600222781669737374e-02,-4.649943343185718690e-03,1.744212100143119034e-03,1.627846153343451632e-02,4.975503565737408353e-03,-1.534252987963602606e-02,1.761446877233665068e-02,5.114472981921786184e-03,-6.611726927127466874e-03,-1.444649099110463693e-02,1.177516883517448071e-02,4.808693354034962106e-03,1.340055280325919531e-03,1.577467454356157664e-02,1.155778828325262041e-02,-1.394978134648437035e-02,-7.540185400941523501e-03,-1.007254803547480947e-02,9.769600995367297078e-03,-1.868116929284423938e-02,2.798953522449213957e-03,1.051098834261289701e-02,1.508877179935487131e-02,-6.324335937477302758e-03,1.286576504358092309e-02,-1.559348383650288952e-02,1.387477800331174752e-02,-1.491839493392933813e-02,-4.113455374934031974e-03,1.190613339849266351e-02,-1.402016408679472234e-02,-1.084298437469164399e-02,8.900807183814671980e-03,8.812059178219595890e-03,5.652703470863846419e-03,7.767279002820742101e-03,1.711035490038597014e-03,-9.939991854687956277e-03,-6.179592071497280563e-03,-1.275142667698988229e-02,1.635769483717207720e-02,3.339688226292012417e-03,-3.970718666226998733e-03,-1.521597785405477167e-03,1.791287628845987176e-02,-1.388263966401896352e-02,3.453346405954000817e-03,2.358307744067795846e-04,4.463537436691480779e-03,-1.929880211808794946e-02,1.490287912507485928e-02,1.730554360202294154e-02,2.608464381704023432e-03,7.875504335099160411e-03,1.692032427040085843e-02
8.299526697924929433e-03,-1.391517319815300559e-02,3.055208716478417189e-03,4.273741618975470877e-03,-3.038427275713708603e-03,9.469157392584526267e-03,1.739560120012002137e-02,1.704323735951990965e-02,-1.968792888787138096e-03,-1.548910595228110421e-02,1.941699957816054450e-02,1.357224595526033972e-02,-1.503157028804857909e-02,1.685394449717260781e-02,1.481366996347484137e-02,7.544295906642257922e-04,3.655413568708285044e-03,-4.044756222338654478e-03,-1.783097865791129222e-02,-6.600047801816094802e-03,1.212872440761555114e-02,-1.983857770531810213e-02,-6.668052384895595264e-03,-4.078156802309607955e-03,1.497625218369935673e-03,1.681444634701563176e-02,-6.153560730738530209e-03,-6.129243184324832672e-03,9.511488801342234123e-03,-1.913583712712360867e-03,-1.102907106130070029e-02,-1.904710031171145306e-03,-1.438301674591496541e-02,-1.296010685549037374e-02,-6.536770409943256602e-05,-3.246886849011452331e-03,1.661381644810818944e-02,-5.510871618424947188e-03,3.227415423240437026e-03,5.296941819786931370e-03,-1.949967278206244173e-02,6.549371402962475032e-03,-1.289406822038356715e-02,1.846501943103694837e-02,-1.407041250126899942e-02,-3.419147046755510472e-03,-1.660598426295570307e-02,1.989890124671747987e-02,8.790613249660401529e-05,3.819994763295699817e-03,-1.733779199027539117e-02,1.001045777191615117e-02,-1.161774822054124218e-02,1.594134324124499985e-02,-1.180861586975390232e-02,-1.238738871665078824e-02,-1.856033464802769178e-02,-1.118667547594310446e-03,2.596768302492138709e-03,-1.739257138845898623e-02,1.103437502544872550e-02,-1.870696380452181729e-03,9.767854923600145008e-04,-2.372343192314333143e-03,-3.974257157283020078e-03,2.388485735806839157e-03,-1.380699497826737981e-02,-1.273819421537616958e-02,1.448884968034604842e-02,1.786610494033651075e-02,-5.073729207867939787e-03,-9.181254799282207932e-03,5.766917242823858120e-03,-3.655028832288658401e-03,-1.900740479904688279e-02,-1.377045697886526178e-02,8.649291119235289968e-03,6.364612000039101061e-03,-1.893893698333097911e-02,-1.113450429959066817e-02,-1.076996049919390526e-02,6.883988689675393791e-03,-1.923471088219743177e-02,-1.585472421290684206e-02,1.201108840510722170e-02,-1.287369591249062396e-02,6.117201091972225904e-03,-1.048529877586952194e-02,-1.604163656980104463e-02,-1.028548207061690846e-02,8.901382414112144967e-03,1.424499028951021519e-02,1.322469910708974628e-02,-4.117610810094359496e-03,6.731501021102043701e-03,-1.181483715435402079e-02,-8.284053506301718856e-03,1.587252163699137686e-02,-1.950337856187761565e-02,-1.659962210054507017e-02
-1.169861899678438510e-02,-1.896151568251698560e-02,-1.275792576150038861e-02,3.325662005970678008e-03,-3.146802440189840934e-03,1.572578086320902332e-02,1.271303164326167273e-02,-6.334924552468298130e-03,-9.634649657614595061e-03,-4.818098100708568914e-03,3.616146615577230019e-03,-9.288625219846807432e-03,4.971935752355479375e-03,-3.627896958743375300e-03,2.084394005316069463e-03,-2.558015200625627077e-03,-8.231268854242246302e-03,1.795973133212501460e-02,1.055692792806244701e-02,-1.441280635656375791e-02,1.475646572091587373e-02,-5.033574267399175579e-04,1.580109206800314053e-02,1.200865229831789283e-02,-2.995061796070283729e-03,-1.912422718768855279e-02,-9.264046918567289679e-03,1.667373833406226181e-03,5.345557563187333487e-03,-9.696153544443723502e-03,-1.444312688893037606e-02,1.341334086410924352e-02,1.939941770317997818e-02,1.028844619643946726e-03,-1.314864162086215246e-02,-9.118673401488553223e-03,-1.928756889952848094e-02,1.659190631785103023e-02,-1.530836710691958237e-02,3.064344317195727679e-03,-9.048673450180377484e-03,2.169729499568508104e-03,6.064108460761109300e-03,1.320555364764293589e-02,-1.175728889083974167e-02,-1.958371897639553036e-02,-1.454206363417093716e-02,1.602001194750863472e-02,1.497361093456449355e-02,3.901215836847906487e-03,4.025515655054497099e-03,6.609415715710678652e-03,-1.300078409078630516e-02,1.659643734161037401e-02,-3.253091295212616561e-03,-4.680087320423869171e-03,7.576193530640082168e-04,-1.814318100616795285e-02,-1.336473819047657476e-02,9.532809174696231166e-03,-1.670814713403750290e-02,4.131052539020777306e-03,-1.019830047545138875e-02,-4.433507342296737555e-03,-8.462427765559466311e-03,-5.780042639765124550e-03,8.772386211532954420e-03,-8.124902691012389488e-03,2.659383887739544608e-03,-9.591374070364900055e-04,6.554729580747676101e-03,1.749422879563445471e-02,9.314085360502053282e-03,-1.141611430814870425e-02,-1.877525443017635104e-02,-9.520888409284085710e-03,3.807696508156362646e-03,-1.796457233624377745e-02,-1.455251259829816696e-04,3.878378241353173592e-03,-6.638227751628501642e-03,1.084953621331965351e-02,-1.575501745581359830e-02,-1.701495155623734476e-02,9.138540603457572659e-03,-1.805645054703876068e-04,7.545169964497960673e-03,-2.610045395372780595e-03,-1.015613282072006830e-02,1.277946177208288785e-02,1.199105605727801907e-02,7.797236085837329356e-03,-9.125168784658802684e-03,3.613572494012241929e-03,-5.567740097677869975e-03,-1.635638787896409596e-02,1.671264227555984902e-02,-1.454474682707426053e-02,1.803117913230346814e-02,-2.162369629359663266e-03
-1.260984792753167862e-02,1.678055988870929280e-03,1.493579578919306157e-02,9.300180205608157141e-03,1.227721095370158146e-02,6.358982221476652992e-03,7.700323281362350322e-03,1.398464452618854159e-02,-1.002533649529829818e-02,-4.235107843962854354e-04,-1.116504983934845686e-02,1.953020808837844374e-02,1.778376101252701624e-02,-1.844511033408388623e-02,8.232908107975164119e-03,1.703041411815938225e-02,-1.279237078488965756e-02,2.721081698094138246e-03,1.663954324893167358e-02,-1.866460762114933308e-02,7.906319128936127594e-03,-8.115800073884980870e-03,1.699628819546583972e-02,1.886501759182299121e-02,1.779205696662869429e-02,-1.032673265712844750e-03,1.449914325882553819e-02,1.379857062545268576e-02,-7.244693813650151561e-03,1.317246066650850853e-02,-1.854199391607235306e-02,3.855431827732954970e-03,-1.081265021147472319e-02,-1.519559937268257638e-02,-1.694224732363544886e-02,7.861004977672241337e-03,-6.412713621743888585e-03,9.001496401912648451e-03,-1.740668030154904691e-02,-7.397282739381720595e-03,1.581553731477566534e-03,1.164292882106784423e-02,-7.258629385544549360e-03,5.041718419150585488e-03,1.545769994530440776e-02,4.640107896925886946e-03,-1.069448259998894216e-02,-1.904687523183770312e-02,1.482178019069356652e-02,-1.917228087766674124e-02,1.500611382864425712e-02,1.158879072987359675e-03,1.758385495097154402e-02,1.196571985919331511e-02,1.994134664065266502e-02,-5.978717614349618632e-03,1.070040026418663318e-02,-3.927486800122085772e-03,-8.059444471840373657e-04,5.106359630375780639e-03,1.496508214246878785e-02,1.938665389276750251e-02,1.074385752487117159e-02,-3.293289347904009012e-03,-3.149507626166142982e-03,9.514734844322282614e-03,-1.046149556035728782e-02,-1.559979638116086587e-02,-5.822115591258210897e-03,-8.520687635752345612e-03,-8.157485683241254282e-03,-1.066852032492183501e-02,-1.833832678142173142e-02,-1.930826346015360184e-02,1.953238597716543123e-02,-2.892553344856257230e-03,-4.632505340123461816e-03,7.194543738722193084e-03,-1.128341434717353153e-02,1.802011903618958022e-02,1.146759193734912287e-02,-1.644333528578614811e-02,-3.300738561907337609e-03,1.518299194408882259e-02,1.781070071542671662e-02,-1.305509605340125735e-03,4.541917850991013250e-03,-1.333467894665076384e-02,1.967040141580101570e-02,-1.074605555839113283e-02,1.773059445034462847e-02,5.993073456993264214e-03,4.314660769737289209e-03,5.081515629907771333e-04,-1.078617939947064223e-02,-1.295445824228263001e-02,-1.119401398270217403e-02,-1.255757172596482299e-02,1.119684469249821596e-02,-6.002208116316861720e-03
-1.770758875488238557e-02,1.878669880169516263e-02,1.536991984672021055e-02,1.713069334894515641e-02,1.982014936874356217e-02,-1.305989635759743223e-02,-4.155316585120433920e-03,1.034197668131890332e-02,7.850265749295239071e-03,-1.386083330991999020e-02,1.264853660917616279e-02,-1.103564901633160081e-02,-1.106059730064544964e-02,1.480757731110046065e-03,3.722073700580490977e-03,3.207305540724194725e-03,-1.636020190300915139e-02,1.511661431856904832e-02,-9.387287804577679889e-03,-1.483724698429643787e-02,1.556864663931550874e-02,1.824800567247722785e-02,1.450254600213910991e-02,1.239555034767940433e-02,6.217156213275646867e-03,2.036744290248996333e-03,-1.654042174167189710e-02,-3.666280685289470629e-03,-5.098591078393347777e-03,-9.621419733645218339e-03,8.947565228632414422e-03,-1.651692356324503230e-04,-1.677832961885305368e-02,-1.120614886138179139e-02,7.339176918727631505e-03,-1.697518061601751768e-02,1.406519189484510025e-02,-1.943726793926917648e-04,-7.774719241390456266e-04,3.700762063110058647e-03,1.300287638900740096e-02,-6.094961715892890410e-03,7.129219972524705740e-03,2.632444437291088166e-03,-9.330089912996648513e-03,1.516343557657973129e-02,1.191136592442165569e-02,6.345704971661094221e-03,1.404015438560640532e-02,1.470945819035344646e-02,8.344554546187415295e-03,1.349676485553832385e-02,7.908369371533335510e-03,7.214307069542161624e-03,4.750167860524971176e-03,1.012083728484071410e-02,-1.367223854057320401e-02,1.525317441365744466e-02,1.489165037299521911e-02,-1.885278174853699529e-02,1.304836247788651420e-02,-1.486308020468080429e-02,-6.603187072692601883e-03,9.752058446790685259e-03,-1.358594312823003213e-02,1.273399535023513052e-02,1.330136384263659946e-02,2.990690221753131324e-04,-1.976833928544284233e-02,-8.528731648954278668e-03,4.682708337568019380e-03,1.927062270238508179e-02,5.278889673477058127e-03,-9.619425443082453564e-03,5.366682299534531082e-03,1.601341022043941808e-03,1.120729412275472438e-02,-1.573970361107600302e-02,1.045368810162469742e-02,1.652650687402515851e-03,1.854197944164434966e-02,-6.332729338788715447e-03,5.311263251860686915e-03,1.730193217984594967e-02,-1.591875537896994541e-02,1.751019791717303015e-02,7.524478114618091303e-03,-1.730733208937424925e-02,-7.971043601293630043e-03,8.336909829571321345e-03,-1.732681382430311182e-02,3.290776019023714492e-03,-6.172100523916711906e-03,4.842444417902200260e-03,-1.819219727349061927e-02,1.487936673651416367e-02,1.896236362433261977e-02,1.877769698156027053e-02,9.998097360566834263e-03,-1.481436671370266536e-02
1.034296668092720903e-02,-1.903942087085009130e-02,-1.913807411216958757e-02,-7.064086772525411499e-03,-4.548193668232095271e-04,1.082932046357160810e-02,7.340643200009449101e-03,-2.166497256648989254e-03,-9.065836267056089776e-03,1.990892323200740832e-02,-2.956303272931689371e-03,-1.946860394916953866e-03,-1.347124818601072756e-02,1.180658099181002008e-02,7.756617433388775761e-03,-1.118266418426096948e-02,-1.672487214053560572e-02,7.228665550171712445e-03,6.187890362739050312e-03,-9.080539521084953283e-03,1.805625762983948876e-02,-1.397449058082018969e-02,-2.709866947000138040e-03,1.776600287515734192e-02,-3.214773531455572889e-03,5.547709792638301843e-03,-4.101156287488209352e-03,-9.042266478454770787e-03,1.938241594647398258e-02,-3.631006533483718563e-03,1.578294932024873476e-02,-1.081482207930997870e-02,-1.148962970317620250e-02,-1.877721887976882206e-02,6.073977810976596142e-03,-5.265278474516093057e-03,1.459187874004320463e-02,-1.072894035371212921e-03,1.875028692234533001e-02,-1.259412554461799075e-02,1.476268087780704778e-02,1.107719596740583748e-02,1.084992231358767288e-02,1.380793507076225404e-02,1.045353145086939765e-02,5.054892070058748799e-03,-1.476796540766302061e-02,-1.872146796733874935e-02,1.685418339240965513e-02,4.671630861174866194e-03,1.187577389486777629e-02,-7.399958865997407998e-04,-1.532610419532426382e-02,-1.501062065325236249e-02,7.431548951610628465e-03,-2.791120911823622482e-03,-1.199343469114062290e-02,-3.366229658805199509e-04,-1.745263171341101052e-02,3.282804101218217245e-03,-9.251389894744629569e-03,1.191669549517585663e-02,-7.594655263341629388e-03,-1.793350788360511400e-03,-1.955870043816835754e-02,-1.712271691659440417e-02,-4.305435623805367422e-03,-8.034128260318956468e-04,4.005639258372473664e-03,-8.343531098376764585e-03,7.808666443303100523e-03,1.442224062079379941e-02,1.120751814185683669e-02,-1.843742052683616794e-02,-7.806609621497957860e-04,-1.582182078465282568e-02,-1.033062336472528528e-02,1.948994307496710113e-02,-1.431739692816637842e-02,-4.452741229953871696e-05,4.731920159265173668e-03,8.108350231087845320e-03,2.388820225224339878e-03,-1.963277722527699207e-02,-6.949905890490782820e-03,7.093187890499145056e-04,-1.650518980106778152e-02,-5.982117072367858571e-03,-1.869435819209089300e-02,-1.687715722278054775e-02,-4.128033481468361410e-03,-1.470905951077176171e-02,2.704886930009346539e-03,7.587724050035369629e-03,1.203794525360693882e-02,-1.200843202572471173e-02,-1.331671189211017584e-02,-1.583633175945212135e-02,5.463780931791085808e-03,8.268973640600221081e-03
-1.875911462926572321e-02,1.746949933180118666e-02,-1.794272725783559522e-02,1.653842385582324085e-03,8.372489851679914413e-03,1.485663209872540615e-02,8.573788448262564810e-03,1.208365558501243130e-02,-6.429724929197425110e-03,1.260816761012354889e-02,-1.681562925773147019e-02,1.581168197047870191e-02,1.905987258670532956e-03,1.270719295039043038e-02,-1.909565134678379347e-03,5.750023003471629174e-03,1.057378080402471450e-03,9.274735018092013228e-03,-1.675495085775114551e-02,-1.760709159610333516e-02,-1.012805101763769415e-02,-1.363461029461378142e-02,1.488924903893865115e-02,-1.124496412576065328e-02,1.905752954013947842e-02,-6.532023988791966357e-03,-1.273059366693139564e-02,1.160189316216967727e-02,6.355954932350354504e-03,-7.225824237557016045e-05,2.217208536531499810e-03,8.778628642437705590e-03,-1.087488890033719291e-02,1.987726179071926461e-02,1.901459415752701498e-02,6.020267655950426074e-03,-1.203277303176778987e-02,7.217810109270152673e-03,-1.713266803680407041e-02,-1.879650530149883092e-02,-9.704355285047393254e-03,-1.496881937382479833e-03,1.474863748680352131e-02,9.097704034359908876e-03,9.719950428806177836e-03,-2.983855119342401080e-03,-6.170020598759633906e-03,-5.164660697329809085e-03,1.952946942961585053e-02,-1.841778226655498008e-02,1.469893734409080145e-02,3.150805621162668189e-03,-2.458339724949567314e-03,9.021155600264743613e-03,-5.338844126426790185e-04,1.495491487073529607e-02,1.604737374036397171e-02,-3.134933114450517977e-03,-8.937636851444226427e-03,3.698461053182088183e-03,1.651439466164297820e-02,-1.158744794387680382e-02,4.924585836125438404e-03,5.268745196378473404e-03,9.335748421521570736e-03,-1.475503756235134814e-02,8.643393459874240334e-03,1.638100123961555923e-02,-1.282810320834014937e-02,-1.051090781918965003e-02,1.887850777067427710e-02,-1.277628713880099402e-02,1.419247213972439116e-02,-3.092576670710113951e-04,-1.012293124468345747e-02,1.484785264127413441e-02,-2.190424086925307073e-03,5.934078119145169607e-04,-5.637445029080888348e-03,3.722510890090137501e-03,-1.347525094414523533e-02,-4.361984421730120617e-03,1.879910140531542567e-02,-9.686311817693084650e-03,6.277015558483899256e-03,-7.000816878746850443e-03,1.095209643375930596e-02,-1.478283196531025336e-02,1.881547000053875734e-02,-1.850643999274053817e-03,-1.057069418363419840e-02,-1.708067197033021761e-02,-1.322558939159834863e-02,7.919103236121460311e-04,-6.527723430370223866e-03,1.317117478934117306e-02,-2.767827748088289280e-03,-1.006353188137958446e-02,4.691441569615414052e-03,8.281047777356524350e-03
-1.333436009082768041e-02,-1.331123995017548245e-02,-1.855545842027344489e-02,9.467466536733899415e-03,6.560070494299030837e-03,-1.015986834283927722e-03,1.378339439130333438e-02,1.224152824386636786e-02,3.418285535620600463e-03,1.474858843200348331e-02,-1.178051929756077781e-02,-1.554190650995418942e-02,-9.221105189935047131e-03,-1.773785797675918666e-02,1.248282351711862189e-03,1.748525612356706740e-02,-1.844844517268704256e-02,-1.513380392582599696e-02,-1.914341127863405587e-03,1.737589761419635476e-02,-7.362610355212703336e-03,2.897408008049690768e-04,-1.835916506577112833e-02,-1.408320896241917371e-02,1.948864269875339589e-02,1.862714957355527529e-02,-1.982624455581276715e-02,1.809423222644188090e-02,5.571498007303510476e-03,1.473445199125455497e-02,-1.812585658862532045e-03,6.245923015461548938e-04,-4.466739767782244093e-04,6.682607058387552736e-03,-1.443130544467388643e-02,-1.882369449357691737e-02,-7.692053090956162652e-03,8.197088638962372539e-03,-1.194022167824988767e-02,6.945650435475652328e-03,1.881911442461031356e-02,-1.626353050665716241e-02,6.912397840653083415e-03,-2.252700410716569970e-03,1.474342117223089235e-02,-1.292955799863069848e-02,7.714315617408521245e-03,1.354089638116130929e-02,1.780598292894238974e-02,7.338746986877288381e-03,-1.131455127451589960e-04,4.719565536451282919e-03,1.477396711198435478e-02,2.827790673800988260e-03,-1.880713578648177467e-02,1.725870379162617804e-02,7.590198301435702177e-03,7.069036922835312403e-03,-1.138668796663662094e-02,6.363071280011030513e-03,-4.250535629091870340e-03,6.056602981972948607e-03,-1.575522662039409438e-02,6.321414556871995591e-03,2.000060251350452983e-02,-1.809327810763063440e-02,1.910994971872059106e-02,-3.728165203870286836e-03,1.484799477479920894e-02,1.130902001845787187e-02,2.683878173086349291e-03,9.549452904074282392e-03,1.515885306332319035e-02,-3.839004065760294373e-03,-6.927004215298267556e-03,6.711807296399795522e-03,1.232866459699564002e-02,1.050403794523857917e-02,1.192688968395152864e-02,-2.579769936591029544e-03,1.272867663598615390e-02,-1.520992982329247116e-02,1.781706666404122077e-03,-1.979345794284079543e-02,-7.025015353727054497e-03,-5.347970276906496498e-03,-4.158093015897457688e-03,7.828102640543389140e-03,-4.463043374313595615e-03,-2.054726186692439494e-03,-1.051087554235431189e-02,-5.076032964469464649e-03,-1.092235054223259470e-02,-1.709271940149033331e-02,4.142926175305415050e-03,6.736613649117085406e-03,4.785368906414211830e-03,-1.461996500383418640e-03,-4.814358723112819975e-03,1.455084538105790373e-02
7.641904498492911590e-04,-8.337275671843455329e-04,-1.899716407732314483e-02,-6.357732945575153387e-03,-4.797945439610868182e-03,-4.051961806977049177e-03,3.210756146133895289e-03,1.345720283295492219e-03,4.321400792127106510e-03,1.060808815057990261e-02,1.253450401827913008e-02,8.735428606606398735e-03,1.824288742608737302e-02,-1.929390026871725256e-02,-1.218353295118518829e-02,-1.972120246646534222e-02,5.906091455630875509e-03,1.594039247819224042e-02,-1.027306291179196605e-02,1.710194924423907858e-02,-1.761048342328338026e-02,1.739836500543703174e-02,-5.942238872114560116e-03,-1.596236380577545008e-02,-5.658100972161344807e-04,-9.740651768202030977e-03,-8.615445182456021866e-03,-7.717682981029603921e-03,1.213563068274987888e-02,1.568337208783110968e-03,-7.556780103942135202e-03,4.418665386914427153e-03,8.656437528810160056e-03,-9.105991180802661816e-03,-3.462199711588979587e-03,-1.514276753272257234e-02,-1.276938296256934294e-02,7.253437417368936019e-03,-1.275780911698608765e-02,1.007747301784798349e-03,8.371918855839323784e-03,-1.574385723567095843e-02,2.695730773161886425e-03,-9.749213425541433317e-03,1.853937115996934920e-02,-6.589666294488031716e-04,1.225443964461048890e-02,2.011480769265981596e-03,-1.828548950857639133e-02,5.332468051959994397e-03,1.807787482574852236e-02,4.069366780587291461e-03,1.278292761033495741e-02,1.538676323862101999e-02,-1.088990573544693780e-02,-1.153207531455155074e-02,4.444584780162120358e-03,-3.563146382627686588e-03,1.361082100390742511e-02,1.602019142535173607e-02,-5.870204558395172509e-03,-1.053785085988745429e-02,1.123453168338627191e-02,-9.018604693917176701e-03,1.292011095570136728e-02,-3.054142882042485633e-03,6.710065751066796730e-03,-1.619806785698340093e-02,4.960338478131478754e-03,-1.931615884989347455e-03,3.468509888479911867e-03,-1.329542126776660227e-02,9.486358452008944453e-03,1.452935665675969545e-02,-1.134405078181971796e-02,-1.619088955666761476e-02,-1.907739976220297617e-02,5.685697853477732037e-03,4.288919460660170144e-03,1.870145616566562270e-03,-1.073502650513236123e-02,-4.369014506226042045e-03,3.783603712684052364e-03,-1.294813648303815381e-04,1.953491423690064885e-02,-1.455992020964840157e-02,7.815180994791694896e-03,-3.831857613035004849e-03,-2.875473556465256170e-03,8.714390883109990327e-03,7.706714439872509870e-03,1.967390032633191399e-02,-1.488212623092667955e-02,-1.585468146551350863e-02,8.984357614156057714e-03,3.139252063777262479e-03,-9.044450536640494948e-03,-1.684348185014235971e-02,-1.659362613989702820e-02,1.578662057483801173e-02
-1.234014774065940456e-02,-7.073644548429807236e-03,-1.094690907870595267e-02,-5.807131643348077167e-03,-1.724378431877978193e-02,7.633096214137204951e-04,-1.731632272236854550e-02,1.202872651533401678e-02,-1.066434206556784135e-02,1.602403695601646019e-03,1.522146941852976255e-02,6.042361534896976104e-03,1.319898822406173882e-03,-7.035110566007776040e-03,-6.687966679899440617e-03,6.787641282610210915e-03,1.978937389998762508e-02,6.481362325975422063e-03,2.314119742917331284e-03,9.237129331424403719e-03,-1.393451326032802947e-03,-1.761549135356117735e-02,2.494873064027899184e-03,1.832705218783782161e-02,-1.300352083272749391e-02,7.609346921856607014e-03,-1.197705651577734773e-02,1.434832963430427702e-03,-1.615236746347590083e-02,-1.987552856072744879e-03,1.025887086275768106e-02,-6.104480510084019963e-03,6.604411695324593178e-03,1.183222831784843353e-02,1.710768713216642700e-02,-1.062709727577109894e-02,-4.032212659407312036e-03,-1.392010030703465934e-02,1.972305978560843706e-02,1.710060455218098685e-02,1.600209684042143464e-03,1.369780527487674850e-02,8.393284991483469749e-04,4.949379831895610836e-03,-1.645481189584212245e-02,1.022311152128068702e-02,-1.490939125363204346e-02,1.305840974862576206e-02,1.129470694950312701e-02,8.359841772302648716e-03,-1.857592489037738007e-02,-7.884347777669560575e-03,-9.486906516931594563e-03,-5.601280012791377480e-03,-1.651415067299179945e-02,1.749935831283846305e-02,2.154680929451003972e-03,-7.788394191742338719e-03,-4.125701041480129075e-03,-2.114441287043339508e-03,4.028618303495670738e-03,6.279322830243792061e-04,1.679587828843085578e-02,-1.216069328736058653e-04,1.971002461561642202e-02,1.407392414443251957e-02,-1.167361856186139961e-02,1.724454753224961487e-02,-1.536382119829838612e-02,1.271327780942045280e-02,-4.780817853697930629e-03,1.513717736105091652e-02,1.473999448035916322e-02,1.225175042415055371e-02,1.161518631560314388e-02,-7.822241760510795575e-03,-1.678341304663181002e-02,-3.885465657666644073e-03,-1.307474358275231147e-02,7.807433071039634152e-03,-6.163423304971158041e-03,1.904731505744676825e-02,5.645672793906637496e-03,1.291475431843365496e-02,-1.471671196595289444e-02,1.449801515345562619e-02,1.693064906082912199e-02,-5.181463897304748167e-04,4.255235016959280775e-03,1.060514618689755405e-02,-1.302211579962938952e-02,1.027666496057402914e-04,-4.058359626220467073e-03,-1.416207215828130771e-02,-5.305003106152994356e-03,-1.729390593135484919e-02,-1.899036225146750675e-02,-1.461092008010210323e-02,1.854690968014320943e-02,1.983566948597418906e-03
1.865532204352247231e-02,-2.703336001135892355e-03,-7.536418258845196602e-03,2.459703268479956407e-04,-2.422445779797830975e-03,-1.579240517458243426e-02,5.639835267270810679e-03,-1.137214927738255769e-02,4.789277963122580591e-03,6.015277897125993582e-03,-1.393576555472607510e-02,-1.756714182619162345e-02,1.124398588635222573e-02,-1.609919199077760590e-03,-1.769472853100652679e-02,1.981848715063033034e-02,-1.771007636926291706e-02,7.810802721752962453e-03,1.937045265110493367e-02,-1.044535781458761498e-02,-1.432725575333589421e-02,-1.516283782659947309e-02,-7.878469042789489757e-03,-1.597738256544788821e-02,7.695708818886049137e-03,-1.752940960721911801e-02,3.773389280890175417e-04,1.989179678290118464e-02,1.257393266826510418e-02,4.614326893662421165e-03,-7.759186660514688465e-03,4.961800701259054015e-03,1.082960966372359737e-03,-2.960224722840044780e-03,-1.478937118875424048e-02,1.548278879828113991e-02,-2.011032591166640217e-03,-1.222980755729170810e-02,-5.295995129388375404e-03,-3.438945705296580797e-03,1.311729117423385271e-02,9.355826894499062740e-03,1.078516639555767917e-02,-1.958229983888029255e-02,-3.357878384630624130e-03,-7.471324644077727241e-04,-1.925546628067864932e-02,-9.619039872145252953e-03,1.042412937798754997e-02,-1.453308981550880188e-02,1.414105915477344676e-03,-1.140564197666669652e-02,-1.953866695571130838e-02,-1.036440632391193856e-02,1.905786991312182627e-02,1.207600753971117477e-02,1.840520056466402737e-02,-4.864232339638658469e-04,-1.562934849981453822e-02,1.920689452884830062e-03,-1.827103962080206794e-03,1.379086873104436520e-02,-1.609605449386318152e-02,-4.709208664124233030e-04,-1.401490827214439162e-02,-7.021407134754566355e-03,9.505715028706467409e-03,-9.604298746203209945e-04,-4.970446241216792092e-03,-4.226031242552740798e-03,-1.624082446869735009e-03,1.141438913049721594e-02,1.570227170473434408e-02,1.823531794470189052e-02,1.148995370404706610e-02,-7.392614808855442303e-03,7.534449457962699367e-03,-2.498880285932780689e-03,-9.824991024767009556e-03,1.365128072466927425e-02,-1.848517701604151381e-02,1.608982992474715379e-02,-1.542756792805720541e-03,5.494667167334399763e-03,6.381831921194233009e-03,1.582373985759112991e-02,5.473369768632547865e-03,4.562830823698831723e-03,-1.735478990572229124e-02,7.372074714561641789e-04,-1.401008903142053445e-02,9.508786375772300403e-03,4.894654822484421517e-04,7.217791558042222985e-03,-1.835515858534622277e-02,-1.662831720270917593e-02,8.663354400882236975e-03,-1.713723645017124417e-02,-1.717038063996676953e-02,-1.953915952445338042e-02
1.828204260937673492e-02,9.511773597819616136e-03,-5.877011576799674557e-03,-8.148376294678684809e-03,-6.019109619540488273e-03,1.099936950593096915e-02,6.462596606451264346e-03,-1.260733934946668168e-02,-1.305132260188996036e-02,-1.608351665822069926e-02,6.419829518367056904e-03,1.058763958554482382e-02,-9.409459039092760504e-03,-1.918527449706490529e-02,-1.673325735048353247e-02,1.873693514220079598e-02,-8.192060983951211448e-03,1.078189262627039964e-02,4.992546980404762198e-03,-4.728100606886108045e-03,-1.178668462586681363e-02,-1.516277860589931165e-02,4.606058141662080184e-03,1.099857853294111502e-02,5.763101065428872898e-03,1.213544784922413952e-03,-1.834401226719144240e-02,1.876211513458818717e-02,1.196295476902744202e-02,-8.297096935225676748e-03,1.922193019618859480e-02,4.080170553213390179e-03,3.300876086987204663e-03,9.934875234706222469e-03,1.248580742887670132e-02,6.266680841169551715e-03,-1.489408233330558745e-02,-6.477089353381538551e-03,1.714396359347769225e-02,-1.102863898551518368e-02,-5.119475922290255519e-03,-2.720196093159057537e-03,-2.426718876323996459e-03,4.523022858509579205e-03,1.774437356601468729e-02,-1.038478065753928141e-02,-1.515817474345937388e-02,-1.211575126730733698e-02,1.549563164232428854e-02,5.839455256436091451e-03,-8.574039895799386371e-03,1.265309464996876472e-02,1.447220467643018336e-02,1.387726286993692937e-02,1.677723828826561958e-02,-9.922292117656966726e-03,1.021396084631093909e-02,-1.580320662563063300e-03,1.369641394215288799e-02,9.150631983329706939e-03,1.107121251980427296e-02,6.253994798436467682e-03,-1.291838536110048383e-02,1.803245407153694852e-03,1.941013294257126071e-02,1.751658877348577850e-02,-1.829505289217629727e-02,-1.342355104210685678e-02,-1.474858627069138527e-02,9.050080369094449725e-03,1.272671882872987784e-02,-1.147334362549834105e-02,2.343896038950172124e-04,1.364453055006453405e-02,9.323274313725505094e-03,1.691522508757780470e-03,3.618259073858234604e-03,3.348245493453018916e-04,-8.107812710127783665e-03,2.604011397168323229e-03,7.564509447787787395e-03,1.495089715003798496e-02,5.458218419527453499e-03,1.045743799303143831e-02,-1.361350672100086756e-02,-1.539552547456581825e-03,-1.965036748367208694e-02,-1.014504623627274227e-02,9.069375779594856732e-03,1.969608531272444563e-02,-1.605218097779093425e-02,-3.944971738089384124e-03,1.201729119785969850e-02,-1.185282927659715366e-02,2.206051052704741285e-03,9.334077356411082591e-03,4.645004268603034232e-03,-1.249403641714775734e-02,-5.791582429121592407e-03,1.136533976780811257e-02
2.171672300703720963e-03,-1.981464530177007646e-02,1.045220061375804269e-02,-1.860992680575052419e-02,9.841186693383295256e-03,-1.191510715287818351e-02,1.834500159904008110e-02,-5.288730375528228472e-03,-6.931070915071941944e-03,-1.406138874578535293e-02,-7.785194149963148291e-03,1.508417126924102396e-02,1.987727867384376720e-02,-5.273961445662822371e-03,-2.058049850576128357e-03,8.893533228266850207e-03,1.546643173564193029e-02,3.726254702615252896e-03,-4.344196568340665150e-03,-3.499334798721429919e-03,7.834147502601409782e-03,-1.989519617284616487e-02,4.789333332191965560e-03,-5.787239535968957162e-03,1.178206280639710994e-02,-1.629997737769718971e-02,3.532338802467876321e-03,-7.620008156184981778e-04,5.699875923040043785e-03,-1.742681436817969387e-02,3.203203791417811881e-03,2.462344827602392424e-03,2.429325375423534248e-03,4.144490985808915208e-03,7.067216791841418252e-03,1.221424930641087751e-02,-9.218257420650776898e-03,1.301763190474643228e-02,-6.985672180331791120e-05,-1.693803916253652786e-02,-1.767922453577406433e-02,-6.638450904837008872e-03,1.140960070272891043e-02,8.317240017735419086e-03,1.155849927623475888e-02,6.915939948164530685e-04,-2.394920303713759906e-03,-1.411887883058684547e-02,-6.880564683514203174e-03,-2.642403207298719189e-03,-1.647579723105764907e-02,-1.118897818081451313e-02,3.933742630540104125e-03,9.437874915670751638e-03,1.995790258584436913e-02,1.734539348139614232e-02,5.709474411744942801e-03,-3.153870832843802194e-03,5.453653358571501630e-03,1.143982268758399722e-02,-1.528493460477447878e-02,-3.608143702526816956e-03,1.360845747219046990e-02,-4.652276927249060848e-03,2.878352464861666342e-03,3.515001708774170234e-03,-1.263614658349136201e-02,-5.517217548855204816e-03,-6.627518955825913854e-03,-1.897495165479672063e-02,-1.905524600545464853e-02,1.328385741746739533e-02,-9.088097291361832072e-03,7.240213851133823044e-04,-8.060671125072660717e-03,1.764839443269632102e-02,-9.639722741318093591e-03,-2.817115460273980632e-03,1.492716199018686608e-02,1.369381136826877329e-02,-1.257106172146381720e-02,1.212030873451605539e-02,-1.674538393827768945e-03,-6.820653942816982561e-04,-1.467845396847119316e-02,-1.679613912325902611e-02,9.128550619931201024e-03,-1.417243488618162800e-04,-2.529013382745656010e-03,9.191383051740532883e-03,1.063330397404423089e-02,-1.366010144899563843e-02,4.414314801404306543e-03,-1.460339931042491449e-02,1.006711052986491994e-02,6.285765750830771270e-03,1.828657697393453602e-02,-1.726243981016772552e-02,-1.773914492201074736e-02,-8.723007631883616247e-03
-9.543249724405990231e-03,-1.013303440837815331e-02,1.626974983867978883e-02,-1.003021472242633834e-02,-9.132994640382792115e-03,1.038842400919082025e-02,-2.012827004026861762e-03,1.108174961032699218e-02,-1.740628715812214677e-02,-4.977508671239879931e-04,-1.867791876573700327e-02,-1.751493598768398899e-02,1.627707355939889133e-02,-1.444756033897460178e-02,1.298388782572233507e-03,-3.560457837521362537e-03,-6.113619420089165535e-03,1.601259117657493139e-02,-1.915009475879515810e-02,6.559476121635296302e-03,1.855809603825654339e-02,2.409625245126973715e-03,1.749393735346841186e-02,-1.793124962902208422e-02,-3.252178430082879133e-03,-9.605239987199873722e-03,9.243955730770350362e-03,1.927506454310401809e-02,-9.750523851794352589e-03,6.174409638026111605e-03,-1.209063534595622262e-02,2.616356712616364592e-03,-1.444437667955443799e-03,1.890294658531498431e-02,4.346317954571990612e-03,-6.026993407243634235e-03,-1.545475507873142647e-02,-1.396692400280529454e-02,-1.100055248332774786e-02,-9.973327848483841060e-03,1.404152918887275996e-02,2.451860231349582871e-03,9.367630417153297202e-04,-1.542779918129608130e-02,1.442293330024557729e-02,8.923303631512067083e-03,-1.731408810261866535e-02,8.323413942285213390e-03,1.743625643995025442e-03,-1.675113171605904089e-02,-1.669982723375253988e-03,-6.128855942443384944e-04,-1.338511584112377605e-02,1.784939223567039157e-02,1.401587087679507723e-02,6.769034190252392995e-03,-1.509993535435639675e-03,-3.533628011603688092e-03,6.046210087462565615e-03,1.819462931361695871e-03,-1.753015819742916384e-02,5.007081213786853053e-04,1.227090214134029904e-02,-1.632368043803805345e-03,-1.794331621001997445e-02,1.146491611804664745e-02,-1.195983206191955292e-02,-9.666792255250980515e-03,-1.342789475790977238e-02,-6.799574831560996346e-03,1.028242626311053932e-02,7.763680698254217484e-04,-1.181896296681680773e-02,1.513140072212484054e-02,1.520155616569996218e-02,1.484098533332912570e-02,-1.046073201756230267e-02,-1.952774713648329453e-03,1.942294501551047534e-02,1.089360010879727308e-02,-1.893607639419500610e-02,-1.741275759186674751e-02,-1.444482116451026744e-03,1.638851768701686876e-02,1.549935929805927462e-03,-8.760503576494945907e-05,-1.580005374524795850e-02,6.278755258032590533e-03,1.289964002004010193e-02,-4.788959083410074605e-03,1.103774845167164106e-02,1.860143694916923177e-02,-1.186360926106346317e-02,9.343088830661109168e-04,-8.524733844656788573e-03,1.172828163739497200e-02,3.107471798615728774e-03,5.389778654113679471e-03,1.193091495518567094e-02,-4.166191513329451507e-03
1.662359490160473033e-02,1.322745473689091377e-03,-1.369828115872192761e-02,7.845399902043309268e-03,1.174457849278757841e-02,-7.338358305147007175e-03,1.430437326142175447e-02,1.626529144663772103e-02,-8.934565552072894559e-03,1.936414696572101926e-02,-1.438884344656768052e-02,-1.193372521417428687e-02,-1.264621524827379620e-02,1.577856429980638298e-02,6.179133352980256851e-03,-1.393258452535458929e-02,-2.389937494684417525e-03,4.617474152226509060e-03,-1.668149840269282994e-02,1.531507322384918247e-02,1.215876400811867486e-02,2.085217191887526642e-04,1.870756303475667320e-02,-3.293521743080619381e-03,1.938772917943611465e-02,6.724887556818458234e-03,5.393337161855478457e-03,-1.337789294929992573e-02,1.529550528659835880e-02,-2.903904829191469080e-03,-1.352693176956651366e-02,-1.951917369910742203e-02,2.393105384778381438e-03,1.097304544944611906e-03,8.784709719647440518e-03,1.562911829076863920e-02,-1.684399383971871278e-02,9.271009280780322798e-03,-1.251857755196003619e-02,1.434433316505292696e-02,1.277790775065607183e-02,1.633714966964749460e-03,8.419837961206899993e-03,-7.434937009708926341e-03,-1.154672695837697825e-03,1.288096704762554945e-02,-1.631354041275696843e-03,-5.694918311601849560e-03,-2.317808584336890213e-04,1.314577971044107729e-02,-6.599615052376343362e-03,-1.306524903828385105e-02,8.490772137634904071e-03,1.305482874019142300e-02,-1.599373553162939179e-02,-1.041756404714864331e-02,-1.433836426990706646e-02,-6.089667201310028539e-03,-1.988352111398393636e-03,9.965037810714375346e-03,6.053183182800122436e-03,4.842967034859323866e-03,-5.912112265915237495e-03,1.367434741189513595e-02,-1.149896212844206747e-03,1.918727286221727849e-02,5.372146278567841056e-03,-1.496741071286214475e-02,7.055587800338327178e-03,-7.004262974872506320e-03,7.462062026075578537e-03,-1.723508163595105502e-02,-1.302040134113474634e-02,1.424662388611543616e-02,-1.092595768991058008e-02,1.349787806950235314e-02,-8.839587284544285148e-03,5.722158086553669372e-03,7.775373899759865925e-03,5.067996222373575025e-04,-7.796949839540360909e-03,-1.150806498029872081e-02,-1.869490902369947555e-02,-7.851586565978804430e-03,6.133888468019504762e-03,1.755330300546731337e-02,1.486605777507971592e-02,1.065540565613255601e-02,1.155178634624639926e-02,6.607342379427468167e-03,-9.600071106750252686e-03,1.630741314138692624e-02,6.837515531578190926e-03,2.420536267880424482e-03,-1.557915731655602071e-02,-2.120328234846313286e-03,-1.587578433922544460e-03,1.460010301819315501e-02,1.868175546234045539e-03,-4.789738362086255925e-03
1.909497748411743967e-02,-1.558992530203011373e-02,-3.101793201595628036e-03,-1.834107065991227165e-02,9.607719438240937271e-03,1.674319809261993683e-02,-8.809100976711784631e-03,1.435092603957199321e-02,-8.321278266173513447e-03,1.645059056951234805e-02,1.017070782260541192e-02,1.221095643270289979e-02,-1.930295223799489285e-02,1.853470482151169454e-02,9.077756937385630248e-03,-7.819360043324778686e-03,1.319165137430788892e-02,-8.749674753906148267e-03,1.492810668957920799e-02,-1.551544384438117465e-02,8.157249315648061605e-03,1.629899244406809436e-03,-1.615805347974573827e-02,-1.033667815058780109e-02,-1.952732284751995326e-02,-1.250785623620028365e-03,-7.958961318154598660e-03,3.939036606637219551e-03,-8.120253416200590504e-03,-8.012872123453092243e-03,9.739440970134835562e-03,-1.809604955596755618e-02,1.613520461633366834e-02,1.410752121538692838e-02,6.720269379734829587e-03,3.733352675730766592e-03,1.571099456315121559e-02,-1.260194839965624383e-02,-1.686151180557648663e-02,-1.043213928974410891e-02,1.179731905105944889e-02,-1.863560121131403735e-02,3.316261665316598724e-03,1.984136262240145804e-02,1.424497530073429163e-02,8.588604598865535620e-04,-1.747538018312260258e-02,1.327090066358152000e-02,3.963907472461224678e-03,-1.542122626884845880e-02,-1.626526983708434862e-02,1.640480181392640902e-02,6.776159784120469425e-03,1.318733155744874000e-02,1.517740893855886244e-02,2.874350885255785252e-03,6.986943465058002107e-04,-2.786254442361891202e-03,-7.330952970266886755e-03,-2.619311649122142358e-03,1.096837721538662137e-02,4.081846223590478683e-03,1.571983686985216344e-02,-2.267526438074367323e-03,4.288740951176830095e-03,5.258626347045451156e-03,3.672302942965786736e-03,8.115110462855300993e-03,-1.051530737222173932e-02,4.951465838812470818e-04,-1.585006978236129516e-02,-4.625109225870887610e-03,-4.939112515415491813e-04,6.096302025706896305e-03,1.804294122846217957e-02,4.030890363470659467e-03,9.755488967863436625e-03,2.509441747843973113e-04,5.370620166431318808e-03,-1.718337673482244962e-02,-9.836166112519284174e-03,-5.532529901957426721e-03,-1.101590614366560394e-03,-1.819593329898164594e-02,-1.441637377540226639e-02,-8.938177078892063296e-03,1.888401827218870802e-02,-6.754242624067882152e-03,-7.192226399246097685e-04,-1.217072846983670818e-02,4.436538392262105897e-03,-8.783234430002881399e-03,-1.173440910763228623e-02,6.637033326237311553e-04,-1.980358457502052333e-02,-1.971715128752066226e-02,-1.125077824829224735e-02,-1.855345859251365456e-02,-1.569784866257916550e-02,-6.453335051787940403e-03
1.211800075021074626e-02,2.885415845235203124e-03,5.073191595071094512e-04,-8.270393360207921665e-03,1.729094352138072638e-02,-4.124358460324812833e-03,-1.653617636064130120e-02,4.688298970757761100e-03,-1.546506313204032597e-02,-6.198528873702480180e-03,2.968345331730506292e-04,1.498692483126773563e-02,-2.584476052814631622e-04,8.100092119071734820e-03,1.973640931388494224e-02,-1.475818395549412763e-02,-9.021588683721082011e-03,-4.222034554880213335e-03,-3.130637882226402092e-03,-3.563442520420578592e-03,1.632407205005092024e-02,8.571614326959024061e-03,4.321405649859564983e-03,-7.634272551025103257e-03,1.296721022737536665e-02,1.822433773873242957e-02,1.286340131600108815e-02,-1.996140213115329964e-02,5.462624366452585416e-03,-1.797620360613580090e-02,-9.707385656586740505e-03,-1.764022679145689498e-02,4.156817263975566383e-03,7.472583351680921887e-03,-1.543906207861579609e-02,-4.652039397108891951e-03,-1.752647442023769989e-03,-5.244185986404190265e-03,-1.517725271998606948e-02,-3.245992145690225570e-03,1.005921951100143333e-02,-1.718035516498875662e-02,-1.681301941114190721e-02,-5.816143040634142065e-03,1.769030349426565021e-02,6.751024907358397185e-03,7.155403626519504963e-03,-5.529850774628300956e-03,3.750942674175786109e-03,-1.961834640588422038e-02,5.450396710054936436e-03,1.655138322387174690e-02,4.508360659204691152e-03,1.496594234818503927e-02,8.969709531310519207e-03,-1.519593855554027956e-02,1.611751582687918211e-02,-1.736312778136417379e-02,1.360334892213536494e-03,-1.433175095518556333e-02,-1.955525345978936791e-02,-3.122384693075998686e-03,-8.208243238274185588e-03,-5.606545124634003310e-04,3.091713681442458291e-03,-1.827241220314807998e-02,-1.509802565297018069e-02,2.348520277520166778e-03,-6.280859472762891950e-03,9.177977285339781674e-03,6.099000833253834242e-03,1.384082001436265190e-02,7.708984183346269045e-03,-2.806131664696571559e-03,6.926995563199768967e-03,-8.995571444967648614e-03,-7.756788656920633046e-03,1.157332491604661645e-02,-2.145799964307363878e-03,1.194958464415961548e-02,1.291242391716145368e-02,1.431971493840523101e-02,1.668547601954925227e-02,-2.763915168612298637e-03,-7.254051264159487762e-03,3.291908838108507148e-03,-5.159307841661695329e-03,4.047834751509051324e-03,8.233336227973947832e-03,7.545274973361632866e-03,-5.023926483609307721e-03,-1.334163709051120437e-02,-2.782172407503352533e-03,-1.431344813197858896e-02,1.562266982223621016e-02,-6.172324642053651431e-03,-1.383825251806506187e-02,-1.900494567179099661e-02,5.839918759113108676e-03,5.482686384649540154e-03
-6.383510388299418886e-03,-1.715215227454789867e-02,-3.619196787427920049e-03,-7.560392612185878360e-03,7.093356328584974647e-03,4.236264670570184451e-03,-5.422772503854213742e-03,-1.129788509464589932e-02,1.954494413686670012e-02,-1.842150592281849297e-03,7.540037365940431904e-03,-1.439519350220118052e-02,-5.771060632501584476e-04,-1.892128666174595214e-02,2.184674536584737094e-04,1.858304495894028824e-02,-4.637308483521026745e-03,-1.846236303457921349e-02,-1.878435914552977967e-02,-4.485924545015811636e-03,-1.361537690981598145e-02,-1.908887314925915291e-02,1.026088468685610461e-02,-1.661077319269360468e-03,-8.440359817730766490e-03,1.602259670276830542e-02,-1.537292965987754369e-02,1.825871177706704304e-02,-7.450291307625407297e-03,1.555485374905103864e-02,4.122673142163441051e-03,1.308402973975654818e-02,1.938383826703604304e-02,-8.473973609106712213e-03,1.846762928727449515e-02,-4.426047135952066239e-03,-4.585037950952434126e-03,-6.392203335839063971e-03,1.658298626687373977e-03,-1.385085583708769823e-02,2.151046344186397039e-03,1.670201143602116590e-03,1.048868659625458964e-02,1.336206820720008299e-02,-2.385214536913382762e-03,-7.916190336491140539e-03,-9.638195366386279397e-03,-1.222975449811645673e-02,-1.771540192587282500e-02,-6.309669093822962808e-03,-9.201157976107881761e-03,1.867915970011932783e-02,2.311132505553210870e-03,-6.116274101843470826e-03,3.222579636165708809e-03,-1.444950947395419460e-02,-2.240945077401885512e-03,5.055452735922705797e-03,-4.446214469067545205e-04,-3.933578644601876291e-03,1.977772099290110372e-02,1.523090775292720682e-02,4.942181981755423836e-03,2.778435899616953520e-03,4.832230616681990054e-03,-1.196190152327386395e-02,-4.199540796366741519e-03,-1.844379989720709018e-02,-9.793362874666257292e-04,1.723055570245338175e-03,-1.090312306493728366e-02,1.858350311184479159e-02,1.639790517979878431e-02,8.896428600477969059e-03,1.337073165483219179e-03,1.481658537307920312e-02,-1.479169530048856686e-02,1.163438372184448510e-02,-1.502523736128755748e-02,1.178259669936988253e-02,-8.980097075066334478e-03,1.510178522004542931e-02,1.778307034745841078e-02,-1.406507641781267089e-02,-1.494773468614933121e-03,1.926266113291032547e-02,-6.645017160248437591e-04,1.455941059962320011e-02,3.553534500534939137e-03,-4.992808223631142739e-03,-8.578975179690456060e-03,-1.188537015320123742e-02,1.048453675641299043e-02,-4.543844326494050553e-03,4.515615530695825993e-04,-3.073504312310136426e-04,3.094883193160603927e-03,1.464069327765298890e-02,1.925272780354168878e-02,-3.701082719410097536e-03
1.311653132198388819e-02,1.059385235457561449e-02,2.944699465414791183e-03,1.826385054340677605e-02,-1.199544555636071139e-02,-1.564825076711293811e-02,1.417552670393473768e-02,-2.436938088764377831e-03,1.389546538163874065e-02,1.574254078406270990e-02,-1.752276980237779322e-02,1.535705950128673884e-02,-2.069726917263945386e-03,4.178020247204242707e-04,5.069797574455102429e-03,1.707584032201079141e-02,-1.925851724561642928e-02,-9.273765654959052491e-04,7.517923036422484960e-03,8.919004640972885353e-03,7.710570285568226975e-03,-1.464020168513823460e-02,-8.033838263539991656e-03,-5.658183729538219554e-03,1.219215105015971495e-02,-8.860260788878493790e-03,-1.158573488923089062e-02,1.831995303143188480e-02,-1.966912342882762288e-02,1.993681099185513200e-02,7.081368276194229157e-03,1.315459218913793069e-02,-8.225115982394327202e-03,-1.945078113997144101e-02,9.526237356585059990e-03,1.338187743304954103e-02,9.630627435730565455e-03,-1.430319006648301042e-02,1.014932285063495712e-02,1.076986353040405853e-02,6.349256483308793331e-03,1.065745437040534031e-02,1.385351835337947889e-02,4.549636134361173360e-03,-1.647562565310902935e-02,-4.954835005499423281e-04,-1.691436847377806446e-02,-3.702731804317557773e-03,-3.720214505949325737e-03,-1.738050869292855419e-02,-6.054459964259762197e-03,-1.557881171781252093e-02,1.234425406820315561e-02,1.792908323365268244e-02,-1.712793969917550743e-02,1.822652820533909521e-02,9.041513401420651864e-04,-8.027026488153014144e-03,-1.694589676671584902e-02,2.500078971404326829e-05,1.179480666118649587e-02,8.293433087650224980e-03,-1.801262220364664365e-02,-1.710449710182077379e-02,-3.889746651453010809e-03,-8.198239751950884766e-03,-1.071751636917626753e-02,-8.770367620180118465e-03,1.215392650456752210e-02,1.718979524459067487e-02,-3.800462799511312301e-03,1.626399978790920089e-02,-7.148769331046435187e-03,-9.436554220268162209e-04,-1.097203547309976400e-02,5.625807496367329213e-03,1.918231398486959505e-02,4.144708425186705708e-03,-5.694284798190324577e-03,5.919817236211873807e-03,-1.510133429840691474e-02,1.556508236864535995e-02,1.235065648697121011e-04,-2.028449809040248734e-03,3.438727081669369114e-03,4.997364531579955201e-03,-1.714959250091261864e-02,7.313484322389692503e-03,-1.033516224523494190e-02,8.568409994897165441e-03,1.291692616036651566e-02,1.217297998923580829e-02,2.102567323473675427e-03,8.077671438144925749e-04,-1.430216186839008800e-02,1.102710763373298750e-02,-9.154634492565922113e-03,-1.323422470847319618e-04,-8.639426384534860948e-03,-1.466450156543247854e-02
5.188547819942442019e-03,-1.784818350908253665e-02,9.957784974694610519e-03,-7.305313836873356982e-03,-2.001868751220337722e-02,4.457015871115535544e-04,-1.814774882950351276e-02,-8.963998131084392404e-03,8.289028197723358887e-03,-1.751347750699938297e-02,1.358988340312639390e-02,-1.987110083270463359e-02,-1.013923906513745400e-02,9.647765013973828158e-03,-7.358043072322932240e-03,-1.594347870917057694e-02,-5.597374863154053019e-03,-9.195327193638185015e-03,1.372498227032692940e-02,-7.475073102840039049e-03,1.157121485261290890e-02,1.569375970269807144e-02,-2.650490797635236644e-03,1.641747002591029472e-02,-4.913186625936169158e-03,1.858548827225772748e-02,-1.644820024804161812e-02,7.489778151224035785e-03,-2.477363188099559479e-04,-4.499459001715339600e-03,5.314867010463490346e-03,8.164102124036592967e-03,-1.984934078357572518e-02,-1.333791713481364757e-02,8.532103055905324723e-03,6.663430236899244713e-03,1.866434665588165287e-02,1.045408408780288539e-02,1.805261907321047826e-02,8.111375108548254248e-03,-8.087638154617736441e-03,-1.580441009258735582e-02,1.128652814033920780e-02,5.772911581318545746e-03,-1.809432041984520428e-02,-5.604721814854625624e-03,1.829399366956695194e-02,1.606514896512158247e-05,-2.694074555387286369e-03,-1.694053126128459725e-03,-1.165871224905149460e-02,-5.258036679617695240e-03,-5.213740001858761103e-03,-1.792735931432422672e-02,1.071559211795745925e-02,-3.343844157572517430e-03,1.290271276408647312e-02,1.403079400948943449e-02,-1.153410916892465450e-02,6.301717971695792488e-03,-1.110062837124050836e-03,1.522457917283923969e-02,-1.138406373949211146e-02,7.121092107685601628e-03,4.315274602910868819e-03,-8.197799881991017085e-03,-1.455346640427986234e-02,6.072893911493654207e-03,9.555389999490434064e-03,-7.383786270707340914e-03,5.800279797228267975e-03,-4.199814551707904686e-03,8.538544108090783194e-03,-1.204587583109458480e-02,1.562739420204908511e-02,-8.513855226377939692e-03,-5.294928371310145786e-03,-1.769760572823801323e-02,-1.555822241513825366e-02,6.352400722819460770e-04,-9.307486466893605606e-03,1.343536691118413402e-02,-1.943563848933006419e-02,-4.842061299573044257e-03,-6.514012127124977659e-03,-1.925004559777815372e-02,-1.504335574980186080e-02,-3.458452269041179840e-03,-2.857602882561394728e-04,-3.833019844755846013e-03,1.238997201480726128e-03,3.809848864879207542e-03,-1.962665090919097841e-02,-1.437922922468881995e-03,1.856229335306794348e-02,7.622078652511327752e-04,7.110241744584026163e-03,-7.534506966988219374e-03,1.097285149322698924e-02,1.093000411227668979e-02
8.528675970645524127e-04,1.906347939406261710e-02,-1.499602619900438326e-02,-1.934535886624833695e-02,1.081934021892321657e-02,1.230101516168167694e-02,-1.521000296125224124e-02,-9.387977018656654821e-03,-1.932114180280801105e-02,-8.277610536960520668e-03,1.093883040881771587e-02,7.192861492898385998e-04,-6.083492511949702489e-03,-5.136605680433999760e-03,-1.996987149577239898e-02,-8.017621192533528132e-03,5.865403622233315156e-03,1.899061658797599611e-02,1.389914872243755949e-02,-1.907914671919195768e-02,1.596162023649308134e-02,1.134157634154011121e-02,1.122854882125424308e-02,-1.682192708569650759e-03,-4.084700697703866172e-03,-7.892863103008013539e-03,-1.739312327113347323e-02,-1.088367457983234823e-02,-1.014805904133023705e-02,-6.376841146787818942e-04,9.909694037530515295e-03,-1.048868272822931240e-03,-1.770751775414363544e-02,1.833364077083040819e-02,1.773029588964367478e-02,1.142131743519311272e-02,1.967678010414315379e-02,1.781435734147255841e-03,1.853302252548593224e-02,-1.699623869620490307e-02,-5.379239346676075069e-03,-1.099797586236448375e-02,-1.218132635942534292e-02,-1.438518220966870584e-02,4.902441524637648866e-03,1.126642365802151859e-02,3.135707097023940262e-03,-1.413849510658686352e-02,1.245993558815374457e-02,5.444736332838197475e-03,-4.478758079147280961e-03,6.973598535365739710e-03,-9.615364632250504931e-03,-6.199767735904384430e-03,1.671954127935320472e-02,-8.389909796672569142e-03,-1.201914741908067857e-03,1.562443603483868251e-02,8.318858585350650051e-03,-1.753295675176399365e-02,-1.412486532726720846e-02,-1.971004041080313268e-02,5.243177252866201843e-03,-2.095583211383454832e-03,-1.464662054493617860e-02,1.833942052452393681e-02,1.187817472139365881e-03,-1.033669954215210053e-02,2.417191625098841381e-05,7.193464442401046460e-03,-1.697084105776971302e-02,-9.022698437217802764e-03,1.229340414915396952e-02,-1.615347862460467894e-03,1.865328996645873767e-03,-2.690595724022241952e-03,-1.826596964171719670e-02,-1.338610744739185225e-02,-2.180957352302409762e-03,-1.164658801187374963e-02,-1.802251341135975224e-02,1.376253791181562998e-02,1.927087705374536108e-02,1.173983372889407691e-02,1.416843636679634109e-02,-1.033334205614592008e-02,1.844726439991332609e-02,-1.213756892230656408e-02,1.807893482675292096e-02,1.981660395767846292e-02,8.479109528349642114e-03,1.926892280860432669e-02,2.784940457637811399e-03,-9.629909967691927322e-03,-2.523199068212963331e-03,3.746943631585490046e-03,-1.709729937920227358e-02,4.899623057091725964e-03,1.927028865003590705e-02,-1.241061949005697364e-02
1.171789703866468225e-02,1.633559755998860788e-02,1.776943390755182650e-02,1.842758588948069029e-02,8.594191188663172264e-04,1.911530511012473829e-02,1.030480122992587753e-02,-1.354943761777331786e-02,-9.251083116016815301e-04,8.743762595197350149e-03,-1.011855632660490015e-02,5.631379852816142083e-03,6.672043213928393127e-03,-1.350825578807982909e-02,2.606547230607341240e-03,1.087815892538952431e-02,-4.422660715643786470e-05,-1.953937412088638595e-02,-1.966210763273238543e-02,-5.725712199716079601e-03,1.706828970942570953e-02,-1.086599667531793628e-02,5.381018972243575144e-03,-1.113035095420523632e-02,-7.141789400250428237e-03,1.393844648812347931e-02,9.165480444985852140e-03,-1.620351586982845052e-02,-2.855353116428676306e-03,-1.885588625770918611e-02,-7.653145321441838728e-04,6.505183848709161429e-03,-1.527826928181387663e-02,-8.454770471068240312e-03,-4.091455519402309275e-03,1.680144704329182559e-02,1.975395747492429341e-02,-1.822546667721244504e-02,1.045288797910158551e-02,-5.137215554050609742e-03,-4.306852134442942792e-03,1.018284520949648726e-02,1.675721014189181929e-02,1.805886205210193926e-02,3.088617930525865227e-03,-5.722035164354355094e-03,1.151581278730010559e-02,-9.971937299276567232e-03,2.566047178940567344e-03,-5.663672886692283637e-03,6.272786839529556797e-03,-1.039654676546657511e-02,-1.235113611505163182e-02,1.674970729989078144e-02,-1.594703118617313981e-02,2.386032627249453340e-04,-1.117933337152938675e-02,-1.846500818570798522e-02,-1.858159419783484562e-02,-1.300677155223928412e-02,1.468847910195446999e-02,-8.711326812734702593e-03,1.804006248594099485e-02,3.268822929923472214e-03,-2.538485287874321650e-03,3.207410740507178094e-03,6.687396607143358991e-04,1.036351370468889359e-02,-8.710633098614783618e-03,-5.885061934535496322e-03,1.578275303835734514e-02,1.787976340719737295e-02,1.572123605382898595e-02,-3.225959903362781312e-03,1.122812348716739975e-02,-9.477104204293068657e-04,-9.852440333779741329e-05,-1.182701925935672298e-02,3.649601279172070591e-03,-1.256968086451007958e-02,-6.745524460708455898e-03,1.421830754037070425e-02,-1.173107586805489065e-02,-1.717432308497359936e-02,-1.726045437214890343e-02,1.765261051863176514e-02,2.771508305672429535e-04,-3.627880153501638477e-03,1.245011622198970852e-02,1.344921164812240728e-02,-6.720440932370086787e-03,7.754047610514645805e-03,1.085797084136562972e-02,6.193475983611197201e-03,-1.395297738747047246e-02,1.505342716276752459e-02,1.565665037558880424e-03,-8.711579821293303008e-03,-2.994473850245931486e-03,-1.851942855077214414e-02
-1.490325116584242764e-02,1.063465966544013298e-02,-2.002361576907665808e-02,-3.341385337365610376e-03,9.014914111643869670e-04,-1.783607353804962312e-02,1.894591159029032634e-02,-1.096817749600338850e-02,-7.841481677634787664e-03,-7.851742312713589494e-03,-1.079631757604241141e-02,-1.996505785186805659e-02,9.184837797593790876e-03,1.869630487687387599e-02,-1.104153964268675576e-02,6.529740585665988820e-03,9.687503637414362698e-03,1.395379652822515727e-02,-3.098558563430585996e-03,-7.892255299751313111e-03,-6.996609026290543515e-03,8.515093898615825468e-03,1.268643584883902969e-02,-1.275077585608090994e-02,-5.168575598611979335e-03,1.609696669224331550e-02,1.228251220251592307e-02,1.941768855876038063e-02,1.018217585791122287e-02,-4.277336045337728869e-03,3.629878789603413914e-03,6.448325170157274966e-03,-1.688207036502751071e-02,1.782021490744428336e-03,8.382914749925411690e-03,-1.332317079014614346e-02,1.123878488571641854e-02,3.354946005795615433e-03,1.811065198443944507e-02,-1.832514658759987203e-02,-9.398257198115692393e-03,4.067046356096561469e-03,-8.147401886086961045e-03,8.587293968065163804e-03,1.037268588608613457e-02,-1.591850563558728018e-02,5.548458469168742954e-04,3.560504233769869057e-04,-5.235065079070335900e-03,1.733784565313636547e-02,1.311602662569372538e-02,7.897873558484858753e-03,8.583388137315272823e-03,-1.533198129659715846e-03,1.686005738793487987e-02,7.793189475184321424e-03,9.170270981701669072e-03,1.448505642939179085e-02,-9.048017915610256229e-03,1.229762574551414127e-02,-1.220505414246771808e-02,-6.193770773703241583e-03,-6.583499395117283111e-03,1.916406616792654810e-02,1.427866100885919094e-02,8.056483496032563682e-03,9.093206299176381097e-03,2.485901415369615435e-03,1.790516010855760023e-02,-1.498300760340783326e-04,-4.785046283234986944e-03,-1.349481589983980712e-02,1.146201073900868748e-02,9.389048909120656025e-03,-4.631368318119574376e-03,-1.901513175982741735e-02,1.357622038594438925e-02,-1.956681245214492160e-02,8.157802067138163540e-03,1.883293358881244287e-02,-2.496549318911026744e-03,-1.061382839248915626e-02,8.204707694196386458e-03,1.270039966264875989e-02,1.859448886825021928e-03,1.870390503538700913e-02,-1.795484431000226103e-02,1.920549046890796332e-04,8.748679386338584912e-03,1.452308485829515404e-02,-1.284522367656223789e-02,1.201458847003765429e-02,2.110821582785035646e-03,-4.142835050862061184e-03,-1.474913672771059441e-02,1.462942425647539152e-02,-1.372557857385334028e-02,-7.617646902537373449e-03,-8.408290850784292531e-03,1.487444994493336559e-02
6.916437738538276647e-03,1.188154508412656886e-02,-9.993302372515508805e-03,5.000978350399302129e-03,2.873294859055708708e-03,1.332924532718789655e-02,1.626304096874747404e-02,-1.953722534864026084e-02,6.969178160164162666e-03,-1.794815316450635440e-02,1.956699804445057554e-03,-8.504919176421614838e-03,-7.738242322638911458e-03,-5.888741886102566610e-03,4.857539823494455913e-03,-6.645994097658273515e-03,9.319169610214672606e-03,-3.823502866517064589e-03,-1.728666158204718306e-02,1.136406054931987132e-02,-8.579985632225542794e-03,-2.692562994344362831e-03,7.426686944093307055e-03,-6.709823201760508650e-03,-1.775793011397618082e-02,-5.049230515489471459e-03,1.779934948011660523e-02,5.676202307986496533e-03,6.867424972260146102e-03,5.297657308985740526e-03,-1.205481201547328393e-02,-3.270578757889789669e-03,1.004967805828474621e-02,-1.596428335013454908e-02,-8.896588330750925325e-03,-8.958008902412812821e-03,-2.722517098475625476e-03,1.923788584839409080e-02,-1.732072869749695654e-02,7.489404794319171488e-04,-1.284085561919406579e-02,1.884973121762502715e-02,-1.548648444408762780e-02,-3.860602812809836235e-03,9.526856752417009119e-03,8.192029165880214056e-03,-3.094576178851018555e-03,-6.146425205815516171e-03,-4.100436197878098293e-03,-9.440302739550607627e-03,-1.180087463085487641e-02,-6.792289641419106596e-04,-9.269797967690500407e-03,-8.511769981316374273e-03,6.277792450133838111e-03,1.876405963734123841e-02,4.150479546395675554e-03,-1.694119544117144230e-02,-1.699709679869883944e-02,1.807867092872850190e-02,-8.118131560427755203e-03,-1.633696801366435469e-02,3.966553813978679864e-03,4.951906482041101322e-03,5.947345307640378165e-03,-9.315121604016115761e-03,-1.941892656855985499e-02,1.862301151770952290e-02,-9.976276020034514913e-03,7.049529553545644776e-03,8.275146800348456497e-03,4.405595018736935611e-03,-7.492715254820508930e-03,-9.167174641129845550e-03,3.911435348515786975e-03,1.466145776930326793e-02,1.789086538978203883e-02,-1.578274875572655694e-02,-1.382348013726414186e-02,1.781087037913750212e-02,9.472801483509186993e-03,1.533819929303391859e-02,-1.190901686966852092e-02,3.507653281164740695e-03,8.055271351349979625e-03,7.213150225744852269e-03,-3.678356095795871049e-03,-1.940754458107695271e-02,3.321036276275652829e-03,-9.887829911852136222e-03,-1.992226080881824395e-03,1.832527927880770943e-02,-4.043450100655032568e-03,1.360843028064126319e-02,-1.247337672566630438e-02,6.906726211733271725e-03,1.910325247306416188e-02,-1.594345016256241629e-02,-1.969088331354083496e-02,-2.659887175832420340e-03
-1.631460123577380822e-02,9.947337031603489463e-03,1.660191264335975775e-02,-2.642338868527131009e-03,-9.663155590964580752e-03,-2.627026601500377038e-03,8.948674729416754639e-03,-1.966147917688440896e-02,3.582467991182569384e-03,4.537123912685954268e-03,5.514161415362183079e-03,-1.033154190466224059e-02,8.572418450479261584e-03,-1.636402053808357071e-02,-1.204367071622995840e-02,1.511698212186729680e-02,9.560423757047496057e-03,-1.947359752605075378e-02,-1.007706864992371533e-02,-1.143749584630061183e-02,-9.178785634033738774e-03,-1.010976757849117030e-02,-1.752001840849625250e-02,-1.644356902064679710e-03,9.320548236037730708e-03,4.274409555644647328e-03,6.923192838044256274e-03,-1.677420615467508855e-02,1.808137375249566081e-02,1.355597628462137764e-02,1.221830693886918895e-02,1.293490821256690695e-02,1.732926115161301933e-02,1.772290067759594960e-03,-1.200315473414119254e-02,4.676969014312288772e-03,9.726957754800339903e-03,9.528154654099537171e-03,8.589940254491877560e-04,-1.728243573894331156e-02,-5.161690106964234373e-03,1.685092990554985792e-02,3.382023740237975577e-03,1.535123928451638704e-03,-9.256992234446870249e-03,-5.268379155800221800e-03,1.583288479350299788e-02,6.666539333962388965e-03,1.150932261771830944e-02,-1.828381958739660161e-03,5.216161932297488750e-03,-1.007677436106448575e-02,8.228328911571915205e-03,-2.899433620637700826e-03,-2.300946613021189694e-03,5.980084859794486569e-03,1.747223763399666924e-02,-1.746074508952517521e-02,1.300537024508758611e-02,-8.314675126976218272e-03,-2.245922851694929449e-03,-1.914649314737997682e-02,-7.967739191785635708e-03,1.053764348999777404e-04,-1.777433299267089026e-02,-3.565996849709571572e-04,1.710499627119401594e-02,-1.580327689548361586e-02,1.059036549798117628e-02,-3.617508417700065256e-03,6.214422280757426684e-03,-9.602083910655466806e-03,-1.363670952209752353e-02,-1.359784871742613505e-02,-1.720100875938865986e-02,-1.258927213980452590e-02,6.576684769943188374e-03,1.528600800636372922e-02,1.258015679704401271e-02,7.414289100079475212e-03,-1.560148840486438523e-02,-8.442655605800706772e-03,-7.616885342121161584e-03,-1.001376507753528634e-02,6.009491125698447579e-04,1.423864989192535555e-03,-5.731453856806604900e-03,-5.855475667524015840e-03,1.315804828384699830e-02,1.158564727133383834e-02,-7.697423946568507716e-03,1.657146722953912327e-02,1.813440980869585745e-02,-6.938642993862435132e-03,-5.830013443423448342e-03,2.256374970848241978e-04,1.766607839683520184e-02,1.507090216387640437e-02,-1.591642319047524221e-02,-4.295936725480944615e-03
2.137418130049944642e-03,1.254497727132661191e-04,-1.226022189007602327e-02,1.436995269651216052e-02,7.086153396538998235e-03,1.353260982358080698e-02,1.436785049557833677e-02,9.946195818717952497e-03,-2.434503776529453340e-03,4.427194512544442399e-03,-1.360174172536437152e-02,6.954180059524452118e-03,-1.284531803678378922e-02,7.767324899740388894e-03,-1.082909705241841269e-02,-1.531636803874029951e-02,-1.340474144443092736e-02,-1.994430036281458207e-02,8.760119966453075793e-03,9.307235196159920412e-03,5.980532380228036982e-04,-1.356179788996828700e-02,-1.667788395496874049e-02,-1.925800174535535758e-02,-1.338617163878826760e-02,1.565304634616880575e-02,-1.035097480657447451e-02,-5.836165705400463664e-03,-1.580518853955811820e-02,-1.111891984452546660e-02,7.699087526564739586e-04,4.315297063640192131e-03,-1.019817214171677214e-02,-1.771201477130866786e-02,-4.363933466699959456e-03,-1.064466684276308903e-02,-1.123135031840961397e-02,1.841666068273327059e-02,4.657620868425997249e-03,2.277877188330300774e-03,-3.373052419758002744e-03,-2.845648948079570681e-03,1.638170279193565827e-03,7.866653016536559809e-03,8.095579898510866720e-03,-1.314805604233738011e-02,4.515513592880135392e-06,-3.525916599583564254e-03,1.483892450383255020e-02,5.263086435972955807e-03,1.301728164269825433e-03,-1.540273822965774336e-02,4.230603457009019484e-03,-1.533028054925223739e-02,-6.519577668589722139e-03,-1.430352336678285437e-02,7.692196808418622946e-03,-1.176406335504519632e-02,-4.330833496996692143e-03,1.584604816289434531e-02,-1.184158580396794426e-02,3.125784770755496802e-04,-3.233021707808138908e-03,-1.929824716168077048e-02,1.172442478055167950e-02,-1.725891997875791603e-02,-1.031039127656885801e-03,2.430054272934468931e-03,5.143243724434014980e-03,7.554350320347455634e-03,-9.880987909676730574e-03,-1.962445004111906463e-02,8.948508309470257563e-03,1.427981318362259340e-03,1.346089671289351676e-02,1.287101368494322426e-02,1.374958248056532863e-02,-5.969314932580471267e-04,-6.662877195187435000e-03,1.167637054945422186e-02,-1.950581321861556130e-03,-1.267755865642813604e-02,1.421605755211110753e-02,1.532082047030595279e-02,-1.349232392409091021e-03,-1.699244666804664364e-02,-4.492359084634579315e-03,1.215612579614768797e-02,1.609031196089430113e-02,-1.187537207267028508e-02,-1.734191155915130664e-02,1.511219262096624369e-02,-4.429129079355822660e-03,1.672449922371071129e-03,1.874517614136789537e-02,-1.735828661685832539e-02,5.939863803436142356e-03,-1.705629564464282086e-02,-4.987240706047527290e-03,1.216721456115051926e-02
-2.664314895855544353e-03,1.991124016825232892e-02,2.365215896151029625e-03,-7.162127340371905043e-03,-1.120902736498165415e-02,-5.986378073730362626e-03,-5.104808285552858878e-03,-1.727222512365503282e-02,-5.223313778061041204e-03,-1.432181606315617974e-03,8.920237905766920800e-03,6.276728019891719863e-03,8.360681081134375275e-03,-1.968913162090226918e-02,-1.130690212584756216e-02,6.475158807407972034e-03,-6.411963999043005565e-04,-1.981128677766435739e-02,1.219445120650761681e-02,1.092552237894320148e-02,1.939098553161381494e-03,-1.736234758625207139e-02,1.067343826272002319e-02,3.352575443557707490e-03,1.129197924856952494e-02,1.008200469682643888e-02,1.213467650022075073e-02,7.211899865985836556e-04,-1.440434248050309791e-02,6.854542467771223592e-03,4.824753833915099502e-03,9.701795234645777671e-03,-1.322065942410479387e-02,-1.221568304743982265e-02,1.563518415386657215e-02,1.001115172861049424e-02,1.634880123605805813e-02,1.036107346622945104e-02,3.890891573296975919e-03,6.172733043842365194e-03,1.558385869675368678e-02,3.156065784816742409e-03,5.302029394651582885e-03,-1.375747662270052768e-02,-1.044407239088428543e-03,8.666306907495268524e-03,-9.173324254796347277e-03,-1.192417324172837141e-02,-7.455894412248895847e-03,-1.035242509910517562e-02,-1.141722530645181144e-02,-3.009585727146165714e-03,1.633318346085808198e-02,2.827258864160683144e-04,-1.249821559518939952e-02,-1.694150772409841466e-02,7.855693360111050752e-03,-4.693694237142050779e-03,1.288873834868226563e-02,6.388113332857487184e-03,1.186392602878263286e-02,-9.133142286354724998e-03,7.703621565732376650e-03,-9.448884198535270965e-03,1.758388622607999149e-02,5.461539515768727704e-03,-7.027980108250346698e-03,-9.230626609744085539e-03,-1.237782263580029102e-02,7.795012933762419417e-03,-1.126492310358858696e-02,3.816720770165275747e-03,-9.425934909584977178e-03,6.486558773199415859e-03,1.261275772212730462e-02,1.113440037771438497e-02,1.044661673448068866e-02,-1.250614413527506574e-02,-1.648442691724929729e-02,7.967535199324514775e-03,-5.272452299205972019e-03,-2.709409382285653516e-03,-1.877661776048479905e-02,-9.628521654095020463e-03,-1.867540359324797866e-02,1.518569379500045620e-02,-1.027649156953648092e-02,2.296248338207962803e-03,-1.846303151507043550e-02,6.681931596433553049e-03,-7.087429781530720473e-03,1.593593263492283987e-02,1.554342066420402908e-02,-6.996789870231655620e-03,1.605774748338890945e-02,1.987020359995299301e-02,1.303229970255147599e-02,1.381146410044076060e-02,-1.005173915814523526e-02,3.071790205643511358e-03
-1.733060588483499240e-02,-1.622279267250364282e-02,1.997973286537962218e-02,-6.942779672954701997e-03,9.939309872742585136e-03,1.228137216474637847e-02,1.433817447237828793e-02,1.992909938639323905e-02,-1.035259100807221257e-02,-1.840810521067208841e-02,-3.556616602150932272e-03,-1.481458979405495327e-02,-1.912596604522702817e-02,-5.589649238382544960e-03,1.136319585304852893e-02,2.650415138708959832e-03,-7.497897687542299898e-03,6.181113861525215115e-03,-1.073217971375974196e-02,-1.944813121687247875e-02,1.058686762574436412e-02,4.955683287119762651e-03,1.050473837657762456e-02,-1.846468566335044900e-02,1.350102195396545891e-02,4.786804794335003561e-03,2.538867366632968116e-03,4.990563765726331244e-03,1.459488223330712882e-02,3.481647423514823078e-03,3.241914044237032694e-03,1.965079907843867574e-02,1.028157169056652560e-02,-2.311027110754262752e-03,8.305868954143817012e-03,-4.436116173783890421e-03,-1.085803979087149665e-02,3.878739795006109093e-03,1.714790664705945558e-02,1.718624963585156651e-02,-6.331403261325525660e-03,1.108431690832762089e-03,-1.154845266410750582e-02,1.984911567882392119e-02,1.926788860787988916e-02,5.987558052561996885e-03,1.219122401519105899e-02,8.614366414914200257e-03,3.730815581808806600e-03,-1.788759241708929096e-02,-1.811605002736225295e-03,6.999870396155226729e-03,7.109815088460458808e-03,-5.081206114173639730e-03,1.768895287151976345e-02,-1.332173993992260587e-02,1.439516078841719115e-05,7.644552690855112471e-03,7.894926974097687955e-03,5.952717234127883478e-03,-8.999294354422005329e-03,-1.376829552660358003e-02,5.444160426751003430e-03,3.976867377022764820e-03,-1.284120290577284856e-02,8.215446029612844675e-03,-1.795279401709818073e-03,6.718503591200465121e-03,1.351093194968187167e-02,-1.322676987171318187e-02,-1.925736491709957240e-02,1.117754599631603542e-02,4.393180411384785614e-03,7.995198113182689151e-03,1.354248570616509335e-02,1.212702180906556279e-02,1.845900537668200905e-02,1.439133911074564091e-03,-4.607287835021112101e-04,-3.929237454265598582e-03,-1.386903771667655216e-02,2.907786329336168457e-03,-8.930238870715102514e-03,1.687259210731950967e-02,3.331638926337874510e-03,3.718078722724978049e-03,-5.810000892212607675e-03,-1.794200365455345808e-02,-1.875280221582419082e-02,-3.070286677004828262e-03,-1.663739363631487264e-02,4.279024338465492808e-03,1.525726919582684818e-02,1.533503515527988650e-02,6.369476579249686195e-03,-1.156463480924581864e-02,1.453735643021621463e-02,1.546233300027276443e-02,-1.214846680853640115e-02,9.508478687702631715e-03
-8.549499995666823629e-03,1.212018869243767193e-02,1.991346468356484933e-02,-1.882159535079965321e-02,1.591377313840304161e-02,4.911127652210359879e-03,1.895810450164721328e-02,-1.401304560922368801e-03,1.391224862037031620e-02,-1.752531386279304604e-02,-6.596771524344832716e-03,-1.734019246266316899e-02,1.903661949932940189e-02,1.269422284442310069e-02,1.411887674617022526e-02,1.753970316920520217e-02,-1.661584339827987949e-02,-4.581606312877972015e-03,-1.717926487333281890e-02,-1.158220513690393430e-02,-1.083840359346928406e-02,-1.237199461063058416e-03,-9.268660143859021663e-03,-1.598009399403009859e-02,-1.331637120899022489e-02,-1.412596587990870567e-02,1.894585692214295625e-02,1.038418869566263419e-02,1.873298761173228938e-02,-2.413282845105324797e-03,-8.875935269679080877e-03,1.194609471467149991e-02,-6.958211487230037302e-03,-8.034327438493650206e-03,-1.071264374310012396e-02,-1.483067680509264630e-02,-9.753207135912813838e-03,-5.794178359560002087e-03,6.968148485315670861e-03,-1.751847469290113146e-02,-1.159366539483193057e-02,1.237582925301539301e-02,-1.414012851115866928e-02,-6.301772890036666519e-03,1.460392010218184572e-02,-1.381960753810069012e-02,-1.671062340437153015e-02,-6.192249001353314309e-04,-7.912735704738346407e-03,2.539388544269507563e-03,1.216682790774761824e-02,-1.453153665066412616e-02,3.231850127633693198e-03,2.206157364413349851e-04,-1.425399094926538268e-02,4.965911614693125330e-03,-9.065285541568513308e-03,-4.872131993001199853e-04,-1.672922623048044358e-02,-1.618584282263122115e-03,-7.750782663300750594e-03,1.291077543531774126e-02,-1.774218834830600805e-02,-3.259629156842548062e-03,-1.664745120324038954e-03,9.011080118467726385e-03,2.975080948723696564e-03,6.696547009023630544e-03,1.109531507252901374e-02,1.450556388727168577e-02,-7.453944527321175982e-03,1.522739518818781290e-03,1.362070391236691776e-02,1.960161888844971431e-02,1.559953303145283736e-02,-5.147500073722444981e-03,-1.220802114020532077e-02,-4.248093956174321564e-04,9.677296356844942646e-03,-2.975950689779781680e-04,-6.735755349225054211e-04,1.354550718363474460e-02,-5.550524107989740670e-03,1.440911594145459496e-02,-3.732296563245546955e-03,-6.878948657258660872e-03,-1.842619556132185860e-03,1.051051869516419178e-02,-1.497793191407785669e-02,-1.215785285979506178e-02,1.807953616199185765e-02,-1.299596434405989390e-02,2.712354697809816161e-03,3.176398723979965803e-03,-4.155212395826873698e-04,5.796781372069761268e-03,-1.081994344219381135e-02,2.109027107008567235e-03,-5.119226365788794378e-03,6.474476836417110762e-03
-1.436833817317303107e-02,2.838510373744317430e-03,-1.260434424680846946e-02,-8.864938786796767653e-03,-1.126515589052073767e-02,-1.270176442859192317e-02,1.304412542207877314e-02,-8.582018354126573836e-03,1.710552302492890364e-02,1.881969429149702583e-02,2.853850946803785770e-03,-1.429714938713755497e-02,-5.024112452884610738e-03,1.192363034372861605e-02,-5.310757770709152031e-03,-1.653920193903586980e-02,2.274131393739428197e-03,1.382145626703127315e-02,1.185130831833114233e-02,-1.301072158171341468e-02,6.918905514521960128e-03,-1.119329093852296751e-02,-1.128527071222418243e-02,1.498088751536316710e-02,-1.002529869459597121e-02,-9.481508961339920466e-03,-1.999791461966287168e-02,1.484461406055445805e-02,1.171788490089739967e-02,5.099290003066329555e-03,1.002268421748960144e-02,-1.393481584073027850e-02,-1.669063495520234581e-03,-5.958390292058523240e-03,-1.626850406934824550e-02,-5.554485949368172032e-04,1.684985028232516974e-02,-1.841978757268365741e-02,-8.351607419887508918e-03,-1.171244838614516823e-02,-1.048674561112965427e-02,1.635705368793157616e-02,-1.278775734797284657e-03,-1.349646618587246015e-03,1.043557591735555165e-02,-1.383695268357074994e-02,-5.099991803430614689e-04,-2.803963588048953744e-03,3.881095174030069206e-03,2.000636854714602300e-02,1.079093334874245934e-02,-4.090291018318356620e-03,1.311789817251990571e-02,-1.318752528526372612e-02,-1.880406703139565761e-02,-1.183629988430849600e-02,-6.391224083763241172e-03,4.237399040522827048e-04,4.610710637022674696e-03,1.644400487212330578e-02,3.946349850093716920e-04,5.108722446170320581e-05,-1.801194145058687690e-02,-1.862593815296418112e-02,2.048862516376372036e-03,-2.475833000675852370e-03,1.358355189358488417e-02,-1.358915944975873369e-02,-1.902401251384600381e-02,-2.040903751003551175e-03,-1.051350166551236025e-02,-1.803711718724782323e-02,8.994748899865631989e-03,-1.555498701868900796e-02,4.337997039976911225e-03,-8.768555390396868404e-03,-1.307588353896632812e-02,-4.815730663456772864e-03,1.207234971427021721e-02,-4.321454068278333255e-03,1.004286389722587429e-02,-1.499858599605344810e-02,1.092399439632305534e-02,-1.053533719957762578e-02,7.104269058802503527e-03,2.634430459564963446e-03,1.718645777401539565e-02,-4.512526216055921628e-03,-1.737428742322584541e-02,-1.925693970354498685e-02,1.309008507137850337e-02,9.906168598408906980e-04,1.102301877358734077e-02,-1.063576697603880843e-02,-6.204111479093658843e-03,-1.881847692518576545e-02,1.848192004053680892e-02,6.722801363771078835e-03,1.734906815733064725e-02,-9.391438202388753542e-03
4.463912919902343103e-03,7.148595904097403489e-03,-7.306799423637437736e-03,1.394113553864340278e-02,1.790799534999557019e-02,1.541274065394919283e-02,9.574193325364518253e-03,-8.912130877396970061e-03,-8.745876438279735071e-03,1.855672984451967045e-02,-1.961220654553749720e-02,8.652404639462606822e-03,8.259780026746170803e-03,4.913490788252911252e-03,1.962795917114444622e-02,-7.533883102831857512e-03,-6.408832953698123669e-03,-1.686270360865496296e-02,-2.290829576730198623e-03,-9.569567675413732932e-03,-6.272074947960959608e-03,1.339898573834402869e-02,1.744035497304290139e-02,-1.258581329591005118e-02,-5.105783146200621944e-03,1.716586680668588313e-02,-1.754876638404622574e-02,-1.632521219451453162e-02,-1.350460157748111650e-02,3.813099142634162209e-03,-1.399794361732695745e-02,1.874559942642553198e-02,-2.133985321292329249e-03,6.079152419787409417e-05,-1.014585716016921935e-02,-1.162988556730454271e-03,6.484343622901423201e-03,1.005918303295653959e-02,1.016695046839398257e-02,3.119396011643519456e-03,1.619386635724157433e-02,1.271160134583851700e-02,1.029430490922021019e-02,-1.779718269927327290e-02,-1.974863196455914002e-02,-1.151595844029783267e-02,6.548819615231302529e-03,-3.556377479054038948e-03,-3.908450078236002691e-03,1.540199855643993934e-02,1.584156559250769411e-02,1.638671785014585158e-02,-7.453841211367221581e-03,7.651434414614506282e-03,-9.145671680442127305e-03,-1.239050797155363641e-02,-1.262989089160999716e-02,-6.323299805478225025e-03,-2.805068690736853537e-03,1.325390649252160442e-02,-1.522266361334690017e-02,9.408348732592006561e-03,1.259711544423157978e-03,-8.492399574581331601e-03,-2.875624521916782489e-04,-8.011952686902329424e-03,3.847905846953325170e-03,-2.649429389997593268e-03,-1.343994222078195161e-02,-1.535514369559590198e-02,1.870076307535299557e-03,1.611590292715530531e-02,-6.249208072187764466e-03,9.331226375431229264e-03,6.354095874132110154e-03,1.728298174130881576e-02,1.285470024171592521e-02,2.667418294564357240e-03,6.288783058237737596e-03,1.595464632577153069e-02,-4.024088137444183956e-03,-6.936553928363621904e-03,-1.959111767528261272e-02,1.307777079050601379e-02,1.205372428183565034e-02,-1.584087010681062974e-02,3.077996961120663469e-03,-1.442466838619334887e-03,-1.527000046097812432e-02,1.924587490107319485e-02,-1.142590572877833811e-02,-1.733147628668551751e-02,3.798463356083900400e-03,9.566171726031517941e-03,-1.872478128982855983e-02,6.356349936443090459e-03,1.293230325866168064e-03,-1.588850776667013326e-02,-1.311481729852770686e-02,2.722245768587477823e-03
-8.155503577193461140e-03,1.755373993905354202e-02,1.276496080506435600e-02,1.936597852035568459e-02,-9.624741520949026130e-03,1.881156881760558466e-02,-2.753957221677407353e-03,-6.106592206699509168e-03,-1.800767563449991518e-02,-1.791093004898178936e-02,7.689698160341168313e-03,-1.684866506962687683e-03,-1.095230661762613619e-02,4.564301454942542614e-03,-9.897578473021207898e-03,3.109009186066753402e-03,-5.638431111664192821e-03,1.295767245250676811e-02,1.284329226075115078e-02,-9.070749578296526247e-04,-5.974420691374962740e-03,-5.504227730535085975e-03,1.224330528973567589e-02,-6.881096155150119922e-03,-1.165163775292701528e-02,-1.663246916283364976e-02,-1.333879338474962305e-03,-7.155766227758155037e-04,1.365276775210421192e-02,-1.116387824528656050e-02,-4.766080922833496915e-03,1.235108343683948527e-02,1.296053125609850434e-02,-4.621114488289831262e-03,-1.637007796156935086e-03,-7.878038794088599098e-03,1.732302846741278629e-02,-1.527261679818566614e-02,1.737086778407460549e-02,7.363513714110102998e-03,1.264406730929448731e-03,-1.871614631558888783e-02,-9.773276984540813037e-04,-3.694518968437774786e-03,-1.356756438818806226e-02,6.263917364473901503e-03,1.886872854287010084e-02,2.490547669609235754e-03,8.600474314157101688e-03,-1.728276680780172284e-02,-3.297285607971399413e-03,-1.536413808824145175e-02,4.517266056841084607e-03,1.756040513738723122e-02,6.478901070867133793e-03,-1.694826068812702036e-02,-5.820351576014364328e-03,2.028975300235622090e-03,-3.876351602034254582e-03,1.336182986206065591e-02,1.260199582624139773e-02,4.478626970679947319e-03,-5.067776895273106916e-03,-9.798328891186857195e-03,-1.578400971983491899e-02,-5.811081287154755762e-03,-3.477281221890191152e-03,7.041385240947659226e-03,6.334010493003717004e-03,-1.721637948488125014e-02,-4.194672054359494320e-03,-1.274417193552536583e-02,-1.374402086777142332e-02,1.310784998671875833e-02,-1.834545427001384524e-02,-3.236577394567835900e-03,-1.328783422243211450e-02,1.519147847496489685e-02,2.284367798301438664e-03,-1.075771217734673192e-02,9.720839315321202091e-05,9.270603567364128425e-03,1.834678489570238519e-02,-1.119562411209506884e-02,1.546587072752312643e-02,1.739308214654973136e-02,1.667687802691177057e-02,5.423096295636477618e-03,5.199078786600952115e-03,-3.876236381442781792e-03,1.010807164224092509e-02,1.253267961591272503e-03,7.106068876908845124e-03,-2.865129559455148987e-03,9.271008227624825959e-03,1.299448836843191714e-02,-1.415957858178902226e-02,1.333322366312376245e-02,1.613802091176070068e-03,1.380323665920789832e-02
