-7.600951379581628170e-03,2.730639864815150378e-02,1.405528728279772238e-02,5.977196333005873469e-03,-2.084001328120547655e-02,-2.084147459101279992e-02,-2.677337924195251351e-02,2.218467812042371548e-02,6.126024358901587148e-03,1.260601821651501780e-02,-2.904525268154645873e-02,2.846935535292129116e-02,2.014094327213224525e-02,-1.742785353735104223e-02,-1.927654428042455126e-02,-1.918084813639467021e-02,-1.185992828759527620e-02,1.499861401427930296e-03,-4.123091777922806636e-03,-1.264832343414647002e-02,6.776575959098105582e-03,-2.184116238633072513e-02,-1.259285762073626865e-02,-8.096429888577217487e-03,-2.661487568797555638e-03,1.727730488231994307e-02,-1.819517887993757702e-02,8.623894212515464215e-04,5.598910490205066988e-03,-2.747817333694435593e-02,6.515574404479299551e-03,-1.996120268559093552e-02,-2.635122609691608123e-02,2.719560318655885392e-02,2.821018489464004880e-02,1.868416602254888495e-02,-1.183741947711626150e-02,-2.437492106633521588e-02,1.116170575140576320e-02,-3.625844222832140355e-03,-2.289870653384793592e-02,-2.922055354012774832e-04,-2.820893962487164286e-02,2.479856067364223648e-02,-1.461424652084099274e-02,9.846366584471988662e-03,-1.140743114698897394e-02,1.215815381423607407e-03,2.829929049454393830e-03,-1.909300358835777991e-02,2.844965172487978755e-02,1.666884420805852043e-02,2.662691894425375794e-02,2.392050324261371305e-02,5.931242498945138442e-03,2.555913108834865013e-02,-2.493106525767572676e-02,-1.841879220736912168e-02,-2.755227594665112315e-02
-1.058231245844059795e-02,-6.744454886610652504e-03,-1.385275417459092863e-02,1.991646892020075554e-02,-8.678559146442740499e-03,-1.327202070903144709e-02,2.586730110078683774e-03,-2.175450416880171309e-02,1.830851852133714291e-02,-2.577572879995015248e-02,2.949790720709744365e-02,1.649387227022578589e-02,-1.825322513499766722e-02,-2.995780253808205673e-02,1.911214132987527209e-02,1.253239361180506252e-02,1.387433443952876440e-02,1.643483715223317820e-02,-2.580638417872337109e-02,-8.574813765132246329e-03,-2.327246427397936662e-02,2.199851825526687177e-02,7.469982105829970666e-03,-1.024499528835408173e-02,-2.644169378308541818e-02,-1.145158252439847958e-02,-1.059121894112156036e-02,1.391062530878608462e-02,8.333880456949459281e-03,2.345917438177998193e-02,-1.683350892586274765e-03,-2.304677490980764493e-02,1.291937506029703156e-02,1.579958833730488524e-02,3.712461666021327732e-03,1.641646988164443405e-02,-3.758920376800790127e-04,1.377262032016750119e-03,-4.389906888247388679e-03,-2.875234784344197700e-02,-2.375578688230225652e-02,-2.838823012396286122e-02,8.264386146064282498e-03,-1.124719032717901024e-02,5.192528976897255004e-04,2.469229943308160272e-02,-1.518905931693234797e-02,-5.429425235607143914e-03,1.548249337729909469e-02,-1.643068636135229174e-02,-2.562855239808255886e-02,-1.273784869990315406e-02,-2.052481239709375363e-02,2.603311061169138671e-02,1.866738596123829197e-02,8.082228819072638168e-03,2.250483468904658849e-02,1.839788680365905121e-02,-1.898906424448091809e-02
2.378307578268298861e-02,2.383538587931405099e-03,1.862617475852713575e-02,2.399707926497158042e-02,-1.102620794219198036e-02,-2.362489375085977811e-02,-1.648297115072634364e-02,-4.416153988922897483e-03,1.926683455745555051e-02,2.185476025697595873e-02,-2.987116558064700084e-02,6.511222838984181928e-04,-5.003630991733599119e-03,-1.683601962612776837e-02,-2.303034909682804762e-02,-9.838038866313500441e-03,2.683355901547639435e-02,-1.071120030894893473e-02,1.138424498343568528e-03,1.229984614618046847e-02,-8.261961930827236428e-03,2.858278391127259954e-02,2.801723843654491466e-02,-1.503819933232193595e-02,-1.666984915101193975e-04,-1.206373122465716728e-02,-1.303537773244023076e-02,-2.805757317851421614e-02,6.637924154449365531e-03,1.623078638387333360e-04,-2.717353287072197740e-02,-1.341064129487762498e-02,2.473467311354227496e-02,-1.577856911901666381e-02,-2.151394363741580135e-02,-6.390015324619983646e-04,2.942299526551728564e-02,-1.562750834647392770e-02,1.042878340477564926e-02,1.585015032525898329e-02,-1.589515511747693552e-02,1.382642286831090722e-02,-8.010321471123328652e-03,8.015711288244110888e-03,8.089859721677420540e-03,2.167399106183640848e-03,-2.482217828458530007e-02,2.031420676483402035e-02,-1.085798902315456525e-02,-1.899218729492188618e-02,-2.782200803371408585e-02,5.506723229558687857e-03,1.075768659040575274e-02,-2.928738952133238399e-02,7.326545132897922981e-04,-1.657017602544519352e-02,8.795252405810404309e-03,-1.972841770574695550e-02,1.156790880487474325e-02
-6.862106977029180412e-03,2.645916272114502352e-02,-2.196069097427992556e-02,-9.628950124516226158e-03,-2.341759728272633720e-02,2.572994262465944093e-02,2.286099789272206737e-02,-1.466503795360156980e-02,9.692588134489713014e-03,1.921881718762222246e-02,3.344325542365923429e-03,1.796371895062509518e-03,-1.563980586932668670e-02,-2.465175361222377015e-02,2.406520423635383904e-02,2.425921462736080336e-02,8.063914105376168012e-03,-9.752334535622185149e-03,-9.135595230487755444e-03,1.368946083205295136e-02,2.405881266984688863e-02,2.345152142265845979e-02,1.695618070775564007e-02,8.604947070428399167e-03,-2.519476248298117144e-02,-2.050012855730563507e-02,2.414629267372977658e-02,6.447974447408672156e-03,-2.973515767226504389e-02,-2.414473374456316615e-02,9.905708390987004106e-03,-2.998570381630672257e-02,-2.054984817325362229e-02,2.952522831322688165e-03,1.162591622307385456e-02,9.206529883875718898e-03,-1.670506582178994323e-02,1.285481805341407054e-02,-1.591868964428349784e-02,-1.057810985439294575e-02,1.493361199272483231e-02,9.065466824888783470e-03,2.115760145307709478e-02,9.548932456843477537e-03,4.138457393629788386e-03,-2.461709915282314989e-02,-8.014400619501213865e-03,-1.422514807837891790e-02,-1.551031497453344080e-02,2.865721054149658609e-02,-6.476644085020483860e-03,2.375202954965542970e-02,7.944996528233834454e-03,1.786105935844848475e-02,1.597675391674304596e-04,4.659200077152488018e-03,-4.533134016025884799e-04,-1.846361730181609456e-02,1.347719842274252081e-02
-1.328184435405522709e-02,-2.881918249865792966e-02,8.813397861594010271e-03,-1.956215807208717961e-02,2.668505863091575822e-02,2.750113432198805774e-02,2.513444162559783437e-02,-7.866398384511015182e-03,-2.935592370425762002e-02,2.594955884934017562e-02,-4.350943041777810723e-03,2.827215009300865570e-02,2.808828505242112750e-02,2.138697791587682723e-02,-1.245325567858127438e-02,-6.961321581659240219e-03,2.127351583045593644e-02,-1.109172848478483589e-02,-2.002368836920636122e-02,3.441288404533917027e-03,2.642431350891493586e-02,1.187640973183257294e-02,4.244636154229822038e-03,-2.440494807799056462e-02,6.967680268861262648e-03,2.968977376510914534e-02,-2.180540803791372953e-02,1.110496798987821096e-03,2.286304072134415916e-02,1.458689854051650227e-02,1.193614288933827171e-02,1.226744090130827552e-02,-8.512688822654572093e-03,-1.250517967720644712e-02,1.874255801870685148e-02,1.878813221770620975e-02,2.223897249610148202e-02,2.503606188046474113e-02,6.871760237435694564e-04,9.186428433245676269e-05,1.807212896472916094e-02,9.085522288562878843e-03,1.223610607803816627e-02,1.792051513332076212e-02,2.362836321617314828e-02,-9.815017555533026364e-03,-7.537771589503928713e-03,-2.459848922339525831e-02,4.742580179673670619e-03,-2.811480595855812142e-02,-2.084234331597100819e-03,2.583613120260753841e-03,-1.293233780562348667e-02,5.503107374969846109e-03,-2.844450943323717160e-02,-2.802962899920354023e-02,1.954466363328200007e-02,-8.470310407440900455e-03,-2.259443325480568407e-02
1.347601612935243063e-03,1.635748297422875974e-02,-1.721690259269426787e-02,7.445284684890168814e-03,-2.512160643742471916e-02,-2.716123599566708582e-02,1.899611476470603475e-03,2.461867338181462830e-03,8.326151673280140358e-03,1.369767944288050911e-02,2.882936351156826713e-02,9.875519868928783231e-04,-1.072613196250380395e-02,1.788377203730087336e-02,-1.388406317558936801e-02,-3.697399198210942536e-03,-2.553910078945564183e-02,-2.875649082804688367e-02,2.802942321879841811e-02,2.035526047894367641e-02,1.187304179220476444e-02,-5.516060085528400048e-03,-1.979337112198797585e-02,-2.081466450064028278e-02,-1.513146330376719841e-02,2.982383544226102461e-03,1.300123322064330317e-02,9.705512713554798054e-03,-1.333264254867918587e-02,2.755788424806749834e-02,1.441291734492371884e-02,3.293024882749125398e-03,6.768569780364697662e-03,-4.871007455078557417e-03,-1.528364657897301679e-02,-8.725854487071027510e-03,1.562153360140259781e-02,-2.942033300703380053e-02,-2.326013037783543347e-02,-2.750530139792522338e-02,-2.782481548319514289e-02,2.153547884473312052e-02,1.233855375117011433e-02,-1.564671252869903302e-03,-2.436510351624951096e-02,-5.079498323433413298e-04,-1.607205256619023345e-03,-1.979897218880751972e-02,-4.007579103075758695e-03,-6.149061931317396403e-03,7.018745391152872957e-03,8.184610590263969795e-03,-2.754762783497787318e-02,-7.596559243329244031e-03,7.625187360238791338e-03,1.900093381408499182e-04,2.159783609941869770e-02,9.614408742483340070e-03,-2.042102230567128390e-02
-2.601697085868433235e-02,8.628431648554585678e-03,-2.868617819728658952e-02,5.196689306773192782e-03,2.667122453927367812e-02,4.572581698451506742e-03,-6.775193359581649713e-03,8.681076146741604355e-03,-2.529236810179945946e-03,2.763680265735298045e-03,2.674602045273917483e-02,-6.900439442355660313e-03,2.794109973755315446e-02,2.455805388052106561e-02,-1.843040797154181509e-02,-2.609012366456666190e-02,-2.418675175929569515e-02,-2.918839429244259737e-02,-2.457055840178007031e-02,1.108741355477202255e-02,-2.597941432848204293e-02,-1.096731018725027179e-02,2.089417307440044613e-02,-2.888243480276783334e-02,1.905198398571145840e-02,-1.321626670933932074e-02,-2.313337581382641367e-02,1.191926546359702715e-02,7.811965866015310386e-03,2.286903507011325484e-02,1.424171263582674207e-02,1.838630624620942247e-02,-1.320537371065728938e-02,-1.954223391717642075e-02,1.518342377441382618e-02,1.858949580782421826e-02,2.971711515688392827e-02,-5.294033304742831736e-03,-7.753748038158346685e-03,1.674640096884831564e-02,-9.644872442260374670e-03,2.609731061619514556e-02,2.171433509702090647e-02,-4.301876748358799026e-03,1.519895261583237116e-02,1.542140796054759268e-02,-2.404462804348128993e-02,2.438855388088594436e-02,3.182134977080441278e-04,1.977833315789169141e-02,-1.090224397421949397e-02,2.396266281838075121e-02,-6.712684924803044052e-03,-2.963576239400933857e-02,2.455995227010265847e-02,-2.476178097248676185e-02,-1.094683211087873684e-02,2.726687685276928466e-02,2.729990642185742972e-02
4.449213660302578713e-03,7.987320173714073518e-03,-3.123413454901579310e-03,-1.252826685075473026e-02,-1.038031001047544540e-02,1.045198181820922688e-02,1.529003941400809002e-02,1.766523381262176742e-02,1.754643318486719811e-02,-2.476666250955781787e-02,-3.380442598774684670e-04,-2.680517726095897266e-02,3.000693313025822300e-03,-3.542358020479705397e-03,2.348894814606887829e-02,-9.032271755769670507e-03,-2.319988639420696858e-02,-2.162924786706261343e-02,1.584354758402699292e-02,7.162207896259532164e-03,-2.416586973743174022e-02,-2.519677140434118182e-02,1.217565793131158459e-02,-2.588403230060067062e-02,1.949980056747269500e-02,1.249512694122460049e-02,-2.536386559677994423e-02,-2.515248955190073701e-02,2.948292108668054690e-02,-7.617268242814104716e-03,-7.837108896312408590e-03,1.895087322285788495e-02,2.709642843632085324e-02,2.944423685567097368e-02,1.535084561778539414e-02,-7.496777977371896565e-03,-2.523349116003414591e-02,1.679086743596168441e-02,3.538404934902688453e-03,-4.590988115598184510e-03,2.461886537439897382e-02,-2.355549045717983750e-02,-4.468059685666800817e-04,-2.960450108679653011e-02,-1.898686132024449873e-03,-2.688124042393203253e-02,-2.309380862308499371e-02,-2.317206405349931525e-02,9.039863909460129146e-03,1.490655935036487231e-02,5.050873030146741001e-03,2.800059299959311784e-02,-7.580930513065104771e-03,-1.298257258367662738e-02,2.233147382401584613e-02,-1.674586786808463651e-02,2.806420640500024988e-02,-2.955598303267809729e-02,2.846747568455306604e-02
-2.767752739445713747e-02,2.369729480342892478e-02,1.678263851288732582e-03,2.986613260528662647e-02,-2.582141445930100088e-02,3.262746573293681587e-03,2.843256125211270774e-02,1.399376349614557709e-03,7.839579856237817793e-03,1.185937890199923773e-02,-2.754116720765297736e-03,7.728070167802506343e-03,5.108158716894270306e-03,2.430404449022230060e-02,-2.753900235433775004e-02,-1.327028314511595648e-02,2.728805224281974015e-02,2.364402085601725184e-02,-2.686523078070672445e-03,7.278199426009253868e-03,-1.348729800151589678e-02,-1.889509123937312823e-02,-2.199321859047174282e-03,-8.884613746300465409e-03,5.068281851867141065e-03,-2.558282746821381737e-02,2.874107511236634674e-02,2.945694029889454543e-02,1.200557134057971508e-02,2.186888135398634692e-03,-1.153971544098025305e-02,1.901118242767627434e-02,1.119188578830900525e-02,-2.044025721030271608e-02,2.489590713134836458e-02,1.954082754614324194e-02,2.725100039997983142e-02,1.367515251027259099e-02,6.871227535795730416e-03,-4.953222499399454262e-03,2.621673265043425460e-02,2.217787710581337057e-02,-2.755279811447244181e-02,-2.869492275567048917e-02,-7.484431942150123265e-03,1.881478562193120846e-02,2.952148633751323914e-02,-2.117939367894269148e-02,5.702882739433996935e-03,-7.216193728971902893e-03,2.846963074999764309e-02,2.072717809787816626e-02,2.049754878770763261e-02,-1.896716050266716034e-03,-5.160636334672331210e-03,-1.372806839436043272e-02,-2.687686493696684470e-02,2.209660190565114826e-02,1.895701904998773821e-02
3.027525375657256004e-02,3.008860216689754688e-02,3.358314190177249213e-03,1.629652639331721081e-02,2.694600582338747830e-02,2.118328817244153825e-02,-1.530684372538628976e-02,-2.996269560352953897e-03,-2.246727184110555373e-02,2.750855293608802515e-02,6.432560168171543025e-03,-1.644009880224961764e-02,1.040243735303721800e-02,7.156766003816014514e-03,-8.593171571179388651e-03,-2.341250386747497150e-02,1.039471347939263136e-02,1.230336309764420337e-03,1.649833266484760849e-02,1.221600006203894372e-03,2.133681648759523999e-02,3.144761131350336247e-03,3.691909752786042866e-03,2.281945187934008787e-02,-5.847463224706893510e-03,-2.217308376714884066e-02,-2.854856814507345658e-02,1.545741840083271826e-02,7.288920106853930166e-03,1.236411497147255067e-02,-1.738998500974068759e-02,-2.203033120150432386e-02,-2.941117398897999391e-02,-9.052110448231367318e-03,5.447637600700405182e-03,-6.528364019896146404e-03,-3.788064147167370579e-03,2.448584008097942633e-02,-9.193399568663367799e-03,8.475492400597631508e-04,1.718503746942176211e-02,-6.267926242382596685e-03,7.396588168265733759e-03,2.195370270244341795e-02,2.723407971655900789e-02,-2.138195323778190743e-02,2.584469049543289612e-02,-4.776321517505411392e-04,-1.464669528934909454e-02,-2.475748638869309723e-03,2.908263766742427703e-02,-4.472306854856299141e-04,-1.037503520709283367e-02,8.082052990489127509e-03,-1.574320411666276301e-02,-2.569620018547130388e-02,-2.248421697691577875e-02,-2.253473753952787983e-02,-2.108937676066618624e-02
-2.188155349021825985e-02,8.534856529614153267e-03,-1.927320502094926474e-02,-9.350203945330306729e-03,2.403931347589752937e-02,-1.577526652724733523e-03,1.015143814955068481e-02,-1.985240783084462821e-02,-1.864258267671314862e-02,-2.781634489476928623e-02,-2.005747547306547043e-02,-1.341404162451141462e-02,-1.956822836568940932e-02,-2.491834054628398049e-02,-2.298366834425341967e-02,-2.376207234469206609e-03,-1.779168852794001457e-02,-8.223172040648376105e-03,2.070343872478826695e-04,1.153501678815481782e-02,-2.791064357833318924e-02,1.813969424919170334e-02,7.748808886301940951e-03,-2.533901063749689417e-02,2.263315517437758731e-02,2.549843522933119624e-02,-2.659196753511207725e-02,-1.351780451686930389e-02,1.855111784492393529e-02,1.504074305490848106e-02,-1.911320472426366809e-02,-1.760898895697480745e-02,-7.847410980601385658e-03,-9.376705603681231458e-04,7.164431853014050638e-03,-7.941830033652366033e-03,-2.269823615947050115e-03,1.499295672315876897e-02,-2.806991697917782247e-02,-1.499853763716242974e-02,1.292572425753701904e-02,2.394349437079360335e-02,7.074745244742413090e-04,1.945586412867758661e-03,-2.379937247599117969e-02,-3.186006867453436246e-03,1.976107853616262695e-03,-1.560235162584810292e-02,-1.398033352135236509e-02,-7.434704235146037503e-03,-2.907635060577020217e-02,-1.077928338041012936e-02,-1.748184080162054274e-02,-1.045102407955851055e-02,-2.303660359124196783e-02,2.365998473801170926e-02,5.670272300788961953e-03,1.085086329813535026e-02,1.751935762121171677e-02
-9.437893684029599660e-05,-2.502631739559137494e-02,2.248089330517150531e-03,5.261244548941896269e-03,1.486988105492839489e-02,-4.140387043207657651e-03,-2.256294191611325425e-02,-1.309987553007834274e-02,-8.295120308712843060e-03,8.840354754160893377e-03,4.288083549697390730e-03,-8.718339119756803729e-03,2.947538860650958381e-02,6.408337483897153311e-03,-1.592004042663955690e-02,-2.412589615342461760e-02,-2.103143077041353531e-02,-1.539107910168165810e-02,-2.055752293358762903e-02,-1.898924810908382207e-02,-1.301994836108546529e-02,-1.978856825499175284e-02,2.403792091924133664e-02,-2.543141967537148121e-02,1.485015597478694461e-03,-5.428582868488599118e-03,2.922477193495308032e-02,-2.350451327306834690e-02,-6.188389612813587071e-03,2.844273328408283494e-02,2.214414574034816868e-02,1.920972164939809684e-02,-1.466738868122139348e-02,-1.993918234006176321e-02,1.021720173305571203e-02,2.601362273688028609e-02,3.438963802606819723e-03,4.338634516635223384e-03,-1.332990431853685494e-02,1.632715305891782598e-02,-1.896036588984429880e-02,-1.068234354272601210e-02,-4.517412256078417315e-03,4.610726379564319640e-04,-1.560603343298508881e-02,-2.333500192623963118e-02,6.701883952712713900e-03,-1.280575808927512417e-02,4.921794644821256455e-03,-2.094033703869940116e-02,-1.142621589534164673e-03,1.974421544456814778e-03,-2.715264413443112604e-02,-9.899283545220748798e-03,-2.214888329357453042e-02,-2.645280379715325356e-02,2.968410196239212179e-02,-1.076264200724029452e-02,1.877365557082200098e-02
-1.486502646529414169e-02,1.099629103910396491e-02,1.576583121601741674e-02,5.794246022600835558e-03,-1.722048569373285393e-03,-5.341093256893200171e-03,-9.156273283257713655e-03,2.602290159647893675e-02,2.003048321624980449e-02,2.817352372487006568e-02,-2.276184634660928519e-02,1.398704062229040590e-02,2.655673247407874804e-02,-1.931240443744191085e-02,-2.626370090852750069e-02,1.460822627144950890e-02,4.511932477266577569e-03,2.070959966174706207e-02,-2.182428857488404039e-02,1.788868649330463412e-02,-1.807682433999249771e-02,-2.037730947615567709e-02,-2.034036157968661246e-02,1.905842036320119781e-02,1.000842684544051009e-02,1.397412229381727808e-03,-8.552715151633765236e-03,2.285258797259794722e-02,-6.516182715987587498e-03,1.918108740513232990e-02,-3.687494332221711007e-03,-7.455286903946583589e-03,-2.261034619152622275e-03,-1.203346526010766644e-02,1.500134419510775786e-02,1.648140635592727787e-04,-1.622381804890984935e-02,2.420811239476630683e-02,-7.034417480525990800e-03,2.638637759957253477e-03,2.462599776289106299e-02,7.526923808336977682e-03,-2.321012374031702907e-02,2.664710468437965149e-02,7.737156238781201650e-03,-1.000219659467628357e-02,-2.185459934883101502e-02,1.781343284788232395e-02,7.274573923074501708e-03,2.027230783921255258e-03,2.386387062574709533e-02,1.748458033474226472e-02,-2.110317879400144467e-02,-1.140676521758460585e-02,-1.523771425688784029e-02,1.477941706973418153e-02,-2.826080537579580762e-02,4.234246770845046318e-03,1.590098516861175593e-02
2.282623943377588491e-02,-9.567432544421052357e-03,1.946328284957152613e-02,-2.358976597909364162e-02,2.098971400757892666e-02,-2.256849392765419154e-02,-6.222820421501177278e-03,1.801155556584725301e-02,-2.120965354911690665e-02,-1.640322756581051589e-02,1.346510893221361180e-02,1.333085127016388031e-02,8.551389376807386894e-03,1.175031159758852667e-02,2.588448304121011932e-03,-1.503718374576983388e-02,-9.348464547199990954e-03,-1.929031218191350552e-02,2.474586161836536680e-02,5.052268276120600726e-03,-6.006888844547036629e-03,-2.301867629348967881e-03,2.709853449605976322e-02,-2.100160709947774401e-02,5.224209959451154434e-03,3.567639430196760863e-04,6.752423299018823176e-03,-2.919515808114821545e-02,2.254502166810712013e-02,2.617976380346035553e-02,3.946075487323489998e-03,1.191403448903637606e-02,2.559700539110894638e-02,1.255549398672393610e-02,-2.105082371231049507e-02,4.621908702037443896e-03,6.465300872069522711e-03,-4.596521799111697067e-03,1.432490707351573647e-02,2.631600261231307678e-02,2.578294786801063956e-02,-2.978382765182514477e-03,-2.343186349315775838e-02,2.937396677147492696e-02,2.053204461890759114e-02,-2.273970519424903941e-02,2.549658631012498983e-02,2.241006637092014114e-02,1.141298357574964005e-03,5.529896432814762619e-03,-6.118892591794942819e-03,-2.697464005661700387e-02,-9.984528456124021692e-03,1.834829043980578528e-02,-3.001172863827926765e-02,-1.008740554357743374e-02,-6.169420868435495503e-03,2.265602016595853838e-03,2.543683365134908822e-02
-9.309084429000651431e-03,-9.272296932691326266e-03,1.438894587566090337e-02,-2.894862523191829053e-03,-1.668473883262932417e-02,-2.881438449833682944e-03,-2.175857574016065027e-02,-1.960600280159263686e-02,-9.888802646439761451e-05,-4.911878688037572827e-03,2.513332146553742819e-02,-8.336826663144721733e-03,4.882422385518292614e-03,8.013194437098358769e-03,-2.949903449548297446e-02,9.907865383128001621e-03,-1.950609979312562664e-02,2.793381464621225510e-02,-2.128566916889097771e-02,-5.172473292482685989e-03,-2.512147296415125075e-02,3.010298587364512377e-02,1.329840794696425901e-04,5.778874269043276189e-03,-2.622854904863420114e-02,1.514378433062592982e-02,-1.757528751112376331e-02,2.411600642911315012e-02,-1.786403140088664229e-02,-1.873959687147061862e-02,-2.807800716192158930e-02,-1.692316222137733688e-03,3.928381700971820406e-03,-2.631141912418471021e-02,1.669276265041919755e-02,-2.829982721981726124e-03,1.477677561867669518e-03,-3.588872205567486106e-03,-6.012241861025321987e-03,3.613292587009389600e-03,-2.088717209232015745e-02,-1.927029416181820845e-02,2.191867942079331333e-02,2.702777896969214139e-02,-7.675519204676907806e-03,-1.388936907110491746e-02,8.724171558157984424e-03,-5.529314404949931677e-03,-2.875433327027288044e-02,-2.083189753890557494e-02,1.308461633892146064e-02,9.628362026270903540e-03,-2.865075540616165636e-02,-1.684423785438456805e-02,-1.629275731093099769e-02,1.041407320486178144e-02,-2.909820109117597017e-02,-2.398496947616166400e-02,1.817033112045269086e-02
-1.947528063938888318e-02,9.254079698911172117e-03,-1.586212208490740336e-02,-2.426772981400313403e-02,-1.555984009551715681e-02,1.346597913852823347e-02,2.154976981586234977e-02,2.000627700333961617e-02,-6.229106748790270119e-03,1.018339041107054789e-02,-1.787344293774042331e-02,-1.253208619837026597e-02,2.401189335498097460e-02,-2.950464058579136892e-02,-2.511184830785497674e-02,-1.769762852908522699e-02,-2.868491238067067545e-02,-1.930014397346750676e-02,5.031049460721764670e-03,-4.760471356166619261e-03,2.378990444285515246e-02,1.923222831368338881e-02,-9.583450962902723136e-03,-1.457526317381647313e-02,-7.288801389845185781e-03,5.470493528063917130e-03,-1.405179865520251280e-02,7.521526433150057221e-03,-5.488269404729434475e-03,3.153263716381871692e-03,-3.869756148556458605e-03,-1.245223376754553933e-02,2.716941663674044341e-02,1.597048240741317376e-02,-2.180364135546390345e-02,2.232352799956412170e-02,-7.614772955891554616e-04,2.390383496122578180e-02,1.816664578690805817e-02,-4.530918658268671441e-03,-2.893106175750961850e-02,-1.401461668987477420e-02,2.522397107799756975e-03,8.086740157973799220e-03,-1.466830603148163922e-02,-2.184951014722266022e-02,2.029165357143903822e-02,2.934736897456091675e-02,1.556432421434652972e-03,-1.989121751311415109e-02,-1.379469615874770114e-02,-2.917816450871833084e-02,2.510017589968715698e-02,-2.315844242124634467e-02,4.635729005778375933e-03,-1.368880048545099287e-02,3.282358943608322099e-03,9.173761358339150782e-03,1.997731382149725912e-02
-1.778638413272680754e-02,-2.962617927445210589e-02,-2.199918129777687914e-02,2.423501616356986063e-02,2.265202449381514826e-02,5.901745215507603858e-03,6.089785531160052043e-03,9.998700202399747258e-03,-1.966753917610448640e-02,2.510703041605113345e-02,-4.921264751822288300e-03,-7.080019180324627522e-03,1.146123818602706648e-03,-2.744693864048175155e-02,-2.021812762246097753e-02,1.442119925939997285e-02,-2.527602458621600046e-02,6.249441347719749372e-03,-1.542795209350285648e-02,-6.706993880774019326e-03,-1.280193013297161418e-02,-8.744027611203833775e-03,1.327083414957384161e-02,-1.229132342031366044e-02,4.023106331985486228e-03,-1.450979602186173133e-03,9.915971215112217088e-03,2.646520608227915725e-02,1.409031466395009591e-02,-1.727025645734125286e-02,-2.840313703144416516e-02,-1.440316556857676455e-02,5.760269513125357461e-03,-2.717674009027160054e-02,-2.201498845293667123e-04,5.867196583598625025e-03,-1.004228694618381629e-02,1.641313916360277389e-02,-2.383413345446021292e-02,-2.574015720705491450e-02,1.382475119006863415e-02,-2.731573311543239609e-04,1.141430584731412297e-02,-3.948467239086391953e-03,-1.536416101785685433e-02,1.933272357242634895e-02,1.814002625707145794e-02,1.179563056448438424e-02,-1.380452235092754359e-02,5.466599406265575806e-03,-8.422857092985104599e-03,-2.474388445671284881e-02,2.528282482006155574e-02,-2.200324042230157248e-02,2.727750261057429113e-02,-3.271224958561521051e-03,-1.907613236152509717e-02,2.538557033971915872e-03,2.259481787859492913e-02
1.406927899589225164e-02,1.857292034996183006e-02,9.619845317612675875e-03,1.164902122420400851e-02,2.115591968623126845e-02,-1.516629280957345650e-02,-6.406855836887381805e-04,-1.689044703651130380e-02,2.954522819649596857e-02,2.690320937336638379e-02,-2.790369623631090354e-02,1.245471362466697186e-02,2.576354891483507298e-02,-1.935225228033573761e-02,4.116442556458962780e-03,2.517224087682357059e-02,-2.823575093872441460e-02,1.196065099776077133e-02,-1.227755301402829770e-02,2.571192334234582294e-02,2.853893041789902496e-02,2.691575946274241821e-02,-1.562224383367537880e-03,2.193425150910690430e-02,2.087442776183521739e-02,-1.095974661250054445e-02,1.992725087926466854e-02,-2.805026136891932559e-02,5.832483332022776745e-03,-1.635733815335069577e-02,-2.298784780053584123e-02,-2.563017050679275086e-02,1.189209991353454982e-02,-9.701129985703714140e-03,1.361743121737152978e-02,-2.633276303690515116e-02,-1.119058258775469661e-02,2.392568767832524423e-03,1.761338063257524358e-02,-1.098082829528679479e-02,7.627093399220854011e-03,2.338435259933275071e-02,7.019538452978198000e-03,-1.617857461785822057e-02,-2.881404399831746094e-02,2.242233549333902745e-02,-2.900375720599969800e-02,2.270119475448454521e-02,1.753148072391996640e-03,2.660079220608418948e-02,1.810169774819654978e-02,3.016719711215473665e-02,-9.044582394566577990e-03,1.618752683886476654e-02,-5.941487833782074270e-03,-1.219229846297465976e-03,7.724882389891298690e-03,2.263912216796343246e-02,2.932805992830872510e-02
1.625326882573501289e-02,-4.982076220622187399e-03,-4.764563751732613095e-03,1.439385647774702424e-02,-1.582611266652655599e-02,-2.359931557383306011e-02,-8.807675420133376926e-03,-1.289006545399623213e-02,-1.234061485317347259e-02,-1.613929898198753626e-02,-2.774215446385466452e-02,-2.920947116522340514e-02,2.954852289878008575e-02,-4.375844243829124687e-03,-7.008037332529915876e-03,1.088387976043665890e-02,-1.706950843607410798e-02,2.726077093715426058e-02,1.734813162870954897e-02,-2.487541817944771694e-02,-4.993345364638314930e-03,2.296877532813371148e-02,2.694396365852892022e-02,-1.974970211681647842e-03,6.870996906434383156e-03,-2.017265410706222534e-02,2.975731215543702887e-02,-1.625659400289835438e-02,2.682277919028827270e-02,9.066299861423057771e-03,6.527203215423670740e-03,7.687298475791685308e-04,-1.631729320464006192e-02,-1.959745759995109096e-02,-1.693426388787454273e-02,-1.899704911276760624e-02,1.693854617542128391e-02,-9.080118741026984436e-03,-2.678797625735611018e-02,2.842045003530764904e-02,2.325155918351019813e-02,2.591525097266915087e-02,2.998385031732575881e-02,-1.975696399965186714e-02,-6.286147908947391054e-03,1.564530493836519334e-02,1.187585364766697606e-02,-2.096861852582444438e-02,1.913466045926144610e-02,-1.669468993922147010e-02,-1.673243161354609487e-02,2.240084942843246010e-03,5.630739639341824330e-03,4.852000227942784849e-03,-2.474965429850091783e-02,2.286835949619537428e-02,-1.420105505672874038e-02,-2.244573360279065663e-02,2.355219235697237137e-02
2.760551701674451852e-02,2.193939916689112424e-02,1.875194375738729186e-02,9.405291445091968142e-03,3.081179399677001426e-03,-2.502229021895457928e-02,-5.546336167495322100e-03,-7.713130152534754258e-03,-1.455524899266035302e-02,1.353584433338858757e-02,-2.498674225957380510e-04,-2.538219639554282689e-02,-1.695262148847478598e-02,1.110268031231548616e-02,-2.567999187245803214e-02,2.127777145436483136e-02,-2.940462867489212215e-04,-1.176156716360112755e-03,5.598499471215832683e-03,1.967070439728992731e-02,-9.220436051171307032e-03,1.078505820307149379e-02,3.982352428730278476e-03,-1.411452629310918326e-02,2.293919052606012421e-02,1.801947131215761444e-02,9.599759542087530489e-03,2.123989480089644166e-02,2.225241517725645365e-02,1.262361195280459203e-02,2.041785708410418995e-02,1.196375259735042197e-02,1.091377765585879039e-02,7.186036768055954586e-03,1.531076605876813441e-02,-2.068331304050644720e-02,2.307494711439503701e-02,2.252803485255177110e-02,-2.852042007840722981e-02,1.973951558811892770e-02,-2.248481400520380841e-02,-9.989277533757875971e-03,1.475287876566191113e-02,-2.055276565266233452e-02,1.926394213381129109e-02,2.012225513814011602e-02,4.524305356444453872e-04,-2.990547221059631014e-02,-1.290223440808987293e-02,7.083984245585602836e-03,2.915252836293847835e-02,7.985885215417350483e-03,-1.455223203710614803e-02,8.118697582756189898e-03,2.422502909472408397e-03,1.695435403573976318e-02,-2.381096672549908033e-02,1.581430157117902011e-02,2.500123985747934163e-03
2.805023947205696061e-02,-9.580130051583712197e-03,8.034859847769099811e-03,2.617430045704590216e-02,-2.408183559271614288e-02,2.648936411161605803e-02,1.138300329161466909e-02,-2.618246942066022181e-02,-1.205856594557118931e-02,1.261204705314259572e-02,-2.621194131883622727e-02,4.978274065777491507e-03,-9.337131361101246377e-03,7.325632410486390862e-03,-2.752109027249893813e-02,2.250945221168725377e-02,2.868619514398414519e-02,2.840683211434820096e-02,1.512508554501824226e-02,-2.241112041214611550e-02,1.564680260619389154e-02,-2.880276706796211506e-02,-2.895200933480938585e-02,-1.068652493356207593e-02,-6.880490940070287630e-04,1.638255685046169363e-02,1.110489849733817085e-02,-3.277469218203884951e-03,-1.371476433277883308e-02,3.011814709676333135e-02,-4.472284904572500219e-03,-2.945203367739307725e-03,-2.037925555868285929e-02,1.786095304488900110e-02,1.173418281389227574e-02,-1.691709395382098857e-02,-2.530132611558722974e-02,1.093549911345081081e-02,9.361018172193109194e-03,-1.373700736232301434e-02,2.731544127099070837e-02,-2.114055883438344802e-02,-4.099476921544078362e-03,2.687634492734729957e-02,-4.863297777325230158e-03,8.392555319928645535e-03,-6.204214406473016266e-03,-1.367910804178501007e-02,2.932164877847560566e-02,-5.492973558155847015e-03,2.387638867800699963e-02,-1.636062374716079973e-02,-1.738147028118859974e-02,-2.840610884368638400e-02,9.188691675668499148e-03,-7.965294242832224314e-03,2.207454140986419427e-02,-1.623070218312958318e-03,2.836536627585225373e-02
-1.905234759748799384e-02,2.233293026644196655e-02,1.675754201661881423e-02,1.641372325469252560e-02,2.088859426084806875e-02,1.581406459048267932e-02,7.647022450693391309e-03,-2.234092468410507626e-02,-2.832176906489572432e-02,2.549694770997601792e-02,7.067226279341926563e-03,1.796562781850986543e-02,-1.119463102242499852e-03,-2.318527502446728061e-02,-2.270801266246000316e-02,1.124242038974591386e-02,-4.222397625804697255e-03,-1.814362464578029785e-02,-5.092420059282124845e-04,-2.640227816666050956e-02,4.966214177338961269e-03,-1.399546918998963510e-02,1.802753386752874512e-02,-1.148916702852078794e-02,-2.712974589861448689e-03,-2.958833132026136847e-02,-2.590318425464287547e-02,-6.513247448005771156e-03,-1.215400018970044446e-03,6.059716590110525263e-03,-1.262206368465629454e-02,1.181292236793909066e-02,2.181791347628725744e-02,1.695469293102763383e-02,-2.789206312370438520e-02,-1.180981081534745970e-03,-2.393519328884134018e-02,-1.562812968206338596e-02,2.948431542976098774e-02,-2.165930631707917511e-02,-6.736090836493294686e-05,7.158431711553612728e-03,1.226628291877517214e-02,3.613798601391040796e-03,-2.970039441601968547e-02,-1.051379250797170560e-02,1.073054899963532885e-03,-2.496899146656834934e-02,-9.049725082367897008e-03,-2.828075749489969079e-02,-2.553170243751317486e-02,-6.244874128368022893e-03,-2.225181205622646374e-02,4.091943169842635411e-03,1.147868151408666833e-02,1.821096006377844259e-02,-1.816631255932535383e-02,-2.014547361190219613e-02,-2.395714543906210178e-02
8.265588042632786986e-03,1.250927343204913389e-02,-2.837872079897021602e-02,2.642779543878654228e-02,-2.714369293462330981e-02,2.501926782446487179e-03,1.266587238197051934e-02,2.247505933382369647e-02,1.297039617120796309e-02,1.828011048789073695e-02,-9.726864630125375485e-03,1.907359038342424165e-02,-2.543862315440391375e-02,2.391985532740945053e-02,2.883370634977716358e-03,1.922339556021402177e-02,-2.888783232868749259e-03,8.698614013936791303e-03,1.599597737724755761e-03,1.403078560819944615e-02,-2.534682909025957193e-02,-2.663594451884158595e-02,-1.532167896766653895e-02,-2.062638916604109598e-02,2.252440212307155881e-02,-1.701134108011411947e-02,2.883016179740220328e-02,-9.881622277679894331e-03,-1.925879607960611847e-02,1.755130203613359044e-02,9.615265645565735861e-03,-1.093120078599833886e-04,3.354185059094320562e-03,1.328027767648083148e-02,-1.645149261687567019e-02,3.007024978283533503e-02,2.876520930579286317e-02,9.107439147301344892e-03,-1.820313554527720062e-02,1.091907704169618396e-02,-2.591823827332383548e-02,-2.843528527276120016e-02,-1.468071359501845960e-02,-2.264477583804911515e-03,2.231168547529718132e-02,1.376297377595749570e-02,1.470430587212198138e-02,-4.513965238225662278e-03,-9.333984857842324984e-03,-7.813080033227262980e-03,2.954411075619008814e-02,-2.786235443454120400e-02,2.223649927906205109e-02,4.766527353871243509e-03,-3.718967449269846258e-03,1.364717158157269065e-02,-8.076584095110802631e-04,2.262374115603860147e-02,2.427640898489147325e-02
-4.742515483094508072e-03,-1.352082472026831100e-02,5.595018511714702075e-03,2.498291654637192771e-02,-1.752944936211804292e-02,7.449895651042108893e-03,7.970538687133807421e-03,1.412308646435078523e-02,-2.232136748645034696e-02,1.307569438115947086e-02,2.478111945973172567e-02,-1.940630816136277095e-02,-1.590086335306815229e-02,2.855933831169970433e-02,-1.932792099867345834e-02,2.147032054871381851e-02,-4.678438808118016556e-04,-1.531393379364879778e-02,2.246177780232820609e-02,-3.313665640552978641e-03,8.977051927588265310e-04,-8.528306461235755573e-03,5.631401018051623852e-03,-2.038531091671920079e-02,-6.598794265088510011e-03,2.843921264923030684e-02,-1.465341750283005902e-02,9.495846446137913566e-03,-1.059081046696773443e-02,1.656829189433970881e-02,-2.236341475877279966e-02,2.846397500091345234e-02,-2.799647552222656651e-03,-1.599130794907858283e-02,-2.583957881192238196e-02,-2.000762382252594881e-02,1.197999074889757095e-03,-9.875116408445537564e-03,1.992530560893423022e-02,-4.187159811908168494e-03,-1.522407465156501091e-02,7.097195847457207427e-03,1.252753914248736292e-02,-2.017217174312569208e-02,-2.013719567792387338e-02,-2.807063042220200172e-02,1.432234915289716873e-02,9.924050929825877984e-03,-1.536981210221528317e-03,2.085146920967453563e-02,1.851893967551227968e-02,5.171170001552064140e-03,2.231161126537301032e-02,-1.782152700803897247e-02,-2.351173998593725917e-02,-1.394965459802965414e-02,-2.683376742679135368e-02,1.888397029263181280e-03,2.645163225641086399e-02
-2.790874116809467786e-02,-2.289436387191510699e-02,-2.896008338094354859e-03,2.628619509875410043e-02,-1.113813033032074948e-02,4.383188360759065192e-04,-2.777367854509027456e-02,-2.130502760906112861e-02,2.948234822532561430e-02,2.817908453973094057e-02,-2.999307109429060272e-02,2.737288910345672330e-02,8.428542045082332637e-03,2.229022570890974719e-02,-2.742073032424916304e-03,9.448809759449904510e-04,-6.757267773916847452e-04,1.010942380102248551e-02,-2.183162670908469355e-02,-2.847641698425092127e-02,-1.163651011005337535e-02,1.240052606142794979e-02,-1.806312419223851662e-02,1.050735487100782836e-02,2.846948827247470018e-02,-2.460341015955633606e-02,1.045705046576480245e-02,-3.407877038062184609e-03,2.230379425346812328e-02,-1.955978860136615288e-02,1.167018877959386490e-02,2.048461909653592067e-02,2.693682660818971786e-02,1.110202991296644487e-02,-1.711661226720099409e-04,7.139741682821391239e-03,2.235000404070687507e-02,4.277871509166807605e-03,-2.845136703201533307e-02,2.610890470761300861e-02,1.148242455266093934e-02,1.069401350305663502e-02,-1.722574039427483480e-02,9.626031230581973824e-03,-6.430194934460771970e-03,9.162407097159919883e-03,-2.383444987788147992e-02,9.563013090401820127e-03,3.025683918240142795e-02,-2.737144571596810891e-02,2.890946285406640476e-02,-5.639954843498497586e-03,2.246199282141114056e-02,1.710824460303130359e-02,4.060161198313923074e-03,1.444637783303779482e-02,2.293225811657092356e-02,-5.807631473095129643e-03,-1.047914693652756378e-02
1.015359781553168590e-02,1.865075923553769291e-02,1.589047063258882883e-02,1.804295559945768429e-02,-3.902666634483887686e-03,1.925589600212201588e-02,-2.300952685441545048e-02,2.695359404258071932e-03,-2.994347162470668844e-02,-1.062741783244290118e-02,-8.090390102566449512e-03,-6.290348083390373893e-03,1.184232537686443452e-02,-6.751675883239540918e-03,-3.108382347614019846e-03,-1.590081452478833007e-02,-7.679004319335861264e-03,-1.652329241716629996e-02,-2.585780412223123367e-02,6.267403741769230624e-03,1.019112477625010171e-02,7.239288783029202215e-03,-2.211703020819836933e-03,-7.283144472935784361e-03,2.201246629272241365e-02,1.156064550065674266e-03,-1.261260049800939790e-03,-2.873884114346831470e-02,-9.617955417544885033e-03,-7.258314516986287199e-03,-6.129793174188493191e-03,4.857220291333012169e-03,2.035800779935247832e-03,6.537399496930529873e-03,1.604787740709887403e-02,1.896215236796797154e-02,1.321492481843871726e-02,2.759777415210785609e-02,-2.918774258113988537e-02,-1.843120460639094058e-02,-2.983416380124168099e-02,8.934713804192620859e-03,2.411456811820384544e-02,-1.554105243694071069e-02,2.587176699497664711e-02,-2.664107566273847191e-02,2.632018368700579300e-02,-8.989397485180114500e-03,-2.414780626314773360e-02,-8.559554697258856155e-04,-1.473562278352691206e-02,-1.303341432811120672e-02,-1.167528291510718137e-02,1.835873822786355733e-02,2.372574860076661057e-03,-1.143186962429586229e-02,6.684541024323733573e-03,1.309542740149282312e-02,-1.377551054113894911e-02
-5.237603208212001857e-03,-2.290792398402577076e-02,-1.931747638582807097e-02,1.097297390459913390e-02,-1.929996751406793179e-02,1.524516475241869578e-03,1.266500858152696217e-02,-2.381725031377142712e-02,4.078091768862319999e-03,-1.474857482780048828e-02,2.804629367296768150e-02,-9.968823349366161355e-04,1.853847199588466027e-02,3.042960836458809704e-03,-2.766222242849529847e-02,8.066938392706257330e-03,2.734814368681805913e-02,6.156123355348958048e-03,1.933796668000544589e-02,2.327703980589069035e-02,-1.647421003074544740e-02,-1.744568184864090515e-02,6.723751788733022504e-03,-5.390314967247992854e-03,2.059040081305624909e-02,2.423528767700210834e-02,-8.880424235781725351e-03,-1.594162268763959361e-02,1.699555891900231264e-02,-1.364331257967134510e-02,1.954549714897270418e-02,-4.620296311555642695e-03,1.015096321204742372e-02,-2.450437849977031221e-02,7.503982118626888881e-03,-2.922141528228089369e-03,5.247149221001993179e-03,-2.011326523235855424e-02,1.435092877403301367e-02,2.197995822828351098e-02,-1.716123901521266273e-02,-2.449351919300137709e-02,-2.886022139751114740e-02,8.601303159554526956e-03,6.488261856103870462e-03,2.829149528366513289e-03,-1.623990929099732722e-02,-6.609429351500941199e-03,5.723822019227711375e-03,-1.958789406541852651e-04,2.955234764096813932e-02,-2.202619466060958681e-02,1.182277755788163284e-02,-5.796820345245970105e-03,-4.350006001692816905e-03,1.318309902638245892e-02,1.165868974569482519e-02,2.976260529463998356e-02,-2.251362676485923336e-02
-2.398490480805955463e-02,1.359150372120823680e-02,4.749049174023470092e-03,-1.368241207711323910e-02,-2.548075845551897589e-02,-2.510277764026137143e-02,2.388194253867846964e-02,-1.866813089376190282e-02,-1.070098390239991419e-02,-1.656044448236672698e-02,-8.785007757900288594e-03,-2.608633458302327471e-02,1.154732035992443078e-03,-2.619607041775382297e-02,1.819701398984391316e-02,-1.613297812634077039e-02,2.424110518189052585e-03,2.302698391237602976e-02,9.140862687504689929e-03,1.996738167243692491e-03,-1.064268983308806933e-02,-1.011753181707121529e-02,1.026831919573909305e-02,2.993729329944178758e-02,9.804981497307489399e-03,3.500791981791212190e-03,1.397389586134920383e-02,-2.108008128845662629e-03,-2.664865164155959254e-02,3.774234952563452605e-03,2.772509829943737084e-02,-1.967167930942008772e-02,1.151139251641348019e-02,-1.811884780129607853e-02,2.170610120310618139e-03,-2.443524310967417831e-02,-3.006762775876915296e-03,1.551958275646437603e-02,-9.234836048614230436e-03,9.991130138448673509e-03,1.789975222700758428e-02,2.588044725109129099e-02,-1.607663434297217087e-02,-6.099916735136039214e-03,-2.105827742481568982e-02,2.983697354692734643e-02,2.586973274969208564e-02,2.420791425432953017e-03,2.072199030373985187e-02,1.269733119429314197e-03,7.487403918215596553e-03,-2.489277995365368409e-02,1.546548615394415481e-02,-2.255487319264778273e-02,1.975471506297345886e-02,1.708659184405677406e-02,1.264673841321003848e-02,-2.810159202419114377e-02,-1.192741281698878053e-02
-1.435175788466680306e-02,-8.473596155325630735e-03,-2.498254744122241355e-02,2.647296599736272821e-02,3.259593521133525088e-03,-1.178225457905997947e-02,-6.241345621585345400e-03,-3.198719135561192521e-03,6.094479206506119365e-03,9.499336878515740124e-04,2.540874395944357420e-02,-1.839665284552001250e-04,2.981725398888416395e-02,2.129098156997453681e-02,-1.765980796150761964e-02,2.608748916960150141e-02,-2.324233317022362036e-02,1.923260071295852802e-02,-7.232403966931577437e-03,2.289946719252875657e-02,2.229861036639169472e-02,1.853440375289411302e-02,1.757141187059441806e-02,-1.183345905873757833e-02,-2.538988658671048615e-02,-5.877918401377395068e-03,-1.977942482819504758e-02,1.181105652683742645e-02,-9.324004495647625693e-03,2.881470936490893031e-02,8.540753394121664011e-03,1.953739364747777638e-02,-2.226338866276168088e-02,2.193254491538127945e-02,2.561262469674581432e-02,-7.838499853407589462e-04,6.437304151438807270e-03,1.604342681507509721e-02,-1.969980970813046961e-02,1.554650160331719449e-04,-6.139471772012506517e-03,-2.142433156667938876e-02,-8.025389521972256177e-03,-2.616215837734259253e-02,-2.872855136590177563e-02,-2.210334708027289832e-02,2.805769791903575672e-02,3.000732909456869067e-03,2.822170375045686755e-02,-4.089596930249315108e-03,-1.140106629863909572e-02,3.721030212993555472e-04,-3.664667218797052883e-03,-2.389069346026112192e-02,8.531922404929016476e-03,-1.720374631772708662e-02,7.245202389886801729e-03,9.099890658189186549e-03,-2.108197575489507980e-02
-2.657550865133327667e-02,1.700986120307328153e-02,-2.435479944679981319e-03,-2.676852135716503711e-02,2.998133571977280171e-02,-2.679173951139851920e-02,1.181615412225562461e-02,2.930355074848733574e-02,-1.580169954306241339e-02,-2.167422071215702531e-02,-2.293828625205078867e-02,-1.191851948811320679e-02,-2.417052658848899832e-02,1.164204048205064526e-02,-2.651842748686958698e-02,5.708369663734008106e-04,3.009223826646571093e-02,1.902179988713642578e-02,6.980537044436784314e-03,-1.173806953140087671e-02,7.506194164488505169e-03,1.638299435140619462e-03,-4.478217259818241189e-03,-2.237330727236027522e-02,2.342230692542244391e-02,-3.042282834250242124e-03,-1.850120866323115565e-02,-8.011762287285607159e-03,-5.202424631553594775e-03,1.984379067078335251e-02,1.415346110568961417e-02,1.631576073598243332e-02,-2.962403240834908871e-02,-5.079786281899785830e-03,-1.130259291352528903e-03,-2.912959978296982000e-02,-1.455164874678614891e-02,1.576958524091235173e-02,-2.198560573734419446e-02,2.139254317093244612e-03,-1.725441395213162324e-02,-2.955802474041922812e-02,-1.567923642059919007e-02,2.883067671241949098e-02,1.826854055260585669e-02,2.784332088140207065e-02,-7.358593099728309890e-04,-2.364402191210460136e-02,2.905612061238253309e-03,-2.764036269050508966e-03,2.086277636381583117e-02,-2.435005305280938531e-02,-7.124073843804010686e-04,-2.120170257171308942e-02,-1.062195933182464615e-02,1.438021133328908074e-02,-1.452934842474861267e-03,-7.519273106083874253e-03,-6.393124787085099382e-03
-2.456906054741061964e-03,1.726764661482641308e-02,2.375433987289773605e-02,2.758632306803076098e-02,1.738196042853481713e-02,-1.118352095932861022e-02,1.139808790378105813e-02,-3.780297063375481683e-03,-1.486321090598106444e-02,2.065160813236723014e-02,-2.796430896793965920e-02,2.434063654715180880e-02,-2.333876899256518995e-03,8.312312628112290130e-03,9.654412260746222593e-03,2.393809645544516668e-02,8.280094000343936680e-03,6.902633975948622297e-03,-2.625426343367663271e-02,1.115244797893118157e-03,-2.119441204176707866e-02,1.438485765602768446e-02,7.404616121803375478e-04,1.091904897746563165e-02,-2.776761755598647005e-02,-2.515525815467912693e-02,1.310589122055971084e-02,-2.592514935255137154e-02,-2.597528976306135579e-02,-2.955876989663165297e-02,2.765700797184622584e-02,1.438937671474237699e-02,-8.890721868617416576e-03,-1.232683420308547731e-02,-9.105687274006568632e-03,1.663980642703392562e-02,9.776592784647403223e-03,-1.907233739369660827e-02,-1.974399365301080997e-02,-2.433108586037236939e-02,9.711894888392040917e-03,1.601694289183316910e-02,-1.423459562015652255e-02,-2.902341390645470434e-02,-2.531401123088482252e-02,2.834516775111485531e-02,-1.239292024310149724e-02,1.631080818963896034e-02,7.552707024435637191e-03,-7.152653506521833293e-03,-1.783085389441334268e-02,-2.293819666318966388e-02,6.968028106301316950e-03,1.663860984595415607e-02,8.718398458789921451e-03,1.835846163796674060e-03,-2.775075544617466514e-02,2.838325995257553330e-02,1.809751472978912007e-02
-1.255181825049583692e-02,2.907886651558260968e-02,6.172467263523244083e-03,4.993553412081999134e-03,1.502944334155749927e-02,1.888848434355291581e-02,9.480212123143660213e-03,-2.253171391331802026e-02,-9.798517359813799926e-03,2.593532615062746349e-02,-1.668408518994290296e-02,-7.744724668885530870e-03,-4.115102816514538964e-03,-3.671131543775051683e-03,6.842412630111836813e-03,2.684362418666392039e-02,-1.571005863885960654e-02,-2.293123195673299128e-02,-1.832866472004402933e-02,2.344173553346541941e-02,8.833906802933449640e-03,-1.297077656013271088e-02,1.914155584689566578e-02,2.189349891903928993e-02,2.099347310482697557e-02,2.538054543457519963e-02,-1.501040764757199941e-02,1.545164304592862650e-02,-2.390703385636075255e-03,2.071988550062471568e-02,1.384304298583016214e-02,1.674849027871668991e-02,9.461020723555733231e-03,-1.954288667569832605e-02,2.727943133403793255e-03,2.936357894997760828e-02,2.649903217594372709e-02,-2.767668988063462857e-02,-2.030709949180512994e-02,-2.231160799574788411e-02,1.369092886729834230e-02,1.925293423838198709e-02,-1.735683276174995390e-02,3.545837454791584960e-04,2.064139649262633491e-02,1.410421567916945833e-02,2.558929136576722739e-03,5.473689247315111431e-03,5.065213678948170522e-04,-1.226546975900987164e-02,3.939339028414943177e-03,1.144356254772481776e-02,2.261766316269133575e-02,8.257173094188248810e-03,1.581997439334368108e-02,-2.059446375616662966e-02,-2.329029528475344037e-03,-2.972700489533289248e-02,-1.534738927298174953e-02
1.372011889455252223e-02,2.979616666185826504e-02,-2.428368135629333652e-02,-5.967938984732831624e-03,1.817971468290621034e-02,-1.793091728293239734e-02,3.337306057894305188e-03,1.412055848309235959e-02,7.026945666351530097e-03,-1.890093312726245922e-02,-8.761484962827199852e-03,1.719344491625850874e-02,3.285298006142654825e-03,-2.997552378470487791e-02,1.581205130491145430e-02,-2.815302999885436683e-02,1.488771165491818010e-02,-1.802513102904251124e-02,2.775225210381895846e-02,-8.000772193907280602e-03,-1.048529902524449400e-02,-2.127201806421522359e-02,-1.177741356742422786e-02,2.281927976845007922e-02,3.007027532356504676e-02,-7.978429810194987912e-03,-3.113410374322576456e-03,1.345410491855543629e-02,2.339756202019087003e-02,5.637064644106138875e-03,-6.571884864782120104e-03,-5.293781033786624547e-03,1.185147002233428309e-02,-3.009738085128604163e-02,7.245286152014814886e-03,-8.754915049764985802e-03,1.782386202262695521e-02,-2.465854685431417143e-02,5.343709371348323058e-03,-1.152752079316622874e-03,8.622751691936195520e-03,-2.636322178012150477e-02,4.845795116419472116e-03,3.725026354085024527e-03,3.675074646190617904e-03,6.269770981442303326e-03,1.069126001546864997e-02,1.847767219754004042e-02,-1.394534650295078775e-02,1.969302648816033049e-02,-1.056789962195189066e-04,-2.562380441589435370e-02,-2.674506696922264795e-02,-1.004262453155097164e-02,1.726040269860817239e-02,1.258229063290149455e-02,1.748565592235547944e-02,1.046240895320378313e-03,-3.623026778078707478e-03
-2.135898885668244263e-02,-1.040889338071854762e-02,-3.997418019997939914e-03,-2.492452649290799807e-02,-1.692664574498277397e-02,5.950951631424297728e-03,1.427758305552336883e-02,3.019224288619278343e-02,2.624004855692309984e-02,8.637272250951462393e-03,-4.771164395022052009e-03,8.250267086476288300e-03,1.730612240804772078e-02,-2.312299381670721021e-02,-5.458386750130922623e-03,2.058682527081875241e-02,-7.037947718061359631e-03,4.354361203907961865e-03,5.317481878680214297e-03,-1.911591687319409011e-02,-8.346426763759760836e-03,-1.002608671860480763e-02,-2.870523827096585837e-02,-2.882670727438572944e-02,2.009577148142798961e-02,-1.374844072987734846e-02,1.095296934140042389e-03,-1.219415413955024508e-02,2.669842730073414272e-02,-1.458293771650447448e-02,-4.261722084732900290e-03,2.258175669866861399e-02,2.071594833626085042e-02,-1.901745672919359989e-02,1.833555923996262396e-02,-2.533235628906351043e-03,-1.031826062876268005e-03,-2.220551210246990773e-02,-2.540913854942873987e-02,1.380963837910265460e-02,-2.144000826398684528e-04,-3.825882303306092982e-03,1.390469105481132589e-02,1.608602381368321593e-02,-2.066495209224218643e-02,6.677959474290922313e-03,-2.209196968709201819e-02,1.522948841805719586e-02,9.509083705489258798e-03,2.766386754215802851e-02,-2.611455654295735673e-02,-2.683571431291574549e-02,-1.319613441277858040e-02,-1.443699368525943119e-02,-1.532921782316428068e-02,2.461281874255795074e-02,-1.517367257393848964e-02,-1.381636127717716760e-02,1.571557028806773101e-02
-3.044997415538575145e-03,1.676443075116900924e-02,-2.633216829095010383e-02,-7.529957124692875699e-04,-2.825588799013828423e-02,-2.649653184755742033e-02,2.462389804078734742e-02,-2.185621705442311949e-02,1.964197856739389493e-03,-5.386247745929948275e-03,-9.248661358633837939e-03,2.422379004812664355e-02,-2.897019412557120047e-02,9.923151765008773190e-03,2.807462060115212613e-02,3.645272360291834744e-03,2.646476518962390112e-02,-2.712632961924462890e-02,-4.919883772753931052e-03,-1.453077233072588154e-02,1.398422281360305053e-02,2.915924796352131060e-02,-1.475055723589885522e-02,9.340624580578747033e-03,-1.829066944501541933e-02,3.958014976997751948e-03,-2.185140082596088301e-03,2.859630926214447658e-02,6.575094090204286826e-03,-9.117613839544843474e-03,-2.337989761582652190e-02,-2.112911214251488035e-02,-1.664159603096343476e-02,-1.508761431667821409e-02,2.124197459830801452e-02,3.709165294774462596e-03,1.417131743209247476e-03,-2.333911883162900075e-02,2.181896135925794761e-02,1.349914147696799037e-02,-2.619268989307411630e-02,1.259163052364235119e-02,2.637750571216393534e-03,-2.534105150651353930e-02,-2.526343827114045561e-03,-9.271711114572910592e-04,-2.024895485869704706e-02,2.700249605048786472e-02,2.120315879654893765e-02,1.024017045368282378e-02,-2.284312761942713932e-03,-5.345659682268626145e-03,9.146684763913809357e-03,2.752476945401050208e-03,-2.651955995143326708e-02,7.574694360156374213e-04,1.856337640142736306e-02,-2.469440475831381071e-03,-2.714458389935884078e-02
1.734408365894156423e-02,-1.809279070976455711e-02,-1.462388837932876266e-02,-2.031367064936971667e-02,-1.028637222545334545e-02,1.555521728096793954e-02,1.174486809544777327e-03,-1.787968445191975841e-02,2.289072831404332167e-02,2.299685921547937884e-02,2.245138896369357553e-02,-1.582495758174642941e-02,-2.954150527736506410e-03,2.938296100760578664e-02,1.647979886539507194e-02,-2.864642791725747692e-02,-2.634195673972901733e-02,-2.185207324119529601e-03,2.479249031418927912e-02,2.344737471758623435e-03,-1.325285814224279194e-04,-2.390226419031516586e-02,9.498478257326347166e-03,1.951452879150457342e-02,-7.244719989810438632e-03,1.669786595741465374e-02,2.814018657450810534e-02,-1.794722520446454667e-02,1.413419100876228988e-03,-1.289618654420026343e-02,1.774250206457366266e-02,4.700972103769344122e-03,8.153637664472686980e-03,1.804904501522977198e-02,-6.302599461030297147e-03,2.514811427463893578e-02,2.001044571014151761e-03,-2.072271021910056937e-02,1.186849261153377286e-02,1.776715588850022107e-02,-1.110144191664991925e-02,2.163960416110706497e-02,2.460607410319331709e-02,-1.351617846968177807e-02,2.929401153043292849e-02,-2.176739035184518251e-02,-1.805329636486896830e-02,-1.913114871287981827e-02,2.386975503493318773e-02,9.347770599485655599e-03,-2.107716350516097500e-02,-3.615488802591437789e-03,6.985298205815533915e-03,-2.523571048177008017e-02,2.316858741069555139e-02,1.839373423885698466e-02,3.154509030051441264e-04,2.830073373315039609e-02,-4.982427787205279471e-03
2.932968661809395514e-02,1.017338558620930339e-02,8.159020962120856410e-03,-2.023802809405590361e-02,2.313898510595849625e-02,-4.393016728297036849e-03,-2.046349348259588266e-02,-2.952853541229489426e-02,3.620281175274004011e-03,1.659998348954227912e-03,1.328947710810127886e-02,2.364367365269214732e-02,-2.548153299149929704e-02,1.402514932626246040e-02,-1.893805886729291177e-02,2.170005535886954454e-02,1.933037265442948474e-02,2.471478096320275149e-03,1.273750043090461637e-02,-1.124754583178955332e-02,-1.746784680245589381e-03,1.948628038633662754e-02,-2.467906496472369038e-03,-8.615251835273726039e-03,-3.506372447755955689e-04,1.988688802537464523e-02,-9.983873794335910296e-03,-1.976506151564491956e-02,1.284480939658547670e-02,1.974929772635894767e-02,-2.419526529661415737e-02,-1.575965323215221953e-02,-2.169102563586980392e-02,-9.212426528649455063e-03,-3.007971886444334945e-03,1.507507317750816228e-02,9.157233637333474924e-03,7.326423023529923979e-03,-8.943822064226222140e-03,2.068650333341891939e-02,-1.739558834039508454e-03,2.902643702603333736e-02,8.126963470486083321e-03,-2.264264482083696781e-02,1.067366771916032631e-02,-1.059602370872935947e-02,1.128858045849500530e-02,-2.607316919589923801e-02,-1.969721608151735540e-02,2.155224111490144923e-02,-1.652874929713410435e-02,2.041954115016482094e-02,-1.337249568990072496e-02,8.656460068351983297e-03,1.176255752841585088e-02,7.666846364945158459e-04,-1.179519753212108016e-02,-1.740935910177800194e-02,-2.828159079096596168e-02
-1.187785177437126506e-02,9.279324301072425923e-03,2.655457333336738723e-02,2.248931846293968431e-02,1.611945915845123395e-02,1.747550062613561009e-02,9.995563666765395344e-03,-1.452295286706664114e-02,2.466979565074451861e-02,1.034376877928780414e-02,3.661778516071080916e-03,-2.356809287150684815e-02,-3.207624888916847314e-03,-2.401682915912635267e-03,2.208698306811955614e-02,2.826169213089074501e-03,-7.245898879774756267e-03,2.888681291168177304e-02,-2.358438264100694640e-02,-4.692381542724853583e-03,-2.774630539331632631e-02,1.453452323529785123e-02,2.532904954965405769e-02,-1.332637611361644527e-02,2.171002903560945510e-02,-1.258839968054081132e-02,2.488639394644164352e-02,1.538621002802193632e-02,1.847269075009799408e-02,-2.920143636754120656e-02,2.803923445301725534e-02,1.373279787976141968e-02,-1.182909960739566939e-02,1.995628251265122582e-02,-1.323647633857548758e-02,2.258318583649436204e-02,-2.347170736111809514e-02,1.234025727713293323e-02,2.465705685028050671e-03,-2.444384489453285333e-02,-1.563728934022879866e-02,-2.954086341455508177e-02,-1.892183969956796061e-03,-1.204028791131461947e-02,5.958960339326859271e-03,-1.228429001418499845e-02,-1.212184398268841522e-02,1.473379109258776340e-02,-2.737563835299371487e-02,2.440927921655925564e-02,2.134180709746456503e-02,1.016639922461140370e-02,5.647802432176877996e-03,2.376753578157858593e-02,-1.906418198431108005e-02,-2.550803410692337181e-02,-1.578170260646270459e-02,1.784694161440245411e-02,-2.819187014678063360e-02
5.016828659361494309e-03,3.001594165077578827e-02,2.154974714089631649e-02,1.299280999028134620e-03,-2.643669196940693841e-02,2.007617055098671194e-02,5.996584895239907495e-03,-2.332917535343861232e-02,-2.460604141233909206e-02,2.481712488251266308e-02,1.025095002632819483e-02,1.994974750932237972e-02,2.296032937754995118e-02,4.348307628745465454e-03,1.056982281689014492e-03,-4.215035648394753476e-03,-1.109023915281276244e-02,-3.962485194261914680e-03,1.659292140193223408e-02,6.175002211612334174e-03,2.378091239119179204e-02,-3.430305798654565037e-03,6.487991807602765289e-03,7.955230928441362620e-03,5.555446617138238424e-03,1.227650977295546841e-02,-1.590751898099118655e-02,7.490559621938729616e-04,-2.397792827045762756e-02,-6.996848517624778933e-03,-7.471871558959716558e-04,9.222463667012860064e-03,2.729529626712447546e-02,6.097916370623028895e-03,1.475806844553980562e-02,3.796274404776183581e-04,8.124654773562684645e-03,-2.599495020837954209e-02,-1.488011653833596487e-02,-8.369591236180289745e-03,-1.666482299282071294e-03,-2.752674211835643911e-02,-2.180903813378696349e-02,-1.352164197439853499e-02,2.856767457847086619e-02,-1.021779382582881784e-02,-1.088037409765415424e-03,-1.841183403329378285e-02,6.711579242204708182e-03,-1.328724529526000182e-02,-1.775177167939853001e-02,1.004048002376974492e-03,-2.995879115726149053e-02,-2.982803519237874415e-02,-1.702013666366248776e-02,-2.806760508999615183e-02,-2.374764871071420591e-02,-9.762581938232251649e-03,1.833206772964866837e-02
4.365046660203687756e-03,7.674705905981252241e-04,-1.251142117873953012e-02,2.615767685424253211e-02,-6.239314569666869377e-03,-2.501586782187808708e-02,7.092441735265506142e-03,-2.339549160160972127e-02,-9.377112073121512265e-03,4.490502087592602499e-04,2.267216570861950789e-02,-3.909786030094848978e-04,1.225379007676938824e-02,2.985716866504693409e-02,-2.232612733862287049e-02,-1.364782674865989108e-02,-6.387078612421695847e-03,-4.736017671312669000e-03,-5.390762963430574366e-03,2.469499718755124515e-02,1.296710716835917931e-02,6.537406845690632920e-03,-1.154909991811611109e-02,1.961674875690232536e-02,2.756971225213242574e-02,1.945970701103337530e-02,-3.019753698568565514e-02,8.263838394769563306e-03,-2.719433583331846288e-02,-1.468529793012871877e-02,-2.668607132259228493e-02,6.288418130494642481e-03,1.130449708183730792e-02,-2.335615730198010304e-02,-7.037588383323957648e-03,-2.651398714661448199e-03,-7.933385603063614067e-03,-2.296009305065774275e-02,-4.910525184087477686e-03,1.521755091324570111e-02,-2.599037918845778158e-02,-2.543467498791753684e-02,-8.798640167139413354e-03,2.676182717757947041e-02,1.021292607562241002e-02,1.082466874018373111e-02,-8.365538262041546935e-03,5.674412518238550369e-03,-2.967856352460816402e-02,8.245340440372861748e-03,2.503887270960192951e-02,6.820231708005677039e-03,2.264042348406142269e-02,1.356934415443074998e-02,-2.298836091513686494e-02,2.438251967981558063e-02,-2.626687694180715460e-02,2.057909707476224866e-03,-2.168102103726553265e-02
-2.958311674383009085e-02,-4.723532276600330218e-03,-1.241740069894418583e-02,-8.481561197488340876e-04,4.677133281073520346e-03,-2.764243912811640072e-02,-2.284023863007343669e-02,3.552832986184147491e-03,-9.501661505763836849e-03,1.388441085986067552e-02,9.226546413313968520e-03,2.093834248465121367e-02,1.166212340541705056e-02,-4.245105838488636048e-03,1.047913384766423206e-02,-1.360846796392321811e-02,-1.173444184023231425e-02,1.750808409666976609e-02,-3.246158429167960574e-03,1.807728845322063849e-02,1.953386822485734045e-02,2.166281299458915413e-02,2.524172780617181880e-02,-4.181240875820443209e-03,-1.097390252980488985e-02,4.979987790393946429e-03,-7.804982252522537842e-03,6.123549779595366394e-03,1.245536128305352493e-02,1.141446470434349068e-02,-7.600177823449942409e-03,-2.018318036194136078e-02,-4.208860360816873807e-03,-2.165333259248075973e-02,2.363391843280680804e-02,-9.337470406208643603e-03,-2.093445838553344499e-02,-2.875061311144965284e-02,8.834607988107728849e-03,8.294188143375876357e-03,-9.656951439715469321e-03,-2.594771395774926950e-02,-5.475107817013597292e-03,-1.143733461370816974e-02,1.073080381216268489e-02,6.408605879997146711e-03,-8.203550641090946380e-03,-1.709139973054010428e-02,2.956752083737976960e-02,-2.786798756827602811e-03,1.140654127077008438e-02,-2.177699669305277475e-02,-8.730439663084540395e-04,-2.862405406347183837e-02,3.304967741581770727e-04,2.811236323817482841e-02,-7.015303510498904077e-03,-2.792979605925358100e-02,-2.841691061191826961e-02
-6.786290435564880548e-03,-2.059729297104560125e-02,-2.887757829597466935e-02,1.552262926228071237e-02,-2.512871763974728386e-03,-1.276854582126961575e-02,2.423892637198308067e-02,-2.325611241797446299e-02,2.762171317306657409e-02,-1.127077375817346974e-02,2.353132652244009637e-02,6.236765026444589591e-03,1.979347289294259779e-02,2.932380045988035311e-02,-1.281939664335290247e-02,2.793776282729406799e-02,-6.695708107583644118e-03,-6.936228837781494364e-03,-9.670102099329372716e-03,2.508668167881374089e-03,-2.095352464099124387e-02,3.254095133683862842e-03,2.526674252443677528e-03,1.586724716733932394e-02,2.021408848141200212e-02,-3.608343929148400981e-03,-1.197558412486664225e-02,-1.458062710922892156e-02,-1.850112839550263968e-02,-2.679979599418667174e-02,-9.545244596359829178e-03,-1.391947852505895193e-02,2.825776527118601875e-02,3.496272899905312950e-03,-9.252677351595361283e-03,4.875106824312493842e-03,-2.185916569877432991e-02,-3.390093612317996493e-03,7.647870623985638522e-03,-6.726217176217999657e-04,-5.950703554089738397e-03,2.991966482372530184e-02,2.304126219053391836e-02,7.476515036542975660e-03,4.203207785193403823e-03,7.310181008922251623e-03,-1.809592138342047685e-02,-6.353050135855036265e-03,-2.790171381214077637e-02,-1.481536395484101074e-03,2.606632238006471956e-03,-1.649420515901921930e-02,2.811305633023258865e-02,2.480669167933498287e-02,1.345848502716995646e-02,2.022719451367242707e-03,2.241447679203072835e-02,-2.237682318019055053e-02,1.760045363735976073e-02
-2.273012476553781455e-02,1.782466969398619969e-02,-1.358505839307469314e-02,2.284592608955444276e-02,2.690216453774727651e-02,-2.127759676112761164e-02,-2.261287899875254886e-03,2.914048412941728367e-02,-1.005255793900107367e-03,2.202542372440564541e-02,5.375774146764005293e-03,-7.553102232244140492e-03,-1.297824263976259974e-02,-1.798014500342728569e-02,1.586096930462817939e-02,-6.873911271611376529e-03,6.831206851371884707e-04,-4.649586213275056293e-04,4.681928106943286823e-03,2.214838786590096753e-02,2.912545702465632949e-02,-5.598984558907393883e-03,1.984264116904638914e-02,1.602634154636446012e-02,4.454730706507454598e-03,2.762948708020923280e-02,-1.814666667541618705e-02,-2.367261719374395834e-02,2.144468555470716020e-02,-3.686591131413505858e-03,2.102100979872935371e-02,2.381525879053729422e-02,-2.650838281410780942e-02,2.323210409942720947e-02,-3.131075398596565567e-03,6.320493926876478942e-04,7.669571443862398252e-03,2.583226951181063699e-02,-2.913421527169878997e-02,-1.402931915915604701e-03,1.137308679301625956e-02,1.349263797962070750e-02,1.166452285512483908e-02,-2.214764418652170191e-02,-1.215356148362153367e-02,-8.559679892319432479e-03,1.844424203536610199e-02,-1.340377049252502138e-02,-1.752685785924221543e-02,2.771435872128915484e-02,-2.975537882136346582e-02,3.016033559904971253e-02,1.071266832984148556e-02,1.990021951129108263e-02,-1.244292572525597732e-02,-2.942507139606573632e-02,1.441125743671780798e-02,2.024405580666883975e-02,1.456917837109021271e-02
-2.163781422808085456e-02,1.535385891972940869e-02,1.629261061689624840e-02,9.605132256069836075e-03,1.612255844599721696e-02,2.095755248601274129e-02,6.882673097615997493e-03,-2.492426693040756744e-02,-7.495656485123577441e-04,-2.558799548350754530e-02,-5.601479288594135054e-03,-5.627927056424585940e-03,-2.629317072199162039e-02,-9.159165147710191662e-03,-2.356757005097698601e-02,1.867434293122615871e-02,2.712305230416107993e-02,-2.591108526125177405e-02,2.757302598209668970e-02,1.367796878957008638e-03,-1.214325665443994999e-02,-2.563569137109244014e-02,3.782110430423717243e-05,1.784314088008467220e-02,1.254627559512810908e-02,-2.724942975598354869e-02,-2.587562138471600354e-02,-5.884394673302077543e-03,-1.240226746099582118e-02,-1.621342002062020615e-02,-1.326778043187226176e-02,1.838641608097185687e-02,2.600466010675469078e-02,-5.749326384836204486e-03,2.460412008653801996e-02,-1.081463240197433513e-02,-1.427558511229250334e-03,-1.659845560097646805e-02,8.510701243815112921e-03,2.901893525430757070e-02,6.270099922947004745e-03,-8.614293458474855600e-03,8.955478115438333594e-03,-2.284524393692973290e-02,2.354680034118702622e-02,1.868402848719441696e-04,-3.068631538488066687e-03,5.202093898520649025e-03,7.559994998438539747e-03,-2.594384154144712545e-02,1.106381264545142594e-02,-1.563499608409082975e-02,1.296225966639931622e-02,1.954067920210283277e-02,1.841524012370173921e-02,3.180756246396106504e-03,1.221987215171166158e-03,-2.163625877372270592e-02,1.668176856650246953e-02
-1.384909796733406646e-02,-2.002068729867847497e-04,-1.306969300392660759e-02,-2.218440495758937717e-02,7.849216385966273704e-03,-2.700066749327517321e-02,1.506410111339568335e-02,-1.105145236449774082e-02,-3.028419810305771689e-02,6.742557498190291472e-04,-2.745384882711159394e-02,-1.356070396881476486e-02,1.253961189356994806e-02,-2.649432546324999999e-02,2.055872648628188221e-02,-3.006092950782199985e-02,-1.533860420548058441e-02,1.459510403750611911e-02,-1.113122096127534127e-02,-2.411923695727147959e-02,-8.467688459070981874e-03,-1.391065773841644593e-02,2.076310356421496792e-02,-1.130826356839063906e-02,1.750489200033490331e-02,2.374146294698723653e-02,-4.009652897423252732e-03,2.483628930780766228e-02,-7.432650967074701416e-03,2.811605947372913458e-02,-2.488277787676147768e-02,1.133050931242877979e-02,-3.747746075555379703e-04,-6.806765312734321290e-03,8.040311600756218716e-03,1.235062418089093866e-02,-3.002801098416002859e-02,-2.017755282640933470e-02,1.290733466033814301e-02,1.008041317479712110e-02,2.823535615141083144e-02,1.581490061763793364e-02,2.730993687567533426e-02,1.227085894246267121e-02,-1.223494976436312158e-02,-2.390885445682247937e-02,1.707421897111911085e-02,8.733239771763857962e-03,-2.737302252211845990e-02,-8.478802901045167859e-03,2.767508749250018746e-02,2.430329928064925820e-05,-4.075586248599954824e-03,-2.562757445387176501e-03,-1.763725774537351285e-02,-7.954338881688238078e-03,-7.887327027702251483e-03,-2.712044436523277854e-02,1.621050902033235527e-02
-5.058555353938503675e-03,1.951917722759028556e-02,2.122573445774343995e-02,-1.744875865618436897e-02,9.533216167548298758e-03,-1.679299047243428336e-03,2.303168833745397950e-02,-1.722177047293691962e-02,1.077276239852425349e-02,6.528131820029720728e-03,-1.240160202731061846e-02,-2.201643136717787441e-02,9.187051956448885268e-03,1.445535944952138635e-02,-1.117016517873237885e-02,8.774642309858927611e-03,-6.353464271945551654e-03,1.291707866080059330e-02,-1.822295741273356751e-02,2.364106545750959895e-02,-1.287972940979305661e-02,-8.010148499521077201e-03,-2.677287397073607050e-02,-2.353642262831947066e-02,9.609888850235485556e-04,-1.408033188155352958e-02,2.032497449583213836e-02,-2.940216364891451439e-02,-7.325052830462974729e-03,-9.854373998461016596e-03,-2.912139939347313869e-02,-2.275753419818622725e-02,-5.231934090672292308e-03,-4.322971310811620361e-04,-5.798578565191915384e-03,1.874350487558338642e-03,5.763525590595139012e-03,-2.969112654719073888e-02,-2.175284599174122195e-03,2.808097028382596991e-02,1.153065303252410372e-03,1.075634800844708742e-02,-1.139817490322697635e-02,1.659969007327511195e-02,1.653487071026217559e-02,1.290215017814566167e-03,2.883916271490905014e-02,-2.268593422483104402e-02,-2.926558896146760902e-02,1.636745877243512073e-02,1.860893126974446504e-02,-2.300963749725660687e-02,-1.420209769729597823e-02,-2.922895347543716729e-02,-1.252233929764154201e-02,1.654822309976332340e-02,1.088133486503554265e-03,-9.203085480905991850e-03,-7.770638505083153104e-03
-3.021034940986558684e-02,-1.212902835722592249e-02,8.873161396910935611e-03,2.872893612525241613e-02,2.102658194337492584e-02,-2.886286418772901832e-02,2.414668139422528753e-02,1.715749569090251059e-02,1.698650806679638525e-02,-2.544815048578344657e-03,-6.179320449732450364e-03,-1.194029477037880649e-02,-2.631225401029967798e-02,-1.646478356105665272e-02,-1.535194703358176010e-02,-9.646862235265313496e-04,1.499134931749740961e-02,-1.586724131580466652e-03,-2.678786884769518775e-02,2.773506548397153618e-02,2.682232752873913925e-02,1.727812772912528522e-02,2.976696181210274073e-02,2.694949538919275828e-03,2.803668948167080052e-02,-2.571184846004281530e-02,-8.137693838279540931e-03,-1.663769812808441745e-02,-1.842786648235323829e-02,-2.176185164589939172e-02,7.416395816672687047e-03,1.704380498294445420e-02,4.743686361133717111e-03,-2.138866428810453843e-02,1.884934551643115130e-02,8.236777442181035525e-03,-6.775449031904971949e-03,1.054963465549217660e-02,-1.454608885715897269e-02,-9.378986219382200520e-03,2.529326160806098789e-02,-1.269222521178417842e-02,-1.818252276765926602e-03,2.363659035284716020e-02,1.258473919613887007e-02,-2.652379359431452852e-02,-2.136804520721995518e-02,-2.981727788378552360e-02,7.931859594613809017e-03,-3.170190706872835253e-03,-2.215735461442054285e-02,2.774380907446591729e-02,1.796925978019949096e-03,-1.563732170130993984e-02,3.656718752561626207e-05,1.088224700486356902e-02,-2.567342700442779013e-02,-1.364950557973808841e-02,1.859741735750554056e-02
-2.443692407021306762e-03,2.821862963162058858e-03,-4.070323485086517652e-03,-2.763269284447292598e-02,-2.025045495707484405e-02,-3.299344398636687523e-03,-1.761891624319883443e-02,-2.726439313925628841e-02,2.081991760289946675e-02,2.915291314475685833e-02,1.775997802683394397e-02,2.143395931831500179e-02,-1.563224250861674353e-02,2.790695489931096368e-02,-1.836167038965838202e-02,2.734974725250572183e-02,2.997848683228275524e-02,1.282716624341781117e-02,2.914995676977188283e-02,4.213047857054079762e-03,-1.456809298803493288e-02,-3.817086429299157337e-03,5.668362781064059490e-03,-2.586473269595773034e-02,7.412132049157671085e-03,2.915202300975220859e-02,-1.877474030150274795e-02,1.772679228115369224e-02,2.471243293732149765e-02,2.688153538075086293e-02,2.787718531986417558e-02,1.300126136313228906e-03,2.891756447082343209e-02,1.558906604988308069e-02,-2.049754024840691469e-02,-1.399500509623917205e-03,1.322753244625263572e-02,-1.530731543339441426e-02,8.519131084507407248e-03,1.009344285531183286e-02,-2.043524052531449364e-02,3.943175228074724190e-03,1.645643949895404801e-02,-6.690585143182823703e-05,-2.955909453733976053e-02,-2.974476535039193709e-02,-8.661836717896338744e-03,2.582084697238657897e-02,-1.643804049101097592e-02,8.140386049404899765e-03,-1.683795468849938123e-02,-1.080407318789783529e-02,2.108603146124738564e-02,1.386550568494798394e-02,-2.451262023390832212e-02,-4.319567872738706675e-03,-2.852511656866045173e-02,-1.157765057697951070e-03,9.841018610786848170e-03
-2.311291054022683589e-02,-1.279034620554558334e-02,-6.189539119579899780e-03,2.541716835166679678e-02,2.988371545963254897e-02,-2.757142010618400182e-02,1.581309114871841393e-02,-7.771561119685733293e-03,-6.515390340177760337e-03,1.540457142303540590e-02,2.535024692714051009e-02,2.731938123157464163e-02,4.672450040277704650e-03,-8.656274112093209974e-03,1.742107995620220673e-02,-1.508551069886413486e-02,3.881906896316562276e-03,-8.567983869419388415e-03,9.489449255390148760e-03,-1.572785836439880014e-02,-1.868475406682067533e-02,2.533889665488330695e-02,-2.412461113163913082e-02,3.609581533251499759e-04,-1.691205511236118161e-02,-2.793379763431924970e-02,-2.811016853201885740e-02,-1.967659698614652314e-02,2.222067808816362983e-02,-1.317846371179500799e-02,2.729094131584477306e-02,4.945063511944702318e-03,-3.840211367144819813e-03,4.852159373794196102e-03,1.011666941306656577e-03,1.567788606946528968e-02,-1.317741426358209553e-02,-8.902900420698989584e-03,2.387609174347124150e-02,2.704844144898536223e-02,2.378302907165402713e-02,-4.880220480308923060e-03,1.698586462292734495e-02,-1.433692898154154865e-03,-1.490473612142922261e-04,-1.789187198215151306e-02,5.521103622215178981e-03,-1.901536777378563803e-02,-1.020460501981390253e-02,2.150940424941936643e-02,-1.774672916661514804e-02,-2.598125387961617086e-02,-2.611155297949962692e-02,2.670480538029658749e-02,4.192727746116635423e-04,-5.488243981820484577e-03,1.883449081479414769e-02,2.034591876382512224e-02,-1.016665874881787605e-02
1.173029519513792487e-02,1.642589903842045507e-02,9.369468079257073714e-03,-2.110801375325187940e-02,2.277277019531361024e-02,2.368532409108256836e-03,-1.317884646222786116e-02,-4.530029215950952086e-03,-2.801612456586453914e-02,-2.254558449003540507e-02,1.608807469872626170e-02,-3.029165355224049810e-02,-5.054835659617866114e-03,1.363772948014934424e-03,-2.698234757287282584e-02,2.866130656635729884e-02,-1.659261926717124636e-02,-1.186256513581252121e-02,-1.187808738746864122e-02,-1.633263020150941755e-02,-3.020306734676790270e-02,1.389478941799852582e-02,2.828370243260233327e-02,-1.670360125747756899e-02,9.878167953685170963e-03,1.465522048339610618e-02,2.110925294642445812e-02,-4.687488193801646677e-03,-1.193937528780921603e-02,-1.058444484298276880e-02,1.288160326867686216e-02,1.919199429202175441e-02,-1.928932762239505758e-02,-7.819002481734983745e-03,2.435143302322135411e-02,1.858094006000472059e-02,2.937500905883576666e-02,1.540355883037685183e-02,-6.470738507276882143e-03,5.491267511290394768e-03,9.755003007411564356e-03,-2.553913502134389987e-02,2.695835669382031299e-03,1.268164313035142175e-02,-2.015524460950278429e-02,1.700199314811249099e-02,5.075350189798418475e-03,2.739772885399977681e-02,-2.772221551428593819e-02,-1.421764951561986685e-02,6.152613025567467767e-03,-1.232536012129029773e-02,1.299082727274433226e-02,1.569176171232658512e-02,-2.408145778182964325e-02,8.393687915077511098e-04,5.386317934006970565e-04,-7.919587527420059517e-03,2.622863022961629750e-02
1.984187766632305311e-02,1.194787456931192295e-02,1.298491854610505508e-02,-2.319416588202782414e-03,2.550583386917271503e-02,1.178950886651657787e-02,1.387275279157439666e-02,2.191294100446190482e-02,-1.368780879512299965e-02,1.860380377321859194e-02,-1.846376178676635560e-02,-9.369914036642683700e-03,-9.959494086290770695e-03,2.899133002280002494e-02,2.160070675837744841e-02,1.218781910947621359e-02,1.375616961843068378e-02,3.760662674904746792e-03,2.708686148699676957e-02,-2.266623974047340452e-04,-7.238800719849918484e-03,-2.041490871096873772e-02,1.733968841203557126e-02,1.420371924931515019e-02,-7.006317249752647136e-03,-2.876602258860953831e-02,2.053805712327928454e-02,-2.960060314568105366e-02,1.234109347758902131e-02,2.849039385412488815e-02,-3.776770784891166858e-03,-1.605656122430883584e-02,1.241205214064390085e-02,1.921311869907542727e-02,2.812967554281039454e-03,2.829519992492724595e-02,-2.716202356733920381e-02,2.905399655558031495e-04,1.323497055011742425e-02,2.197047027423823171e-02,-1.943220794380049257e-02,1.817562600602708883e-02,3.193243260044071902e-03,-6.267265889040729218e-03,-2.231244072513670004e-02,2.213134013139980011e-02,-2.076400565003415008e-02,-1.152394869718380635e-02,-1.272003200399885944e-02,2.250201410715749542e-02,1.046316200868172702e-02,1.797435845275833707e-02,-1.511783170442756313e-02,7.565461970484881581e-03,4.346710076127410956e-03,2.016443414718075214e-02,2.460266958837618520e-02,-2.955584388245340380e-02,1.054294752786641073e-02
-2.715190122662076641e-02,2.960088390905015431e-03,-1.286621098572198786e-02,-1.170638501277393093e-02,-8.908467438127024018e-03,7.348468685498087474e-03,-1.005403584638315043e-02,1.409800609853633160e-02,-5.784181314915140190e-03,-2.615119915189749802e-02,1.719150971915373721e-02,-1.297977124870500036e-02,-4.073299564518351179e-03,1.123506516234934471e-02,-1.015059628433366036e-02,-2.686413248341459892e-02,-7.638457671406899234e-03,2.692679155078528050e-02,8.586938332660762341e-03,1.038901567303205167e-02,8.014276826571900200e-03,-1.823647604015831911e-02,-4.947719722145017991e-03,1.520311663806722148e-02,-2.415071014291523058e-02,-1.345872666654947605e-02,-1.355164348533081584e-02,-4.118614024967257904e-03,2.910300416856111475e-02,-2.620273576100095453e-02,1.132994449945274413e-03,-1.942559996240398115e-02,2.851580524627094285e-02,-2.342789768503913961e-02,-5.840305979554527398e-03,1.441219445649333242e-02,1.239287210883871330e-02,-4.681463656805570292e-03,-9.298289832691271350e-03,-6.203125057513887187e-03,-1.428125585871249312e-02,-1.785232048266394145e-02,-1.027535121614187247e-03,-1.402331685619894429e-02,-1.287657485860185802e-02,9.497021725017562935e-03,2.838620158931117951e-02,6.278830454249951891e-03,-2.562857922280364562e-02,-2.571314659439369321e-02,2.734934802852834190e-02,-1.228108007844213277e-02,-2.471450615468812062e-02,6.000588271121273277e-03,7.491226225422124678e-03,8.997122482384356176e-03,-1.409188228939226191e-02,-2.937688191558513948e-02,2.817282450380611050e-02
-1.509207429994274992e-02,1.066450282531226749e-02,1.251861216580095471e-02,6.664768218592800712e-03,-1.133495255213221031e-02,-1.386806865875028077e-02,5.917205255816337765e-03,2.217980031380810402e-02,2.706523648810697097e-02,-2.387608526472286691e-02,-2.091211078125838202e-02,2.694422032517727883e-02,1.433041984109356508e-02,2.320357244455996740e-02,-1.801591767061865371e-02,5.306365203956445870e-03,1.218598538138217398e-02,1.091202758674408684e-02,-5.564603804858092931e-03,-2.935966328606566533e-02,5.024051673560646358e-03,-1.495827334720762139e-02,-3.013832413474885549e-03,2.772241624906549018e-02,-6.116916695633450168e-03,2.058678413554140482e-02,-1.886967922067188386e-02,1.044847044603723976e-02,2.889933128504718063e-02,-2.411919377206584239e-02,-2.978829709629796443e-02,-4.023867704393055585e-03,-2.468066977394880665e-02,1.504829550285562666e-02,2.511531343274497202e-02,-3.997320688536858992e-03,-1.461838684674244583e-02,-3.974156346330984246e-03,1.353752278216441111e-02,-2.974381462465692030e-02,5.419544626824281813e-03,6.863744653896062045e-03,8.341803456059110680e-03,-1.562951924595958747e-02,1.296832364351377560e-02,-2.475543111583754577e-02,-1.821962152293761170e-02,2.286891590769539809e-02,1.446297449975721822e-02,-2.945958794244773332e-02,-1.524455302608460940e-02,-1.730260237096549469e-02,-1.388563372684279741e-02,-1.529401984701834333e-02,-2.650422051538980570e-02,-2.487577177269998090e-03,1.410009167869787083e-02,6.466311324248134179e-03,1.047338109879541318e-02
-2.537595843384028368e-02,2.735343685055288340e-02,2.050743191997808287e-02,1.848381056925506652e-02,1.956788238566839824e-02,2.621564362674383072e-02,2.681114007868623788e-03,-1.815832909169464923e-02,7.075301818111370301e-03,1.471490652955521894e-02,1.441415791746688407e-02,1.299483056528462398e-03,-2.614480631172593286e-02,-7.808586134860585545e-03,2.549202584681552197e-02,5.116313288579721688e-03,2.322329929653648047e-03,-1.400394438923933081e-02,-7.969984942270224790e-03,2.395193088143468194e-02,1.008511660559519539e-02,1.741126165112013083e-02,-2.765969617777109483e-03,7.890990915314940665e-03,-1.524410782696218949e-02,1.244778623290143833e-02,-4.386252700159834830e-03,-3.480863718503778015e-03,9.046650758533128500e-03,2.643193793244920375e-02,-2.641455205271703993e-02,1.967447709375301154e-02,-1.257841047543278162e-02,-3.397623971274394469e-03,-2.896474562084175308e-02,-1.205356704681258100e-02,1.594130897922010589e-04,-2.688894669900931608e-02,-5.394627143545337438e-04,2.587637652633939869e-02,-2.390714016034032816e-02,1.602106664231300534e-02,-5.472553657392574197e-03,9.401155561861277571e-03,-1.452599782953837952e-02,-2.062956486979002080e-02,-2.057077638496077401e-02,-2.602162387140543459e-02,-1.904500538423072042e-02,9.949184945961538074e-03,2.312461765475119779e-02,1.903121572665359904e-02,1.121630974874209333e-02,-2.360187526117525983e-02,-1.277201888116279334e-02,-1.152279661133911830e-02,-1.514878761061100310e-02,9.091136451292150446e-04,2.154017808531582655e-03
-8.670522675987413566e-03,-8.858142422915197059e-03,1.990544787887355005e-02,1.752672531120428451e-02,-1.164463512100866530e-02,2.506925572077401201e-02,2.743366960465290147e-02,-1.049675403866650279e-02,-8.819623262339062325e-03,3.413435899346238035e-04,2.672517953775780872e-02,2.279920631382087101e-02,-2.407830746639196690e-02,-6.498877548958079640e-03,3.233478420602766724e-03,1.897799626731851998e-04,-1.854721935592272206e-02,2.173881249344922217e-02,1.071990724260135815e-02,2.047208322218315238e-02,2.173563229147576492e-02,1.504656908012774914e-02,-3.682908512664289421e-03,6.697443854744947536e-03,-2.057666571329693286e-02,1.052025845543518023e-02,-1.943235069160255402e-02,1.175038103028265557e-02,-1.638221887487674791e-02,-2.317054620198221934e-02,-2.027864440043565877e-02,-3.017166549236389994e-02,1.325227781835815882e-02,1.407995176009592744e-02,9.047327765827266159e-04,-2.051623882350240777e-02,-2.523024255831891535e-02,-2.913343542476731426e-02,-2.025055206558729406e-02,2.367987192840417116e-02,-1.565891726972456349e-02,-8.828930382018124190e-03,-2.391003208858584819e-02,-1.682066174709805767e-02,1.164715177881330303e-03,6.528165798539848665e-03,-1.542775795069304019e-02,-2.679467191900621395e-02,-6.601742773273294208e-03,-1.610321352040556056e-02,-1.699074616156592138e-02,2.786065770659013063e-02,7.046032012956056183e-03,3.445964376224891663e-03,-5.102741507387978034e-03,-4.304887441939705614e-03,2.478218076554553843e-03,1.190064424631143841e-02,1.224696400581609841e-02
-1.989033165203867720e-02,6.831052640212802477e-06,-5.333993886040508739e-03,2.244827134828083354e-02,7.961978134848149771e-03,1.969249661300000610e-03,-2.330120671458317180e-02,6.400041616586494946e-03,-2.319159299759245008e-02,-9.862793529470047574e-03,-2.163831844356961520e-02,1.163672752531106323e-02,-1.779663251768786106e-02,-6.551669258759024173e-03,2.397184437906574317e-02,-1.791390819818287211e-02,4.728675901822959084e-04,-4.890903552546195694e-03,-2.919431854510154412e-02,1.773666742548325737e-02,-2.610923175472440808e-02,-1.559752265223716440e-03,3.676177319710273970e-03,7.780680514050559819e-03,1.142819385645723815e-02,-1.494792279104976973e-02,-2.968779708192744934e-02,1.353727102267093980e-02,2.160244976419453504e-03,2.036359588757060204e-02,1.947122297525114357e-02,2.080031867333650281e-02,-9.030358051575896380e-04,-1.007957653529468166e-02,1.766397115838990242e-02,-2.950832372570351327e-03,-1.917856490743264850e-02,2.150600047531371281e-02,2.317728182435967871e-02,-2.041113885906403139e-03,-2.570611189355277021e-02,-6.796024583839982772e-03,1.838974316132412773e-02,2.434136576969270563e-02,-1.796501994334204558e-02,-2.623478111753788783e-02,2.286167036804581665e-02,-6.700370460423953067e-03,2.530076196836258257e-03,2.835763470486451707e-02,-2.625955324564299351e-02,8.985804489869022096e-03,-2.580270239454027920e-02,-7.544679711769624458e-03,1.840651820493572136e-02,-4.030565943238305880e-03,3.012165214953916800e-02,3.578090057696050111e-03,-1.083484035019413941e-02
-1.695697607831517933e-02,-9.056171109826030227e-03,-7.722535521051127581e-03,-2.612935972982809857e-02,-7.901810201732889505e-03,-2.166599156851704757e-03,1.349450365814300334e-02,9.495411458795085732e-03,1.264800811657666203e-02,-2.978564714200652302e-02,-1.710504066274638399e-02,9.795596836843703872e-03,-9.699995959191623583e-04,-2.997044302157845022e-02,1.844772170357438998e-02,1.652809076027625737e-02,2.933461281589701264e-03,-2.626569666546188508e-02,1.614673882051081630e-02,5.071764011814239130e-03,1.708246538794476813e-02,1.525202025999577125e-02,1.835729474398275704e-02,1.091013604702056276e-03,-2.179083723435534109e-02,1.036952706681007995e-02,7.298870158980264554e-03,1.467684076002520425e-02,-2.000016578552300112e-02,-1.847984115578581166e-02,2.365285006845925866e-02,1.514483414580455531e-02,2.473240741074949484e-02,1.567419448554504061e-02,5.886126706928858539e-03,9.338088234958283329e-03,2.357520510247489501e-02,4.774484910432200829e-03,8.020890901962566405e-03,-2.081226090302215614e-02,-1.579975495873068474e-03,1.311035776189091104e-02,-1.387737177207477336e-02,-1.803884617548213998e-02,-1.127925011459326304e-02,-1.566111126702235748e-02,-1.727193717155805358e-02,-4.552890408697815583e-03,2.470878089688354623e-02,4.277066989465389121e-04,-1.890725537269657974e-02,-2.562905164328670160e-02,1.188406451768890884e-02,-7.100603674748351413e-03,1.949803678248281102e-02,9.663914757603765324e-03,1.794770440952502683e-02,-1.381658463546978251e-02,1.165401085687603998e-02
-1.429423785884344038e-02,2.660083951895519591e-02,8.262197236576640860e-03,-1.063190290236847024e-02,-1.396405856749785568e-02,-1.872512533894033979e-02,1.179226738806191804e-02,-1.704153494962265883e-02,5.773921384070703627e-03,-1.425952025747864553e-02,9.812842663883351510e-03,1.908053428827076459e-02,1.684408064174579278e-02,1.580360403252579690e-02,-1.891924963947735211e-02,-2.493758145098334128e-02,1.205325844775480791e-02,-7.976146778890467678e-03,-4.098784719298053693e-03,-2.840519947260649464e-02,-1.456599275224413487e-02,-2.825208304628896647e-02,2.297286267842593016e-02,-1.554623929798238172e-02,3.473756185350086994e-03,-2.793080733412421635e-02,1.010840196462019745e-02,-1.072183815320284020e-02,2.410782128342774458e-02,2.351403059301291482e-02,-1.058471842304315076e-02,2.429210234583963415e-02,3.005957217735872114e-02,1.971521587965728572e-02,2.089393296418865301e-02,-1.520623466248551513e-02,4.646993118906097078e-03,-2.621767793430096818e-02,-2.454178211131178775e-02,3.022526765415960159e-02,-1.050301199184363460e-02,1.503615204594816769e-02,1.857921541498806783e-02,2.169073851085436336e-02,3.014866951018358582e-02,-1.566136225350794886e-02,-2.784771501938308400e-02,-5.380436738947213908e-03,-2.241145788729664509e-02,-2.893369229490804287e-02,-8.456001161843947414e-03,1.719020160976023406e-02,4.009538440873080221e-03,-1.134279251761979856e-02,9.350766705653143496e-03,-1.623560267529967210e-02,-2.942106260198081372e-02,1.601577507383758828e-02,7.496939762492379339e-03
1.589153024258655247e-02,-2.793330972366265055e-02,2.042429720721580452e-02,7.241460989085194734e-03,3.840789374509726017e-03,7.549706824439215459e-03,2.207908508361655295e-02,5.267023636512029733e-03,4.904355846950985906e-03,2.972765781033562260e-02,1.555392448671254202e-02,-3.496113459034454890e-03,1.256508852900529299e-02,-6.710940511617138719e-03,-1.642600334498368550e-02,5.867743540657808371e-03,2.594129118783224108e-02,2.599929632267116222e-02,-9.578123966391027116e-03,1.676831455030385488e-03,-1.747045744384679439e-02,3.002767044650522452e-02,2.914839223465447854e-02,9.057956177537030903e-03,1.844283962021665141e-02,1.303178237247356978e-02,5.643964325663059466e-03,-2.706028514684882466e-02,-2.740589499382006106e-03,1.058937863152456006e-02,1.075570256460567017e-02,-7.686830241507957261e-03,2.675978396037185028e-02,-2.015308002445698882e-02,2.177694720375861038e-05,1.156465167648934762e-02,1.194341698710259594e-02,9.005249113355717067e-03,-1.361409996788785076e-02,-2.082862770173752112e-02,8.235906213534167214e-03,6.016190592011944061e-03,-1.942612533628496063e-02,1.242829705564399249e-02,-2.715892189164550042e-03,1.016372794609975150e-02,2.043928901291202499e-02,-2.000940964857635812e-02,-2.913247203328403132e-02,1.690935117759959430e-02,6.645987445467938480e-03,1.209510680384099507e-02,2.048702342165640428e-02,1.834571475487407552e-02,2.792471660652426010e-02,2.177116578359204052e-03,-6.969888381969651259e-04,-5.944136217041953892e-03,-2.098103012270772366e-02
