-6.305770363301675674e-03,2.265346411589495845e-02,1.166030534462320946e-02,4.958698669426098854e-03,-1.728893286601604351e-02,-1.729014517268851955e-02,-2.221126973695140144e-02,1.840447054916629493e-02,5.082166812827582092e-03,1.045798770433876632e-02,-2.409602224872871984e-02,2.361825622631942220e-02,1.670898244600300953e-02,-1.445819567100551338e-02,-1.599187464307449610e-02,-1.591248485635294793e-02,-9.839029428302678917e-03,1.244289181955658859e-03,-3.420528383886268196e-03,-1.049308423031708633e-02,5.621866226158585451e-03,-1.811948894262816259e-02,-1.044706963754939502e-02,-6.716820709718871428e-03,-2.207977474859628905e-03,1.433330008889717455e-02,-1.509477090516505443e-02,7.154406576999057348e-04,4.644871684188730046e-03,-2.279596887453149562e-02,5.405338611955965052e-03,-1.655986915648252969e-02,-2.186105031601203938e-02,2.256154789341048919e-02,2.340324769472122007e-02,1.550043599601104785e-02,-9.820356056649095708e-03,-2.022150217679387352e-02,9.259782074146401948e-03,-3.008010431918060109e-03,-1.899683050295060405e-02,-2.424145232760972714e-04,-2.340221461546471843e-02,2.057295477095905448e-02,-1.212401948006883688e-02,8.168573050125853274e-03,-9.463636544409370979e-03,1.008643815302143762e-03,2.347716994774175052e-03,-1.583960877546172069e-02,2.360191004180265187e-02,1.382851942455835988e-02,2.208976586743448267e-02,1.984451588885673828e-02,4.920575241130177406e-03,2.120392609819884630e-02,-2.068288094168085206e-02,-1.528028114231049124e-02,-2.285744460523903357e-02,-8.779115790016505869e-03,-5.595218495260983159e-03,-1.149228331586132218e-02,1.652275790054237928e-02,-7.199756757924623968e-03,-1.101050522082711557e-02,2.145958479593913087e-03,-1.804759704481930307e-02,1.518879778627950372e-02,-2.138361616097765941e-02,2.447154569960901041e-02,1.368336221924337792e-02,-1.514292623948831039e-02,-2.485307614277613986e-02,1.585548549894737549e-02,1.039690852790343435e-02,1.151018636355647697e-02,1.363438652148640969e-02,-2.140904794830144134e-02,-7.113689301611918030e-03,-1.930690096164430422e-02,1.825003180828766239e-02,6.197117890251413637e-03,-8.499276529384185846e-03,-2.193610255957927774e-02,-9.500264649664153654e-03,-8.786504632771341070e-03,1.154029336942892503e-02,6.913810360358267799e-03,1.946179618534757752e-02,-1.396512573152680192e-03,-1.911966843865653409e-02,1.071794941175954578e-02,1.310738234129156000e-02,3.079868503221419324e-03,1.361914898282192386e-02,-3.118410778644639387e-04,1.142580404779525030e-03,-3.641878940039729954e-03,-2.385302758198891426e-02,-1.970786673912095291e-02
-2.355095451118724426e-02,6.856157687144886874e-03,-9.330700315496870748e-03,4.307736452710491217e-04,2.048480015082888503e-02,-1.260088577127762774e-02,-4.504266246515340952e-03,1.284431948227523004e-02,-1.363094301384981839e-02,-2.126151820945449897e-02,-1.056735463929400591e-02,-1.702744133761903075e-02,2.159714082644132588e-02,1.548651521056951079e-02,6.705039463038393530e-03,1.867007332718979840e-02,1.526293796136317556e-02,-1.575338040726555547e-02,1.973050568662562329e-02,1.977390228799366916e-03,1.545232628240584410e-02,1.990804356956535695e-02,-9.147372715506403226e-03,-1.959927743394174193e-02,-1.367431862024720036e-02,-3.663653607617110061e-03,1.598381942994706387e-02,1.813076977386056041e-02,-2.478120188240023891e-02,5.401728541142093764e-04,-4.151026159873709258e-03,-1.396720861543588980e-02,-1.910604153861371335e-02,-8.161664352025402649e-03,2.226119504411446307e-02,-8.886041508566472694e-03,9.444401238765165246e-04,1.020398650491357098e-02,-6.854146551455071040e-03,2.371235687318385549e-02,2.324317877750269046e-02,-1.247573190928609813e-02,-1.382935312802204724e-04,-1.000810491060755841e-02,-1.081418555057097990e-02,-2.327664059140202232e-02,5.506840304150853634e-03,1.346510543764881573e-04,-2.254323829812920205e-02,-1.112550524362958607e-02,2.051995347376036477e-02,-1.308994473945428345e-02,-1.784802736023110084e-02,-5.301174450776461591e-04,2.440939854493275746e-02,-1.296462430323674746e-02,8.651747660928504197e-03,1.314932870684877575e-02,-1.318666480739756272e-02,1.147043879108070041e-02,-6.645384927578474807e-03,6.649856334822987040e-03,6.711370081021262105e-03,1.798080314779175893e-03,-2.059254800655543199e-02,1.685272232049503036e-02,-9.007817833329120547e-03,-1.575597129858037626e-02,-2.308121509339162991e-02,4.568392876862126424e-03,8.924606656700157653e-03,-2.429689964314111009e-02,6.078122179353129175e-04,-1.374666402637816573e-02,7.296565809814414827e-03,-1.636675009103696898e-02,9.596769254846973171e-03,-5.692822996052103804e-03,2.195059483908398668e-02,-1.821865019097953023e-02,-7.988203751439656303e-03,-1.942730370856252456e-02,2.134563182286273661e-02,1.896554730960054239e-02,-1.216615619367440553e-02,8.040998021160719600e-03,1.594398408664621583e-02,2.774461753160773533e-03,1.490275110531851573e-03,-1.297482636233098993e-02,-2.045116322529770894e-02,1.996456023492608825e-02,2.012551179384155023e-02,6.689845525717627236e-03,-8.090563801384904885e-03,-7.578915161893935194e-03,1.135681470562043861e-02,1.995925777361014578e-02,1.945544726921719439e-02,1.406689458229876642e-02
7.138687975329951682e-03,-2.090164489176778162e-02,-1.700696355561314571e-02,2.003183142765930375e-02,5.349257499925500793e-03,-2.466836934407438606e-02,-2.003053813569539293e-02,8.217803177532319661e-03,-2.487622312063998350e-02,-1.704821108701582918e-02,2.449421136509220831e-03,9.644892370002558502e-03,7.637762747245747247e-03,-1.385856897585428446e-02,1.066439273965142341e-02,-1.320618911616367602e-02,-8.775629298032942144e-03,1.238896596204170503e-02,7.520736441945862806e-03,1.755240489496532469e-02,7.921820872224460616e-03,3.433275741328818166e-03,-2.042241378958474171e-02,-6.648769000395710928e-03,-1.180122233213875237e-02,-1.286740035656832627e-02,2.377410141221189543e-02,-5.373041910869741020e-03,1.970474964552750008e-02,6.591191173627687465e-03,1.481758442268522359e-02,1.325435939777153420e-04,3.865285317062265753e-03,-3.760700562816137512e-04,-1.531746816508966838e-02,1.118072122165627777e-02,-1.101865494400742183e-02,-2.390847379747640736e-02,7.311619330300840602e-03,-1.622882063744757880e-02,2.213799871287403312e-02,2.281501737145909259e-02,2.085160254104329383e-02,-6.525985935421682593e-03,-2.435375579153379114e-02,2.152782605247089906e-02,-3.609554424852313547e-03,2.345465419529146542e-02,2.330211924724553962e-02,1.774269624520958058e-02,-1.033125547882907287e-02,-5.775131707454144933e-03,1.764856778419516062e-02,-9.201728739514048253e-03,-1.661170745305830601e-02,2.854902412765873004e-03,2.192168383588309968e-02,9.852702480191306497e-03,3.521361935854725508e-03,-2.024641266901244449e-02,5.780406892007452363e-03,2.463071872872072895e-02,-1.808982703593412650e-02,9.212712269689868816e-04,1.896724204589593510e-02,1.210133151967882764e-02,9.902257273465961060e-03,1.017710302381677999e-02,-7.062150276885371079e-03,-1.037433177221969843e-02,1.554887815810881459e-02,1.558668664010402424e-02,1.844951331393946889e-02,2.076998643139735257e-02,5.700831367680970476e-04,7.621086528005244676e-05,1.499268835394490518e-02,7.537374510280058990e-03,1.015110756745236584e-02,1.486690909855723115e-02,1.960215571199629137e-02,-8.142565808699125940e-03,-6.253356234078090090e-03,-2.040697494047372454e-02,3.934457681561203887e-03,-2.332412106459380227e-02,-1.729086586932526357e-03,2.143372616188785051e-03,-1.072870334126449846e-02,4.565393153858295951e-03,-2.359764398238191341e-02,-2.325345802267813830e-02,1.621430720245355811e-02,-7.026993025989657950e-03,-1.874440454605218534e-02,1.117974038777803762e-03,1.357021328069340366e-02,-1.428319018175840290e-02,6.176628841284392823e-03,-2.084095443330682973e-02
-2.253303677644986902e-02,1.575922953841521826e-03,2.042371977432583079e-03,6.907398539972561813e-03,1.136363288797628823e-02,2.391691999404738436e-02,8.192758695835203765e-04,-8.898428849803033391e-03,1.483642692410725751e-02,-1.151825734999748115e-02,-3.067372638115367037e-03,-2.118730890663689248e-02,-2.385646461351728642e-02,2.325328730668284327e-02,1.688678059567772644e-02,9.849908428127314083e-03,-4.576138758491942425e-03,-1.642063562544889693e-02,-1.726790344729574669e-02,-1.255310395888020042e-02,2.474193666821574052e-03,1.078585916880555468e-02,8.051720287829295178e-03,-1.106079726727362059e-02,2.286209726766164074e-02,1.195699623687622275e-02,2.731902583541767019e-03,5.615224278057715131e-03,-4.041001305726879371e-03,-1.267935562642288384e-02,-7.238993103792753896e-03,1.295966763814081386e-02,-2.440718992790492925e-02,-1.929666872716673948e-02,-2.281847438922358223e-02,-2.308354416127406453e-02,1.786589302799920093e-02,1.023609844145795950e-02,-1.298055614611786594e-03,-2.021335750999111308e-02,-4.213965908845212593e-04,-1.333341942188391582e-03,-1.642528228602988666e-02,-3.324698748191860093e-03,-5.101278846851672877e-03,5.822770659207675975e-03,6.789975664611119788e-03,-2.285358851889262785e-02,-6.302126634874959804e-03,6.325876600129348368e-03,1.576322743515676933e-04,1.791762477957828045e-02,7.976140180541052213e-03,-1.694133678967332454e-02,-2.158375124254577684e-02,7.158170846532174378e-03,-2.379813305986400521e-02,4.311187873923857071e-03,2.212652191204694460e-02,3.793426469655725251e-03,-5.620719217761899374e-03,7.201844868359277493e-03,-2.098261878407413350e-03,2.292756819906742721e-03,2.218857280947720417e-02,-5.724623715690611674e-03,2.318001390147252441e-02,2.037342966778444425e-02,-1.528991761251131606e-02,-2.164443901336408557e-02,-2.006539639735154326e-02,-2.421477292646214904e-02,-2.038380345333109731e-02,9.198149061597989812e-03,-2.155259424084014774e-02,-9.098510974517755312e-03,1.733386398078791413e-02,-2.396094808454239319e-02,1.580557879924368928e-02,-1.096425154791999014e-02,-1.919151278901820579e-02,9.888255714222488751e-03,6.480828566983288554e-03,1.897221497427395431e-02,1.181496433497753948e-02,1.525333069875753171e-02,-1.095521468597647659e-02,-1.621229150322793522e-02,1.259621050956106353e-02,1.542189732308888762e-02,2.465340122323160868e-02,-4.391944724847962958e-03,-6.432530895391492393e-03,1.389286072859244672e-02,-8.001412950437538849e-03,2.165040132838469064e-02,1.801427267136821234e-02,-3.568848891633168239e-03,1.260909327950700959e-02,1.279364285097664249e-02
-1.994749016820340781e-02,2.023281199758726612e-02,2.639908009989660738e-04,1.640816008869207948e-02,-9.044531863575943145e-03,1.987949158994006815e-02,-5.568862046757997591e-03,-2.458591074533099385e-02,2.037500457705090223e-02,-2.054244222878699039e-02,-9.081522305516669114e-03,2.262067672474085342e-02,2.264807814694020510e-02,3.691080002761077186e-03,6.626302987400513496e-03,-2.591192472190258656e-03,-1.039348495548097356e-02,-8.611533998464097200e-03,8.670993129107400221e-03,1.268465914011327779e-02,1.465512700629276882e-02,1.455656967573954776e-02,-2.054649196549136053e-02,-2.804424563411586505e-04,-2.223764946178443877e-02,2.489383501842269957e-03,-2.938750046704601514e-03,1.948649658284797026e-02,-7.493197720461424079e-03,-1.924669015112268067e-02,-1.794368406920878595e-02,1.314385105439475933e-02,5.941787551668890714e-03,-2.004807261404867313e-02,-2.090331149850442952e-02,1.010095961713539277e-02,-2.147346504574732667e-02,1.617708867852678603e-02,1.036599199454466685e-02,-2.104193330437344536e-02,-2.086657515080180686e-02,2.445911317251252270e-02,-6.319306878331858862e-03,-6.501687294710048817e-03,1.572169702971604535e-02,2.247927224532272894e-02,2.442702062708688657e-02,1.273510413555342842e-02,-6.219347819662856755e-03,-2.093377430975439796e-02,1.392975023314018367e-02,2.935470555936891927e-03,-3.808696484413335703e-03,2.042387905190673827e-02,-1.954170026885447206e-02,-3.706714717716231124e-04,-2.455997627809178296e-02,-1.575155285520411959e-03,-2.230075167292381449e-02,-1.915868773774809936e-02,-1.922360866004206581e-02,7.499496192237409611e-03,1.236652301484687279e-02,4.190218286076199082e-03,2.322936967680290163e-02,-6.289160996865435921e-03,-1.077037825257960713e-02,1.852625267234338236e-02,-1.389241846671911140e-02,2.328214353450741916e-02,-2.451972556571820755e-02,2.361669684822353954e-02,-2.296135355401318634e-02,1.965934154812470566e-02,1.392292349571576382e-03,2.477702651207068854e-02,-2.142151711078985749e-02,2.706783613970681519e-03,2.358773173815516960e-02,1.160926504043821713e-03,6.503737209923084878e-03,9.838573656487215047e-03,-2.284822876453041374e-03,6.411228462867384764e-03,4.237742650816161451e-03,2.016270277251065030e-02,-2.284643279621088180e-02,-1.100906373297967644e-02,2.263824388710558230e-02,1.961514533347359993e-02,-2.228747002846436301e-03,6.038014446719767482e-03,-1.118909986024118654e-02,-1.567542014137687442e-02,-1.824563519166276125e-03,-7.370700225935116964e-03,4.204660692899033110e-03,-2.122358468071165044e-02,2.384367569299760542e-02,2.443755943884751147e-02
9.959855309336086357e-03,1.814248467513786657e-03,-9.573379961900668408e-03,1.577172971344030505e-02,9.284819516535395764e-03,-1.695729411994801109e-02,2.065371366248737808e-02,1.621112477391498802e-02,2.260750557543669825e-02,1.134494448215426186e-02,5.700389436921776687e-03,-4.109207134708879605e-03,2.174947417948239550e-02,1.839882840856722421e-02,-2.285787779711303744e-02,-2.380538756977252507e-02,-6.209105514572620110e-03,1.560879837823388183e-02,2.449110701165315221e-02,-1.757048378603451311e-02,4.731127350756312785e-03,-5.986574348341515937e-03,2.361848469649841312e-02,1.719532448471862082e-02,1.700482337159369209e-02,-1.573520900225622255e-03,-4.281278228192763637e-03,-1.138884364647800226e-02,-2.229712175679197245e-02,1.833140227690809032e-02,1.572679562496262159e-02,2.511643455482029386e-02,2.496158787791645517e-02,2.786066774214884714e-03,1.351964353196526483e-02,2.235448122808852967e-02,1.757371466865153414e-02,-1.269860004347821668e-02,-2.485713544345359224e-03,-1.863891108427056728e-02,2.282117187430909508e-02,5.336469771083259678e-03,-1.363875160094539171e-02,8.629890903274654163e-03,5.937272942592086364e-03,-7.128918988466417805e-03,-1.942307819713163380e-02,8.623483156259095436e-03,1.020690417761027690e-03,1.368706257500285073e-02,1.013442756076892099e-03,1.770108218506855416e-02,2.608902563829251699e-03,3.062818578953210163e-03,1.893108062157499230e-02,-4.851071722666739153e-03,-1.839485184150572994e-02,-2.368397137856856002e-02,1.282351721219534245e-02,6.046908353307090325e-03,1.025730410077396390e-02,-1.442677983538410459e-02,-1.827642391679296444e-02,-2.439959158110379528e-02,-7.509655954796100319e-03,4.519375275150785791e-03,-5.415948912407329667e-03,-3.142588531438338627e-03,2.031352089923287724e-02,-7.626869801298313822e-03,7.031292021896712926e-04,1.425675478703998696e-02,-5.199889009256167954e-03,6.136230075920458618e-03,1.821285270126584560e-02,2.259346812950217137e-02,-1.773852775831448111e-02,2.144082697497474294e-02,-3.962449589085976229e-04,-1.215093906849479093e-02,-2.053887943015081721e-03,2.412703693678659722e-02,-3.710238181065175908e-04,-8.607158006936026576e-03,6.704893595157447594e-03,-1.306060583533494128e-02,-2.131763900164964157e-02,-1.865296881597521689e-02,-1.869488081495372309e-02,-1.749580550076241733e-02,-1.815299751453131397e-02,7.080540668112393285e-03,-1.598910438414465063e-02,-7.756955147440442941e-03,1.994308118818368877e-02,-1.308720490015507750e-03,8.421661267335997514e-03,-1.646961264299109245e-02,-1.546593833687823216e-02,-2.307651693760322253e-02
-1.663973732820641857e-02,-1.112832616653244844e-02,-1.623385656986997549e-02,-2.067232448578887327e-02,-1.906731505670088145e-02,-1.971308117616679158e-03,-1.476003418913511556e-02,-6.821966350889303345e-03,1.717563023490723873e-04,9.569481946474119038e-03,-2.315474738724311587e-02,1.504874070148345781e-02,6.428433361301269175e-03,-2.102131356115957000e-02,1.877652835801374778e-02,2.115357264507776447e-02,-2.206077008139205667e-02,-1.121440815005868112e-02,1.539005885853685952e-02,1.247784218860478744e-02,-1.585636769388377304e-02,-1.460846611792298959e-02,-6.510233932432818275e-03,-7.778940996771952117e-04,5.943632552365721647e-03,-6.588564240933311375e-03,-1.883051972389931331e-03,1.243819851513942518e-02,-2.328688104269660553e-02,-1.244282845688842072e-02,1.072321672341400647e-02,1.986358939261379311e-02,5.869228293190541061e-04,1.614063888694313668e-03,-1.974402546863062921e-02,-2.643120140990731781e-03,1.639384560661008529e-03,-1.294375421797527501e-02,-1.159812349607070199e-02,-6.167851270807337728e-03,-2.412182117298668563e-02,-8.942523413636384658e-03,-1.450298365530190529e-02,-8.670198586464263057e-03,-1.911123028454079706e-02,1.962838901428891683e-02,4.704073640335993886e-03,9.001906312073516825e-03,1.453410771297432638e-02,-7.829702798075475676e-05,-2.076190237969756033e-02,1.865021148867028423e-03,4.364743082020133662e-03,1.233609459914077229e-02,-3.434876583974959870e-03,-1.871827924405895446e-02,-1.086769310252522387e-02,-6.881654833790344129e-03,7.333982843201553026e-03,3.557406015736357899e-03,-7.232758334207637849e-03,2.445286420605395292e-02,5.316374564971644567e-03,-1.320730972895577809e-02,-2.001491041779726934e-02,-1.744773334640172674e-02,-1.276848194547429774e-02,-1.705457808949260162e-02,-1.575353294185049408e-02,-1.080138530126605739e-02,-1.641665115365698036e-02,1.994192591931623695e-02,-2.109797635549030825e-02,1.231973061790234093e-03,-4.503567416415545262e-03,2.424495191966628480e-02,-1.949940945541257450e-02,-5.133905200587105325e-03,2.359617048411322138e-02,1.837084477414541173e-02,1.593643840288799102e-02,-1.216810636383298429e-02,-1.654160101670722194e-02,8.476218918759015689e-03,2.158097363140338773e-02,2.852973916554498498e-03,3.599343238227889746e-03,-1.105852562394673416e-02,1.354505149876135579e-02,-1.572957217259781867e-02,-8.862101855207020484e-03,-3.747657747123092284e-03,3.825071402989321692e-04,-1.294680865539611647e-02,-1.935878237155209264e-02,5.559901530330407966e-03,-1.062369245722058833e-02,4.083134499313038381e-03,-1.737216173371274389e-02,-9.479220423785649809e-04
1.637985593901456014e-03,-2.252590894451913725e-02,-8.212473107650481927e-03,-1.837477506145255429e-02,-2.194531945808924842e-02,2.462601338544283605e-02,-8.928717684261391549e-03,1.557467677366445626e-02,-1.233206721810477594e-02,9.122553569660931533e-03,1.307937733976810395e-02,4.806922584078684654e-03,-1.428616273232602299e-03,-4.430985791781418340e-03,-7.596069731870249732e-03,2.158867139908278443e-02,1.661734447702675407e-02,2.337283348651558040e-02,-1.888329091171947124e-02,1.160368772562654117e-02,2.203153897695295238e-02,-1.602162432887709737e-02,-2.178843917677153810e-02,1.211902506446259006e-02,3.743111707409961693e-03,1.718074136530984772e-02,-1.810549038181348894e-02,1.484050397044957628e-02,-1.499658365029684325e-02,-1.690507250496864344e-02,-1.687442042749754886e-02,1.581091843587533949e-02,8.303018692473915566e-03,1.159297064446640404e-03,-7.095356230512014570e-03,1.895857041652122474e-02,-5.405843268871797676e-03,1.591268335436187356e-02,-3.059155533796669661e-03,-6.184926709977859802e-03,-1.875760596252684350e-03,-9.982996182404710317e-03,1.244515678515033946e-02,1.367302046213832059e-04,-1.345932448762033121e-02,2.008311723983104147e-02,-5.835772268054365518e-03,2.189021210018974629e-03,2.042979610119793552e-02,6.244356884710602906e-03,-1.925518308187252128e-02,2.210651201347471270e-02,6.418766292572521993e-03,-8.297850059145918042e-03,-1.813063628401686417e-02,1.477807333731736943e-02,6.035006719421388659e-03,1.681796285549597798e-03,1.979753331270277944e-02,1.450525637958411176e-02,-1.750725570592917904e-02,-9.463084087527011759e-03,-1.264125004452159792e-02,1.226104542591277199e-02,-2.344524258640090161e-02,3.512742874559756333e-03,1.319150143400213068e-02,1.893671159557589259e-02,-7.937168596231555101e-03,1.614679347838971282e-02,-1.957013533697651853e-02,1.741312500415630876e-02,-1.872288520824464883e-02,-5.162469095047730362e-03,1.494243649409219589e-02,-1.759558745832670926e-02,-1.360816312084794748e-02,1.117069174675536063e-02,1.105931121764507433e-02,7.094256364035951730e-03,9.748091117997919122e-03,2.147383898140809658e-03,-1.247488937586339885e-02,-7.755512137923293442e-03,-1.600329653236682095e-02,2.052923548841877055e-02,4.191375786009051904e-03,-4.983331659421433822e-03,-1.909635774856271399e-03,2.248101943832815294e-02,-1.742299154620853899e-02,4.334019083777611303e-03,2.959723574382273773e-04,5.601829112313605474e-03,-2.422038418434732318e-02,1.870341255656985183e-02,2.171880472141433233e-02,3.273675177841394585e-03,9.883916083206777808e-03,2.123534672490067637e-02
1.041607266305839483e-02,-1.746382178483057990e-02,3.834348288753033646e-03,5.363631549919013752e-03,-3.813287243616601992e-03,1.188398267141632311e-02,2.183182881541166978e-02,2.138960511987940405e-02,-2.470874609421608737e-03,-1.943913899633672657e-02,2.436872437018140769e-02,1.703344120891106886e-02,-1.886492255026176942e-02,2.115203877657204773e-02,1.859145326741320353e-02,9.468242854721709402e-04,4.587617430607787705e-03,-5.076250279039476454e-03,-2.237823626745895009e-02,-8.283192522359556637e-03,1.522179268024040008e-02,-2.489781338518838247e-02,-8.368539639678207465e-03,-5.118168677597400261e-03,1.879549721849818958e-03,2.110246780498949842e-02,-7.722842282553375390e-03,-7.692323273500040366e-03,1.193710943943553440e-02,-2.401585984829770169e-03,-1.384170564922276511e-02,-2.390449336309168234e-03,-1.805097483172058911e-02,-1.626519434674996920e-02,-8.203778124928785148e-05,-4.074908194040476744e-03,2.085067325314782921e-02,-6.916254541195967533e-03,4.050471163705367771e-03,6.647768348126168597e-03,-2.447248090118278249e-02,8.219592624199892686e-03,-1.618231453361391320e-02,2.317397016947408267e-02,-1.765865022749623162e-02,-4.291098201249385347e-03,-2.084084370350866230e-02,2.497352064096068983e-02,1.103239614666215088e-04,4.794170134658257143e-03,-2.175927709622915360e-02,1.256332551696304027e-02,-1.458050730489613735e-02,2.000670587505647482e-02,-1.482005003734174556e-02,-1.554642158214205282e-02,-2.329359268075764655e-02,-1.403950235434626602e-03,3.258996363569451136e-03,-2.182802634093748348e-02,1.384836223073384123e-02,-2.347761521651834434e-03,1.225885407078331456e-03,-2.977338343767988414e-03,-4.987772536750778932e-03,2.997597559998543045e-03,-1.732805594662070736e-02,-1.598668952732952911e-02,1.818379728959092570e-02,2.242232045724963652e-02,-6.367632037986872134e-03,-1.152265913564534151e-02,7.237596941295002667e-03,-4.587134578675524689e-03,-2.385467469759899872e-02,-1.728220002367628072e-02,1.085503403518485108e-02,7.987715863502886648e-03,-2.376874621401980567e-02,-1.397402648040997619e-02,-1.351651669075540352e-02,8.639544038247230773e-03,-2.413994839633211778e-02,-1.989799725515416923e-02,1.507415713492372099e-02,-1.615674687812578350e-02,7.677210205788436055e-03,-1.315926051188444010e-02,-2.013257601631657234e-02,-1.290848653440876924e-02,1.117141367232949919e-02,1.787774885731703567e-02,1.659726293560460225e-02,-5.167684249616414857e-03,8.448168952186299249e-03,-1.482785787444028565e-02,-1.039665349686460551e-02,1.992033337975825449e-02,-2.447713172926407540e-02,-2.083285906192905088e-02
-1.468200175299244972e-02,-2.379708293488577708e-02,-1.601145301393120876e-02,4.173772597854766633e-03,-3.949300251242270250e-03,1.973617076205951698e-02,1.595510999405330352e-02,-7.950457520668044453e-03,-1.209167878716690958e-02,-6.046809865347099744e-03,4.538336615935278928e-03,-1.165741116948645385e-02,6.239879207273442592e-03,-4.553083532559456907e-03,2.615956331972978631e-03,-3.210360442552242458e-03,-1.033040769859719724e-02,2.253982345899223708e-02,1.324915653622294950e-02,-1.808836139126977424e-02,1.851966079432212919e-02,-6.317236781374467461e-04,1.983068783634932275e-02,1.507109977198530654e-02,-3.758862695871340118e-03,-2.400128914117539286e-02,-1.162656490784047189e-02,2.092587642327090741e-03,6.708782082313419909e-03,-1.216886740015527338e-02,-1.812641426823591306e-02,1.683401212865115806e-02,2.434665876403109899e-02,1.291220657183667986e-03,-1.650180926313021129e-02,-1.144411822475972958e-02,-2.420628626948855347e-02,2.082317559971263651e-02,-1.921230811611393183e-02,3.845813651099055323e-03,-1.135626688024645586e-02,2.723054090823930767e-03,7.610577887501392136e-03,1.657323499955187449e-02,-1.475563364814224537e-02,-2.457796056274539134e-02,-1.825058187019444958e-02,2.010543668111023502e-02,1.879218239779680347e-02,4.896104212911528766e-03,5.052102980741085721e-03,8.294949442407979420e-03,-1.631624509385831354e-02,2.082886212551502900e-02,-4.082694898610210975e-03,-5.873603564788992294e-03,9.508275013353516053e-04,-2.277005648364452059e-02,-1.677301479728485895e-02,1.196386693611474830e-02,-2.096906015817959559e-02,5.184553889333304647e-03,-1.279907188184160362e-02,-5.564140740834258927e-03,-1.062051677404551517e-02,-7.254069578018478709e-03,1.100952084780742156e-02,-1.019691602787699616e-02,3.337580180396015114e-03,-1.203736705618084751e-03,8.226317244914252425e-03,2.195560842825609177e-02,1.168936415725659213e-02,-1.432745269596976019e-02,-2.356332132301248647e-02,-1.194890613614970482e-02,4.778735577505474966e-03,-2.254589901637020152e-02,-1.826369552999267739e-04,4.867442571979384465e-03,-8.331109126039785984e-03,1.361638580988912273e-02,-1.977286327285842846e-02,-2.135410586877176803e-02,1.146905196217064792e-02,-2.266120801586189780e-04,9.469339814881978096e-03,-3.275659381742947358e-03,-1.274615062841374068e-02,1.603848113966225772e-02,1.504901613614209079e-02,9.785687858731587085e-03,-1.145227006106777461e-02,4.535106041682029909e-03,-6.987625624595719676e-03,-2.052759522962361444e-02,2.097470165105402851e-02,-1.825394933116749469e-02,2.262949188291097855e-02,-2.713817305923272270e-03
-1.582561235884999765e-02,2.105993961936407279e-03,1.874472363101538711e-02,1.167191290864477531e-02,1.540814627723591929e-02,7.980650378359252506e-03,9.664060343075238715e-03,1.755100969652176324e-02,-1.258199861357718087e-02,-5.315145386499566362e-04,-1.401236174617025154e-02,2.451080332376812457e-02,2.231897717435619641e-02,-2.314898385301692244e-02,1.033246499494874966e-02,2.137351169447713681e-02,-1.605468220995187947e-02,3.415012171302884460e-03,2.088296090478372266e-02,-2.342445735586010450e-02,9.922589268243131588e-03,-1.018549206059862072e-02,2.133068297623724741e-02,2.367597589335214761e-02,2.232938876333922379e-02,-1.296025684880578160e-03,1.819671593728104664e-02,1.731748321467455401e-02,-9.092236211910331364e-03,1.653170264371047610e-02,-2.327057469386590444e-02,4.838644362114652084e-03,-1.357009313689096740e-02,-1.907078234523415516e-02,-2.126286059693204000e-02,9.865719098484238350e-03,-8.048084364638413701e-03,1.129705873734017027e-02,-2.184573331017701861e-02,-9.283738377738102662e-03,1.984881691111403754e-03,1.461210946419157046e-02,-9.109725634468560096e-03,6.327457855359670987e-03,1.939972382693826158e-02,5.823428585499355881e-03,-1.342179041163270824e-02,-2.390421088333044911e-02,1.860163176542867225e-02,-2.406159748703155105e-02,1.883297418253546476e-02,1.454416507263252495e-03,2.206809105292613371e-02,1.501721869878678943e-02,2.502679046266649554e-02,-7.503410660579339780e-03,1.342921719902940951e-02,-4.929074799350007495e-03,-1.011476464839404250e-03,6.408583873463579057e-03,1.878147859245580739e-02,2.433063992566202732e-02,1.348375693382426049e-02,-4.133144261927721753e-03,-3.952695313963533116e-03,1.194118328855708205e-02,-1.312938699844037015e-02,-1.957805770728020256e-02,-7.306871976980685961e-03,-1.069363408101449073e-02,-1.023780833740117399e-02,-1.338920723509266428e-02,-2.301496835017787651e-02,-2.423225835862651001e-02,2.451353661792849900e-02,-3.630212531195102076e-03,-5.813887224050529219e-03,9.029296860846126177e-03,-1.416091158028806585e-02,2.261561124019776520e-02,1.439205815430361600e-02,-2.063671597111715189e-02,-4.142493175084509954e-03,1.905495976918777923e-02,2.235278704245321005e-02,-1.638440769754173718e-03,5.700198106163420139e-03,-1.673528984268419020e-02,2.468674876481051148e-02,-1.348651551002903216e-02,2.225225207121564464e-02,7.521427531367048253e-03,5.414985905794790499e-03,6.377404154000715754e-04,-1.353687173628343593e-02,-1.625810522374827871e-02,-1.404871232768847150e-02,-1.576000467616067019e-02,1.405226492532406571e-02,-7.532891712245057096e-03
-2.222337946144877646e-02,2.357768423907525071e-02,1.928955804056251347e-02,2.149936414275245566e-02,2.487468545274041515e-02,-1.639043217569958674e-02,-5.215005754418214519e-03,1.297938840526970811e-02,9.852241151223942520e-03,-1.739562413393572898e-02,1.587416743119498055e-02,-1.384996111487399491e-02,-1.388127171265744059e-02,1.858380686634093955e-03,4.671277234664270375e-03,4.025232857334581915e-03,-2.053238190638698515e-02,1.897165451627641497e-02,-1.178123469450010133e-02,-1.862104290197846151e-02,1.953896415576745690e-02,2.290161354477563554e-02,1.820098644846775832e-02,1.555666459297113877e-02,7.802655890155179089e-03,2.556154982742214147e-03,-2.075856142278099600e-02,-4.601255880132367436e-03,-6.398834184730606625e-03,-1.207507496692421939e-02,1.122937403191819061e-02,-2.072907073700430767e-04,-2.105714058590995447e-02,-1.406394184410365324e-02,9.210814406033673157e-03,-2.130419254018262737e-02,1.765209826160278606e-02,-2.439416157036794345e-04,-9.757428766805292071e-04,4.644530701694351074e-03,1.631887097013981144e-02,-7.649299342235052826e-03,8.947314222546066259e-03,3.303770629130381616e-03,-1.170945019201386460e-02,1.903041613526572709e-02,1.494900341920388405e-02,7.963987163229284752e-03,1.762067568474699406e-02,1.846066539953996818e-02,1.047258351680147373e-02,1.693871091307520491e-02,9.925162363872157625e-03,9.054100237879218749e-03,5.961556049855635912e-03,1.270185402213944853e-02,-1.715893391136195240e-02,1.914304017778293773e-02,1.868932024723295518e-02,-2.366061966432855823e-02,1.637595692505837419e-02,-1.865346411230020540e-02,-8.287132370347140981e-03,1.223902917518911344e-02,-1.705063143603166576e-02,1.598141986726296648e-02,1.669347871816842174e-02,3.753376282320696660e-04,-2.480966275783489175e-02,-1.070372947910928386e-02,5.876892993935766904e-03,2.418501845178850501e-02,6.625112542014379401e-03,-1.207257209222195420e-02,6.735294050620646740e-03,2.009715138107356740e-03,1.406537917012390046e-02,-1.975364409020582621e-02,1.311958848095469074e-02,2.074109798446932464e-03,2.327055652816810774e-02,-7.947702483419572667e-03,6.665742032957690071e-03,2.171427231406369146e-02,-1.997835765432975225e-02,2.197564999645209433e-02,9.443371127783749611e-03,-2.172104930895362579e-02,-1.000381978073999582e-02,1.046298924393991234e-02,-2.174549927748884240e-02,4.129989983714501059e-03,-7.746110095276997724e-03,6.077364982306977977e-03,-2.283157288339686050e-02,1.867390403678986441e-02,2.379814711889133988e-02,2.356638677404652299e-02,1.254781295251861627e-02,-1.859232770294009032e-02
1.298063087465763966e-02,-2.389485551060503699e-02,-2.401866730944978226e-02,-8.865570748651369765e-03,-5.708074382821403964e-04,1.359101463801657556e-02,9.212654618485754607e-03,-2.718997561055458510e-03,-1.137780656006035299e-02,2.498609843374423670e-02,-3.710219971048806745e-03,-2.443348889203004332e-03,-1.690668698043515036e-02,1.481749622466116932e-02,9.734710634273061741e-03,-1.403446810273715865e-02,-2.099005037717821889e-02,9.072120419392209686e-03,7.765926660064068759e-03,-1.139625943911264268e-02,2.266096590090297194e-02,-1.753826629118999600e-02,-3.400937433484108562e-03,2.229669035536815253e-02,-4.034605335662114559e-03,6.962487189556101561e-03,-5.147033493333595840e-03,-1.134822600207677050e-02,2.432532121796433106e-02,-4.556986111299847660e-03,1.980791832360533772e-02,-1.357281887463601504e-02,-1.441971599294202162e-02,-2.356578674669781645e-02,7.622964120201550405e-03,-6.608030214001120624e-03,1.831310082836747413e-02,-1.346503558447807508e-03,2.353198659932897660e-02,-1.580588045258281976e-02,1.852746094102290103e-02,1.390210337274828956e-02,1.361687037347850474e-02,1.732923578157913314e-02,1.311939188111119030e-02,6.343991051780557486e-03,-1.853409313210720513e-02,-2.349581823210184287e-02,2.115233859489163565e-02,5.862990538623074309e-03,1.490433470741437706e-02,-9.287096970378271987e-04,-1.923456851822824207e-02,-1.883863033791711994e-02,9.326743162161933373e-03,-3.502912790943301258e-03,-1.505200136940339044e-02,-4.224685816773593363e-04,-2.190340325478289107e-02,4.119985066789930844e-03,-1.161068008878592996e-02,1.495569213751989958e-02,-9.531444858611482288e-03,-2.250691250452449121e-03,-2.454656179489000598e-02,-2.148935355998293426e-02,-5.403408162406335077e-03,-1.008299229457700280e-03,5.027157703780715109e-03,-1.047129906924794754e-02,9.800033186876382085e-03,1.810020158232153453e-02,1.406566031859542674e-02,-2.313933299050723730e-02,-9.797451834209283672e-04,-1.985670279198396490e-02,-1.296513976496647264e-02,2.446026992340248618e-02,-1.796862064277908802e-02,-5.588279656066605833e-05,5.938654818354886268e-03,1.017614235829297949e-02,2.998017350934161027e-03,-2.463952965019702498e-02,-8.722271448909114933e-03,8.902093236068203642e-04,-2.071434462985414365e-02,-7.507677048654440646e-03,-2.346179491979278470e-02,-2.118117121332899894e-02,-5.180764911481376515e-03,-1.846016504865933758e-02,3.394687412160324498e-03,9.522746046731136657e-03,1.510786301908501224e-02,-1.507082332545771862e-02,-1.671274082845152636e-02,-1.987491435674211895e-02,6.857154783874354169e-03,1.037772796260067951e-02
-2.354306554877726165e-02,2.192457245456976012e-02,-2.251848300431173733e-02,2.075605403592274082e-03,1.050764288614447137e-02,1.864537160984614320e-02,1.076027666699619009e-02,1.516523040287704772e-02,-8.069433897085122320e-03,1.582350352676148084e-02,-2.110395238169110108e-02,1.984397837660479419e-02,2.392052282468038523e-03,1.594778231725706499e-02,-2.396542588702785075e-03,7.216394331666200687e-03,1.327030723396675988e-03,1.163997868736447311e-02,-2.102779977127403055e-02,-2.209725350916583175e-02,-1.271090740165373330e-02,-1.711170970709560701e-02,1.868630652477240237e-02,-1.411265578032210380e-02,2.391758225419110886e-02,-8.197821271074254290e-03,-1.597715068640988278e-02,1.456060888826515506e-02,7.976851069716810530e-03,-9.068554515006295306e-05,2.782641235606801624e-03,1.101735522394290193e-02,-1.364820394118623596e-02,2.494636268915570096e-02,2.386369748685619047e-02,7.555556797126538118e-03,-1.510137177681700367e-02,9.058496623080010413e-03,-2.150184241566776081e-02,-2.358999159324652248e-02,-1.217916074930646547e-02,-1.878616889285240768e-03,1.850983620331766999e-02,1.141780124794165158e-02,1.219873296787923889e-02,-3.744798091544178191e-03,-7.743499747439299731e-03,-6.481752883195040886e-03,2.450987629218856489e-02,-2.311468657951177078e-02,1.844746152621837276e-02,3.954324323748328873e-03,-3.085265719063211547e-03,1.132173142603506814e-02,-6.700356584370971945e-04,1.876871846226819268e-02,2.013977628057727134e-02,-3.934404009099545622e-03,-1.121691371918200932e-02,4.641642888029728388e-03,2.072589691471257364e-02,-1.454247984924297507e-02,6.180454111603211204e-03,6.612381019551296854e-03,1.171655173383731249e-02,-1.851786842664576715e-02,1.084763235425983963e-02,2.055848549148538845e-02,-1.609952711890079088e-02,-1.319140037548901731e-02,2.369290633869763560e-02,-1.603449691114582423e-02,1.781183752475450424e-02,-3.881245821674339969e-04,-1.270448198378948054e-02,1.863435321445047060e-02,-2.749026213510676487e-03,7.447387197722351920e-04,-7.075106713203925882e-03,4.671825916277782924e-03,-1.691171052227062599e-02,-5.474378039319929487e-03,2.359324975566694932e-02,-1.215651583545818842e-02,7.877780570386419545e-03,-8.786165761479480460e-03,1.374510094598306413e-02,-1.855275096047973374e-02,2.361379267135888319e-02,-2.322595380615027124e-03,-1.326643346339633107e-02,-2.143658630814535351e-02,-1.659838026054009583e-02,9.938633579469704528e-04,-8.192423983898373258e-03,1.653008884204464415e-02,-3.473679402721246458e-03,-1.262993459008481846e-02,5.887853375521352912e-03,1.039288124668238424e-02
-1.673488967222349147e-02,-1.670587343144513265e-02,-2.328747291700984309e-02,1.188186061337085687e-02,8.233020198668462505e-03,-1.275083878368383225e-03,1.729843673607345950e-02,1.536336375987244936e-02,4.290016987475653125e-03,1.850977463855858762e-02,-1.478478827505117811e-02,-1.950540475646861047e-02,-1.157267217612330257e-02,-2.226136794271986116e-02,1.566619417309063822e-03,2.194434754463738327e-02,-2.315316914242851465e-02,-1.899322781855672035e-02,-2.402536556053470884e-03,2.180710041942313451e-02,-9.240223839373371689e-03,3.636305230986058130e-04,-2.304112081547581362e-02,-1.767471004319675493e-02,2.445863792514231527e-02,2.337744675395993232e-02,-2.488233503490558038e-02,2.270862478218107355e-02,6.992341876635931389e-03,1.849203312155441037e-02,-2.274831399174864332e-03,7.838758804545116650e-04,-5.605848102136350456e-04,8.386806047173133577e-03,-1.811157811831562089e-02,-2.362411457527223424e-02,-9.653681088047393055e-03,1.028751084207124925e-02,-1.498521796969112460e-02,8.716930767414221917e-03,2.361836649674988950e-02,-2.041105736277254099e-02,8.675198093189111226e-03,-2.827184250397301365e-03,1.850328962378374950e-02,-1.622685491796021368e-02,9.681621005783786274e-03,1.699409686390726537e-02,2.234686612568070885e-02,9.210274832928322733e-03,-1.419998904934224296e-04,5.923149518638658011e-03,1.854162539154663100e-02,3.548934078565497106e-03,-2.360333306536366998e-02,2.166001981880795110e-02,9.525851281922317199e-03,8.871783286690904796e-03,-1.429052204648170385e-02,7.985782228929505858e-03,-5.334507566631363842e-03,7.601158360909824815e-03,-1.977312577860704246e-02,7.933502204909632927e-03,2.510115777297255296e-02,-2.270742734391394818e-02,2.398337063092443808e-02,-4.678922193612307032e-03,1.863453159487852423e-02,1.419304721192001829e-02,3.368321000359374064e-03,1.198475515069563450e-02,1.902466498911042914e-02,-4.818027190964225236e-03,-8.693529386669512568e-03,8.423452932228658527e-03,1.547272163277565310e-02,1.318277854573114694e-02,1.496848604913595358e-02,-3.237663073030910745e-03,1.597474477407900828e-02,-1.908876734850962695e-02,2.236077643579470475e-03,-2.484118717726003719e-02,-8.816535333492789284e-03,-6.711810086479036083e-03,-5.218490230795001274e-03,9.824426004698027376e-03,-5.601209054108428030e-03,-2.578722623860993119e-03,-1.319135986741253909e-02,-6.370523298781957840e-03,-1.370776925480998200e-02,-2.145170607616758707e-02,5.199455541296956439e-03,8.454585403008389385e-03,6.005734069294944334e-03,-1.834834965340635801e-03,-6.042116871376530980e-03,1.826160313887788961e-02
9.590743597506164219e-04,-1.046344838333766823e-03,-2.384182238619872440e-02,-7.979082512017008841e-03,-6.021517870997574948e-03,-5.085293432451115994e-03,4.029563436413021067e-03,1.688905978031491175e-03,5.423444769235826433e-03,1.331336364279606110e-02,1.573105423980814335e-02,1.096313831150401430e-02,2.289519004278033759e-02,-2.421423226495638889e-02,-1.529057850299345850e-02,-2.475050510349565899e-02,7.412263373030717091e-03,2.000551264833363638e-02,-1.289290024070276902e-02,2.146328971415547085e-02,-2.210151032038576782e-02,2.183529744658261815e-02,-7.457629106569477542e-03,-2.003308710564187869e-02,-7.101030336547871965e-04,-1.222471356451058228e-02,-1.081255670488958515e-02,-9.685847114745987918e-03,1.523046019421420497e-02,1.968294689737839966e-03,-9.483910773019747081e-03,5.545513788798226568e-03,1.086400292270351363e-02,-1.142820178313587107e-02,-4.345130160126731318e-03,-1.900447732520403263e-02,-1.602583203133702699e-02,9.103209610151777320e-03,-1.601130662272350416e-02,1.264743099629516039e-03,1.050692627489875110e-02,-1.975885697247861325e-02,3.383196251458190414e-03,-1.223545861639236017e-02,2.326728308229084746e-02,-8.270163522198834384e-04,1.537956782707139598e-02,2.524448756608912558e-03,-2.294865651176756019e-02,6.692354482881518810e-03,2.268809591584905125e-02,5.107137023829431792e-03,1.604283083626375020e-02,1.931069683561875000e-02,-1.366705037079183997e-02,-1.447298608753959728e-02,5.578043147793825332e-03,-4.471820259321896036e-03,1.708185366956253143e-02,2.010566192940729802e-02,-7.367224596379483466e-03,-1.322521443258967665e-02,1.409956285565546093e-02,-1.131852998734585343e-02,1.621499868938424543e-02,-3.833010645133641363e-03,8.421267257864956460e-03,-2.032890042292093483e-02,6.225324395245329483e-03,-2.424216723129200921e-03,4.353049558835230155e-03,-1.668602066737776349e-02,1.190557034639676791e-02,1.823463435838314911e-02,-1.423701152336812048e-02,-2.031989151188204681e-02,-2.394251978188124269e-02,7.135664976754181772e-03,5.382680046009250159e-03,2.347070301915866151e-03,-1.347267382672234087e-02,-5.483200936528667691e-03,4.748498635396651395e-03,-1.625017128895350641e-04,2.451670963466446793e-02,-1.827299223098443823e-02,9.808209079808853995e-03,-4.809058249290919240e-03,-3.608777053796757058e-03,1.093673554607177412e-02,9.672081375342004780e-03,2.469113996778603271e-02,-1.867736725768910297e-02,-1.989794360631715053e-02,1.127554921455328416e-02,3.939824377230500066e-03,-1.135096703895644571e-02,-2.113890794445577245e-02,-2.082533401091494346e-02,1.981252582183485461e-02
-1.548713320865888893e-02,-8.877565949334597500e-03,-1.373859071122734976e-02,-7.288066821470979943e-03,-2.164129558079792154e-02,9.579689023766572433e-04,-2.173233273389626671e-02,1.509629331743726939e-02,-1.338396343570261160e-02,2.011048814761101991e-03,1.910324977225120666e-02,7.583285058856646492e-03,1.656499526112165848e-03,-8.829205027620200957e-03,-8.393532479793474471e-03,8.518626107693537744e-03,2.483606162147041288e-02,8.134239866937025346e-03,2.904266745629180760e-03,1.159278279546235510e-02,-1.748809395121489604e-03,-2.210779537344525342e-02,3.131115793207704667e-03,2.300081850883260726e-02,-1.631967975994916276e-02,9.549883185061001575e-03,-1.503144643044345731e-02,1.800744181012082883e-03,-2.027154551139043887e-02,-2.494418745071215644e-03,1.287508893418383600e-02,-7.661245620085366421e-03,8.288669296341106413e-03,1.484968413384592408e-02,2.147049087872292608e-02,-1.333722047662035462e-02,-5.060507855681867055e-03,-1.747000540541498309e-02,2.475283607631580812e-02,2.146160209862071899e-02,2.008295286197469155e-03,1.719102067630113792e-02,1.053374120417102221e-03,6.211571074166178340e-03,-2.065111934719141701e-02,1.283021024257114361e-02,-1.871158540867475309e-02,1.638856645158855499e-02,1.417508402297079119e-02,1.049176929254850427e-02,-2.331315874796357698e-02,-9.895014781211797228e-03,-1.190625817888001266e-02,-7.029718891555443092e-03,-2.072559070405597184e-02,2.196204607534947562e-02,2.704167833146340055e-03,-9.774591104094300029e-03,-5.177837652460001196e-03,-2.653666273899773359e-03,5.055996866836935666e-03,7.880676242775843136e-04,2.107916451861302151e-02,-1.526191426626579426e-04,2.473647667622543012e-02,1.766305741018137435e-02,-1.465062570514733854e-02,2.164225342902813265e-02,-1.928190411433030466e-02,1.595541893752567067e-02,-6.000022406749410883e-03,1.899746154750365720e-02,1.849898905667565416e-02,1.537619280139376765e-02,1.457729206275494918e-02,-9.817070482568768588e-03,-2.106352038984915867e-02,-4.876337421770386531e-03,-1.640906574140601343e-02,9.798485279919218888e-03,-7.735220011258983445e-03,2.390476287330166663e-02,7.085432723276402327e-03,1.620827600205027030e-02,-1.846976903357542069e-02,1.819530014238908769e-02,2.124830454421325343e-02,-6.502841236577243562e-04,5.340405392770181288e-03,1.330967141929913743e-02,-1.634301681680395274e-02,1.289742088425455406e-04,-5.093322824071871459e-03,-1.777368493760204254e-02,-6.657885424388798080e-03,-2.170419921103771202e-02,-2.383328595816704837e-02,-1.833699809249761739e-02,2.327674407648494884e-02,2.489416351151378746e-03
2.341280376948101649e-02,-3.392740965280989680e-03,-9.458356248550698481e-03,3.086976993574242151e-04,-3.040218097135831844e-03,-1.981978561067072528e-02,7.078106510129029971e-03,-1.427227569952630240e-02,6.010640013959061591e-03,7.549294549605915262e-03,-1.748966560583091467e-02,-2.204711574572241692e-02,1.411142807022116794e-02,-2.020480922537350177e-03,-2.220723962224714632e-02,2.487259933563043535e-02,-2.222650146744844027e-02,9.802714259228115234e-03,2.431030704204936374e-02,-1.310913380344831160e-02,-1.798099366633520643e-02,-1.902966594703749126e-02,-9.887636850890424087e-03,-2.005193595061231099e-02,9.658269100007591326e-03,-2.199976105323684511e-02,4.735679318386263768e-04,2.496460439621132552e-02,1.578053798728050114e-02,5.791072908712877922e-03,-9.737935065906987847e-03,6.227159514632346626e-03,1.359137759001455281e-03,-3.715141469427766987e-03,-1.856095781721164850e-02,1.943121084121628844e-02,-2.523886284094679130e-03,-1.534865406286609751e-02,-6.646580232666133778e-03,-4.315945915281852764e-03,1.646246382308465608e-02,1.174175062060625260e-02,1.353560039603122350e-02,-2.457617951666703215e-02,-4.214204799988232816e-03,-9.376662454916826232e-04,-2.416599683820111477e-02,-1.207208819295337889e-02,1.308249168924140171e-02,-1.823931954757630758e-02,1.774731319625181452e-03,-1.431430970967205799e-02,-2.452141937212764383e-02,-1.300753805711839760e-02,2.391800942911875838e-02,1.515563195244876322e-02,2.309889629099401084e-02,-6.104709261594701893e-04,-1.961514620960659594e-02,2.410503831431764620e-03,-2.293052161245239234e-03,1.730781718253559739e-02,-2.020087160374395285e-02,-5.910151435898886420e-04,-1.758899130540209771e-02,-8.812006946228119128e-03,1.192986323883843576e-02,-1.205358778388956930e-03,-6.238009840884528763e-03,-5.303754069468800438e-03,-2.038256082918844109e-03,1.432528756337502103e-02,1.970666629610233825e-02,2.288569019164394050e-02,1.442012262054099755e-02,-9.277880031194079072e-03,9.455885363909009508e-03,-3.136144937164634522e-03,-1.233056102505899858e-02,1.713263143156284335e-02,-2.319926834342559557e-02,2.019305964451198823e-02,-1.936190754023243759e-03,6.895917629686745993e-03,8.009327210334128699e-03,1.985911126705713903e-02,6.869188966657314120e-03,5.726444306850942897e-03,-2.178060982143861443e-02,9.252101800403666077e-04,-1.758294306152175315e-02,1.193371784107969368e-02,6.142890088459364208e-04,9.058473340916443559e-03,-2.303609260209114190e-02,-2.086887199135187623e-02,1.087268373604698309e-02,-2.150757586617877207e-02,-2.154917248991813222e-02,-2.452203755578988287e-02
2.294433058405714876e-02,1.193746686473345225e-02,-7.375767541164249784e-03,-1.022637587183569848e-02,-7.554103438178322999e-03,1.380442960081697777e-02,8.110688512112530779e-03,-1.582246404300537146e-02,-1.637967194012293973e-02,-2.018513636824886825e-02,8.057014957789980503e-03,1.328770028306328239e-02,-1.180906003902203703e-02,-2.407790474029230035e-02,-2.100057398404057973e-02,2.351522984713955156e-02,-1.028120103407531398e-02,1.353149174983734812e-02,6.265746712355373463e-03,-5.933861203421320063e-03,-1.479252588587702359e-02,-1.902959162386961764e-02,5.780695458913252642e-03,1.380343691383172089e-02,7.232807562034228137e-03,1.523023073446804713e-03,-2.302210374898524398e-02,2.354683124320806550e-02,1.501374845510471991e-02,-1.041302326208041681e-02,2.412390837875074551e-02,5.120695975418411601e-03,4.142665771821291143e-03,1.246846791504294984e-02,1.566993904226493539e-02,7.864810292632468461e-03,-1.869237240625701291e-02,-8.128877200529039185e-03,2.151601856611156174e-02,-1.384116338543572335e-02,-6.425045083195601338e-03,-3.413900719326126102e-03,-3.045580919081321020e-03,5.676484511181700138e-03,2.226954513807064343e-02,-1.303310825494387662e-02,-1.902381368406045811e-02,-1.520551112864876493e-02,1.944732886837887559e-02,7.328633604964974145e-03,-1.076059223870404896e-02,1.587988786391662105e-02,1.816290747543948536e-02,1.741624356166783169e-02,2.105577094410845604e-02,-1.245267585047309979e-02,1.281872596173561606e-02,-1.983334164863282106e-03,1.718927452579428750e-02,1.148422688670897029e-02,1.389459402585877662e-02,7.848889054262635570e-03,-1.621283303350964239e-02,2.263109195725018785e-03,2.436010660463260730e-02,2.198367064945504212e-02,-2.296065875022125502e-02,-1.684682610706181652e-02,-1.850977192606850438e-02,1.135803259173500182e-02,1.597228768665898135e-02,-1.439927663842663352e-02,2.941636595067987367e-04,1.712415982688822100e-02,1.170089647806915774e-02,2.122894714806451612e-03,4.540987793496780237e-03,4.202115328128788654e-04,-1.017546775869450706e-02,3.268086592831730662e-03,9.493611254753748369e-03,1.876367614211594398e-02,6.850173719286462189e-03,1.312429466996917378e-02,-1.708522429844486212e-02,-1.932169361767798518e-03,-2.466160577770091025e-02,-1.273223674231016914e-02,1.138224871937105510e-02,2.471898257119031772e-02,-2.014580946007898249e-02,-4.951018747602138788e-03,1.508194176438215107e-02,-1.487553875074943896e-02,2.768638369358359785e-03,1.171445451356812467e-02,5.829573630274892393e-03,-1.568026658778583909e-02,-7.268552245383524436e-03,1.426372962827323308e-02
2.725492345260693665e-03,-2.486777773816525525e-02,1.311772165381280310e-02,-2.335583183452626110e-02,1.235088691438666550e-02,-1.495369873604189548e-02,2.302334538032138611e-02,-6.637462820693057139e-03,-8.698633176546111817e-03,-1.764732523316434737e-02,-9.770574987403548434e-03,1.893093783790289128e-02,2.494638387781597175e-02,-6.618927517147116073e-03,-2.582893888775261455e-03,1.116156278647948037e-02,1.941068239914900753e-02,4.676524476173760624e-03,-5.452053926130352203e-03,-4.391735440162436790e-03,9.832012427963617018e-03,-2.496887069885311491e-02,6.010709503252969176e-03,-7.263101827270276693e-03,1.478672540963492724e-02,-2.045679891779265958e-02,4.433156127595226648e-03,-9.563263248224123129e-04,7.153458738755075035e-03,-2.187100196809700289e-02,4.020085079590627122e-03,3.090292203316255450e-03,3.048852127790579666e-03,5.201419409900746686e-03,8.869498985744751415e-03,1.532912814559598061e-02,-1.156909816848742008e-02,1.633738943868779173e-02,-8.767158860858171037e-05,-2.125757927025166347e-02,-2.218778179690520172e-02,-8.331389187797451010e-03,1.431927799037262770e-02,1.043830323510971068e-02,1.450614869005366174e-02,8.679643509242633212e-04,-3.005673071929919424e-03,-1.771947644400959435e-02,-8.635246841759793013e-03,-3.316269085465260030e-03,-2.067745636427917658e-02,-1.404239229519893724e-02,4.936925992143704860e-03,1.184472253472734944e-02,2.504756850633078208e-02,2.176881712022608190e-02,7.165505034820459848e-03,-3.958171225958586822e-03,6.844444476118851685e-03,1.435720718823292781e-02,-1.918289985538965473e-02,-4.528292799355944885e-03,1.707888738979727525e-02,-5.838700962912977271e-03,3.612390141643657352e-03,4.411397726875213726e-03,-1.585861770016486205e-02,-6.924218811314263380e-03,-8.317669372271479025e-03,-2.381394534989548020e-02,-2.391471637230754149e-02,1.667150780304643004e-02,-1.140574459257258019e-02,9.086613768993250699e-04,-1.011630412283215548e-02,2.214908939846425492e-02,-1.209804560908395339e-02,-3.535536471227385385e-03,1.873388803989315538e-02,1.718600824330920179e-02,-1.577693489139535277e-02,1.521123084151111346e-02,-2.101579309522802474e-03,-8.560057659157859411e-04,-1.842175447850300310e-02,-2.107949187156002435e-02,1.145651433224297196e-02,-1.778669036920384856e-04,-3.173962578747058314e-03,1.153537029585910076e-02,1.334501000758562921e-02,-1.714370161771541085e-02,5.540053716621870863e-03,-1.832755937553327483e-02,1.263442586579432633e-02,7.888762237488418372e-03,2.295002130262868353e-02,-2.166470859709804589e-02,-2.226298308485284705e-02,-1.094754973880975903e-02
-1.197697003565008876e-02,-1.271716165710109515e-02,2.041886274934712545e-02,-1.258812088657923836e-02,-1.146209166714707781e-02,1.303768073442622931e-02,-2.526138308266643803e-03,1.390781828605295277e-02,-2.184523990728181111e-02,-6.246873332379367745e-04,-2.344116310960969035e-02,-2.198159637008532605e-02,2.042805416591226414e-02,-1.813197833706651704e-02,1.629503994192060086e-03,-4.468446081226609690e-03,-7.672715135654073135e-03,2.009612346457697110e-02,-2.403375346234331786e-02,8.232274249040280947e-03,2.329078318054284696e-02,3.024128068683450913e-03,2.195524266248545520e-02,-2.250407834967630902e-02,-4.081549234541766505e-03,-1.205476906024080530e-02,1.160135006371780866e-02,2.419059305108436225e-02,-1.223710322765355490e-02,7.749008079852047655e-03,-1.517399014301734801e-02,3.283580211616923556e-03,-1.812798278056530722e-03,2.372357754181097025e-02,5.454716308448783954e-03,-7.563997750054761611e-03,-1.939602796025530207e-02,-1.752877008384198451e-02,-1.380591426120450146e-02,-1.251672671747470003e-02,1.762240109045275921e-02,3.077133824484917964e-03,1.175656427855584479e-03,-1.936219776769086340e-02,1.810107090894274087e-02,1.119892524035148891e-02,-2.172952824123828425e-02,1.044605163439409241e-02,2.188285195776889375e-03,-2.102300667176084520e-02,-2.095861851625569622e-03,-7.691837277162882685e-04,-1.679858915803686750e-02,2.240134567729717974e-02,1.759019939356811987e-02,8.495273833148082876e-03,-1.895072208127057721e-03,-4.434774110948403944e-03,7.588115069606633269e-03,2.283462514259156518e-03,-2.200070054898238189e-02,6.283987467101974280e-04,1.540022859103953173e-02,-2.048654673448550845e-03,-2.251922215112948586e-02,1.438869994734769987e-02,-1.500982939497935882e-02,-1.213201839263426327e-02,-1.685227755761768698e-02,-8.533602951256271177e-03,1.290465143462667975e-02,9.743575173511818824e-04,-1.483303585192872337e-02,1.899021174965466810e-02,1.907825824008529264e-02,1.862573460508173268e-02,-1.312842873690048089e-02,-2.450771477972301087e-03,2.437618601344186328e-02,1.367168688353071447e-02,-2.376515611721260676e-02,-2.185336043155967217e-02,-1.812854061811027461e-03,2.056791878390671138e-02,1.945200715117880938e-03,-1.099460790222759265e-04,-1.982938472044171521e-02,7.879963928253753622e-03,1.618930725406639293e-02,-6.010239813516659972e-03,1.385259594838308440e-02,2.334517689403768984e-02,-1.488906784772020889e-02,1.172576409470520685e-03,-1.069871215443874042e-02,1.471922896259409037e-02,3.899939506294840090e-03,6.764280439399698169e-03,1.497353784536354163e-02,-5.228654007692584531e-03
2.086294540864047642e-02,1.660072130633899815e-03,-1.719161792008273848e-02,9.846134415214995508e-03,1.473968184335790362e-02,-9.209787029551967305e-03,1.795227567949517211e-02,2.041326737780838063e-02,-1.121305917679831128e-02,2.430239328027236287e-02,-1.805828745804176697e-02,-1.497706477682515976e-02,-1.587125407664884136e-02,1.980241503489756777e-02,7.754936436973214157e-03,-1.748567335009361054e-02,-2.999419546541688773e-03,5.795022781408770522e-03,-2.093561546522694494e-02,1.922072442752156135e-02,1.525949298207664867e-02,2.616989447650008111e-04,2.347836726249582368e-02,-4.133435922540938147e-03,2.433198943202323494e-02,8.439868921709911195e-03,6.768746438071634487e-03,-1.678952428375994621e-02,1.919616627334131201e-02,-3.644458871977244909e-03,-1.697657099594190866e-02,-2.449695494365890930e-02,3.003395312221864098e-03,1.377139238133297900e-03,1.102498709795110554e-02,1.961485729263132138e-02,-2.113955050165501268e-02,1.163530281222430011e-02,-1.571106620476912102e-02,1.800242616095999726e-02,1.603653081156635601e-02,2.050345089062185436e-03,1.056706571436608934e-02,-9.330995243108592199e-03,-1.449137419475022290e-03,1.616587229872684314e-02,-2.047382079914277821e-03,-7.147236836849709708e-03,-2.908896315683847885e-04,1.649821750808368181e-02,-8.282649413122920856e-03,-1.639714989744459062e-02,1.065608953016428627e-02,1.638407221409566086e-02,-2.007245925154290886e-02,-1.307425206720462182e-02,-1.799493507769461126e-02,-7.642654620118006885e-03,-2.495421826554209029e-03,1.250632255360739804e-02,7.596866444277261543e-03,6.078020877082484716e-03,-7.419819610837396530e-03,1.716158058721779095e-02,-1.443142837404877768e-03,2.408041272868634286e-02,6.742151454025904593e-03,-1.878440099505791078e-02,8.854904367894485956e-03,-8.790490681315895824e-03,9.365037683327782914e-03,-2.163037353909520039e-02,-1.634086513696629897e-02,1.787979905385973442e-02,-1.371229629757853702e-02,1.694010801895375409e-02,-1.109385954385577917e-02,7.181423301397677796e-03,9.758250376204650328e-03,6.360437026071253481e-04,-9.785328613880974954e-03,-1.444285263591706982e-02,-2.346248622452243651e-02,-9.853898802684241814e-03,7.698153197815643320e-03,2.202974774782544276e-02,1.865720102294140745e-02,1.337274806241535614e-02,1.449772382812048073e-02,8.292347363739292418e-03,-1.204828201148375015e-02,2.046613095053580189e-02,8.581219291639295352e-03,3.037821621335873822e-03,-1.955215526676207238e-02,-2.661054511604308767e-03,-1.992442813657811784e-03,1.832342246259181101e-02,2.344597824088912475e-03,-6.011217823903432581e-03
2.396458017585019820e-02,-1.956566930475666863e-02,-3.892812753006561453e-03,-2.301841197278146206e-02,1.205788082108551207e-02,2.101304981503505920e-02,-1.105559861535113444e-02,1.801070035086846377e-02,-1.044337131798884696e-02,2.064582149788196305e-02,1.276444254845056706e-02,1.532499552297050469e-02,-2.422559266816627990e-02,2.326142673382491574e-02,1.139276724069481633e-02,-9.813453869634509996e-03,1.655578736735427783e-02,-1.098101751243241511e-02,1.873507365660041085e-02,-1.947219357979565121e-02,1.023751169132537837e-02,2.045556280631035794e-03,-2.027868157598611970e-02,-1.297273864280597440e-02,-2.450718228855415862e-02,-1.569761073820316643e-03,-9.988656272784385629e-03,4.943570038450325818e-03,-1.019108109462925522e-02,-1.005631541598028637e-02,1.222319398862303612e-02,-2.271090556722835802e-02,2.025000579359145098e-02,1.770522240886913609e-02,8.434073016735477851e-03,4.685432574963311128e-03,1.971761365857331236e-02,-1.581569829274126829e-02,-2.116153590057289618e-02,-1.309254428933748389e-02,1.480587230303645474e-02,-2.338805372905878102e-02,4.161974981572036034e-03,2.490130851205002091e-02,1.787773004610227270e-02,1.077887123351598279e-03,-2.193195304106752494e-02,1.665524681674387247e-02,4.974783474474428480e-03,-1.935394863058290463e-02,-2.041324025738497361e-02,2.058835569016868525e-02,8.504216596536733411e-03,1.655036591045273495e-02,1.904795298513913340e-02,3.607368078885272566e-03,8.768754348717370866e-04,-3.496805274048558117e-03,-9.200493185575912836e-03,-3.287288716267748861e-03,1.376553365384866959e-02,5.122798975389656652e-03,1.972871093103936366e-02,-2.845791212442729933e-03,5.382456013023129322e-03,6.599681660448608600e-03,4.608813934445013354e-03,1.018462658490876249e-02,-1.319692190288872941e-02,6.214189054734526110e-04,-1.989215585135704553e-02,-5.804604952147197558e-03,-6.198685385812614931e-04,7.650981457965481784e-03,2.264425354977682783e-02,5.058848347729240705e-03,1.224333454802138156e-02,3.149399783940729273e-04,6.740236152649748021e-03,-2.156548284992777093e-02,-1.234458598458745490e-02,-6.943436121934521386e-03,-1.382518341323494323e-03,-2.283626167040869390e-02,-1.809283857354701888e-02,-1.121759171547698566e-02,2.369982212875089075e-02,-8.476710120567120671e-03,-9.026388553270704414e-04,-1.527450862178301658e-02,5.567944769405253069e-03,-1.102313557982289270e-02,-1.472691906078349260e-02,8.329610098189397247e-04,-2.485389630399161692e-02,-2.474542079257111005e-02,-1.411995262084870216e-02,-2.328496309301412298e-02,-1.970111528938148227e-02,-8.099065075035065744e-03
1.520833427486288462e-02,3.621254825847393475e-03,6.366957323131393299e-04,-1.037950973921676970e-02,2.170048132703404284e-02,-5.176152686150618798e-03,-2.075323338433898365e-02,5.883909350850603445e-03,-1.940896477414699728e-02,-7.779278204947891705e-03,3.725332996649731530e-04,1.880889160550669806e-02,-3.243569343391857016e-04,1.016577826188721709e-02,2.476959000236563999e-02,-1.852181721322054136e-02,-1.132227495446922957e-02,-5.298738146185005826e-03,-3.929013406408637075e-03,-4.472191918198517580e-03,2.048703821542535372e-02,1.075754810110319225e-02,5.423450865787606337e-03,-9.581165350182106397e-03,1.627410922110362340e-02,2.287190981266620099e-02,1.614382695281261007e-02,-2.505196050596548638e-02,6.855703271150332540e-03,-2.256049649364432960e-02,-1.218296392643918209e-02,-2.213883884469991861e-02,5.216889136515519103e-03,9.378242158234087467e-03,-1.937633292998970289e-02,-5.838402857817384314e-03,-2.199607733463566916e-03,-6.581558717876744534e-03,-1.904775692769335865e-02,-4.073785323406407463e-03,1.262452247866645803e-02,-2.156169071911239257e-02,-2.110067697181464141e-02,-7.299376306016743844e-03,2.220168611228118608e-02,8.472671821483932289e-03,8.980175234085724725e-03,-6.940073763338731362e-03,4.707508376224631315e-03,-2.462141868208361090e-02,6.840357316836014057e-03,2.077231830305189056e-02,5.658083156632393203e-03,1.878255816790290814e-02,1.125716557644392338e-02,-1.907120802653147415e-02,2.022780600762949174e-02,-2.179107402279640421e-02,1.707247605689679246e-03,-1.798663523492163852e-02,-2.454223576780794128e-02,-3.918655488298190999e-03,-1.030151008819551496e-02,-7.036326712643076360e-04,3.880162752814330339e-03,-2.293224423085853461e-02,-1.894832536768345857e-02,2.947440107329526732e-03,-7.882604759993588547e-03,1.151854578983406430e-02,7.654368515629811354e-03,1.737050704613786467e-02,9.674929948978750263e-03,-3.521751587219592878e-03,8.693518528112158944e-03,-1.128962279739915801e-02,-9.734925523243766199e-03,1.452475516572115412e-02,-2.693022043558438317e-03,1.499696867991919674e-02,1.620535130165845147e-02,1.797152979217523858e-02,2.094060745425357917e-02,-3.468769036913025173e-03,-9.103980000200160433e-03,4.131411694413287053e-03,-6.475034941844496662e-03,5.080113894966178240e-03,1.033300229414401208e-02,9.469471603114499453e-03,-6.305128618987584400e-03,-1.674402245295080957e-02,-3.491682238332520678e-03,-1.796366482427031591e-02,1.960676433513580327e-02,-7.746391368039220668e-03,-1.736728478672824177e-02,-2.385158844351279589e-02,7.329215310131913241e-03,6.880881506839282499e-03
-8.011433720255294738e-03,-2.152629552528601692e-02,-4.542164642856325041e-03,-9.488444543405971654e-03,8.902304629248210602e-03,5.316597227121215227e-03,-6.805688383351171829e-03,-1.417907265894314574e-02,2.452929736052547258e-02,-2.311935984289469580e-03,9.462898300628051068e-03,-1.806625690537296686e-02,-7.242796978541144294e-04,-2.374659470600646444e-02,2.741810412380443068e-04,2.332209457698329255e-02,-5.819915265463135139e-03,-2.317063633857832997e-02,-2.357474792360665303e-02,-5.629925382800968041e-03,-1.708757142296182113e-02,-2.395691911302604352e-02,1.287761632386559205e-02,-2.084685390649297816e-03,-1.059282105638901378e-02,2.010868060086383816e-02,-1.929333541651298209e-02,2.291504992101787291e-02,-9.350265195313010522e-03,1.952165380151987470e-02,5.174037578016366795e-03,1.642072005491534634e-02,2.432710625883037492e-02,-1.063500703954155593e-02,2.317724559145895383e-02,-5.554778032068355582e-03,-5.754314697480463967e-03,-8.022343543974727598e-03,2.081198075661864610e-03,-1.738310220518034244e-02,2.699606355655618899e-03,2.096135973396230645e-03,1.316351229449622129e-02,1.676966391465873826e-02,-2.993492139700530599e-03,-9.934977831941691970e-03,-1.209612872287434485e-02,-1.534858747253571402e-02,-2.223318514793276232e-02,-7.918761412930425819e-03,-1.154763802222374784e-02,2.344272050717786937e-02,2.900517702752523300e-03,-7.676046814562588125e-03,4.044402153822425176e-03,-1.813442454060516101e-02,-2.812431071036502854e-03,6.344694698698174519e-03,-5.580088440094810396e-04,-4.936720186498338818e-03,2.482143698908270690e-02,1.911509507144478620e-02,6.202537627705100726e-03,3.486992845904810998e-03,6.064546456679204521e-03,-1.501242661053446559e-02,-5.270508027568701799e-03,-2.314733922842255112e-02,-1.229086706157913938e-03,2.162469340167341974e-03,-1.368363838471044550e-02,2.332266956807830388e-02,2.057970027585188585e-02,1.116519653674443932e-02,1.678053671540184668e-03,1.859511216500903813e-02,-1.856387462410713854e-02,1.460138519307791795e-02,-1.885697460000948511e-02,1.478739545603649855e-02,-1.127020215244268868e-02,1.895304369985621046e-02,2.231811037582631663e-02,-1.765195333560827182e-02,-1.875970718643239343e-03,2.417502652222681264e-02,-8.339629970191311499e-04,1.827235266016967799e-02,4.459757154285816719e-03,-6.266074577850329168e-03,-1.076678611908942623e-02,-1.491637820431882151e-02,1.315830416216489697e-02,-5.702615871603978516e-03,5.667188166033918038e-04,-3.857309628903283789e-04,3.884140553665416367e-03,1.837436405327935382e-02,2.416255999440472882e-02,-4.644933131789780872e-03
1.646151019325287068e-02,1.329549743295132223e-02,3.695656959606916786e-03,2.292149917596231906e-02,-1.505452504563342328e-02,-1.963886893462968991e-02,1.779057066256869643e-02,-3.058406235899068567e-03,1.743908807936588728e-02,1.975720479927548651e-02,-2.199142796483156623e-02,1.927341804880363524e-02,-2.597548841947722783e-03,5.243499306230223461e-04,6.362697759105298209e-03,2.143052249248341909e-02,-2.416982586046238779e-02,-1.163876211716748620e-03,9.435144373020187131e-03,1.119352992089970612e-02,9.676920539116749820e-03,-1.837374709480199889e-02,-1.008262834279617486e-02,-7.101134198717644168e-03,1.530139439026068603e-02,-1.111980520692582020e-02,-1.454032993126366802e-02,2.299190892498981231e-02,-2.468514486549651388e-02,2.502109813234830796e-02,8.887259382773881819e-03,1.650927734580563688e-02,-1.032268572087641396e-02,-2.441112090859869424e-02,1.195561917242100869e-02,1.679452489087542716e-02,1.208663081793494472e-02,-1.795079074608811609e-02,1.273760397921053916e-02,1.351639499297698117e-02,7.968444381662642337e-03,1.337531923996653979e-02,1.738644371659071181e-02,5.709884706778581114e-03,-2.067724103050832055e-02,-6.218417426580601960e-04,-2.122787208054476016e-02,-4.647002766462798515e-03,-4.668943908068932599e-03,-2.181288741582398938e-02,-7.598468830647291984e-03,-1.955172153339924945e-02,1.549228673218267481e-02,2.250135947998579272e-02,-2.149590825699737237e-02,2.287465889224284121e-02,1.134728087527692121e-03,-1.007407942790287947e-02,-2.126744072127993365e-02,3.137649311501413942e-05,1.480271920329630404e-02,1.040842505980198868e-02,-2.260620256481757351e-02,-2.146648732658229530e-02,-4.881710154936006775e-03,-1.028895551198655105e-02,-1.345069825448828686e-02,-1.100698747512564996e-02,1.525342181798132815e-02,2.157353820857263113e-02,-4.769657127900743011e-03,2.041164632016716912e-02,-8.971849060048235971e-03,-1.184306503547711111e-03,-1.377012484073765475e-02,7.060501375963012735e-03,2.407418923803915020e-02,5.201692300686126119e-03,-7.146441764797094483e-03,7.429489503277954092e-03,-1.895247778414522327e-02,1.953449092450471741e-02,1.550032189629920994e-04,-2.545745242269388444e-03,4.315671538239669938e-03,6.271792835818216713e-03,-2.152308295797266541e-02,9.178569681713971001e-03,-1.297083615114827046e-02,1.075352660002154223e-02,1.621100170728729389e-02,1.527733432384011970e-02,2.638764211186841926e-03,1.013763985710959461e-03,-1.794950033683494900e-02,1.383924150819903012e-02,-1.148925011617209051e-02,-1.660921775661796502e-04,-1.084265359504876965e-02,-1.840424393252067942e-02
6.511731701734992800e-03,-2.239982870115780206e-02,1.249722009876331509e-02,-9.168315558324995410e-03,-2.512385480949218958e-02,5.593644416560662313e-04,-2.277578919365400370e-02,-1.124999765447338464e-02,1.040289683449216636e-02,-2.197976594753938556e-02,1.705557656014858661e-02,-2.493863056313332105e-02,-1.272494862592551783e-02,1.210813882275831900e-02,-9.234491807634201757e-03,-2.000938593018395870e-02,-7.024817850343942002e-03,-1.154032027314029138e-02,1.722512835131391473e-02,-9.381366845933783449e-03,1.452210699374109973e-02,1.969598356262308031e-02,-3.326419173739001648e-03,2.060425455059022859e-02,-6.166147873915873989e-03,2.332516098425919601e-02,-2.064282159643777287e-02,9.399821976937795462e-03,-3.109140547313703944e-04,-5.646911397735114926e-03,6.670264822368837491e-03,1.024611210345957937e-02,-2.491132126452776790e-02,-1.673935383385246820e-02,1.070796066253178191e-02,8.362738751128570569e-03,2.342412983920889868e-02,1.312008545155984515e-02,2.265639943927017994e-02,1.017993864024630164e-02,-1.015014828641784203e-02,-1.983485202382951132e-02,1.416481945323695701e-02,7.245119956474077409e-03,-2.270873546667319387e-02,-7.034038422257310984e-03,2.295932940457699745e-02,2.016208454458029496e-05,-3.381117664893682536e-03,-2.126070690422263501e-03,-1.463191798324735803e-02,-6.598941615986063033e-03,-6.543348395907079736e-03,-2.249919592661172793e-02,1.344828328056909932e-02,-4.196591563218520816e-03,1.619316360954627457e-02,1.760892822476083780e-02,-1.447553861561829032e-02,7.908782594999740068e-03,-1.393151151009099781e-03,1.910715257635446640e-02,-1.428722858872001969e-02,8.937113588962852448e-03,5.415756278753599932e-03,-1.028840346635418769e-02,-1.826489257565243676e-02,7.621603804585409814e-03,1.199220632466168820e-02,-9.266800038538329162e-03,7.279467617003348122e-03,-5.270851596018956420e-03,1.071604431236292988e-02,-1.511781605308055131e-02,1.961269352666802565e-02,-1.068505927005263499e-02,-6.645241429857109625e-03,-2.221085056254770707e-02,-1.952588154510323179e-02,7.972390465385869370e-04,-1.168108241327008717e-02,1.686165526002024809e-02,-2.439211657797447572e-02,-6.076884161110747418e-03,-8.175216022998215218e-03,-2.415919377231193904e-02,-1.887971354141799660e-02,-4.340427044479392392e-03,-3.586348999198537332e-04,-4.810516873438560985e-03,1.554966367320188446e-03,4.781436828412659670e-03,-2.463184100049068542e-02,-1.804622141652713297e-03,2.329605089491458558e-02,9.565861762689919622e-04,8.923496165391599233e-03,-9.455957538890837413e-03,1.377114896238326898e-02,1.371737463890146738e-02
1.070365960171375990e-03,2.392504944033962966e-02,-1.882031400477457775e-02,-2.427881383816306998e-02,1.357848923057632627e-02,1.543802103624708315e-02,-1.908885913811777038e-02,-1.178209967200885382e-02,-2.424842093725904785e-02,-1.038856744096450756e-02,1.372845181829532475e-02,9.027185608557211855e-04,-7.634905260981051864e-03,-6.446543273637047808e-03,-2.506258972863002060e-02,-1.006227559303906650e-02,7.361199325092012032e-03,2.383360515559236267e-02,1.744371074603107141e-02,-2.394471224798187456e-02,2.003215391126139666e-02,1.423390605112965709e-02,1.409205424354197100e-02,-2.111185628224963168e-03,-5.126381397720715903e-03,-9.905701685502024331e-03,-2.182871896477594359e-02,-1.365923014537192247e-02,-1.273601787315541654e-02,-8.003063688237724987e-04,1.243686500694090799e-02,-1.316350744004682717e-03,-2.222329035409592590e-02,2.300908731278916708e-02,2.225187737154075626e-02,1.433398272489095314e-02,2.469475414676600492e-02,2.235737618156696631e-03,2.325931541853154191e-02,-2.133062085367081265e-02,-6.751053396932824198e-03,-1.380268055015622906e-02,-1.528780918602578101e-02,-1.805369253221474068e-02,6.152662556021145507e-03,1.413958792422379332e-02,3.935375372771009010e-03,-1.774409526429073999e-02,1.563746936264275370e-02,6.833253429766814220e-03,-5.620931324231025726e-03,8.752006193983107030e-03,-1.206747569308547208e-02,-7.780833001888032285e-03,2.098336003934890212e-02,-1.052950526690834415e-02,-1.508427135928800018e-03,1.960898096741802571e-02,1.044033456996818626e-02,-2.200421279086846663e-02,-1.772698961755422506e-02,-2.473649649950192264e-02,6.580292737030875305e-03,-2.629999010270400034e-03,-1.838180289274118570e-02,2.301634101973385610e-02,1.490734779291372821e-03,-1.297276548964871982e-02,3.033624027483485807e-05,9.027942322290469224e-03,-2.129874630744190561e-02,-1.132366771739181863e-02,1.542846906269323276e-02,-2.027294004091952703e-03,2.341025347196126500e-03,-3.376751661674500665e-03,-2.292415868689406944e-02,-1.679983364381507430e-02,-2.737145271463867300e-03,-1.461670182213070830e-02,-2.261861622911615424e-02,1.727226143551158222e-02,2.418533766785311429e-02,1.473372706939517739e-02,1.778167214708376020e-02,-1.296855177729156622e-02,2.315168724888720317e-02,-1.523289272377831814e-02,2.268942623839472969e-02,2.487023589066071974e-02,1.064145272132234130e-02,2.418288505095924495e-02,3.495156196834602567e-03,-1.208573038113946833e-02,-3.166665497255224775e-03,4.702489497471749359e-03,-2.145745404016349486e-02,6.149125322655278440e-03,2.418459920938241178e-02,-1.557557666924820963e-02
1.470619608266149868e-02,2.050150296183309365e-02,2.230099636991945966e-02,2.312699032314343567e-02,1.078588251589253453e-03,2.399009175467462299e-02,1.293273246727645077e-02,-1.700481628736611253e-02,-1.161029507532230706e-03,1.097359763453482559e-02,-1.269899137375112876e-02,7.067494795200981138e-03,8.373548210251498258e-03,-1.695313226415641125e-02,3.271269114718048689e-03,1.365230788829006371e-02,-5.550528006581056766e-05,-2.452230687862247058e-02,-2.467633990051755141e-02,-7.185883784784235541e-03,2.142104632207041462e-02,-1.363704402022833211e-02,6.753286862755490151e-03,-1.396881394855074669e-02,-8.963089106739995787e-03,1.749303023107866284e-02,1.150286200424931182e-02,-2.033573778843932034e-02,-3.583525497525948990e-03,-2.366451588567919720e-02,-9.604851056026403105e-04,8.164136356311699552e-03,-1.917453474123227350e-02,-1.061090671569809261e-02,-5.134858834591251101e-03,2.108615341778592375e-02,2.479161329684273843e-02,-2.287332665312806837e-02,1.311858431112146797e-02,-6.447308677272351601e-03,-5.405185911700480586e-03,1.277967521272149569e-02,2.103063521823772195e-02,2.266423450313998292e-02,3.876277523250332840e-03,-7.181269031569220869e-03,1.445257628928226130e-02,-1.251498155029689627e-02,3.220440736622197896e-03,-7.108023201170034396e-03,7.872473443184684755e-03,-1.304787495665985821e-02,-1.550092383917122535e-02,2.102121900086694264e-02,-2.001384436015704940e-02,2.994518859499815662e-04,-1.403028786587523329e-02,-2.317395605636042230e-02,-2.332027384266421172e-02,-1.632375947821195286e-02,1.843433622233241545e-02,-1.093289007622326968e-02,2.264064067010667161e-02,4.102438416068614375e-03,-3.185850009882431732e-03,4.025364885174671434e-03,8.392817027037348171e-04,1.300641780206939456e-02,-1.093201945107276883e-02,-7.385870901776475650e-03,1.980767198589023989e-02,2.243946210742642222e-02,1.973046693502633619e-02,-4.048644457031603215e-03,1.409152044072213734e-02,-1.189395607968507561e-03,-1.236501045906092009e-04,-1.484314666083925982e-02,4.580322890527196641e-03,-1.577520188819036065e-02,-8.465768650487520003e-03,1.784426147134877266e-02,-1.472273577818133949e-02,-2.155412033756726534e-02,-2.166221683251619290e-02,2.215438067097360089e-02,3.478298576396121264e-04,-4.553062441643622796e-03,1.562514586093085786e-02,1.687903068288454725e-02,-8.434288318737558771e-03,9.731485454963158949e-03,1.362697143745686575e-02,7.772936726419675535e-03,-1.751126680154426948e-02,1.889235336692711431e-02,1.964941061193374149e-03,-1.093320760704480712e-02,-3.758124812055636983e-03,-2.324225470729435541e-02
-1.870387947520384814e-02,1.334671142751020674e-02,-2.513003987082913782e-02,-4.193505694484953202e-03,1.131389823248477641e-03,-2.238463044433938384e-02,2.377749948580613198e-02,-1.376528300201228412e-02,-9.841216964903096512e-03,-9.854094267963842829e-03,-1.354959535145884922e-02,-2.505654850887055127e-02,1.152715587047413622e-02,2.346423804828548509e-02,-1.385735396923538400e-02,8.194955554299684572e-03,1.215801159314051395e-02,1.751229483964000452e-02,-3.888753217156859770e-03,-9.904938880209981575e-03,-8.780884822151786839e-03,1.068661382858411731e-02,1.592173173800079042e-02,-1.600247973905736393e-02,-6.486666162916640554e-03,2.020201643102825448e-02,1.541479945094869838e-02,2.436958905466915168e-02,1.277883516304119220e-02,-5.368142627180884710e-03,4.555570770084605564e-03,8.092777572988547885e-03,-2.118733730550641237e-02,2.236472754448328663e-03,1.052072634277787661e-02,-1.672084687518341287e-02,1.410490070998546459e-02,4.210524605667187621e-03,2.272923190818203210e-02,-2.299842694226891457e-02,-1.179500150365925260e-02,5.104224844498696755e-03,-1.022515296948664672e-02,1.077722636554362921e-02,1.301792907390328033e-02,-1.997804422136957928e-02,6.963426793635470484e-04,4.468504309450136618e-04,-6.570111796022007865e-03,2.175934444419724487e-02,1.646087678927425288e-02,9.911989907737022223e-03,1.077232446952217960e-02,-1.924194439833980599e-03,2.115971057722751056e-02,9.780609281104820849e-03,1.150887422402317728e-02,1.817903668347363444e-02,-1.135544417119760917e-02,1.543376725089625964e-02,-1.531758803020546837e-02,-7.773306693904670495e-03,-8.262423939655224800e-03,2.405128786135359714e-02,1.792000628621886332e-02,1.011104856429789409e-02,1.141215649997035647e-02,3.119856193987970931e-03,2.247133547760743130e-02,-1.880397540588332305e-04,-6.005329170726640513e-03,-1.693626493453790835e-02,1.438505363831411518e-02,1.178344491606508025e-02,-5.812460238603883375e-03,-2.386437218853842621e-02,1.703842919922739577e-02,-2.455674253532243861e-02,1.023820540554488262e-02,2.363570982531681963e-02,-3.133219526745766384e-03,-1.332056776165807706e-02,1.029707290938301420e-02,1.593925660472986922e-02,2.333645691296463293e-03,2.347377639983309547e-02,-2.253369014809520829e-02,2.410327619089854662e-04,1.097976830614782150e-02,1.822676312537042237e-02,-1.612101365030401204e-02,1.507854978669384213e-02,2.649123472370777665e-03,-5.199341178290738628e-03,-1.851046276068096796e-02,1.836022120541590252e-02,-1.722587672421353050e-02,-9.560299827481643503e-03,-1.055257385891602943e-02,1.866773336462520735e-02
8.680268246157474277e-03,1.491157766582149567e-02,-1.254179514622930265e-02,6.276328251003140436e-03,3.606042744798831391e-03,1.672847054114946774e-02,2.041044298286580350e-02,-2.451961012630554659e-02,8.746458534342572283e-03,-2.252529262613749139e-02,2.455697545739279029e-03,-1.067384434791869216e-02,-9.711649501303853613e-03,-7.390489314887758315e-03,6.096310019445853531e-03,-8.340856046257873191e-03,1.169574499273929799e-02,-4.798572874644910398e-03,-2.169510740718772618e-02,1.426212418338337201e-02,-1.076805425731117150e-02,-3.379220625432182226e-03,9.320641245097021840e-03,-8.420962853615095861e-03,-2.228655887798215371e-02,-6.336885687110279698e-03,2.233854101420256616e-02,7.123747876489076349e-03,8.618756240286327280e-03,6.648666301437926827e-03,-1.512903114391727331e-02,-4.104642015423932457e-03,1.261254776391157982e-02,-2.003549617235761415e-02,-1.116539700144443363e-02,-1.124248105222491571e-02,-3.416813627604951397e-03,2.414393304266326465e-02,-2.173786232115581737e-02,9.399353406525063443e-04,-1.611553165059496223e-02,2.365679118677839476e-02,-1.943584895091318709e-02,-4.845134052221179710e-03,1.195639652662777372e-02,1.028116110175729576e-02,-3.883755244541940970e-03,-7.713887055491360639e-03,-5.146129766413275880e-03,-1.184776950244805123e-02,-1.481033462707690221e-02,-8.524459891339240336e-04,-1.163378258997301712e-02,-1.068244224562798009e-02,7.878755585007326742e-03,2.354927163320938432e-02,5.208935173689351571e-03,-2.126154046331757419e-02,-2.133169778953167631e-02,2.268909504107492411e-02,-1.018841812302679999e-02,-2.050322290871530242e-02,4.978104686218222559e-03,6.214742070834715360e-03,7.464037785693245462e-03,-1.169066466367484416e-02,-2.437114278182712576e-02,2.337225341078002019e-02,-1.252042673197102662e-02,8.847301146518127615e-03,1.038547540204374543e-02,5.529110214278282892e-03,-9.403508100929353075e-03,-1.150498825443002637e-02,4.908929905265797464e-03,1.840042390725811494e-02,2.245339531850155598e-02,-1.980766661110260410e-02,-1.734874515218893382e-02,2.235299997381714338e-02,1.188855607870128832e-02,1.924974810872730549e-02,-1.494605530831892744e-02,4.402175302666592668e-03,1.010952729838099709e-02,9.052648375683799986e-03,-4.616410762796023005e-03,-2.435685815898211773e-02,4.167967214201371770e-03,-1.240942509017587368e-02,-2.500283736046466244e-03,2.299859347239923205e-02,-5.074611070099187445e-03,1.707885326385700717e-02,-1.565433826012337451e-02,8.668080085006616212e-03,2.397496545314277416e-02,-2.000935010361748825e-02,-2.471245395775707038e-02,-3.338211817058760276e-03
-2.047515215333058428e-02,1.248410772038590320e-02,2.083573373915632160e-02,-3.316188339014973941e-03,-1.212745430592944255e-02,-3.296971136421155725e-03,1.123076647768166819e-02,-2.467555117580874646e-02,4.496069266042380941e-03,5.694181617326750031e-03,6.920383302412378562e-03,-1.296629255103192747e-02,1.075855729226814737e-02,-2.053717437008480140e-02,-1.511504858964603064e-02,1.897211611680132623e-02,1.199852379147527126e-02,-2.443975593128859536e-02,-1.264692350643036554e-02,-1.435428695569855931e-02,-1.151956028367688047e-02,-1.268796131838751187e-02,-2.198797491026135975e-02,-2.063700931306073835e-03,1.169747519583048609e-02,5.364469823851213126e-03,8.688746031682048274e-03,-2.105196555556612670e-02,2.269248713917627891e-02,1.701302244555895696e-02,1.533422055580972374e-02,1.623356954388417012e-02,2.174857072240589384e-02,2.224259623192262683e-03,-1.506420021855069298e-02,5.869690028002370712e-03,1.220752730271126851e-02,1.195802541930162700e-02,1.078054750814743659e-03,-2.168980388923608463e-02,-6.478024732635835441e-03,2.114825540355153022e-02,4.244507706121956707e-03,1.926611355988502297e-03,-1.161771113760902419e-02,-6.611921631275378096e-03,1.987058834525978757e-02,8.366640730374482957e-03,1.444443099613241729e-02,-2.294656072715436923e-03,6.546387967240823759e-03,-1.264655416800261785e-02,1.032671801151093666e-02,-3.638847415458961679e-03,-2.887734203088842058e-03,7.505126581067377359e-03,2.192800907881108097e-02,-2.191358570472537112e-02,1.632200080959787455e-02,-1.043508424570308360e-02,-2.818678277729580028e-03,-2.402923336769575285e-02,-9.999672680453859305e-03,1.322495417921407200e-04,-2.230714482011908820e-02,-4.475397652747956263e-04,2.146711379416919516e-02,-1.983342983870935508e-02,1.329112135790810369e-02,-4.540045704944860663e-03,7.799224749946569689e-03,-1.205080812080254297e-02,-1.711434427974086597e-02,-1.706557318954083149e-02,-2.158761139481508301e-02,-1.579978933208399383e-02,8.253871448221872242e-03,1.918424699593841709e-02,1.578834939388053596e-02,9.305081701906971550e-03,-1.958018123100449884e-02,-1.059570231651695005e-02,-9.559344053866918739e-03,-1.256747625192681378e-02,7.542032035264114925e-04,1.786979153103081600e-03,-7.193089679727164912e-03,-7.348739542575321443e-03,1.651361481406500575e-02,1.454021996904347053e-02,-9.660421619689390713e-03,2.079752413345773224e-02,2.275904845468857546e-02,-8.708136287477954637e-03,-7.316783940039468456e-03,2.831795897148897613e-04,2.217128312855823347e-02,1.891428484422239334e-02,-1.997543071093780404e-02,-5.391486854268253380e-03
2.682502673255452493e-03,1.574419838268902071e-04,-1.538682466123998845e-02,1.803457918738975846e-02,8.893264804893321815e-03,1.698369706774699797e-02,1.803194088300493977e-02,1.248267547529863415e-02,-3.055351125162466749e-03,5.556218012731478119e-03,-1.707045899267617059e-02,8.727635616873057056e-03,-1.612113207427684491e-02,9.748148719553701227e-03,-1.359073425253314732e-02,-1.922234944621021430e-02,-1.682321968427576142e-02,-2.503049744329139195e-02,1.099412646392203263e-02,1.168076706345371613e-02,7.505688228197837306e-04,-1.702032867716903389e-02,-2.093107926075394101e-02,-2.416917889728333046e-02,-1.679991420530655907e-02,1.964488748264157231e-02,-1.299068123315069538e-02,-7.324505152360018950e-03,-1.983582899040928563e-02,-1.395446767636228207e-02,9.662509445989884245e-04,5.415784467419920353e-03,-1.279891082042767560e-02,-2.222893420093959363e-02,-5.476824129894526487e-03,-1.335927063599785282e-02,-1.409557017872692559e-02,2.311327896929376430e-02,5.845407716398088802e-03,2.858781611860317096e-03,-4.233248518772593678e-03,-3.571346571385003096e-03,2.055936595373451022e-03,9.872807500673392439e-03,1.016011533447648899e-02,-1.650107435032301811e-02,5.667060232028282508e-06,-4.425096134015517324e-03,1.862314822268141407e-02,6.605279161612645500e-03,1.633694985278395535e-03,-1.933074577015278864e-02,5.309492290422965916e-03,-1.923980992627037992e-02,-8.182200889294329732e-03,-1.795120904465719730e-02,9.653861456348673820e-03,-1.476413573675350831e-02,-5.435283003258900049e-03,1.988710863817061414e-02,-1.486142796682723803e-02,3.922922654060613089e-04,-4.057507163413828603e-03,-2.421968770291261022e-02,1.471438852980883408e-02,-2.166029113799939135e-02,-1.293974808806332491e-03,3.049766908803299304e-03,6.454874152151122632e-03,9.480861345817589991e-03,-1.240083824005613726e-02,-2.462907886686629272e-02,1.123055761730704961e-02,1.792145228868297340e-03,1.689369567381214174e-02,1.615338062869380725e-02,1.725600210914323210e-02,-7.491610106150189876e-04,-8.362044672674992865e-03,1.465407950483712564e-02,-2.448018727235888418e-03,-1.591059068326824283e-02,1.784143769090249312e-02,1.922793733723136486e-02,-1.693313745493336877e-03,-2.132586178218704928e-02,-5.638000859230144282e-03,1.525618197307691652e-02,2.019366460955610010e-02,-1.490383041248780766e-02,-2.176444723789069252e-02,1.896610519699578820e-02,-5.558645932926484408e-03,2.098958235907468634e-03,2.352557246657617507e-02,-2.178499826412942306e-02,7.454648347685921203e-03,-2.140599352992321805e-02,-6.259087231485349970e-03,1.527009859582143490e-02
-3.343768694597821969e-03,2.498900623525643350e-02,2.968393443964645589e-03,-8.988613629984820719e-03,-1.406755442392275748e-02,-7.513024690926659727e-03,-6.406636904559310543e-03,-2.167698936201685467e-02,-6.555363677285443690e-03,-1.797416674592893946e-03,1.119507769298057169e-02,7.877419703679366600e-03,1.049282264198591122e-02,-2.471025554832111809e-02,-1.419038921416611657e-02,8.126454326566228889e-03,-8.047143573096141814e-04,-2.486356272297233702e-02,1.530428113266518210e-02,1.371174997357329367e-02,2.433607621939484680e-03,-2.179009486226414494e-02,1.339537934578315971e-02,4.207549502456961986e-03,1.417166070352600914e-02,1.265311834441069233e-02,1.522926267597985751e-02,9.051079149078608901e-04,-1.807773905685629637e-02,8.602588438467900431e-03,6.055162944170556193e-03,1.217594783464580506e-02,-1.659219305234035241e-02,-1.533092751937728711e-02,1.962247007262370863e-02,1.256419644654931458e-02,2.051807384043431021e-02,1.300335525380202049e-02,4.883147054840581737e-03,7.746903920484896067e-03,1.955805559331537033e-02,3.960925934759967904e-03,6.654153356741444002e-03,-1.726590941603981660e-02,-1.310752057088891221e-03,1.087638919113361954e-02,-1.151270614306770454e-02,-1.496507685959885987e-02,-9.357297204127630261e-03,-1.299250137939906603e-02,-1.432884702114936223e-02,-3.777090521016773870e-03,2.049847321894839383e-02,3.548266646788005864e-04,-1.568551154014733925e-02,-2.126193238466166438e-02,9.859052911785957593e-03,-5.890680518501569506e-03,1.617562543760324434e-02,8.017210508104275976e-03,1.488946539756856591e-02,-1.146227696580663126e-02,9.668199756190230809e-03,-1.185853940579225871e-02,2.206813030381525251e-02,6.854341761757940486e-03,-8.820256159952744035e-03,-1.158462174917681414e-02,-1.553441595858470227e-02,9.782897758235967536e-03,-1.413770469827884714e-02,4.790061207536741236e-03,-1.182973758733054173e-02,8.140761512549467976e-03,1.582926420949712018e-02,1.397389605636845458e-02,1.311071377319363539e-02,-1.569546201716248007e-02,-2.068828679373656970e-02,9.999416665818917915e-03,-6.617033508039622987e-03,-3.400363180579384342e-03,-2.356503232992569752e-02,-1.208398801969756513e-02,-2.343800651763049483e-02,1.905835064633591355e-02,-1.289720327502068276e-02,2.881837773855374686e-03,-2.317147529501811798e-02,8.385958328857370803e-03,-8.894866693688153331e-03,1.999991545547544908e-02,1.950730505045686347e-02,-8.781111784929285929e-03,2.015279553638166243e-02,2.493750451801329468e-02,1.635579781946721115e-02,1.733366478468970767e-02,-1.261513448562403931e-02,3.855158390616856591e-03
-2.175025838960215063e-02,-2.035993056288107686e-02,2.507496594550655267e-02,-8.713327902804594849e-03,1.247403347482754082e-02,1.541336868065559459e-02,1.799469687798479697e-02,2.501141991264211467e-02,-1.299270959848420129e-02,-2.310254168006035252e-02,-4.463625253703478943e-03,-1.859260767326173860e-02,-2.400347144230299823e-02,-7.015122036122671198e-03,1.426103897219945828e-02,3.326324220267268695e-03,-9.410012158060115928e-03,7.757422014966384831e-03,-1.346910104638521753e-02,-2.440779520189818863e-02,1.328673145801250420e-02,6.219482037047894402e-03,1.318365760112653710e-02,-2.317355128432536243e-02,1.694405365708516117e-02,6.007536137468629314e-03,3.186329526396797143e-03,6.263257738110355327e-03,1.831687027272481047e-02,4.369537429109968639e-03,4.068667224193063189e-03,2.466214743779954199e-02,1.290357892892385165e-02,-2.900385430163482207e-03,1.042403232196764153e-02,-5.567414876736810452e-03,-1.362705797047125515e-02,4.867896329073932195e-03,2.152096717753445784e-02,2.156908839840808792e-02,-7.946038229575208556e-03,1.391104029659590968e-03,-1.449353999009476111e-02,2.491103875354407776e-02,2.418158710828299113e-02,7.514505588054714615e-03,1.530023094275986296e-02,1.081120282996260104e-02,4.682248471145590389e-03,-2.244928767204981343e-02,-2.273600656044459396e-03,8.784977906821318794e-03,8.922960703389130541e-03,-6.377015705539205818e-03,2.219999105361416050e-02,-1.671905112942094138e-02,1.806621584891715947e-05,9.594067132097278822e-03,9.908291885162760423e-03,7.470779661305074378e-03,-1.129429512352159333e-02,-1.727948735768521440e-02,6.832530656063005858e-03,4.991048414938208458e-03,-1.611596750222495794e-02,1.031054973595989591e-02,-2.253111698933004704e-03,8.431856916667250512e-03,1.695649090070515744e-02,-1.659986178678863125e-02,-2.416837966503460403e-02,1.402804467409140936e-02,5.513529632762029925e-03,1.003413417819112516e-02,1.699609149870117200e-02,1.521965588487143688e-02,2.316642241049448811e-02,1.806141956669884410e-03,-5.782238748771476120e-04,-4.931271905453813581e-03,-1.740592082916234129e-02,3.649330232600612924e-03,-1.120762910481313060e-02,2.117544190175640884e-02,4.181273752934078908e-03,4.666263457235163281e-03,-7.291667786411405554e-03,-2.251757486766246819e-02,-2.353514334315285131e-02,-3.853271431983971290e-03,-2.088026309778472783e-02,5.370261468957695898e-03,1.914817921163007933e-02,1.924577705230909319e-02,7.993821008094485064e-03,-1.451384890718601661e-02,1.824467423470910524e-02,1.940553840395678117e-02,-1.524656978982981935e-02,1.193333168637378434e-02
-1.072979417126860256e-02,1.521108018629225775e-02,2.499179804664263330e-02,-2.362148010893530894e-02,1.997210484237329706e-02,6.163563820545129614e-03,2.379280183439659926e-02,-1.758665362603374378e-03,1.746015138098683944e-02,-2.199462081173825939e-02,-8.279080728344418924e-03,-2.176228973727807603e-02,2.389133973309412809e-02,1.593150457382417132e-02,1.771947382802488077e-02,2.201267968022741287e-02,-2.085321711631511060e-02,-5.750007922788619510e-03,-2.156032238119078362e-02,-1.453590002121477737e-02,-1.360241414843032549e-02,-1.552710166996810158e-03,-1.163235459821664389e-02,-2.005533884792934027e-02,-1.671231326429496039e-02,-1.772837083321875812e-02,2.377743087618343007e-02,1.303236533090189851e-02,2.351027561713389669e-02,-3.028718430102064329e-03,-1.113947699507916722e-02,1.499258874833270597e-02,-8.732695139595930689e-03,-1.008324226718580741e-02,-1.344458301091882961e-02,-1.861279719514639247e-02,-1.224047080310343080e-02,-7.271810190210845418e-03,8.745166271731514424e-03,-2.198603751619117655e-02,-1.455028287504007284e-02,1.553191422316188910e-02,-1.774614521982764703e-02,-7.908851518620314824e-03,1.832821297964588869e-02,-1.734388496247576614e-02,-2.097216792717310208e-02,-7.771396839047834326e-04,-9.930642199721820620e-03,3.186983614796068658e-03,1.526961333803666769e-02,-1.823737029450818795e-02,4.056036806769192961e-03,2.768771792687437015e-04,-1.788904486604591185e-02,6.232318793540568905e-03,-1.137711538851469972e-02,-6.114623485192268327e-04,-2.099551484749051511e-02,-2.031355775932633129e-03,-9.727387880648532062e-03,1.620328242384254727e-02,-2.226680264596637634e-02,-4.090900046238138063e-03,-2.089288554623542748e-03,1.130908649406089928e-02,3.733786331229538812e-03,8.404300965140098015e-03,1.392484321351532793e-02,1.820477395490924244e-02,-9.354850059389026307e-03,1.911068673216341973e-03,1.709425691813117043e-02,2.460042531180937908e-02,1.957772719810848064e-02,-6.460215955976964311e-03,-1.532131167194442957e-02,-5.331443218090263026e-04,1.214520125106041855e-02,-3.734877873719605291e-04,-8.453508219408952581e-04,1.699988351359782088e-02,-6.966019211834513850e-03,1.808372984620305532e-02,-4.684107132587283021e-03,-8.633218696358760380e-03,-2.312524543338586626e-03,1.319091201702333148e-02,-1.879760531385273048e-02,-1.525834947263436485e-02,2.269018092619460095e-02,-1.631019621493460386e-02,3.404059610705090309e-03,3.986444181701764324e-03,-5.214874994762642253e-04,7.275077023179921110e-03,-1.357924628789383865e-02,2.646871369237659404e-03,-6.424731884775092966e-03,8.125598439278501964e-03
-1.803255292817900271e-02,3.562387517249394116e-03,-1.581870512902669099e-02,-1.112567618824895563e-02,-1.413799685055313303e-02,-1.594096941339347845e-02,1.637063933493821885e-02,-1.077060536411467671e-02,2.146777488068386461e-02,2.361909424133662797e-02,3.581640244482662931e-03,-1.794320957221078733e-02,-6.305362014162412682e-03,1.496439551170760003e-02,-6.665107643962288851e-03,-2.075703054597875102e-02,2.854080564432013006e-03,1.734620515440671654e-02,1.487362991758426484e-02,-1.632871684451984648e-02,8.683365354570732331e-03,-1.404780489272460832e-02,-1.416324135570303996e-02,1.880131465281521808e-02,-1.258195117293671103e-02,-1.189948413822781124e-02,-2.509778441222749665e-02,1.863028873061553514e-02,1.470618084951982873e-02,6.399711349229831453e-03,1.257866995166867681e-02,-1.748847369569563048e-02,-2.094708202209129896e-03,-7.477899462924852622e-03,-2.041729928382058842e-02,-6.970991402319493858e-04,2.114690045472536126e-02,-2.311720327897045374e-02,-1.048143501491906326e-02,-1.469935791433881443e-02,-1.316107631918882366e-02,2.052843083324745743e-02,-1.604889225398198555e-03,-1.693833607664716346e-03,1.309685732599843132e-02,-1.736565346833678428e-02,-6.400592122779386137e-04,-3.519030607491156586e-03,4.870852377045768906e-03,2.510839426097643060e-02,1.354283803808039449e-02,-5.133397362347334042e-03,1.646322561812237073e-02,-1.655060904275065803e-02,-2.359948171610901091e-02,-1.485479403151166583e-02,-8.021114562955873953e-03,5.318020884190294241e-04,5.786534434014401103e-03,2.063755631541579552e-02,4.952748305840507306e-04,6.411549254731827160e-05,-2.260534820605782438e-02,-2.337592639679239581e-02,2.571363599869944637e-03,-3.107220131370296099e-03,1.704763038853524676e-02,-1.705466798413495660e-02,-2.387551771316014440e-02,-2.561375189512488885e-03,-1.319465570470928703e-02,-2.263694426110419294e-02,1.128859048677915457e-02,-1.952182105759162414e-02,5.444273393545319938e-03,-1.100471309035751417e-02,-1.641049640934529041e-02,-6.043838684057194731e-03,1.515104130807005088e-02,-5.423511631875417224e-03,1.260399585495215052e-02,-1.882352660147270165e-02,1.370983232470262929e-02,-1.322205973842573504e-02,8.916000324802338117e-03,3.306263126964060182e-03,2.156934961598317574e-02,-5.663311014126407375e-03,-2.180507959742199534e-02,-2.416784601348517109e-02,1.642831961769390323e-02,1.243244051005134047e-03,1.383410990661061886e-02,-1.334810112454669698e-02,-7.786284486814330254e-03,-2.361756642217089155e-02,2.319518077376607479e-02,8.437250707544025410e-03,2.177342891231255628e-02,-1.178644352709431846e-02
5.602300351283060094e-03,8.971631405744733695e-03,-9.170179999544976826e-03,1.749640504347816511e-02,2.247489376254464127e-02,1.934329901349045311e-02,1.201580487621048930e-02,-1.118490320958454888e-02,-1.097625055004986840e-02,2.328906857996946439e-02,-2.461371303405810590e-02,1.085894156559061990e-02,1.036618979260312511e-02,6.166529603731063860e-03,2.463348289551261019e-02,-9.455174576847209106e-03,-8.043214048315918893e-03,-2.116303163736817788e-02,-2.875037119390309696e-03,-1.200999959263771705e-02,-7.871580004971083858e-03,1.681599615756027705e-02,2.188799569910002824e-02,-1.579544841354173224e-02,-6.407860374247768658e-03,2.154350753851139513e-02,-2.202405419684515947e-02,-2.048846911962165160e-02,-1.694854615647730517e-02,4.785515992261749063e-03,-1.756770032295049827e-02,2.352610369782320854e-02,-2.678194429332742595e-03,7.629458358166928827e-05,-1.273325446808385754e-02,-1.459573991880590066e-03,8.137981454444557367e-03,1.262447669798762509e-02,1.275972699346634293e-02,3.914904633086746522e-03,2.032362745637747783e-02,1.595331494206641068e-02,1.291955937402134748e-02,-2.233582166073452835e-02,-2.478492967439650807e-02,-1.445275908671916736e-02,8.218900119517195957e-03,-4.463325149415209130e-03,-4.905183331119481252e-03,1.932981746541156953e-02,1.988148292232391409e-02,2.056565995249228299e-02,-9.354720395792196289e-03,9.602703833602541789e-03,-1.147800160698058194e-02,-1.555033630968076855e-02,-1.585076668123744717e-02,-7.935868229766848345e-03,-3.520417533555288137e-03,1.663391879081526498e-02,-1.910474851072653177e-02,1.180766658206828038e-02,1.580963283663601839e-03,-1.065813199621151036e-02,-3.608966518469857126e-04,-1.005516150464649643e-02,4.829199105112104949e-03,-3.325087085840353063e-03,-1.686739736543919552e-02,-1.927101367419164352e-02,2.346983317689883917e-03,2.022578178608848767e-02,-7.842881616701512237e-03,1.171087647518979577e-02,7.974517914322427209e-03,2.169048913316869512e-02,1.613290692986436153e-02,3.347663522294624938e-03,7.892549018872662553e-03,2.002340151326748377e-02,-5.050311417475130890e-03,-8.705514468327837582e-03,-2.458724607841693277e-02,1.641286494792421405e-02,1.512766601636000158e-02,-1.988061007380851827e-02,3.862947993374326629e-03,-1.810324847664827961e-03,-1.916415720504282758e-02,2.415395946419828660e-02,-1.433974112547482110e-02,-2.175135076140250617e-02,4.767147786249874460e-03,1.200573760797128166e-02,-2.349997651835913567e-02,7.977346807785003560e-03,1.623030027442479845e-03,-1.994039629351171405e-02,-1.645935905939721958e-02,3.416473103146935170e-03
-1.023532075450986518e-02,2.203029610824992421e-02,1.602028213486992453e-02,2.430469191811707522e-02,-1.207924387669305488e-02,2.360889660844074298e-02,-3.456271613550962983e-03,-7.663895841741350662e-03,-2.259999452120973334e-02,-2.247857686870204444e-02,9.650725602837811543e-03,-2.114541298898955663e-03,-1.374536473095649622e-02,5.728289978592548265e-03,-1.242165973019729829e-02,3.901868958417110175e-03,-7.076344266646827919e-03,1.626213912212194634e-02,1.611858968467764705e-02,-1.138397286432796945e-03,-7.498017935962553171e-03,-6.907916328482788769e-03,1.536559398812208273e-02,-8.635913849334989761e-03,-1.462303934855298075e-02,-2.087408278468078429e-02,-1.674045354511749907e-03,-8.980630305921379238e-04,1.713449768085368100e-02,-1.401089137209658546e-02,-5.981527262592239991e-03,1.550085772695718525e-02,1.626572697803527201e-02,-5.799591476267358658e-03,-2.054477655819446358e-03,-9.887096880131274884e-03,2.174074857858030244e-02,-1.916744076077518330e-02,2.180078788161973410e-02,9.241357572929344982e-03,1.586855837009850181e-03,-2.348913945229529066e-02,-1.226565886614057986e-03,-4.636695492517287076e-03,-1.702756574822799143e-02,7.861342073887929091e-03,2.368063321143335648e-02,3.125687336356972046e-03,1.079376796455459343e-02,-2.169021938730135782e-02,-4.138159648558483589e-03,-1.928230181757210199e-02,5.669259609489312596e-03,2.203866106599803101e-02,8.131150942353330968e-03,-2.127040749011925233e-02,-7.304658102427665639e-03,2.546404744271613899e-03,-4.864899098938572398e-03,1.676936478672270969e-02,1.581575781405798048e-02,5.620766780471820982e-03,-6.360161766156008020e-03,-1.229709951203169713e-02,-1.980924914637916673e-02,-7.293023703758478617e-03,-4.364057758396324219e-03,8.837079870667242584e-03,7.949310357685387615e-03,-2.160690196395739435e-02,-5.264397658583701983e-03,-1.599419168615131420e-02,-1.724902217340790883e-02,1.645061494317113029e-02,-2.302391349148323607e-02,-4.061969621696580844e-03,-1.667649877313267387e-02,1.906561053584951773e-02,2.866927457707628760e-03,-1.350114480088696230e-02,1.219984853830472247e-04,1.163479363374012032e-02,2.302558345344174820e-02,-1.405073307240846912e-02,1.940997832269468482e-02,2.182866735259755483e-02,2.092981680084308321e-02,6.806094748539755733e-03,6.524948276356616443e-03,-4.864754494782607026e-03,1.268583288433851146e-02,1.572876457820372069e-03,8.918259132666722655e-03,-3.595795129838289146e-03,1.163530149049300452e-02,1.630834383588342790e-02,-1.777055544903240886e-02,1.673346343263524411e-02,2.025354030090449273e-03,1.732333918073280382e-02
