0.000000000000000000e+00,7.448526128329338580e-02,-1.027870288053853859e-02,1.458330625860424640e-02,8.621231990579817858e-03,1.105340494038546629e-03,1.172733714076111631e-03,4.872524336462700362e-02,7.471766894142882476e-02,1.822292854304160756e-02,-1.070382931584716764e-02,7.111648262189640586e-03,-9.794940751373534219e-05,2.970255491107995512e-04,6.849225418302862245e-02,7.971439626634931053e-02,3.352518844242913937e-03,-2.424177097115176702e-04,1.377027575902231673e-05,-2.547407256453927769e-05,6.410468683866512034e-05,2.517347811041361835e-02,4.954305310105121957e-02,3.739543562789021669e-03,-4.468031554101813824e-03,-1.518692430073966546e-04,-1.252127424828596049e-05,9.300489081001532101e-06,3.067203066835109265e-02,1.463180366950228399e-02,2.208997454102798203e-03,-2.337891883755395615e-03,-3.854050689645142891e-04,-1.454168580678821541e-05,9.510489201637449828e-06,2.542652947503715871e-02,5.222001747863063564e-03,3.596786725927013633e-03,-4.863399672747569479e-04,4.198998357687131063e-05,-1.129374612229899182e-05,1.070242754895219018e-05,1.958596701153889411e-02,2.113787524643478185e-03,1.396306713555233066e-03,-4.046344809077291821e-04,2.834624393701226186e-06,-8.030721011233129642e-07,8.085554219506465757e-06
1.004743698287402787e-01,0.000000000000000000e+00,-6.317063325858750245e-02,-4.547794308487018884e-03,4.323398557617721960e-03,9.570036595786170913e-04,1.251878112479045714e-03,7.326683999318130136e-02,6.501303832244982595e-02,1.697300396150679472e-02,-2.847197836107131716e-02,5.779452073625998554e-03,-2.909758087849642519e-04,2.790546313334335451e-04,7.017104843927196578e-02,8.904828268033261607e-02,7.291461661159334695e-04,-6.599571652089757448e-03,-7.550622374418536429e-04,-1.359286797160719239e-04,1.808413200968337492e-05,2.977323475776246300e-02,5.520100526838417343e-02,2.084112578280433031e-03,-8.924287179119997845e-03,-8.999203653400393793e-04,-2.855211087094603376e-05,-3.489455923553806080e-05,2.789031707242178512e-02,1.650701585548545666e-02,3.865683507792948281e-04,-4.665965746020813050e-03,-1.164043794168878902e-03,-3.081545395325518998e-05,-2.334960602335916014e-05,2.074439038632823473e-02,5.846032410988169850e-03,3.982820519567375865e-03,-9.851143278606058935e-04,4.123786042703754648e-05,-2.401013925709352968e-05,1.103904525574684170e-05,1.595161897175528462e-02,2.347464616956914437e-03,1.523453145366808568e-03,-8.229208853287758819e-04,-8.669932565807910256e-07,-3.249486133401113264e-06,8.433262572809893488e-06
6.420571478943318949e-03,-1.183647397748459687e-02,0.000000000000000000e+00,7.240859424025407332e-02,3.741452262604388207e-02,4.487343918425180933e-03,4.579079036231523646e-03,6.085892587471696154e-03,3.718093076861800350e-03,7.306023525630910009e-02,-2.868814703270416641e-02,2.916160800311071860e-02,-2.391227452946786253e-04,1.189001929834056399e-03,6.457623395911402629e-03,8.688220705050774678e-03,1.528134277621793873e-02,3.928789054464201617e-03,6.456256113897764111e-04,-1.586157390040150852e-05,2.890152848637193069e-04,2.627926495406131529e-03,5.365465754492248877e-03,1.606837435938761674e-02,-1.425146295395724252e-02,-2.570718659781097697e-05,-3.721467750559052224e-05,7.077835894651642306e-05,2.666036606287862029e-03,1.633586799475096390e-03,1.014115659092628373e-02,-7.459871300758068487e-03,-9.261755386269981483e-04,-4.502166850289427780e-05,6.289395689229993044e-05,2.058251378897642953e-03,5.721722049399734352e-04,1.393390501376598305e-02,-1.540708776334272917e-03,1.667120595524601166e-04,-3.490637511917822009e-05,4.208543481750865329e-05,1.583692953494888773e-03,2.270689958210534679e-04,5.426739686537358082e-03,-1.279326193649888994e-03,1.406133435015491114e-05,-1.296352519758003872e-06,3.172322352676965881e-05
-8.669576700290629540e-04,-1.703221076969164277e-02,-7.521001723653997217e-02,0.000000000000000000e+00,2.423633270825427399e-02,4.499266622129485978e-03,5.591126571833013315e-03,1.388037671558967458e-03,-1.188947758879405807e-03,2.600963252692327365e-02,-1.099493925138613770e-01,2.764193673771647708e-02,-1.111320714061311441e-03,1.284698036727600912e-03,2.234323950104986304e-03,3.545355974351625892e-03,2.081625644567371407e-03,-2.307235902020316615e-02,-2.594988582655599011e-03,-4.972883184225429173e-04,1.316046293597367253e-04,7.868324215929687650e-04,2.168468224330858361e-03,3.757327914718214344e-03,-3.566235915678542256e-02,-3.274224012397226533e-03,-1.121853722442805903e-04,-1.105862341330696364e-04,1.031058764153881075e-03,6.903589229949147303e-04,1.265567456813331080e-03,-1.864764677922655170e-02,-4.438878211906888138e-03,-1.221862759407824702e-04,-7.045537616921218257e-05,8.752310532774400459e-04,2.353278271795971894e-04,5.848399864085819175e-03,-3.929215011646259269e-03,1.877970064544961896e-04,-9.516315463096495738e-05,4.969189941546206610e-05,6.744265514554693931e-04,9.063073462741137070e-05,2.244746464314489355e-03,-3.280532683662309990e-03,5.869896641830805229e-08,-1.209729507780797036e-05,3.786445162502573617e-05
1.457908734380344244e-03,-1.667026815192208930e-03,4.120348239285487497e-03,4.772147339971875152e-02,0.000000000000000000e+00,8.380392844533268368e-03,1.381363145352735439e-02,1.260850571204707223e-03,8.818929093712407500e-04,1.462428252066528406e-02,-1.320691365854203062e-02,4.605602551339691569e-02,-5.033212646328714956e-03,2.707514618773622025e-03,1.296145591856366500e-03,1.714318629464878273e-03,3.242825642765314025e-03,3.785469418512510745e-03,-1.585715416801092986e-02,-2.562929794689744814e-03,-2.926675626090190327e-04,5.341727532081440430e-04,1.059838197114195421e-03,3.323910969947742582e-03,-7.543654603928151743e-03,-1.714311088238415492e-02,-4.635168964848958382e-04,-8.232457087353807230e-04,5.291646018047660048e-04,3.210304978224534341e-04,2.158383617066712227e-03,-3.949715747643012080e-03,-2.020249011148601490e-02,-4.895333363051661193e-04,-5.851776889373285027e-04,4.041888163787660075e-04,1.127972606162400392e-04,2.740471656795662528e-03,-8.117094771993328683e-04,4.199745177215696498e-04,-3.818056578044999789e-04,1.180380525687793912e-04,3.109431189298196541e-04,4.491528929483985306e-05,1.069119427682927370e-03,-6.730736035559506045e-04,-4.762567313590436273e-05,-5.924332082826722079e-05,9.111999864124102372e-05
1.189652805714073178e-03,-1.571877411061094187e-03,2.508049487439911827e-03,3.927383752729982080e-02,-5.633728632806801057e-03,0.000000000000000000e+00,1.206919723248179033e-01,1.053949968093808231e-03,7.118231156014753237e-04,1.234083402078084424e-02,-1.215976506333017217e-02,3.672775160806942413e-02,-1.052031218173524185e-01,1.116979799616373351e-02,1.092931925512925524e-03,1.452470799442895540e-03,2.693218884931187183e-03,2.844512762919911269e-03,-1.425447259288121875e-02,-5.810616603678367409e-02,-1.909315244024096386e-02,4.488506066618989801e-04,8.976824668587654208e-04,2.779622168270526675e-03,-6.626932679895660046e-03,-1.530148730926104809e-02,-9.037501837073514538e-03,-2.191455297647196265e-02,4.475960536040345973e-04,2.723061711741910237e-04,1.791164357920576461e-03,-3.469449835655133516e-03,-1.789731017604670460e-02,-9.299817179207492748e-03,-1.611627877733031941e-02,3.429141157064790561e-04,9.559252994409438760e-05,2.324010861847150555e-03,-7.141474072068325352e-04,3.498501422693903531e-04,-7.262179505887324769e-03,9.046510764706170793e-04,2.638174203890970805e-04,3.802834850127973713e-05,9.062161943683491594e-04,-5.924376937398718838e-04,-4.463746913978643952e-05,-1.303326325547455363e-03,7.311110506269363459e-04
9.947107658145864367e-04,2.133169314625912914e-04,8.263970778129988218e-03,3.043301264441742454e-02,3.596443277698159469e-02,4.459949398433285528e-02,0.000000000000000000e+00,7.000502617045264520e-04,6.515034063400734592e-04,7.377024855477184138e-03,-1.825841130694672129e-04,3.687475564335376127e-02,-3.160479486678134664e-02,-9.060492377093487537e-02,6.591368704387682090e-04,8.275644003127541164e-04,1.912020125055738070e-03,4.143147869517810854e-03,-2.424183894710521710e-03,-1.630105273240461949e-02,-1.199923754855499597e-01,2.816872453452105396e-04,5.133738622892775440e-04,1.838150693745904674e-03,-2.138167943572288725e-03,-3.316418548152357936e-03,-2.880728117462153220e-03,-1.068267342025973898e-01,2.601908015730237098e-04,1.529916815428226929e-04,1.281604515406898574e-03,-1.121340162726688645e-03,-4.769429014835773611e-03,-3.031199452678546170e-03,-7.984572381880915282e-02,1.921689782179126994e-04,5.429747404646600691e-05,1.309371229226566477e-03,-2.231841880467186280e-04,2.408914847201515982e-04,-2.364555259939198160e-03,-9.191455429709560754e-04,1.477527350067207607e-04,2.185146418991537869e-05,5.135763133135934572e-04,-1.833861935962372762e-04,4.371584137693903948e-06,-3.749823612657637731e-04,-4.718068371927642396e-04
-4.716648921028870206e-02,3.725218299923228199e-02,3.992665800426218464e-02,1.189921199374604360e-02,7.009251235305689193e-03,1.816869725572654946e-03,9.172937830240211526e-05,0.000000000000000000e+00,1.722910902592152127e-01,1.297557893816507490e-01,3.327576792867167205e-02,6.996331394990821032e-03,2.265138937807493862e-03,1.704714324465778216e-03,8.080777277387206359e-02,1.430116766690736341e-01,4.019169791932853536e-02,2.743745291567211211e-02,5.897232574494402435e-04,1.992084463929083820e-03,5.787026581134247080e-04,1.989347369589358414e-02,8.917936983765681336e-02,3.616630744301450179e-02,6.233812126555031245e-04,4.344748883998146658e-04,8.827745320077920021e-05,2.716200190130701217e-04,4.488744863417727660e-02,2.591456445335221445e-02,2.712266806568219488e-02,3.097992579107846679e-04,2.606212952514570151e-04,4.794774306578086938e-05,2.160661302616443541e-04,4.306147583009758278e-02,9.342468955981278120e-03,2.129629546894652725e-02,1.293179779093001633e-04,3.596003915718549098e-05,3.904140583382570016e-05,5.650174568480807020e-05,3.323833960765695122e-02,3.820903490237701188e-03,8.422316000015864917e-03,1.224093081055885953e-04,5.172775601657812304e-06,3.868527189881243835e-05,4.221922327648889461e-05
-2.576334659342362568e-02,3.959879342836521154e-02,8.766019363817855944e-03,-4.027256276924564421e-02,1.605888176965308920e-03,-4.732301397092492090e-03,-6.342503193493044707e-03,-6.241157002527573244e-02,0.000000000000000000e+00,6.981445390046769894e-02,-3.008398539276493922e-02,-5.679472117845332790e-02,-1.255141170442605585e-02,-6.595310118264506756e-03,-2.349499929156092029e-02,1.516455647273943497e-01,-2.020804115835034970e-02,5.150101046683669762e-03,-2.121400305174001716e-02,-6.723774009818922655e-03,-7.434392231286737762e-03,-1.643063692128862024e-02,9.314635027262535560e-02,-4.991899388445153810e-03,-1.545705002765300831e-02,-2.017340686956909865e-02,-1.108169569947298769e-03,-6.430063138800436173e-03,-3.605399884332583307e-03,2.908242075851926248e-02,-1.461152900977182902e-02,-8.091462528761457149e-03,-2.035567559607414853e-02,-1.152412953633066188e-03,-4.816139470953554463e-03,1.661992277249812024e-03,1.003101735552651939e-02,2.251760205595737530e-02,-1.669049515388094755e-03,-1.394142482996492914e-04,-8.994630038365285110e-04,-9.726746079766136928e-05,1.334468293835585750e-03,3.914662269003552249e-03,8.427855910842311019e-03,-1.385409873415932884e-03,-1.099624883373988136e-04,-1.525037085817237460e-04,-6.016248816308320988e-05
-2.209772248548156834e-02,1.390769268298410778e-02,-3.171826305826832421e-02,-1.164209465281024897e-01,-5.401159303592033452e-03,-1.424207793884030293e-02,-1.594318437337101380e-02,-5.643804999806354555e-02,-8.888039232635408515e-02,0.000000000000000000e+00,-1.196958864130340666e-01,-1.510522194333449031e-01,-3.434684928916078434e-02,-1.873845549138841021e-02,-2.330175137883176706e-02,5.307832272510071281e-02,-1.043438378286472706e-01,-2.397637758593605672e-02,-5.370543456445241864e-02,-1.944454565374086064e-02,-1.932021798846710048e-02,-1.536406039082042346e-02,3.191333272427356732e-02,-6.098802931394321780e-02,-3.939106081128194298e-02,-5.090152974433947292e-02,-2.882574965080068538e-03,-1.640300583621140049e-02,-4.402118404004911126e-03,1.095933362420594553e-02,-7.284527501471618760e-02,-2.059826568095653870e-02,-5.112284280504841849e-02,-2.938806832105429236e-03,-1.230284695471672678e-02,4.075695739058182547e-04,3.571595226609557399e-03,2.758500856875169618e-02,-4.336653666864914193e-03,-3.960003189523982146e-04,-2.295922123938838946e-03,-3.184416229308630161e-04,3.612636319147221687e-04,1.303582926792234064e-03,9.718452404418690196e-03,-3.619900742490308500e-03,-2.812210707656971858e-04,-4.323066864563945258e-04,-2.067230773340397179e-04
-1.031215865702951075e-02,2.425414246922178319e-03,-2.927736578461217695e-02,-8.530105323107800563e-02,2.295569536953679865e-02,-8.929615090836883276e-03,-1.809091364018925244e-02,-2.692649321207716412e-02,-5.948969191811684376e-02,-4.756349419171135295e-02,0.000000000000000000e+00,-1.458628152860088900e-01,-3.035649642891814770e-02,-1.460698438973733783e-02,-1.151234205261091915e-02,9.166506531774743644e-03,-6.289993750685973772e-02,8.657578306522260847e-02,-5.977011936712170459e-02,-1.422739041451495656e-02,-1.997419023595306542e-02,-7.427437060727202188e-03,5.169012532422099203e-03,-4.141047521123400466e-02,-4.304389100528928369e-02,-5.716832059501228414e-02,-2.972082389522382254e-03,-1.787393575651942054e-02,-2.319724665993361593e-03,2.280035221662170524e-03,-4.356896581370824084e-02,-2.257582027731871999e-02,-5.814936142895037879e-02,-3.205328643567421486e-03,-1.335466001277448890e-02,-1.610280910768881345e-05,6.468930093789454841e-04,4.927386952025131217e-03,-4.485857709302240419e-03,-3.089638105566792740e-04,-2.497544393138192986e-03,-1.334810838859080311e-04,9.835946105514839318e-06,1.920455311908063291e-04,1.398934140781385796e-03,-3.684156865375599367e-03,-3.042887997824819928e-04,-3.396731517848570071e-04,-6.356210180114524419e-05
-5.393900194660649662e-03,-3.828106834327885951e-05,-1.996816457969286668e-02,-6.940655905276095494e-02,1.722821879968637615e-01,2.949623711336162371e-02,-1.648413189446159763e-02,-1.427361528473260199e-02,-3.690830728673331895e-02,-4.017149091877958433e-02,-6.941977245504259153e-02,0.000000000000000000e+00,1.718685289620567463e-02,2.132917195289561058e-02,-6.226902792742745017e-03,-2.221279464974499653e-04,-3.746837160018075263e-02,-1.199119647811843284e-02,-4.837216891004676722e-02,2.782034826907777217e-02,-8.058539381387869183e-03,-3.967842542582808614e-03,-4.226969300080234116e-04,-2.582389966568403653e-02,-2.379732225056037376e-02,-4.901905537751122255e-02,-1.153010627590957821e-03,-1.244175867696883930e-02,-1.298700874819374565e-03,2.813147211791071117e-04,-2.586783390487443907e-02,-1.244552151654979011e-02,-5.371168486276903242e-02,-2.247360246254724407e-03,-9.017201192796567635e-03,-7.475322452125527349e-05,1.046391817284685523e-05,2.266456460485455349e-05,-2.614309634895862003e-03,4.490744172228816134e-04,-1.715396262910436585e-03,1.064225973534935199e-03,-4.589781120507914789e-05,-3.339455294940081164e-05,-2.766657846408104903e-04,-2.180889018505665841e-03,-2.001554576494248775e-04,4.756752238434899154e-04,8.320717778129203910e-04
-1.334141829815238935e-03,2.347843608275443169e-05,-4.821647274782182337e-03,-1.654229054745490202e-02,5.250815927079272027e-02,6.804962758952073920e-02,-7.441460030515313628e-02,-3.525700207594142498e-03,-8.982999122331291122e-03,-9.550599419834875092e-03,-1.542043131620374902e-02,1.025806831383038221e-02,0.000000000000000000e+00,3.636051272404681317e-02,-1.535005128717527832e-03,7.152915646639925720e-05,-9.152376046226096129e-03,-1.522038829546083815e-03,-1.099270546266583118e-02,5.503220100134834092e-02,-5.392406708412784966e-02,-9.793287451309723446e-04,-2.573550327899945880e-05,-6.282389304576813625e-03,-5.853757822565304296e-03,-1.137890150361176370e-02,-7.895423832489966223e-03,-6.281742957447709885e-02,-3.190727784254999456e-04,9.255425619528981785e-05,-6.320610783123323945e-03,-3.062251295605281348e-03,-1.278410059593580207e-02,-1.131009178368858059e-02,-4.615841078666559072e-02,-1.681750212730369362e-05,1.085442542483581792e-05,7.000792287287670634e-05,-6.398760727539899501e-04,1.628054606196264228e-04,-8.713218833772835500e-03,2.752696045604896818e-03,-1.006572597002731767e-05,-4.885691140929738219e-06,-4.301005031913585135e-05,-5.330276294964258425e-04,-4.147930160900127020e-05,7.889654810084849746e-04,2.216530200140717777e-03
-6.740400796027534161e-04,-7.249118333891548178e-05,-2.736412812579211516e-03,-9.957506436470685632e-03,1.193459766661073181e-03,-3.518241389311477924e-02,-1.363808951085899446e-01,-1.793490843576102866e-03,-4.912226088988516648e-03,-5.812237376134453924e-03,-1.227134271544021854e-02,-2.108076926075825100e-02,-8.781808233222587745e-02,0.000000000000000000e+00,-7.887673163382760005e-04,-2.876609360102301192e-04,-4.918817395790375975e-03,-4.465728810501517869e-03,-8.041835531218670396e-03,-4.871971842908017630e-02,-1.183380766105786575e-01,-5.001262845446906953e-04,-2.147908597439741960e-04,-3.442747116373193975e-03,-3.040246205710585639e-03,-7.657835553241597489e-03,-7.513086305849542290e-03,-1.225229773250864351e-01,-1.667112903408400713e-04,-1.205668940443015066e-05,-3.392022280600032538e-03,-1.588233635002493822e-03,-7.741760969032455281e-03,-7.718668378639469314e-03,-9.065787712209455451e-02,-1.277778146956732688e-05,-1.567989409601922360e-05,-1.295166414679966519e-04,-3.405734383670828069e-04,-5.018987436541012955e-05,-6.027934101903847756e-03,2.763557800395363955e-03,-8.379898314138140526e-06,-1.110723789312983094e-05,-8.681477281106522227e-05,-2.856822243772900701e-04,-4.150935067624863763e-05,-1.091041533077501905e-03,2.350102505920362208e-03
-3.168670721608522235e-03,2.876530694343370966e-03,4.920412244650193209e-03,1.008150282917962768e-04,1.253390006409396684e-02,6.016732098640791828e-04,3.158642667815065506e-05,1.049518176086987678e-02,9.096940388420484552e-03,2.273682232751462334e-02,4.291394419119361203e-04,1.286069474482907232e-02,6.880236492808949542e-04,5.650380710053182903e-04,0.000000000000000000e+00,-8.708076311510980216e-02,2.276543976844570480e-02,1.359789684555298694e-02,1.317714470108579186e-02,4.538989636118352655e-03,6.060703154689835127e-04,-3.706253077402334867e-02,-6.894237910754370813e-02,2.411117208872122497e-02,7.883848530718467703e-05,1.010360353646679379e-02,1.925740314278858638e-04,2.934731362247875136e-04,3.288209228451086097e-02,7.868330219237524388e-04,1.509502985071652439e-02,3.312473846110854336e-05,6.778988463219540531e-03,9.877506735610566690e-05,2.325344008942094916e-04,4.937060699480484705e-02,-4.402043244645258493e-03,2.119442472799432792e-02,3.907063707931122476e-05,7.030788467230547276e-04,8.083871582784070203e-05,5.724828999195439119e-05,3.828789443684986471e-02,-3.741248128496435683e-03,8.250799303304837476e-03,3.985666445255912828e-05,1.089601177200424681e-04,8.791297594751795827e-05,4.273871174134711637e-05
-5.268839733523426883e-03,1.138619306527366426e-02,3.417464030738076586e-02,6.390243059078261692e-04,4.881590537866337814e-02,2.528034682213191938e-03,1.462151446034984684e-04,-1.268171041993817333e-02,4.676541820988937975e-02,1.206641864060719743e-01,1.982658133569951530e-03,5.052251570359247990e-02,3.092300835158550906e-03,2.229443500308666681e-03,-1.367032073083664090e-01,0.000000000000000000e+00,1.342005655910539219e-01,5.403362079597817669e-02,5.179975985241706132e-02,1.815434289638917856e-02,2.398349955417786259e-03,-8.924690065738222211e-02,-2.113769644918648410e-02,1.258289798292999140e-01,9.938198674769767055e-04,3.981156297201226407e-02,8.155001573420771199e-04,1.175335124863728089e-03,-2.661410638787117464e-02,2.391830881963126834e-02,9.018846133773261720e-02,4.877414262111872518e-04,2.687552278709217854e-02,4.504160895641468217e-04,9.299018656024154962e-04,1.207298461200221988e-03,1.857644553736143185e-03,8.387571027095187814e-02,2.292473172426102426e-04,2.739952421240038436e-03,3.662225988145973322e-04,2.235513029080705082e-04,1.201370246579724736e-03,-2.042486889036819464e-03,3.298791958059962837e-02,2.199198378239835367e-04,4.267512139642056813e-04,3.528460838362614763e-04,1.668306332316952969e-04
-4.217912797264414086e-03,1.014241318827517439e-02,-1.245670501636322348e-02,-1.077839014469991806e-04,6.041498425605205252e-02,2.455069408543112796e-03,9.635475304316588917e-05,-1.003141296707822303e-02,4.218469719406627017e-02,3.221349058221496808e-02,1.318371875861955051e-03,6.094470707263848624e-02,2.321959632046405406e-03,2.654190964636935282e-03,-1.088882787572177380e-01,1.691066570080948170e-02,0.000000000000000000e+00,6.295604066731989856e-02,6.236216500113870437e-02,2.073072740725942845e-02,2.830047747909234575e-03,-7.133492520844934848e-02,-6.477443367573676621e-03,3.929083314290402612e-02,-1.274961896218690860e-03,4.758982988717987139e-02,7.704368563969253743e-04,1.336638860285774711e-03,-2.097976973860031513e-02,2.232621011782444723e-02,-2.902340800031266710e-03,-7.048039378619059148e-04,3.153495229080607865e-02,3.177460105558439492e-04,1.062412747253931684e-03,1.290734457990941374e-03,2.600715248797018549e-03,9.895579821291891620e-02,2.581303802676963330e-06,3.384918520278103367e-03,2.658389300671333468e-04,2.745322953936461417e-04,1.212139603402562606e-03,-1.193046529193107861e-03,3.771325101821676462e-02,3.622470094343499921e-05,5.194586096769067103e-04,3.985679136508580482e-04,2.051005217000528120e-04
-2.042241132744141829e-03,9.563628897009136473e-03,1.648574191145669304e-02,-4.095497752001624192e-02,1.700151682680452470e-01,-2.356466360030989166e-02,-3.555967133466939913e-03,-4.309950884543295273e-03,4.192547638326690057e-02,9.062600915143320668e-02,-4.765077122092438444e-02,9.992384490112483919e-02,-6.155121895604263177e-02,2.719944629946323585e-03,-5.023989024393808039e-02,8.477819455565460682e-02,8.554969506161469450e-02,0.000000000000000000e+00,9.652695113376288938e-02,-2.024813502603757531e-02,1.713728463073374651e-03,-3.403769390285759505e-02,4.416630861587662882e-02,9.692954399373363006e-02,-1.169019834628473309e-01,5.786723540297315088e-02,-8.635889696208619293e-03,-1.574911970650892798e-03,-8.682160947519602240e-03,2.520651088807109030e-02,5.625819721131523204e-02,-6.117260778217378792e-02,1.064563144848063025e-02,-9.948705469888449726e-03,-1.011044247687201917e-03,2.093492871268740497e-03,6.302834291223660852e-03,9.557016694873091134e-02,-1.271041716359157074e-02,9.250982378853201890e-03,-7.729289718343169101e-03,6.759096544563937374e-04,1.720967627037728060e-03,1.424416568476940398e-03,3.707436555585880145e-02,-1.057162796457647089e-02,1.068607489567481670e-03,-6.026831549423491150e-04,5.151810694396137535e-04
-2.154845754505898582e-03,3.732303339119080222e-03,-1.337739800133984185e-02,-4.193657713584379026e-02,1.692058041380435363e-01,-6.052471853143637226e-02,-8.194880782049407744e-03,-5.295249113625250838e-03,1.485445806281621151e-02,-6.912436338006023445e-03,-5.149667801762457947e-02,1.236582876888732245e-02,-1.440868610823317353e-01,-3.070680471685326325e-03,-5.640187138460096838e-02,-1.521672333766304133e-02,-2.664666048326565229e-02,-1.179004687574827792e-01,0.000000000000000000e+00,-1.157558179211260474e-01,-5.898251525618930513e-03,-3.659975174772697043e-02,-1.804280196160949409e-02,-4.192821870440788246e-03,-1.178923535001956124e-01,-3.493378799065285228e-02,-2.173825685248114911e-02,-8.059325550298677282e-03,-1.117783935932790962e-02,6.921831422511329560e-03,-1.944351995281941650e-02,-6.162035904752180548e-02,-8.441380449841562328e-02,-2.309213200282501585e-02,-5.873364847946406508e-03,2.019948436397984461e-04,-2.423108282010436097e-04,3.571035490384331240e-02,-1.308253649427926560e-02,8.872889518432775999e-03,-1.800557283909236250e-02,5.551039052607628773e-04,2.660219463667885570e-04,-1.233099320211627050e-03,1.340674654260082602e-02,-1.094494942959123307e-02,5.851617962010791920e-04,-2.697494701254514026e-03,4.373068504704518658e-04
-1.203912531516676066e-03,1.124759063960799462e-03,-1.212211328396442349e-02,-2.323714308879288801e-02,4.706369833836660660e-02,-4.713779645759264003e-02,-7.709462614420910243e-03,-3.071390532061239048e-03,3.860902390450434828e-03,-1.935004500449480705e-02,-2.895526208383378958e-02,-4.064819235243442158e-02,-1.320224052920754287e-01,1.183046277606486334e-02,-3.202407560387058455e-02,-2.431199931259075617e-02,-3.254737086391633338e-02,-8.367998385546494833e-02,-4.863662477794832711e-02,0.000000000000000000e+00,9.972157125773551886e-03,-2.055179936572701371e-02,-1.984510602827538328e-02,-1.842445050642847054e-02,-6.504243418985020120e-02,-5.656010108889800159e-02,-1.755610121330293191e-02,-5.999219898232572169e-04,-6.549724218925548520e-03,8.953739615124690172e-04,-2.276646733267193717e-02,-3.398545079956999393e-02,-7.157989649662353793e-02,-2.146437048270533748e-02,5.931880209344015238e-05,-1.902939729663597585e-04,-1.176523496356157196e-03,1.011352885809008520e-02,-7.259563236137267853e-03,2.298824155384864790e-03,-1.663469370283135809e-02,2.102377387460704905e-03,-8.547774869395834683e-05,-1.102216486463404544e-03,3.606555630458503983e-03,-6.083287869121396102e-03,-7.942174695456652911e-05,-4.752218963702328769e-04,1.593415691002356182e-03
-1.094142838327339610e-03,7.359024182696981492e-04,-1.240239414109132327e-02,-2.106096065165704440e-02,2.862200067312301727e-02,-4.950562026997482046e-02,-1.027424664959349782e-01,-2.825012905659375628e-03,2.185891149599499591e-03,-2.220250957993220170e-02,-2.637006103422828360e-02,-5.111799297551653659e-02,-1.279776573773906967e-01,3.163037938651276637e-02,-2.925692354967903211e-02,-2.680813252361335941e-02,-3.484392051092845971e-02,-8.135883629243777226e-02,-5.869988514562379800e-02,-4.860005594558456515e-02,0.000000000000000000e+00,-1.870879446624719097e-02,-2.094635284711143450e-02,-2.153832723143250805e-02,-5.886639779166813469e-02,-6.244491688257858275e-02,-1.810054607184866798e-02,-6.777770031630674097e-02,-6.043352670875001484e-03,-7.212759220734457361e-05,-2.423888903197980726e-02,-3.075503496468143250e-02,-7.233201949014282650e-02,-2.066666927234731693e-02,-4.702846534662078609e-02,-2.633073268540096290e-04,-1.379600089839085530e-03,6.258892253844536811e-03,-6.582854415908733631e-03,1.296777421954269744e-03,-1.606240504651197318e-02,1.448807926283987406e-02,-1.474669510208777583e-04,-1.124912673693146238e-03,2.120019905624075628e-03,-5.519192806618271330e-03,-1.933074211167224777e-04,-1.375450697817572890e-03,1.111429364488025241e-02
3.108740324725068477e-03,1.412308228861262722e-05,7.869767289170577843e-03,-1.602560879566467997e-04,7.017566201022357869e-03,8.461255170140336707e-04,-3.043532621876586736e-04,2.386342081382501409e-02,-4.144860364412184125e-04,2.957517680594857340e-02,5.191843712786439594e-05,5.832023287108456348e-03,5.843136191782009404e-04,1.297024184777084178e-03,1.549727422825425416e-01,-1.514043068411009135e-02,3.205202467203804167e-02,1.039436384319093049e-02,5.867997261566279717e-03,8.127681536147382882e-03,1.268872400704793013e-03,0.000000000000000000e+00,5.874295018527204981e-02,2.842751348206412620e-02,1.460022813213917095e-02,1.478415522676104592e-02,7.964344887741598919e-03,7.189215322540823579e-04,1.010215304631395528e-01,2.545008060641982400e-02,1.520471189907727366e-02,7.216914222741720522e-03,9.105506742082040972e-03,3.444500455084959813e-03,6.210902072767273893e-04,1.123685060488456289e-01,7.289097712312017988e-03,3.106155761038087437e-02,3.174698914929672058e-03,1.179665984783335704e-03,2.866937704861308601e-03,3.538111770388706421e-04,8.689090008370661811e-02,2.199934193121362829e-03,1.201568462980146662e-02,3.023553962923556868e-03,1.722757857712269480e-04,4.023462700894891823e-03,2.664362355122372569e-04
2.332297711418739559e-03,2.569550493061311439e-06,5.187105721697488243e-03,-1.283322514078258413e-03,1.363876753638900569e-02,2.256993167589215778e-04,-1.883827578333752226e-03,1.826328335553749696e-02,-2.347640792965851632e-03,3.668699846601304604e-02,-1.114285352027080461e-03,6.974764797781133306e-03,-2.102726344425613538e-03,9.199517742702119794e-04,1.178998499262420840e-01,-7.556540271018721833e-02,3.216396168228785601e-02,1.651976767314451006e-02,6.594831018386714677e-03,1.244925107462230111e-02,3.585150398336290224e-04,-4.044012650214861421e-02,0.000000000000000000e+00,-2.018705865209957651e-02,1.874465775452538452e-02,2.152120328200431143e-02,8.397162814529268368e-03,-2.446532088303052330e-03,6.460016936631346463e-02,4.121412676509537271e-02,-4.542805151544525993e-02,8.968158896774850938e-03,1.010739619523015609e-02,-6.788271723951758369e-04,-1.674709627124737477e-03,8.581738249839118704e-02,5.582888690380725071e-03,5.906201702992175395e-02,5.191362075497769207e-03,2.300717534268455731e-03,-1.826000019933965435e-04,6.178155123557601061e-04,6.648113222876181339e-02,-1.558640944323878884e-03,2.202730341519248611e-02,5.078817538642647206e-03,3.004323875589212070e-04,6.850466459214683140e-03,4.730155524361083301e-04
2.194030178004927664e-03,2.112419672841580774e-05,1.437866576101059536e-02,-1.864281519854115235e-03,2.484879619334089476e-02,1.102928491879796207e-03,-2.802119801930616147e-03,1.640798090454417477e-02,-9.520340134623351278e-04,7.697856181343382120e-02,-1.437673381200303734e-03,1.483316337177491111e-02,-2.252139079370730265e-03,2.456575997043504520e-03,1.074053402902441223e-01,-3.328690402996430792e-02,7.329013751692232959e-02,3.189286552242940470e-02,1.436027869829999831e-02,2.431345075367778719e-02,1.680735555337558532e-03,4.874022027247135874e-02,8.630112200415002155e-02,0.000000000000000000e+00,3.884703835597287658e-02,4.272626272901208083e-02,1.875169046528765010e-02,-2.583353142322493672e-03,8.478394539702260868e-02,4.341281718124474776e-02,-4.621035109516340861e-02,1.880536906470868866e-02,2.211510479071717231e-02,2.358093334799743826e-03,-1.646157798342792137e-03,7.748046030936575623e-02,1.152456315687414717e-02,1.082435774404019169e-01,9.935446069916989420e-03,4.187824348540795764e-03,2.472963991105154007e-03,1.159655234430557753e-03,5.976685624354645399e-02,3.004202825258112802e-03,4.077827215270998784e-02,9.642049737357896722e-03,5.641312785609300159e-04,1.295356814209462464e-02,8.836446701863773668e-04
3.165301545639713022e-04,-8.825576658117723677e-06,-1.542267875639035703e-02,-1.622758117347603349e-02,6.971254546707182642e-02,-1.296018484639554526e-02,-2.248480183284829945e-02,2.857512465681362815e-03,-9.347926438976223319e-04,-2.423471087021377909e-02,-1.778419490045535234e-02,-7.721527114437776694e-03,-4.296283782191265971e-02,-1.122291828914671365e-02,1.771980364404117034e-02,-2.879272910946330602e-02,-4.116279854578442504e-02,4.781118874981325068e-02,-1.413860218068506772e-02,3.033614567361354875e-02,-1.913349441118128783e-02,-4.804857863049753763e-02,-4.232393079284979542e-02,-1.320599355510367612e-01,0.000000000000000000e+00,3.825687307676193388e-02,-2.752765341722534023e-02,-5.074284607025675298e-02,-3.009470893084534478e-03,3.316869652708902619e-03,-1.385615861748122624e-01,-4.477938860891517679e-03,-2.383599794927888926e-02,-7.681896979701535733e-02,-3.722823150205106096e-02,1.324033936636532377e-02,-2.318555119646852243e-03,1.481915538016252525e-02,1.679855841303838637e-02,1.183951327937189310e-02,-5.817946709455699278e-02,2.463275102967398076e-03,1.038250325642389726e-02,-2.403933463963837426e-03,4.124279680443535510e-03,1.802596237978375954e-02,1.193517138962829800e-03,2.537349567463091995e-02,1.971998636955617137e-03
1.386239695703618405e-04,-1.048275001210357791e-05,-1.650649105865792388e-02,-1.523020582113579491e-02,6.997116898832723975e-02,-2.056208984518680116e-02,-2.944879407786206785e-02,1.524746119122409203e-03,-8.538536386307276314e-04,-3.031080093733118028e-02,-1.771103470217608167e-02,-3.096321384944996855e-02,-6.036397998399339881e-02,-1.978780159748096124e-02,9.000244113906485932e-03,-2.598103857753800844e-02,-4.686287100482503659e-02,4.003569058576017525e-04,-3.979920406157193974e-02,1.262821222611686459e-02,-3.042564106650682762e-02,-5.174229338782981164e-02,-4.906476171420126597e-02,-1.314402587438439907e-01,-6.543963624122690892e-02,0.000000000000000000e+00,-6.533437679853988655e-02,-7.139624543581361837e-02,-9.812785183894267085e-03,-1.894979568381659424e-04,-1.341956491772317572e-01,-3.674783284577868431e-02,-6.433179887460664659e-02,-1.163610528102696495e-01,-5.270979046915232058e-02,6.948044309315948297e-03,-3.234360083872553360e-03,6.045804582379007974e-03,2.280338396845452142e-03,1.192611122948109177e-02,-8.903388803690498454e-02,2.100659362354895601e-03,5.527960589380648618e-03,-2.634219760292998841e-03,8.259658748344646468e-04,4.164079016071980770e-03,1.014851025994151917e-03,2.030733952767783956e-02,1.740745286709863672e-03
1.218515041727424641e-04,-9.015799405638847070e-06,-1.421663455903825202e-02,-1.314365572959155619e-02,6.110479397585710098e-02,-1.315309871169411185e-02,-3.084809520658451931e-02,1.332060515553257565e-03,-7.372039326772024739e-04,-2.605224083073243851e-02,-1.527032552510353483e-02,-2.603340993593389330e-02,-5.366163858975362549e-02,-8.833592989856687422e-03,7.874068886056897684e-03,-2.243620983419389314e-02,-4.032735923617900703e-02,9.683448996981036672e-04,-3.364591989014028423e-02,7.657823528492563314e-02,-1.932899866197938799e-02,-4.456046900490488044e-02,-4.221201383133542373e-02,-1.133278452638317169e-01,-5.555786842393886649e-02,1.664628584868399616e-03,0.000000000000000000e+00,-6.324861149228000468e-02,-8.370554592218809251e-03,-1.172847536046448035e-04,-1.157526152206000969e-01,-3.125755449066363462e-02,-5.442831258647917725e-02,-8.507794151590403198e-02,-4.597906432433149920e-02,6.072883868214752102e-03,-2.776428559636898944e-03,5.327640035866373913e-03,2.156799119445490433e-03,1.041304772897797860e-02,-6.326473369412133341e-02,4.831228841257146321e-03,4.829676863344805997e-03,-2.268035172925054761e-03,7.554509334265956328e-04,3.772217243706657737e-03,8.941918060978272867e-04,5.148178742548339959e-02,3.791533834021202070e-03
1.741551534446386841e-05,-7.220789741419228285e-06,-1.077401767107120413e-02,-9.160565977876521798e-03,2.069197104476515336e-02,-1.631987592445766772e-02,-5.235830041791388750e-02,4.353798519573829576e-04,-5.037936094678221229e-04,-2.138068884798610333e-02,-1.107729608231309421e-02,-3.906886136097356688e-02,-4.568276458925314698e-02,9.565441374644616246e-02,2.236858899162611544e-03,-1.519310854846623628e-02,-3.161291469039800156e-02,-1.827291807757653458e-02,-4.476819511752542363e-02,-1.163094491784089188e-04,8.386773451184606487e-02,-3.388869767857196486e-02,-3.340026866942185507e-02,-8.217880778837755029e-02,-6.660260572198616058e-02,-4.948078085803068321e-02,-5.804112314556546942e-02,0.000000000000000000e+00,-8.811339008187061769e-03,-1.488805367219104463e-03,-8.244289516933751838e-02,-3.565131897809779848e-02,-7.109332024808821815e-02,-9.077877401965817050e-02,7.871011518663406301e-03,1.898367166943902692e-03,-2.385953387289888213e-03,3.632313022889188778e-04,-4.242529271176079080e-03,3.581797313295457565e-03,-6.973084474970599189e-02,3.267248527840970612e-02,1.569636187964888567e-03,-1.741789271020858197e-03,-7.707596107381944851e-04,-2.804872565387087329e-03,6.417795282227185317e-05,1.042028674774905621e-02,2.474327423612025442e-02
1.201285936275102656e-03,-6.422428972454509596e-06,-5.969213222504555702e-03,-2.469333588770949300e-03,7.543854686724197124e-06,-1.548449325562745301e-03,-1.152050807044533581e-03,8.686897904189116656e-03,-8.153890815116126949e-04,-8.974506658197151446e-03,-3.114829645350987442e-03,-1.513926602103667128e-03,-3.507158586062418017e-03,-1.529750413940784504e-03,5.746025066426638239e-02,-2.528286958638567561e-02,-1.567148956096514265e-02,-1.054287310693334014e-02,-1.670740912402766606e-03,-3.776850640315649460e-03,-1.987068522320593281e-03,6.003424014140765902e-02,-3.143501672526133328e-02,-5.203026139359166052e-02,-2.621902905410958967e-02,-2.498801451067325999e-03,-7.804584372433933347e-03,-3.526187254863956400e-03,0.000000000000000000e+00,7.479819362012783690e-02,-2.868912256547653458e-02,-4.655000227665312407e-02,-8.364553065744696411e-03,-8.057097158814511065e-03,-5.027769779996114213e-03,1.242215808995267984e-01,-2.547952944655475227e-02,3.560286500397170234e-02,-9.669662685210529685e-03,-1.022163510613945018e-05,-6.283604240856843944e-03,-1.291096544310830823e-04,9.713622442175430527e-02,-3.214421992972340408e-02,1.326377113054878071e-02,-8.041976793226818590e-03,-4.000071850049903658e-05,-9.664329105088121513e-04,-8.370249136197395554e-05
9.389564327383108019e-04,-2.095494823779308146e-05,-1.569673613336168214e-02,-5.185773256854175374e-03,-1.474623754498754862e-04,-3.311398911173487475e-03,-2.414598749887847135e-03,6.766862906679670803e-03,-1.743829849543156217e-03,-2.914650067485852897e-02,-6.556771923379355049e-03,-3.342892306409233575e-03,-7.434161726306278035e-03,-3.206259868082414043e-03,4.480789225300986500e-02,-5.312096869075191852e-02,-4.477106555211102235e-02,-2.281280369157013058e-02,-3.675921357165581362e-03,-8.377272268863047988e-03,-4.164760960381831342e-03,4.951271953058098557e-02,-9.825408466072578506e-02,-1.242617826613649640e-01,-5.605067125191979388e-02,-5.637724767648114553e-03,-1.687357093988064646e-02,-7.390617584346966147e-03,5.467262291654226974e-02,0.000000000000000000e+00,-1.064157660921533632e-01,-9.937015660405615347e-02,-1.816116703135535471e-02,-1.744980963207914265e-02,-1.068217706256475302e-02,1.009466677474607083e-01,-1.099340701506125173e-01,3.856902665213124415e-02,-2.097606269874969023e-02,-8.499554520101215282e-05,-1.362612395473965579e-02,-3.048484647436098399e-04,7.840760005952843170e-02,-9.049745685239535264e-02,1.353787995922018511e-02,-1.752163587229695757e-02,-9.376838770008132258e-05,-2.438657644236591482e-03,-2.009844397420250189e-04
5.630388631950466625e-04,-7.914736391494074513e-07,-1.011969894434431097e-02,-6.239578331363820028e-03,2.754893436843771997e-04,-3.819160427456866607e-03,-2.918551988321788689e-03,4.041507530856141769e-03,-3.537315359143892329e-04,-6.504524982749043845e-03,-7.846434922973450493e-03,-3.568633137227557317e-03,-8.753819221540911841e-03,-3.875342970902145943e-03,2.679527343665438419e-02,-1.123072021406261445e-02,-2.097639446425668755e-02,-2.558476473626637021e-02,-3.959053259943617550e-03,-8.843716326076486722e-03,-5.033888387405940912e-03,3.150922616510783841e-02,-5.065093680026325727e-03,-1.079264130787732229e-01,-6.469817687476618617e-02,-5.701541503444602053e-03,-1.896178453769982800e-02,-8.933024963695119711e-03,7.121090608240450426e-02,7.664588368138480767e-02,0.000000000000000000e+00,-1.150927377762214765e-01,-2.020145455620122807e-02,-1.952769743095990676e-02,-1.251036550680547157e-02,6.323926333479008843e-02,4.264549873855272288e-03,1.468039882136094876e-01,-2.338292662469584546e-02,7.392782143469012364e-05,-1.520219695521420750e-02,-2.733064128456607223e-04,4.876204696585891007e-02,-7.934880372166386309e-03,5.599626480278690338e-02,-1.932684577429794395e-02,-8.574298020738594164e-05,-1.799655129279516394e-03,-1.719264961184240189e-04
4.535355233554991023e-04,-9.926899504417835939e-07,-9.460379455496790990e-03,-9.088987899578657853e-03,1.738649800436550472e-02,6.301854071474656017e-04,-4.749408599114774386e-03,3.255978252616394467e-03,-3.058071468407011734e-04,-8.040431016601141262e-03,-9.826676058810513217e-03,1.181139101801509210e-02,-5.586902685509845430e-03,-6.302733774981252382e-03,2.158617639574158392e-02,-9.668560763827311819e-03,-2.086782373391415923e-02,3.262902021077884046e-02,1.162834773502921526e-02,3.346635596533260870e-02,-8.187853879903859988e-03,2.532623820060676822e-02,-5.704382995887827962e-03,-9.645825735827243119e-02,8.608411256543281251e-03,3.226525405698549981e-02,2.265675796778950438e-02,-1.453329403688375689e-02,5.620226843153888763e-02,5.942739248611961234e-02,-1.094289322472246154e-02,0.000000000000000000e+00,3.246074197404740652e-02,2.661102282984202649e-02,-5.377395323467182818e-03,5.085843228864864174e-02,1.318096216157954755e-03,1.177898855175605192e-01,3.553078341724809353e-02,6.715321979765577487e-03,2.259138013334197059e-02,3.107942083121371588e-03,3.922584791664539272e-02,-7.789175025607497638e-03,4.480855832121492799e-02,3.767686361051225674e-02,8.906540567528358843e-04,3.992663124585880963e-02,2.370937797717197464e-03
2.955540764883018268e-05,-2.559789646861530300e-06,-9.811688854368472504e-03,-5.175245884390979913e-03,4.809686819931870139e-02,-1.485498855868088580e-02,-2.546336431305662104e-02,2.156134955374223452e-04,-1.665622723013179503e-04,-2.020212763175755974e-02,-6.449393551623970773e-03,1.639396491094992012e-02,-5.301690717852554358e-02,-3.380111839864351903e-02,1.422270233181968527e-03,-5.000385927471965100e-03,-2.925865255285782854e-02,-1.866465804870742415e-02,1.420781437009201002e-02,5.194546249166825946e-02,-4.390848919944766171e-02,1.264897451169552742e-03,-1.178388335625059867e-02,-7.318340326249676842e-02,-4.990115728720891097e-02,6.232577162420083194e-02,-2.107409577777634782e-02,-7.792795322402089331e-02,-4.480734109472434695e-03,-1.236977869776643459e-02,-7.759282434083018820e-02,-8.933002567119852078e-02,0.000000000000000000e+00,-1.285994711134972462e-02,-6.873532307985619205e-02,2.740560889616620779e-03,-1.478756966182055016e-02,4.424981881414401241e-03,-1.684957835430171344e-02,1.843604949697290676e-02,-4.953685575761124747e-03,7.199433972996100231e-03,2.186328039371175560e-03,-1.032592532059028664e-02,8.320307414492339199e-04,-1.362294811853990290e-02,2.031001296286981655e-03,9.990709366400929436e-02,5.650707896666486325e-03
2.806708294956128304e-05,2.287381735794635892e-07,4.839100920088620569e-04,-2.949292522559515887e-05,4.778086603343829897e-02,-1.393269414228177211e-02,-2.658003054654751313e-02,2.010973306504488774e-04,-1.871924934160800153e-06,1.790914805447630688e-03,6.744319121433472845e-05,4.906311840993880791e-02,-5.335130257795698411e-02,-3.528258181717055381e-02,1.334051484992632153e-03,-9.008778653057127040e-05,1.953116817837601427e-03,4.437164437394297382e-03,5.027322980472164610e-02,6.522626535579281737e-02,-4.583315356579872879e-02,1.612151995525840618e-03,9.741745720510119888e-04,1.810610417030759358e-03,6.401293333743071981e-03,1.161354728915426071e-01,-9.695202749910404594e-03,-8.134457285530020954e-02,4.425111964893833037e-03,5.566607964696986682e-03,8.263625838164811999e-03,1.038875332554405062e-02,1.807874629672636402e-01,0.000000000000000000e+00,-6.830543067931449386e-02,3.214099145867963317e-03,1.811299822451457354e-03,7.667515426871664500e-03,4.427644636287491990e-03,1.859834655119932748e-02,5.710546990615417325e-03,8.331941951169638538e-03,2.470511713377078651e-03,6.598019906034228652e-04,3.015807382097254134e-03,4.201474141454618165e-03,2.889098970724094089e-03,1.141410623572922944e-01,6.507927699454811934e-03
4.966216238742211583e-06,3.094363190672049420e-08,5.050438918301617991e-05,-2.272212539951879245e-05,8.446845763815461969e-03,-9.029908709523918470e-03,-4.443768450815485660e-02,3.559546063835764495e-05,-8.912578476127020501e-07,2.417294916524341671e-04,-1.025289757426187676e-05,8.561262053961070026e-03,-2.402061504633368205e-02,-5.895897150502343170e-02,2.361078019924441832e-04,-3.263174570815267076e-05,2.390327597491000286e-04,7.057092066853657645e-04,8.763605846529914575e-03,-5.781737456323626789e-03,-7.659636278490090933e-02,2.837832501636192747e-04,1.287850279038887751e-04,6.486977586383719846e-05,9.399211756264592597e-04,2.034507320628583388e-02,-3.560283530606630359e-02,-1.359683042907151029e-01,7.518820394545446071e-04,9.229261409978064407e-04,1.168547581404029553e-03,1.497018248013714950e-03,3.134093775825107925e-02,-3.511602351464628707e-02,0.000000000000000000e+00,5.665145620544362543e-04,2.636869724478864939e-04,1.344280937537968698e-03,7.102348645756401558e-04,3.286901101026865751e-03,-2.645146984340148236e-02,4.101108483137521493e-02,4.357219617643061870e-04,7.924690093580085001e-05,5.256451498812137087e-04,6.820053521125673613e-04,5.077588613943212958e-04,1.447583073711718876e-02,3.108602603760443617e-02
9.302547295178194590e-04,1.831713037284898619e-06,9.549877267710825748e-04,-1.819990659735712141e-04,4.185053120475503048e-03,3.113922845110633254e-04,-1.248532296261776835e-04,6.688218560441647198e-03,-3.612260552840732724e-05,3.700202056962128682e-03,-1.168997986366493463e-04,4.217691274716351205e-03,3.762056298646559906e-04,-1.631148344009915622e-04,4.432035617765553437e-02,-1.398576061560061201e-03,3.960922305514515129e-03,4.136141962432756183e-03,4.315462533140630545e-03,2.257524205081368456e-03,-2.125310546846908189e-04,5.084358428039734840e-02,7.701696564397075145e-03,3.197707511692954654e-03,5.297175381404272201e-03,1.004033548059924535e-02,2.483448018921245726e-03,-3.795577795903894614e-04,9.196884718671227699e-02,5.020346182424106213e-02,1.723430041899749396e-02,8.353565253456004744e-03,1.539544872307095635e-02,2.714926090096614949e-03,1.033989430439447542e-02,0.000000000000000000e+00,1.489587030886997676e-01,5.106619134775265689e-02,3.305588918837947671e-02,2.599029681225309071e-02,2.155501828351988336e-02,1.210758067617104076e-02,2.141440719340062179e-02,5.789067986046823183e-02,1.847977047077575471e-02,3.171755423594109502e-02,3.445679148586228927e-03,2.031601355896674524e-02,9.097601186516828323e-03
6.421967729004777114e-04,-1.028493505955930581e-05,-7.098390683062562670e-03,-4.145556742724330716e-03,4.964769850725024233e-03,1.056161639669392013e-04,-2.053211181697511302e-03,4.610132123087458053e-03,-7.807857148995912258e-04,-1.315340867371829481e-02,-5.115821761270175801e-03,2.937996143080579946e-03,-1.568069460847733515e-04,-2.723103669336695166e-03,3.056437152192483311e-02,-2.366570249171925239e-02,-2.022891635446957825e-02,-1.275454919926398770e-02,2.840866761898395553e-03,2.060327830272156834e-03,-3.537969255991031941e-03,3.589115205907863343e-02,-4.787098879549845504e-02,-5.625544425303172918e-02,-3.674051162463533998e-02,8.494230012963718823e-03,1.632194400675810678e-03,-6.281295753167256100e-03,8.020921333065662850e-02,-1.999746421891484063e-02,-4.797128556935138788e-02,-6.628813219972148896e-02,6.871127676905769595e-03,1.866872253538816783e-03,4.290803479878357689e-03,5.487578799165433729e-02,0.000000000000000000e+00,-4.942334953638809897e-02,-5.975174010533752800e-02,1.302036082800169838e-02,9.335363402128735860e-03,2.239019047668763980e-03,5.102572258361248031e-02,-5.001286096874666548e-02,-4.782308407066765410e-02,-4.525009653520005448e-02,-8.051152459171888667e-03,2.157981954232869246e-02,2.721085625803612747e-03
5.313712925457744892e-04,-3.446864649028519141e-06,-9.555848055579447761e-03,-6.688803833563135293e-03,1.395302831870048367e-02,6.299096381029054784e-04,-3.364827869695637911e-03,3.810605363505533728e-03,-3.490871600601841689e-04,-1.481520217972270327e-02,-8.092992796792191496e-03,1.086502997386761503e-02,3.208369259724409926e-04,-4.458950481310751390e-03,2.527190593911374933e-02,-1.073242034235041310e-02,-2.537560001665951220e-02,-1.354486854114273636e-02,1.086115523625387838e-02,6.570441352758575604e-03,-5.794160437309596977e-03,3.014044924174279216e-02,-1.645452508258617857e-02,-8.227799896182506900e-02,-4.892938908685963428e-02,2.818648409540325250e-02,6.246227389274676758e-03,-1.029027004375222473e-02,7.572703749359380176e-02,1.657324958828888459e-02,-4.843052042350124570e-02,-9.008270886206565242e-02,3.369597064672501946e-02,6.956182855030620948e-03,2.212945534490243227e-02,7.612666496029628360e-02,7.433293710617305816e-02,0.000000000000000000e+00,-4.296373852458621606e-02,5.908366762229273761e-02,4.673655397368882414e-02,2.160173377859599120e-02,6.250954370725921028e-02,7.682458476697773785e-03,-4.633551421172919099e-02,-2.252392024950049601e-02,-7.299571557959139319e-03,6.383165712776911471e-02,1.783909171700672619e-02
3.481636244813268591e-04,1.411174390652943652e-07,-5.512568341941505735e-04,-7.394565276721231512e-03,2.070636146962625754e-02,1.104735013098019983e-03,-3.766074345425312817e-03,2.494904695158280377e-03,-8.799296438898267356e-05,2.520602593272189447e-03,-8.803547758772506740e-03,1.745443766229506227e-02,8.646691213428105670e-04,-4.987425867065511595e-03,1.655010645877759770e-02,-2.838197385788591813e-03,7.029910010239032170e-04,-8.722471999771897952e-03,1.758598642721285674e-02,1.014857754752736263e-02,-6.481679333760479063e-03,1.995854785799789852e-02,1.925535012025483882e-04,-1.238767000990158643e-02,-4.489311998105895152e-02,4.403007845280798582e-02,1.011593212562491434e-02,-1.151421084352345636e-02,5.405346363521095626e-02,2.655531961757218867e-02,1.605357834829319527e-02,-8.459306147255243880e-02,5.734462332774640375e-02,1.119523210285433903e-02,3.797839423888652033e-02,6.443890476503012776e-02,8.393242705737191667e-02,7.765413365123240153e-02,0.000000000000000000e+00,9.915583648063952538e-02,7.981693436613385151e-02,3.986809649343243944e-02,5.057300174972510082e-02,2.828654077950133738e-02,1.838674635528346132e-02,1.996734362496537310e-02,-3.012256718423214630e-03,9.635079876801209975e-02,3.167330404509611369e-02
1.161225690231909764e-04,-8.108903908880006642e-07,-2.225419121952427505e-03,-6.531456561682007916e-03,2.843170224698827325e-02,-4.994267171089348135e-04,-1.973302985051580971e-02,8.327908406443679462e-04,-7.966758499261727608e-05,-3.531315767747457771e-03,-8.091225058053186023e-03,8.178637534405605591e-03,-3.422635854810380726e-03,-2.618352621023577534e-02,5.522968463805518792e-03,-2.446127003776557823e-03,-5.961655881757169616e-03,-2.145066587561470992e-02,6.730281139606175862e-03,9.212707354813373661e-03,-3.401571658905858803e-02,6.581661790062225646e-03,-3.859445400543049225e-03,-1.897782732997987942e-02,-5.988037593230119415e-02,3.434110275186028072e-02,3.846770106010044717e-03,-6.038028096332609396e-02,1.644237288094353017e-02,3.244813219492586037e-03,-1.173145793124704198e-02,-1.076902020782342789e-01,-8.341924080291418173e-03,5.023559772823957964e-03,-8.814196614773251240e-03,1.628655052792177954e-02,1.539812512982098418e-02,-1.865141955772931133e-03,-1.044390906611710745e-01,0.000000000000000000e+00,-1.450296401487571885e-02,-3.793145660171479833e-02,1.342949114052375409e-02,1.120375875225407400e-03,-1.129669779400208421e-02,-8.102123441556685624e-02,-9.692066993491706139e-02,1.130266767346830847e-01,-1.820523916761688371e-02
6.682142973646145226e-05,1.704592508086518511e-08,-1.296863912076477428e-04,-1.466766915593844438e-03,1.715977872117069314e-02,-3.188428719411613710e-04,-2.179467640211697060e-02,4.788433083170124467e-04,-1.747681813906747968e-05,4.326150979063275942e-04,-1.749937417786086129e-03,1.290037057967140938e-02,-3.485813059446909567e-03,-2.891721284974521286e-02,3.176420658006735148e-03,-5.622662757516447849e-04,6.242721204165400093e-05,-1.890998642184875443e-03,1.284796619100581072e-02,1.180261271239506360e-02,-3.756758366017184936e-02,3.829673007383755084e-03,-8.950974523308161124e-06,-2.551208268771924109e-03,-9.141542514188347179e-03,3.390067504472385473e-02,6.068360932710437604e-03,-6.668679609837606381e-02,1.035567428618524612e-02,5.030977247462765402e-03,2.881185279080492306e-03,-1.716542229360202426e-02,3.889347270128734602e-02,7.533877514219433982e-03,-2.042492030168063712e-03,1.230655378539764755e-02,1.596139130066836706e-02,1.457894717204619162e-02,-1.221936427963399383e-03,6.868089236075140824e-02,0.000000000000000000e+00,-3.275745589836873833e-02,9.666016436227794703e-03,5.331630883029522296e-03,3.324961401605021349e-03,2.806373711370358046e-03,-1.169064859991161658e-02,1.393396217180847829e-01,-1.328998597408460706e-02
1.894248220005410944e-05,-7.958477248292115843e-08,-2.376384277899233621e-04,-8.157806230733840105e-04,4.724971882522552985e-03,-9.271660664208852777e-04,-2.968368334788032067e-02,1.358078668649418308e-04,-9.905388515244011570e-06,-3.075375446949898299e-04,-1.003285385896368490e-03,2.226823181160921938e-03,-2.847021172939940507e-03,-3.937514137562345834e-02,9.007474185807051725e-04,-3.069316601883456479e-04,-5.919581058201512118e-04,-2.360408838378082273e-03,2.075648384411372342e-03,1.139093408249650758e-03,-5.115617994700515786e-02,1.078244404064596790e-03,-3.885986637859379267e-04,-2.183974253864645002e-03,-7.009991950024195735e-03,7.142281492871984001e-03,-2.598429469577204567e-03,-9.081643437969466603e-02,2.779565564393078614e-03,8.739812646018322185e-04,-8.643651847480651219e-04,-1.268591663372444639e-02,3.399339307901058736e-03,-2.339430800447937948e-03,3.478012280485816288e-02,2.976449660957412001e-03,3.285388569066981235e-03,1.400944572050608159e-03,-1.062246443600274419e-02,7.482283241926602178e-03,-5.188750792129559475e-02,0.000000000000000000e+00,2.401833489763428517e-03,6.933673579746218053e-04,-7.723538587175497955e-04,-7.831636242412710891e-03,-1.100784159509881482e-02,2.869987106964425744e-02,1.518737914375276749e-02
7.502913783890997196e-04,-2.164272227681882614e-06,7.384021695384336212e-04,-3.732031021995316179e-05,1.521608812569692770e-03,3.366531038882172465e-05,4.291825907162070616e-08,5.387901273838899101e-03,-1.763195011302165103e-04,2.619836405170218509e-03,2.301493520919387632e-05,1.483253018256917594e-03,4.241677669606500251e-05,2.791229264988571217e-06,3.571709559344184853e-02,-5.365098306330020814e-03,2.907774280795873221e-03,2.896982311954927371e-03,1.513618937989741429e-03,2.361255497125968196e-04,2.957203586737702509e-06,4.173112998590594591e-02,-1.013008108228542585e-02,3.018495799621978819e-03,4.101026129479531934e-03,3.567404958787205160e-03,2.636465310823797093e-04,2.784153240640437542e-06,8.945974660081697227e-02,-1.008308355233553154e-03,1.197890583221271517e-02,6.627169738982811170e-03,5.320491692659950339e-03,2.877143204969181251e-04,1.114059662688851246e-02,5.016199469007392303e-02,1.021902755873280860e-02,3.393584788047578071e-02,2.234462171812338915e-02,9.016493750058139287e-03,2.317944165889213991e-03,1.323244167726192813e-02,0.000000000000000000e+00,-7.741845025323167151e-02,3.677573885164198142e-02,2.775664191109539214e-02,2.478098650518548857e-02,1.615639460166577029e-02,1.567834087891352077e-02
5.888824991085434392e-04,-1.629317327611436317e-06,1.554077451491541265e-03,-3.216630704377628713e-06,2.878124694576854065e-03,6.362223854982103203e-05,2.177842703703909244e-07,4.221936236219396392e-03,-1.888011398553936476e-04,5.286569256610858074e-03,1.285658726966152222e-04,2.885337429680713290e-03,8.029536071140170944e-05,5.445136542969449923e-06,2.800214846669028812e-02,-5.835462404790607745e-03,5.973943158889843778e-03,5.769318686167391845e-03,2.951004476830663189e-03,4.456299336803836168e-04,5.812439334668164357e-06,3.352586252502703923e-02,-7.889874769533506207e-03,6.867382424956266357e-03,8.475436719427688684e-03,6.879693122233055368e-03,4.978785195599791250e-04,5.668952237587012168e-06,8.652666940907929871e-02,1.416809430976486567e-02,2.394233550082133788e-02,1.381023099204210271e-02,1.050366346228090442e-02,5.432892354105648162e-04,2.100839945652836077e-02,9.291153212161094854e-02,5.536547780602976698e-02,6.619435114043138724e-02,4.386189230428285540e-02,1.774255752162488473e-02,4.379601293346520145e-03,2.495329035130253517e-02,9.679202070719597484e-02,0.000000000000000000e+00,7.162325560454017859e-02,5.410357937841175913e-02,4.750812615422000951e-02,3.061961306474551142e-02,2.958164457388472515e-02
4.266766105040383471e-04,-4.765191064909131061e-07,-9.459560138671743029e-03,-5.665447602117342635e-03,6.957686717320958961e-03,1.584827811744563301e-04,-1.094461549588939411e-05,3.058129845330048290e-03,-9.550869939980061478e-05,-1.502741027041634703e-02,-6.829696420552232479e-03,2.771934313139670864e-04,1.887362276277300909e-04,-7.362428675000216585e-07,2.028501836731926369e-02,-2.997742457033945700e-03,-2.535197768190310466e-02,-1.037783021959497870e-02,-2.551492541419037355e-04,1.161406482100986546e-03,-4.329301603297634870e-06,2.439089287143092824e-02,-2.497028735014761389e-03,-8.063056179752160768e-02,-3.983254626541312543e-02,5.551574437935417189e-03,1.271539250937741639e-03,-2.011361176807828228e-05,6.479750667354620963e-02,1.487131992897276593e-02,-4.996108187395517652e-02,-7.367470375396344140e-02,-1.155184348421076090e-02,1.390850588718811230e-03,5.616505453256427638e-02,7.422631118030890984e-02,5.045294879855674597e-02,-8.316771816868828368e-03,-2.807310308031387910e-02,-1.486939729083540732e-02,1.098986002500022471e-02,6.669550925526020191e-02,8.261751137983040782e-02,4.188561690189272074e-02,0.000000000000000000e+00,-3.721322181907993441e-03,6.153642843623170766e-02,6.900147306939792557e-02,7.772192383745170352e-02
4.120831733287083111e-04,5.853617024038505145e-07,-5.392876845374095602e-04,-7.304524654010906802e-03,9.225496708636924878e-03,2.099674775039531030e-04,-1.409115104242993777e-05,2.952216686203176874e-03,-3.092206766951488198e-05,3.899565182042991161e-03,-8.793858891986949464e-03,6.132383084409596214e-04,2.504505856116000001e-04,-4.663495110154717085e-07,1.958524264341450494e-02,-1.067898714510258969e-03,1.608131058151499081e-03,-1.286812240130324851e-02,-6.726706822096639726e-05,1.536873052137867823e-03,-5.066167841784587566e-06,2.370462618973445332e-02,2.370087915677700219e-03,-1.536442465050468636e-02,-5.060296166559813402e-02,7.767499234688704859e-03,1.683496171026883014e-03,-2.542898396181745172e-05,6.570660892191575175e-02,2.120312978157366454e-02,2.371073752540903135e-02,-9.376125343167568404e-02,-1.396190315178151391e-02,1.841346495628924836e-03,7.427436854905652974e-02,8.194572839135055853e-02,6.408077270417847360e-02,1.089527953588457498e-01,-3.230400039958860464e-02,-1.759717020435888277e-02,1.455716638835271096e-02,8.820069279004254248e-02,9.833664421627255625e-02,1.026609650115566374e-01,1.208970039390244583e-01,0.000000000000000000e+00,8.354939224098945072e-02,9.167615522140236395e-02,1.028270462524578238e-01
5.218724092791029083e-06,-2.836238550501982455e-07,-2.399722367944886331e-03,-3.651142888982363867e-03,9.631602400850208454e-03,2.268675425474424464e-04,-3.348022375699576542e-05,3.775426532349400151e-05,-1.745997062894760486e-05,-5.075857401627199839e-03,-4.624164456877090032e-03,-1.031878807549791062e-02,2.526845441690792993e-04,-2.322900090541883753e-05,2.496957950728650490e-04,-5.221551978095918985e-04,-7.242599877849873261e-03,-1.639945665512725081e-02,-1.215999497945306068e-02,1.742168042284394404e-03,-3.536301134775919207e-05,2.590154885486196630e-04,-1.300969976454097610e-03,-1.759372818392673440e-02,-3.996041270847097704e-02,-1.001888870385501777e-02,1.868780405547959371e-03,-8.188063219371898721e-05,-3.781180257042462273e-05,-1.635510852190220693e-03,-1.973056628050139094e-02,-7.077336407118167694e-02,-7.502321627619856770e-02,2.049178254151730067e-03,8.634421648209972266e-02,-1.817565462495012059e-03,-3.462083115933932507e-03,-3.118289951931103865e-02,-9.187527526478808659e-02,-1.128790843249654341e-01,1.585644832375996890e-02,1.025098209103856572e-01,-3.916587123458600134e-03,-1.601540336656472052e-02,-3.212050676940004373e-02,-9.338036917625408551e-02,0.000000000000000000e+00,8.749887733387946842e-02,1.175144034082351574e-01
1.877424782657940367e-08,-2.184516915919366340e-07,-1.796343365150035150e-03,-2.671762965614716493e-03,-1.478713659207723337e-03,2.320424490981261583e-04,-1.756154140951560378e-04,4.097464619373011424e-07,-1.281444736103223451e-05,-3.847286705953996758e-03,-3.388108663894800598e-03,-1.640426857043084108e-02,1.196351043936471714e-04,-1.997491571110440788e-04,2.140985524661515287e-06,-3.818725177305156912e-04,-5.452156891561546481e-03,-1.218914574373610067e-02,-1.797763491368428376e-02,2.413793850370375693e-03,-2.676398419300061982e-04,-2.983777675748847488e-05,-9.990484080218914407e-04,-1.306205412355152841e-02,-2.951907914984836651e-02,-2.821821337851073211e-02,2.296930028811721650e-03,-5.050766276490783547e-04,-6.500585582193433784e-04,-1.428370764644910310e-03,-1.503585952385562419e-02,-5.224169417873230498e-02,-8.770103444521709646e-02,2.557664716302327640e-03,1.354888293991944326e-01,-2.139744575687216495e-03,-3.205239568575280092e-03,-2.443950833688204871e-02,-6.866414080788620089e-02,-1.377972347113916862e-01,1.720623944666452992e-02,1.606841367055228953e-01,-3.870537845302777710e-03,-1.299390294353731934e-02,-2.525636842421300626e-02,-7.009963827183030016e-02,-1.431775359413481052e-01,0.000000000000000000e+00,1.698430350838021075e-01
-2.629375866311997826e-08,-1.577229991931037244e-07,-1.296449574739173003e-03,-1.927625108718739825e-03,-1.156255188157178770e-03,-3.883163776928428489e-05,-1.602322989460043187e-03,1.028507328939260738e-08,-9.245772596721242380e-06,-2.777136723562592148e-03,-2.444499982768666077e-03,-1.192817771569948219e-02,-1.745719567943963086e-04,-2.092866186760326905e-03,-3.484352567639332035e-07,-2.755112997027204169e-04,-3.935222087985586203e-03,-8.796209944978837514e-03,-1.306570076282536144e-02,2.995859719055698036e-04,-2.727029944762533135e-03,-2.382724457609969264e-05,-7.212872860626820407e-04,-9.425985777906750740e-03,-2.130035298426004656e-02,-2.057786434490650046e-02,4.484669348420907407e-05,-4.870634462705331069e-03,-4.755295861851018490e-04,-1.032969471735180984e-03,-1.085434796492710727e-02,-3.769611225983714176e-02,-6.361848063303075784e-02,8.607716638876486339e-05,1.347070948077818686e-01,-1.552273064835008086e-03,-2.319561327285836819e-03,-1.764962581118325810e-02,-4.955487211827897670e-02,-9.999669699637048215e-02,-1.779286032759798495e-03,1.577700852785164642e-01,-2.803049157596363208e-03,-9.388209785261478896e-03,-1.824034531401957926e-02,-5.059405858298948733e-02,-1.048008459221563826e-01,-9.964132959261434719e-02,0.000000000000000000e+00
